{"learner":{"attributes":{"best_iteration":"0","best_score":"6.893874268376343"},"feature_names":["f_cycle_1","f_cycle_2","f_cycle_3","f_cycle_4","f_cycle_5","f_cycle_6","f_cycle_7","f_cycle_8","f_cycle_9","f_cycle_10","f_cycle_11","f_cycle_12","f_cycle_13","f_cycle_14","f_cycle_15","f_cycle_16","f_cycle_17","f_cycle_18","f_cycle_19","f_cycle_20","f_cycle_21","f_cycle_22","f_cycle_23","f_cycle_24","f_cycle_25","f_cycle_26","f_cycle_27","f_cycle_28","f_cycle_29","f_cycle_30","f_cycle_31","f_cycle_32","f_cycle_33","f_cycle_34","f_cycle_35","f_cycle_36","f_cycle_37","f_cycle_38","f_cycle_39","f_cycle_40","f_slope10","f_area","f_max","f_argmax"],"feature_types":[],"gradient_booster":{"model":{"cats":{"enc":[],"feature_segments":[],"sorted_idx":[]},"gbtree_model_param":{"num_parallel_tree":"1","num_trees":"51"},"iteration_indptr":[0,1,2,3,4,5,6,7,8,9,10,11,12,13,14,15,16,17,18,19,20,21,22,23,24,25,26,27,28,29,30,31,32,33,34,35,36,37,38,39,40,41,42,43,44,45,46,47,48,49,50,51],"tree_info":[0,0,0,0,0,0,0,0,0,0,0,0,0,0,0,0,0,0,0,0,0,0,0,0,0,0,0,0,0,0,0,0,0,0,0,0,0,0,0,0,0,0,0,0,0,0,0,0,0,0,0],"trees":[{"base_weights":[8.45261E-2,1.0943711E1,-1.7134392E0,5.806822E-1,2.3453195E-1,1.1176869E0,-4.0277E0,2.4288445E0,8.765366E-2,-3.0346708E0,-2.986714E-1,2.847304E0,-1.4922199E-1,-3.7621662E-1,6.828003E-1,-1.898367E0,-3.680671E0,-1.7715788E-2,2.9954681E0,4.8039675E-2,-3.3346213E-2,1.4897346E-1,-6.8696624E-1,9.9104244E-1,-4.748408E-2,-2.0880861E0,-7.8423816E-4,-3.8490124E0,4.6864938E-2,1.692822E-1,7.821175E-2,3.787911E-2,-1.407973E-2,-6.3262135E-2,-1.1255948E-2,8.32641E-2,3.448332E-2,-5.30529E-3,2.3253122E-3,-2.8456975E-2,-1.0690381E-1,-4.463327E-2,4.457445E-2,-2.3156665E-1,-1.3641694E-1],"categories":[],"categories_nodes":[],"categories_segments":[],"categories_sizes":[],"default_left":[0,0,0,0,0,0,0,0,0,0,0,0,0,0,0,0,0,0,0,0,0,0,0,0,0,0,0,0,0,0,0,0,0,0,0,0,0,0,0,0,0,0,0,0,0],"id":0,"left_children":[1,3,5,-1,-1,7,9,11,13,15,-1,17,19,21,23,25,27,-1,29,-1,-1,31,33,35,37,39,41,43,-1,-1,-1,-1,-1,-1,-1,-1,-1,-1,-1,-1,-1,-1,-1,-1,-1],"loss_changes":[3.298857E3,4.606372E1,9.5453644E2,0E0,0E0,8.892247E1,1.3644592E2,3.1710571E1,1.0747574E1,3.338562E1,0E0,1.2920471E1,3.514064E0,3.6927974E0,3.873835E0,7.9185333E0,3.0039093E1,0E0,8.106415E0,0E0,0E0,2.5717585E0,3.454227E0,1.2899075E0,3.7993833E-2,3.017807E-1,3.1832066E0,1.6296112E1,0E0,0E0,0E0,0E0,0E0,0E0,0E0,0E0,0E0,0E0,0E0,0E0,0E0,0E0,0E0,0E0,0E0],"parents":[2147483647,0,0,1,1,2,2,5,5,6,6,7,7,8,8,9,9,11,11,12,12,13,13,14,14,15,15,16,16,18,18,21,21,22,22,23,23,24,24,25,25,26,26,27,27],"right_children":[2,4,6,-1,-1,8,10,12,14,16,-1,18,20,22,24,26,28,-1,30,-1,-1,32,34,36,38,40,42,44,-1,-1,-1,-1,-1,-1,-1,-1,-1,-1,-1,-1,-1,-1,-1,-1,-1],"split_conditions":[3.336307E-3,8.2336046E-4,1.660937E-2,5.806822E-1,2.3453195E-1,7.105664E-2,5.3969824E-1,9.9467945E-1,1.7918393E-4,-4.309616E-5,-2.986714E-1,-4.121533E-3,-5.654124E-4,-2.2383263E-4,2.1573967E-1,9.996951E-1,2.5963184E-1,-1.7715788E-2,1.5889417E-1,4.8039675E-2,-3.3346213E-2,1.6553887E-3,-2.5493247E-3,9.467997E-1,-6.259581E-4,1.792562E-1,1.4749731E-4,9.840453E-1,4.6864938E-2,1.692822E-1,7.821175E-2,3.787911E-2,-1.407973E-2,-6.3262135E-2,-1.1255948E-2,8.32641E-2,3.448332E-2,-5.30529E-3,2.3253122E-3,-2.8456975E-2,-1.0690381E-1,-4.463327E-2,4.457445E-2,-2.3156665E-1,-1.3641694E-1],"split_indices":[16,16,11,0,0,16,14,36,2,3,0,5,4,2,17,39,11,0,18,0,0,11,9,33,5,15,0,35,0,0,0,0,0,0,0,0,0,0,0,0,0,0,0,0,0],"split_type":[0,0,0,0,0,0,0,0,0,0,0,0,0,0,0,0,0,0,0,0,0,0,0,0,0,0,0,0,0,0,0,0,0,0,0,0,0,0,0,0,0,0,0,0,0],"sum_hessian":[1.67E2,2.3E1,1.44E2,2E1,3E0,6.5E1,7.9E1,2.8E1,3.7E1,5.4E1,2.5E1,2.4E1,4E0,2.1E1,1.6E1,2.1E1,3.3E1,1E0,2.3E1,1E0,3E0,8E0,1.3E1,1.1E1,5E0,1.9E1,2E0,3.2E1,1E0,1.7E1,6E0,3E0,5E0,5E0,8E0,2E0,9E0,3E0,2E0,1E0,1.8E1,1E0,1E0,1.7E1,1.5E1],"tree_param":{"num_deleted":"0","num_feature":"44","num_nodes":"45","size_leaf_vector":"1"}},{"base_weights":[1.16462834E-1,1.0726613E1,-1.6873305E0,7.0949924E-1,4.0291792E-1,1.0518632E0,-3.7225516E0,2.4899423E0,1.1425537E-1,-2.209885E0,-5.0556407E0,-5.565834E-2,2.9553087E0,4.8199272E-1,-4.904588E-1,-2.4666564E0,1.0179768E-1,-1.1624862E-1,-5.3319426E0,5.8161974E-2,-3.2559633E-2,3.2638366E0,7.942974E-2,-2.4528377E-2,5.834797E-1,-6.6794425E-1,-1.668426E-1,-1.5458179E0,-3.1916618E0,-3.0294508E-1,-2.1755409E-1,1.675365E-1,4.6838667E-2,5.906683E-2,1.5928214E-2,-4.1224796E-2,-1.3912519E-3,-1.2192726E-4,-9.691843E-3,-8.762483E-2,1.0476367E-2,-2.3524307E-1,-1.2349232E-1],"categories":[],"categories_nodes":[],"categories_segments":[],"categories_sizes":[],"default_left":[0,0,0,0,0,0,0,0,0,0,0,0,0,0,0,0,0,0,0,0,0,0,0,0,0,0,0,0,0,0,0,0,0,0,0,0,0,0,0,0,0,0,0],"id":1,"left_children":[1,3,5,-1,-1,7,9,11,13,15,17,19,21,23,25,27,-1,-1,29,-1,-1,31,-1,-1,33,35,37,39,41,-1,-1,-1,-1,-1,-1,-1,-1,-1,-1,-1,-1,-1,-1],"loss_changes":[3.4247556E3,1.2592212E2,8.568699E2,0E0,0E0,8.8706894E1,1.6628125E2,3.0965057E1,9.353813E0,5.190103E1,2.2309814E1,4.3869705E0,4.091812E0,2.8524947E0,8.075535E-1,2.24384E1,0E0,0E0,2.8720703E0,0E0,0E0,2.986145E-1,0E0,0E0,3.4248257E0,9.7917604E-1,3.0593082E-2,7.6230507E0,1.2409241E1,0E0,0E0,0E0,0E0,0E0,0E0,0E0,0E0,0E0,0E0,0E0,0E0,0E0,0E0],"parents":[2147483647,0,0,1,1,2,2,5,5,6,6,7,7,8,8,9,9,10,10,11,11,12,12,13,13,14,14,15,15,18,18,21,21,24,24,25,25,26,26,27,27,28,28],"right_children":[2,4,6,-1,-1,8,10,12,14,16,18,20,22,24,26,28,-1,-1,30,-1,-1,32,-1,-1,34,36,38,40,42,-1,-1,-1,-1,-1,-1,-1,-1,-1,-1,-1,-1,-1,-1],"split_conditions":[4.4762106E-3,7.821501E-3,1.660937E-2,7.0949924E-1,4.0291792E-1,1.0808736E-1,6.801843E-1,4.6276468E-1,3.6559823E-1,2.5963184E-1,-6.928603E-4,-5.585105E-4,5.7742834E-1,1.8550572E-1,-2.1513035E-3,-4.309616E-5,1.0179768E-1,-1.1624862E-1,9.8332965E-1,5.8161974E-2,-3.2559633E-2,9.9551815E-1,7.942974E-2,-2.4528377E-2,8.4238246E-2,9.9603474E-1,2.7443116E-4,9.974274E-1,9.830432E-1,-3.0294508E-1,-2.1755409E-1,1.675365E-1,4.6838667E-2,5.906683E-2,1.5928214E-2,-4.1224796E-2,-1.3912519E-3,-1.2192726E-4,-9.691843E-3,-8.762483E-2,1.0476367E-2,-2.3524307E-1,-1.2349232E-1],"split_indices":[16,21,11,0,0,17,18,24,18,11,7,0,22,18,6,3,0,0,28,0,0,35,0,0,16,31,0,38,34,0,0,0,0,0,0,0,0,0,0,0,0,0,0],"split_type":[0,0,0,0,0,0,0,0,0,0,0,0,0,0,0,0,0,0,0,0,0,0,0,0,0,0,0,0,0,0,0,0,0,0,0,0,0,0,0,0,0,0,0],"sum_hessian":[1.77E2,2.5E1,1.52E2,9E0,1.6E1,6.5E1,8.7E1,2.5E1,4E1,4.2E1,4.5E1,4E0,2.1E1,2.5E1,1.5E1,4E1,2E0,5E0,4E1,1E0,3E0,1.6E1,5E0,2E0,2.3E1,9E0,6E0,1.9E1,2.1E1,2E1,2E1,1.5E1,1E0,6E0,1.7E1,7E0,2E0,1E0,5E0,1.7E1,2E0,5E0,1.6E1],"tree_param":{"num_deleted":"0","num_feature":"44","num_nodes":"43","size_leaf_vector":"1"}},{"base_weights":[1.2188095E-1,1.0154101E1,-1.6063285E0,6.775718E-1,3.779185E-1,8.749681E-1,-3.595874E0,1.9638696E0,6.364031E-2,-2.2049077E0,-4.810278E0,2.3069954E0,-1.4453372E-1,-3.5895467E-1,6.565014E-1,-2.5481205E0,1.606842E0,-1.1140491E-1,-5.0841956E0,-1.6458893E-2,2.4305518E0,4.5667697E-2,-3.1867206E-2,6.0063362E-2,-8.596181E-1,7.995771E-2,4.2420414E-1,-8.329926E-2,-3.1828976E0,1.3077545E-2,9.840444E-2,-2.882347E-1,-2.0322382E-1,1.378261E-1,7.17023E-2,-1.1399216E-2,2.4106218E-2,-5.695354E-2,-4.290414E-3,3.3373374E-2,-2.5967758E-3,-1.7717335E-1,-6.601912E-2],"categories":[],"categories_nodes":[],"categories_segments":[],"categories_sizes":[],"default_left":[0,0,0,0,0,0,0,0,0,0,0,0,0,0,0,0,0,0,0,0,0,0,0,0,0,0,0,0,0,0,0,0,0,0,0,0,0,0,0,0,0,0,0],"id":2,"left_children":[1,3,5,-1,-1,7,9,11,13,15,17,19,21,23,25,27,29,-1,31,-1,33,-1,-1,35,37,-1,39,-1,41,-1,-1,-1,-1,-1,-1,-1,-1,-1,-1,-1,-1,-1,-1],"loss_changes":[3.06776E3,1.2685596E2,7.485809E2,0E0,0E0,5.995003E1,1.3128625E2,2.1313416E1,1.025726E1,5.7732346E1,1.9793335E1,8.942978E0,3.188811E0,5.0865207E0,3.044219E0,1.5975784E1,1.4291735E0,0E0,3.6323242E0,0E0,3.8429718E0,0E0,0E0,1.8119484E0,2.2809334E0,0E0,1.7720754E0,0E0,9.424149E0,0E0,0E0,0E0,0E0,0E0,0E0,0E0,0E0,0E0,0E0,0E0,0E0,0E0,0E0],"parents":[2147483647,0,0,1,1,2,2,5,5,6,6,7,7,8,8,9,9,10,10,11,11,12,12,13,13,14,14,15,15,16,16,18,18,20,20,23,23,24,24,26,26,28,28],"right_children":[2,4,6,-1,-1,8,10,12,14,16,18,20,22,24,26,28,30,-1,32,-1,34,-1,-1,36,38,-1,40,-1,42,-1,-1,-1,-1,-1,-1,-1,-1,-1,-1,-1,-1,-1,-1],"split_conditions":[4.4762106E-3,7.821501E-3,1.660937E-2,6.775718E-1,3.779185E-1,2.1453569E-2,6.801843E-1,9.9467945E-1,2.104374E-4,2.5963184E-1,-6.928603E-4,-4.121533E-3,-5.654124E-4,9.716071E-1,9.467997E-1,-4.309616E-5,-7.3814705E-2,-1.1140491E-1,9.8332965E-1,-1.6458893E-2,2.5963193E-2,4.5667697E-2,-3.1867206E-2,9.6595377E-1,9.9603474E-1,7.995771E-2,7.353333E-2,-8.329926E-2,9.873988E-1,1.3077545E-2,9.840444E-2,-2.882347E-1,-2.0322382E-1,1.378261E-1,7.17023E-2,-1.1399216E-2,2.4106218E-2,-5.695354E-2,-4.290414E-3,3.3373374E-2,-2.5967758E-3,-1.7717335E-1,-6.601912E-2],"split_indices":[16,21,11,0,0,14,18,36,2,11,7,5,4,35,33,3,0,0,28,0,15,0,0,35,31,0,15,0,36,0,0,0,0,0,0,0,0,0,0,0,0,0,0],"split_type":[0,0,0,0,0,0,0,0,0,0,0,0,0,0,0,0,0,0,0,0,0,0,0,0,0,0,0,0,0,0,0,0,0,0,0,0,0,0,0,0,0,0,0],"sum_hessian":[1.75E2,2.5E1,1.5E2,9E0,1.6E1,6.7E1,8.3E1,2.8E1,3.9E1,4E1,4.3E1,2.4E1,4E0,2.3E1,1.6E1,3.7E1,3E0,5E0,3.8E1,1E0,2.3E1,1E0,3E0,1.3E1,1E1,2E0,1.4E1,1.7E1,2E1,1E0,2E0,2E1,1.8E1,1.6E1,7E0,8E0,5E0,7E0,3E0,9E0,5E0,1.6E1,4E0],"tree_param":{"num_deleted":"0","num_feature":"44","num_nodes":"43","size_leaf_vector":"1"}},{"base_weights":[6.921495E-2,9.642296E0,-1.4732224E0,6.637637E-1,3.6827332E-1,8.103644E-1,-3.3489623E0,2.3696125E0,1.5739861E-1,-2.103144E0,-4.485381E0,2.7597244E0,1.1923361E-1,-2.3473829E-1,7.37734E-1,-2.4581351E0,-3.3153868E-1,-4.7452555E0,-1.0676306E-1,2.9723258E0,-1.6047431E-2,4.4526007E-2,-2.1735096E-2,-4.846588E-1,6.5566605E-1,1.4265647E0,2.5708947E-1,-7.118898E-2,-3.1997957E0,9.871955E-1,-6.6010915E-2,-2.7405438E-1,-1.9228719E-1,1.8776429E-1,1.06351055E-1,-5.2501697E-2,-1.4030548E-2,-3.927374E-3,3.9556313E-2,8.076561E-2,2.8677402E-2,2.0989513E-2,-4.3594935E-3,-1.6763395E-1,-1.1197376E-2,1.2750626E-2,5.7312615E-2],"categories":[],"categories_nodes":[],"categories_segments":[],"categories_sizes":[],"default_left":[0,0,0,0,0,0,0,0,0,0,0,0,0,0,0,0,0,0,0,0,0,0,0,0,0,0,0,0,0,0,0,0,0,0,0,0,0,0,0,0,0,0,0,0,0,0,0],"id":3,"left_children":[1,3,5,-1,-1,7,9,11,13,15,17,19,21,23,25,27,29,31,-1,33,-1,-1,-1,35,37,39,41,-1,43,45,-1,-1,-1,-1,-1,-1,-1,-1,-1,-1,-1,-1,-1,-1,-1,-1,-1],"loss_changes":[2.5539363E3,1.00741455E2,6.4094275E2,0E0,0E0,6.886025E1,1.0665985E2,1.7228935E1,1.1324151E1,2.4970108E1,1.5518494E1,1.2088196E1,2.0960827E0,6.993684E0,6.254901E0,2.1526978E1,1.1733758E1,3.4110718E0,0E0,2.6018677E0,0E0,0E0,0E0,2.4740744E0,7.58338E-1,3.615799E-1,7.647903E-1,0E0,7.893387E0,1.7352605E-1,0E0,0E0,0E0,0E0,0E0,0E0,0E0,0E0,0E0,0E0,0E0,0E0,0E0,0E0,0E0,0E0,0E0],"parents":[2147483647,0,0,1,1,2,2,5,5,6,6,7,7,8,8,9,9,10,10,11,11,12,12,13,13,14,14,15,15,16,16,17,17,19,19,23,23,24,24,25,25,26,26,28,28,29,29],"right_children":[2,4,6,-1,-1,8,10,12,14,16,18,20,22,24,26,28,30,32,-1,34,-1,-1,-1,36,38,40,42,-1,44,46,-1,-1,-1,-1,-1,-1,-1,-1,-1,-1,-1,-1,-1,-1,-1,-1,-1],"split_conditions":[3.336307E-3,7.821501E-3,1.6044592E-2,6.637637E-1,3.6827332E-1,2.742647E-1,6.801843E-1,9.938137E-1,-1.2868379E-3,6.1654124E-2,-7.920978E-4,3.0019E-3,8.056015E-5,2.104374E-4,2.3664297E-1,-4.309616E-5,7.459604E-1,9.8332965E-1,-1.0676306E-1,-1.3152184E-3,-1.6047431E-2,4.4526007E-2,-2.1735096E-2,2.4315162E-1,-5.974994E-5,1.32268615E-5,2.323156E-2,-7.118898E-2,1.1300357E-3,-7.3814705E-2,-6.6010915E-2,-2.7405438E-1,-1.9228719E-1,1.8776429E-1,1.06351055E-1,-5.2501697E-2,-1.4030548E-2,-3.927374E-3,3.9556313E-2,8.076561E-2,2.8677402E-2,2.0989513E-2,-4.3594935E-3,-1.6763395E-1,-1.1197376E-2,1.2750626E-2,5.7312615E-2],"split_indices":[16,21,11,0,0,20,18,36,6,10,0,0,2,2,18,3,22,28,0,6,0,0,0,18,1,7,13,0,2,0,0,0,0,0,0,0,0,0,0,0,0,0,0,0,0,0,0],"split_type":[0,0,0,0,0,0,0,0,0,0,0,0,0,0,0,0,0,0,0,0,0,0,0,0,0,0,0,0,0,0,0,0,0,0,0,0,0,0,0,0,0,0,0,0,0,0,0],"sum_hessian":[1.71E2,2.3E1,1.48E2,7E0,1.6E1,6.7E1,8.1E1,1.9E1,4.8E1,4E1,4.1E1,1.6E1,3E0,2.9E1,1.9E1,3.3E1,7E0,3.6E1,5E0,1.5E1,1E0,1E0,2E0,2.3E1,6E0,7E0,1.2E1,1.5E1,1.8E1,3E0,4E0,1.7E1,1.9E1,6E0,9E0,5E0,1.8E1,1E0,5E0,5E0,2E0,8E0,4E0,1.7E1,1E0,1E0,2E0],"tree_param":{"num_deleted":"0","num_feature":"44","num_nodes":"47","size_leaf_vector":"1"}},{"base_weights":[-1.6254323E-2,9.281653E0,-1.5255494E0,6.172117E-1,3.393719E-1,6.145135E-1,-3.2700067E0,1.7421031E0,-1.1665924E-2,-1.8655674E0,-4.420171E0,6.888539E-2,2.2668622E0,-3.7289074E-1,5.709555E-1,-2.1814272E0,1.5225272E0,-2.6096317E-1,-3.6047432E0,5.9381295E-2,-3.0806798E-2,2.3308458E0,2.7878905E-2,-5.061301E-1,5.8638763E-1,7.528709E-2,3.5999835E-1,-1.2928728E0,-2.7968557E0,1.243186E-2,9.321391E-2,-1.8396911E-1,-4.3469407E-2,1.2959267E-1,6.884276E-2,3.5113096E-2,-2.9127812E-2,3.802767E-2,1.37407305E-2,2.9005766E-2,-2.941404E-4,-7.588981E-2,1.3135083E-2,-2.1192117E-1,-1.0407322E-1],"categories":[],"categories_nodes":[],"categories_segments":[],"categories_sizes":[],"default_left":[0,0,0,0,0,0,0,0,0,0,0,0,0,0,0,0,0,0,0,0,0,0,0,0,0,0,0,0,0,0,0,0,0,0,0,0,0,0,0,0,0,0,0,0,0],"id":4,"left_children":[1,3,5,-1,-1,7,9,11,13,15,17,19,21,23,25,27,29,-1,31,-1,-1,33,-1,35,37,-1,39,41,43,-1,-1,-1,-1,-1,-1,-1,-1,-1,-1,-1,-1,-1,-1,-1,-1],"loss_changes":[2.5120845E3,1.0718286E2,5.769296E2,0E0,0E0,4.944547E1,1.2905737E2,2.1794754E1,9.893941E0,4.6127792E1,1.1159607E1,6.096267E0,7.7832794E-1,4.003383E0,3.0075326E0,1.6617172E1,1.2778835E0,0E0,2.1094055E0,0E0,0E0,9.1337585E-1,0E0,2.8102784E0,8.050203E-3,0E0,1.2919991E0,6.346775E0,1.2834869E1,0E0,0E0,0E0,0E0,0E0,0E0,0E0,0E0,0E0,0E0,0E0,0E0,0E0,0E0,0E0,0E0],"parents":[2147483647,0,0,1,1,2,2,5,5,6,6,7,7,8,8,9,9,10,10,11,11,12,12,13,13,14,14,15,15,16,16,18,18,21,21,23,23,24,24,26,26,27,27,28,28],"right_children":[2,4,6,-1,-1,8,10,12,14,16,18,20,22,24,26,28,30,-1,32,-1,-1,34,-1,36,38,-1,40,42,44,-1,-1,-1,-1,-1,-1,-1,-1,-1,-1,-1,-1,-1,-1,-1,-1],"split_conditions":[4.4762106E-3,7.821501E-3,1.735235E-2,6.172117E-1,3.393719E-1,3.402848E-2,6.801843E-1,3.626728E-1,1.7918393E-4,2.5963184E-1,9.8332965E-1,2.2401938E-3,9.969428E-1,9.9748003E-1,9.467997E-1,-4.309616E-5,-7.3814705E-2,-2.6096317E-1,7.2452268E-3,5.9381295E-2,-3.0806798E-2,2.5963193E-2,2.7878905E-2,-6.6799955E-3,-1.3117334E-3,7.528709E-2,7.353333E-2,9.974274E-1,9.830432E-1,1.243186E-2,9.321391E-2,-1.8396911E-1,-4.3469407E-2,1.2959267E-1,6.884276E-2,3.5113096E-2,-2.9127812E-2,3.802767E-2,1.37407305E-2,2.9005766E-2,-2.941404E-4,-7.588981E-2,1.3135083E-2,-2.1192117E-1,-1.0407322E-1],"split_indices":[16,21,11,0,0,15,18,22,2,11,28,15,39,30,33,3,0,0,0,0,0,15,0,5,1,0,15,38,34,0,0,0,0,0,0,0,0,0,0,0,0,0,0,0,0],"split_type":[0,0,0,0,0,0,0,0,0,0,0,0,0,0,0,0,0,0,0,0,0,0,0,0,0,0,0,0,0,0,0,0,0,0,0,0,0,0,0,0,0,0,0,0,0],"sum_hessian":[1.77E2,2.4E1,1.53E2,9E0,1.5E1,6.9E1,8.4E1,2.4E1,4.5E1,3.9E1,4.5E1,6E0,1.8E1,2.8E1,1.7E1,3.6E1,3E0,2E1,2.5E1,2E0,4E0,1.7E1,1E0,2.5E1,3E0,2E0,1.5E1,1.6E1,2E1,1E0,2E0,2.4E1,1E0,1.2E1,5E0,1E0,2.4E1,1E0,2E0,9E0,6E0,1.4E1,2E0,5E0,1.5E1],"tree_param":{"num_deleted":"0","num_feature":"44","num_nodes":"45","size_leaf_vector":"1"}},{"base_weights":[-3.0161867E-1,6.440731E0,-1.5516149E0,4.2810655E-1,3.6607058E0,5.3654504E-1,-3.0792444E0,3.8424847E0,3.6983967E-2,1.5217952E0,-3.2994635E-2,-1.797517E0,-4.1701307E0,2.0065938E-1,4.9118903E-2,-4.0708637E-1,2.1130595E0,-4.672421E-1,6.204387E-1,-2.110956E0,1.4728122E0,-2.3722446E-1,-3.1949158E0,-3.3637714E-2,2.303133E-2,2.5906277E0,8.0574656E-1,-1.6853803E-1,-8.6857396E-1,8.4732103E-1,-4.8166655E-2,-2.665944E0,-1.1562428E0,1.2121058E-2,9.010678E-2,-1.6391139E-1,-4.238267E-2,1.9918023E-1,9.56836E-2,-1.5405822E-2,5.4507125E-2,-2.2439376E-2,2.4085922E-2,-5.1852345E-2,-6.4894045E-3,7.277753E-2,2.9006004E-2,1.8035254E-3,-5.8174133E-3,-2.0309113E-1,-1.00823045E-1,-6.815865E-2,4.351945E-2],"categories":[],"categories_nodes":[],"categories_segments":[],"categories_sizes":[],"default_left":[0,0,0,0,0,0,0,0,0,0,0,0,0,0,0,0,0,0,0,0,0,0,0,0,0,0,0,0,0,0,0,0,0,0,0,0,0,0,0,0,0,0,0,0,0,0,0,0,0,0,0,0,0],"id":5,"left_children":[1,3,5,-1,7,9,11,13,-1,15,17,19,21,-1,-1,23,25,27,29,31,33,-1,35,-1,-1,37,39,41,43,45,47,49,51,-1,-1,-1,-1,-1,-1,-1,-1,-1,-1,-1,-1,-1,-1,-1,-1,-1,-1,-1,-1],"loss_changes":[1.4005991E3,1.219928E2,4.48243E2,0E0,4.060547E0,3.3718555E1,1.0575989E2,1.916275E0,0E0,2.595073E1,1.1356213E1,4.3085922E1,8.927002E0,0E0,0E0,1.6930296E0,8.5262375E0,2.730719E0,2.4679294E0,1.5992294E1,1.1839104E0,0E0,9.3673706E-1,0E0,0E0,3.6924896E0,2.2365592E0,2.9496999E0,1.1100583E0,1.1058397E0,3.291387E-2,1.17547E1,7.4770565E0,0E0,0E0,0E0,0E0,0E0,0E0,0E0,0E0,0E0,0E0,0E0,0E0,0E0,0E0,0E0,0E0,0E0,0E0,0E0,0E0],"parents":[2147483647,0,0,1,1,2,2,4,4,5,5,6,6,7,7,9,9,10,10,11,11,12,12,15,15,16,16,17,17,18,18,19,19,20,20,22,22,25,25,26,26,27,27,28,28,29,29,30,30,31,31,32,32],"right_children":[2,4,6,-1,8,10,12,14,-1,16,18,20,22,-1,-1,24,26,28,30,32,34,-1,36,-1,-1,38,40,42,44,46,48,50,52,-1,-1,-1,-1,-1,-1,-1,-1,-1,-1,-1,-1,-1,-1,-1,-1,-1,-1,-1,-1],"split_conditions":[4.089787E-3,2.0061769E-2,1.735235E-2,4.2810655E-1,9.880205E-1,2.1453569E-2,6.801843E-1,-1.745546E-4,3.6983967E-2,9.6466523E-1,1.7918393E-4,2.5963184E-1,9.853812E-1,2.0065938E-1,4.9118903E-2,1.7282711E-2,-3.6445382E-4,9.716071E-1,2.1573967E-1,9.765902E-5,-7.3814705E-2,-2.3722446E-1,7.2452268E-3,-3.3637714E-2,2.303133E-2,9.856643E-1,-6.058275E-4,9.6595377E-1,9.9603474E-1,9.4201076E-1,2.7443116E-4,9.830432E-1,1.0680767E-3,1.2121058E-2,9.010678E-2,-1.6391139E-1,-4.238267E-2,1.9918023E-1,9.56836E-2,-1.5405822E-2,5.4507125E-2,-2.2439376E-2,2.4085922E-2,-5.1852345E-2,-6.4894045E-3,7.277753E-2,2.9006004E-2,1.8035254E-3,-5.8174133E-3,-2.0309113E-1,-1.00823045E-1,-6.815865E-2,4.351945E-2],"split_indices":[15,20,11,0,37,14,18,7,0,30,2,11,30,0,0,14,6,35,17,1,0,0,0,0,0,34,0,35,31,34,0,34,5,0,0,0,0,0,0,0,0,0,0,0,0,0,0,0,0,0,0,0,0],"split_type":[0,0,0,0,0,0,0,0,0,0,0,0,0,0,0,0,0,0,0,0,0,0,0,0,0,0,0,0,0,0,0,0,0,0,0,0,0,0,0,0,0,0,0,0,0,0,0,0,0,0,0,0,0],"sum_hessian":[1.64E2,2.5E1,1.39E2,1.3E1,1.2E1,5.9E1,8E1,1.1E1,1E0,2.1E1,3.8E1,3.8E1,4.2E1,1E1,1E0,5E0,1.6E1,2.3E1,1.5E1,3.5E1,3E0,2.4E1,1.8E1,4E0,1E0,1.1E1,5E0,1.4E1,9E0,1.1E1,4E0,2.1E1,1.4E1,1E0,2E0,1.7E1,1E0,2E0,9E0,1E0,4E0,1E1,4E0,7E0,2E0,2E0,9E0,2E0,2E0,5E0,1.6E1,1.3E1,1E0],"tree_param":{"num_deleted":"0","num_feature":"44","num_nodes":"53","size_leaf_vector":"1"}},{"base_weights":[7.543178E-2,8.485197E0,-1.4189044E0,5.720953E-1,6.371182E0,6.9298714E-1,-3.0047197E0,2.6183853E-1,4.516216E-1,1.6151652E0,9.1289125E-2,-1.8313075E0,-4.1098433E0,1.9437629E0,-1.536974E-1,-2.0592149E-1,6.791897E-1,-2.1043034E0,1.4247284E0,-1.7293058E-1,-2.5166675E-1,-1.403513E-2,2.0630565E0,3.778095E-2,-2.8496563E-2,-9.810665E-1,-3.5852868E-2,1.073359E0,1.3168335E-1,-1.265483E0,-2.6457396E0,1.1818028E-2,8.710321E-2,1.1352032E-1,6.620068E-2,-4.3423655E-3,-5.9145477E-2,1.9976433E-2,-2.174928E-2,6.673054E-2,2.392273E-2,-2.9031436E-3,1.0959721E-2,-7.19881E-2,4.243145E-2,-1.03207305E-1,-2.2214828E-1],"categories":[],"categories_nodes":[],"categories_segments":[],"categories_sizes":[],"default_left":[0,0,0,0,0,0,0,0,0,0,0,0,0,0,0,0,0,0,0,0,0,0,0,0,0,0,0,0,0,0,0,0,0,0,0,0,0,0,0,0,0,0,0,0,0,0,0],"id":6,"left_children":[1,3,5,-1,7,9,11,-1,-1,13,15,17,19,21,23,25,27,29,31,-1,-1,-1,33,-1,-1,35,37,39,41,43,45,-1,-1,-1,-1,-1,-1,-1,-1,-1,-1,-1,-1,-1,-1,-1,-1],"loss_changes":[2.248969E3,9.5865845E1,5.111409E2,0E0,7.0404053E0,3.6474155E1,1.0529224E2,0E0,0E0,1.5411095E1,7.303801E0,4.210898E1,9.053528E0,6.417122E0,2.3230925E0,3.6560056E0,2.8799996E0,1.5272736E1,1.0966911E0,0E0,0E0,0E0,2.1200562E-1,0E0,0E0,7.997265E-1,4.34439E0,6.0480785E-1,1.2896131E-1,7.8538322E0,1.5915192E1,0E0,0E0,0E0,0E0,0E0,0E0,0E0,0E0,0E0,0E0,0E0,0E0,0E0,0E0,0E0,0E0],"parents":[2147483647,0,0,1,1,2,2,4,4,5,5,6,6,9,9,10,10,11,11,12,12,13,13,14,14,15,15,16,16,17,17,18,18,22,22,25,25,26,26,27,27,28,28,29,29,30,30],"right_children":[2,4,6,-1,8,10,12,-1,-1,14,16,18,20,22,24,26,28,30,32,-1,-1,-1,34,-1,-1,36,38,40,42,44,46,-1,-1,-1,-1,-1,-1,-1,-1,-1,-1,-1,-1,-1,-1,-1,-1],"split_conditions":[4.4762106E-3,7.821501E-3,1.660937E-2,5.720953E-1,9.9159837E-1,3.402848E-2,7.792857E-1,2.6183853E-1,4.516216E-1,9.9467945E-1,-6.7093276E-4,2.5963184E-1,9.1299486E-1,-4.121533E-3,-5.654124E-4,2.9645386E-1,9.8312956E-1,-4.309616E-5,-7.3814705E-2,-1.7293058E-1,-2.5166675E-1,-1.403513E-2,1.6764948E-1,3.778095E-2,-2.8496563E-2,7.513803E-4,2.010734E1,1.448343E-3,-1.5789452E-3,9.974274E-1,-8.5206534E-4,1.1818028E-2,8.710321E-2,1.1352032E-1,6.620068E-2,-4.3423655E-3,-5.9145477E-2,1.9976433E-2,-2.174928E-2,6.673054E-2,2.392273E-2,-2.9031436E-3,1.0959721E-2,-7.19881E-2,4.243145E-2,-1.03207305E-1,-2.2214828E-1],"split_indices":[16,21,11,0,38,15,19,0,0,36,4,11,17,5,4,19,28,3,0,0,0,0,19,0,0,0,41,9,5,38,1,0,0,0,0,0,0,0,0,0,0,0,0,0,0,0,0],"split_type":[0,0,0,0,0,0,0,0,0,0,0,0,0,0,0,0,0,0,0,0,0,0,0,0,0,0,0,0,0,0,0,0,0,0,0,0,0,0,0,0,0,0,0,0,0,0,0],"sum_hessian":[1.77E2,2.6E1,1.51E2,9E0,1.7E1,6.5E1,8.6E1,1.4E1,3E0,2.5E1,4E1,4.3E1,4.3E1,2.1E1,4E0,2.7E1,1.3E1,4E1,3E0,2.8E1,1.5E1,1E0,2E1,1E0,3E0,4E0,2.3E1,7E0,6E0,1.7E1,2.3E1,1E0,2E0,1.4E1,6E0,1E0,3E0,1.1E1,1.2E1,4E0,3E0,2E0,4E0,1.6E1,1E0,1.9E1,4E0],"tree_param":{"num_deleted":"0","num_feature":"44","num_nodes":"47","size_leaf_vector":"1"}},{"base_weights":[1.8328382E-1,7.9092097E0,-1.1660944E0,5.3321546E-1,6.0922594E0,7.1586764E-1,-2.754851E0,2.555543E-1,4.6472153E-1,1.6478873E0,-1.0438443E-3,-1.5991012E0,-3.7899735E0,2.0434868E0,-2.7509198E-1,-3.7995777E-1,5.3395486E-1,-1.8777552E0,1.3782225E0,-7.345518E-2,-3.995615E0,1.102918E-1,2.2067955E0,3.6836434E-2,-3.124009E-2,3.407123E-2,-6.781264E-1,7.832014E-1,-5.3530693E-2,-1.9758824E0,4.137068E-2,1.1522579E-2,8.419978E-2,-2.3869398E-1,-1.6402456E-1,2.1956159E-2,-1.3684273E-2,1.295216E-1,5.818367E-2,2.5540067E-2,-1.0427636E-2,-1.461045E-3,-5.1769137E-2,6.812728E-2,2.6553899E-2,-4.935646E-3,1.2277921E-3,-6.2358897E-2,-1.1667669E-1],"categories":[],"categories_nodes":[],"categories_segments":[],"categories_sizes":[],"default_left":[0,0,0,0,0,0,0,0,0,0,0,0,0,0,0,0,0,0,0,0,0,0,0,0,0,0,0,0,0,0,0,0,0,0,0,0,0,0,0,0,0,0,0,0,0,0,0,0,0],"id":7,"left_children":[1,3,5,-1,7,9,11,-1,-1,13,15,17,19,21,23,25,27,29,31,-1,33,35,37,-1,-1,39,41,43,45,47,-1,-1,-1,-1,-1,-1,-1,-1,-1,-1,-1,-1,-1,-1,-1,-1,-1,-1,-1],"loss_changes":[1.8232072E3,6.5183105E1,4.4747906E2,0E0,9.049316E0,4.6105846E1,9.08432E1,0E0,0E0,2.338404E1,8.311618E0,3.5773666E1,1.4175232E1,7.6492996E0,2.5833712E0,2.9859157E0,2.5312138E0,1.1456558E1,1.0157504E0,0E0,5.4884644E0,4.9897286E-1,6.1897125E0,0E0,0E0,1.3788565E0,3.2153034E0,1.0291781E0,2.359272E-2,6.472061E0,0E0,0E0,0E0,0E0,0E0,0E0,0E0,0E0,0E0,0E0,0E0,0E0,0E0,0E0,0E0,0E0,0E0,0E0,0E0],"parents":[2147483647,0,0,1,1,2,2,4,4,5,5,6,6,9,9,10,10,11,11,12,12,13,13,14,14,15,15,16,16,17,17,18,18,20,20,21,21,22,22,25,25,26,26,27,27,28,28,29,29],"right_children":[2,4,6,-1,8,10,12,-1,-1,14,16,18,20,22,24,26,28,30,32,-1,34,36,38,-1,-1,40,42,44,46,48,-1,-1,-1,-1,-1,-1,-1,-1,-1,-1,-1,-1,-1,-1,-1,-1,-1,-1,-1],"split_conditions":[4.4762106E-3,1.4118873E-1,1.660937E-2,5.3321546E-1,9.932503E-1,2.1453569E-2,6.801843E-1,2.555543E-1,4.6472153E-1,9.938137E-1,2.104374E-4,2.5963184E-1,-6.928603E-4,-4.194624E-3,-2.5503337E-3,9.5355296E-1,2.1573967E-1,9.9969697E-1,-4.1948993E-2,-7.345518E-2,9.794291E-1,1.187026E-3,5.5549026E-1,3.6836434E-2,-3.124009E-2,1.6364876E-2,7.015932E-4,9.467997E-1,-6.259581E-4,3.9121526E-4,4.137068E-2,1.1522579E-2,8.419978E-2,-2.3869398E-1,-1.6402456E-1,2.1956159E-2,-1.3684273E-2,1.295216E-1,5.818367E-2,2.5540067E-2,-1.0427636E-2,-1.461045E-3,-5.1769137E-2,6.812728E-2,2.6553899E-2,-4.935646E-3,1.2277921E-3,-6.2358897E-2,-1.1667669E-1],"split_indices":[16,25,11,0,38,14,18,0,0,36,2,11,7,8,10,37,17,39,1,0,28,1,22,0,0,13,1,33,5,5,0,0,0,0,0,0,0,0,0,0,0,0,0,0,0,0,0,0,0],"split_type":[0,0,0,0,0,0,0,0,0,0,0,0,0,0,0,0,0,0,0,0,0,0,0,0,0,0,0,0,0,0,0,0,0,0,0,0,0,0,0,0,0,0,0,0,0,0,0,0,0],"sum_hessian":[1.73E2,2.5E1,1.48E2,8E0,1.7E1,6.8E1,8E1,1.5E1,2E0,2.9E1,3.9E1,3.9E1,4.1E1,2.4E1,5E0,2.3E1,1.6E1,3.6E1,3E0,4E0,3.7E1,2E0,2.2E1,1E0,4E0,1E1,1.3E1,1.1E1,5E0,3.5E1,1E0,1E0,2E0,1.5E1,2.2E1,1E0,1E0,1.5E1,7E0,3E0,7E0,5E0,8E0,2E0,9E0,3E0,2E0,1.3E1,2.2E1],"tree_param":{"num_deleted":"0","num_feature":"44","num_nodes":"49","size_leaf_vector":"1"}},{"base_weights":[9.796606E-2,6.8692474E0,-1.2954036E0,8.092865E0,1.6254453E-1,-1.5660308E-2,-3.1810665E0,2.9466262E-1,9.923114E0,5.63082E-1,-1.2139243E0,-2.4318786E0,-2.091414E-1,3.2324177E-1,6.747161E-1,1.3351729E0,8.878249E-2,-1.572914E0,1.3332419E0,-5.6338787E-2,-2.7179122E0,1.7984917E0,-2.9990474E-2,6.0106784E-1,-2.1374989E-1,-2.0176108E0,-1.41178E-1,1.1234522E-2,8.1393115E-2,-1.3889241E-1,-2.7491093E-2,3.716823E-2,1.2011788E-1,4.5972314E-2,7.566997E-3,8.464984E-3,-3.4091786E-2,-1.5294893E-1,-5.7761557E-2,-2.1680856E-2,4.033642E-2],"categories":[],"categories_nodes":[],"categories_segments":[],"categories_sizes":[],"default_left":[0,0,0,0,0,0,0,0,0,0,0,0,0,0,0,0,0,0,0,0,0,0,0,0,0,0,0,0,0,0,0,0,0,0,0,0,0,0,0,0,0],"id":8,"left_children":[1,3,5,7,-1,9,11,-1,13,15,17,19,-1,-1,-1,21,23,25,27,-1,29,31,-1,33,35,37,39,-1,-1,-1,-1,-1,-1,-1,-1,-1,-1,-1,-1,-1,-1],"loss_changes":[1.6033964E3,1.02088135E2,3.4020642E2,2.606311E1,0E0,5.9629856E1,3.260681E1,0E0,3.6263794E1,2.1121193E1,2.770045E1,1.0003143E1,0E0,0E0,0E0,2.080206E1,5.8628454E0,1.5632366E1,9.406419E-1,0E0,2.1111908E0,9.682972E0,0E0,1.8654222E0,4.4186363E0,1.3529205E1,2.2902458E0,0E0,0E0,0E0,0E0,0E0,0E0,0E0,0E0,0E0,0E0,0E0,0E0,0E0,0E0],"parents":[2147483647,0,0,1,1,2,2,3,3,5,5,6,6,8,8,9,9,10,10,11,11,15,15,16,16,17,17,18,18,20,20,21,21,23,23,24,24,25,25,26,26],"right_children":[2,4,6,8,-1,10,12,-1,14,16,18,20,-1,-1,-1,22,24,26,28,-1,30,32,-1,34,36,38,40,-1,-1,-1,-1,-1,-1,-1,-1,-1,-1,-1,-1,-1,-1],"split_conditions":[1.7283173E-2,8.2336046E-4,6.899113E-1,5.3373666E-4,1.6254453E-1,4.1024473E-2,1.2590721E-1,2.9466262E-1,-1.9580284E-3,1.9205853E-2,2.5963184E-1,8.290577E-3,-2.091414E-1,3.2324177E-1,6.747161E-1,9.9467945E-1,3.9482725E-4,9.8549557E-1,-7.3814705E-2,-5.6338787E-2,1.20051324E-1,9.788195E-1,-2.9990474E-2,9.8691267E-1,9.716071E-1,-1.864383E-4,-8.151541E-6,1.1234522E-2,8.1393115E-2,-1.3889241E-1,-2.7491093E-2,3.716823E-2,1.2011788E-1,4.5972314E-2,7.566997E-3,8.464984E-3,-3.4091786E-2,-1.5294893E-1,-5.7761557E-2,-2.1680856E-2,4.033642E-2],"split_indices":[16,16,19,1,0,13,10,0,9,14,11,9,0,0,0,36,0,35,0,0,10,35,0,29,35,0,0,0,0,0,0,0,0,0,0,0,0,0,0,0,0],"split_type":[0,0,0,0,0,0,0,0,0,0,0,0,0,0,0,0,0,0,0,0,0,0,0,0,0,0,0,0,0,0,0,0,0,0,0,0,0,0,0,0,0],"sum_hessian":[1.68E2,2.8E1,1.4E2,2E1,8E0,8.4E1,5.6E1,1.1E1,9E0,5.7E1,2.7E1,3.4E1,2.2E1,6E0,3E0,2.1E1,3.6E1,2.4E1,3E0,7E0,2.7E1,1.7E1,4E0,1.3E1,2.3E1,1.8E1,6E0,1E0,2E0,2.6E1,1E0,7E0,1E1,7E0,6E0,1.3E1,1E1,7E0,1.1E1,5E0,1E0],"tree_param":{"num_deleted":"0","num_feature":"44","num_nodes":"41","size_leaf_vector":"1"}},{"base_weights":[-5.2074995E-3,7.436769E0,-1.1752969E0,5.130739E-1,5.768189E0,-2.6464E-3,-3.2736776E0,2.332026E-1,4.2333278E-1,1.5149442E0,-5.347542E-1,-2.5335069E0,-2.001128E-1,1.8104331E0,-1.4729328E-1,5.5858906E-2,-1.1116557E0,-4.1360226E-2,-2.686782E0,1.5321683E0,1.9830652E-1,3.1851914E-2,-2.5131786E-2,-2.6555958E-1,4.8743337E-1,-1.3475978E0,1.2897372E0,-1.3662732E-1,-3.6278557E-2,8.161561E-2,-1.4271403E-2,4.1004475E-3,-3.260903E-2,3.7964094E-2,-4.6952112E-4,-1.1607406E-1,-5.162357E-2,1.0953665E-2,7.868004E-2],"categories":[],"categories_nodes":[],"categories_segments":[],"categories_sizes":[],"default_left":[0,0,0,0,0,0,0,0,0,0,0,0,0,0,0,0,0,0,0,0,0,0,0,0,0,0,0,0,0,0,0,0,0,0,0,0,0,0,0],"id":9,"left_children":[1,3,5,-1,7,9,11,-1,-1,13,15,17,-1,19,21,23,25,-1,27,29,-1,-1,-1,31,33,35,37,-1,-1,-1,-1,-1,-1,-1,-1,-1,-1,-1,-1],"loss_changes":[1.6022637E3,5.8641113E1,3.9123743E2,0E0,1.4141663E1,8.398487E1,2.0598816E1,0E0,0E0,1.3528328E1,2.6297968E1,5.885025E0,0E0,7.719879E0,1.7137295E0,5.539367E0,2.3835049E1,0E0,5.3045654E-1,4.470379E0,0E0,0E0,0E0,3.1441624E0,2.3031635E0,8.651413E0,8.709564E-1,0E0,0E0,0E0,0E0,0E0,0E0,0E0,0E0,0E0,0E0,0E0,0E0],"parents":[2147483647,0,0,1,1,2,2,4,4,5,5,6,6,9,9,10,10,11,11,13,13,14,14,15,15,16,16,18,18,19,19,23,23,24,24,25,25,26,26],"right_children":[2,4,6,-1,8,10,12,-1,-1,14,16,18,-1,20,22,24,26,-1,28,30,-1,-1,-1,32,34,36,38,-1,-1,-1,-1,-1,-1,-1,-1,-1,-1,-1,-1],"split_conditions":[4.4762106E-3,3.1767204E-2,6.6002226E-1,5.130739E-1,9.932503E-1,1.9205853E-2,9.169947E-2,2.332026E-1,4.2333278E-1,9.938137E-1,2.2195669E-2,9.759677E-1,-2.001128E-1,9.901889E-1,-5.654124E-4,2.104374E-4,2.5963184E-1,-4.1360226E-2,7.2452268E-3,3.0019E-3,1.9830652E-1,3.1851914E-2,-2.5131786E-2,9.716071E-1,2.1573967E-1,7.2896224E-1,-7.3814705E-2,-1.3662732E-1,-3.6278557E-2,8.161561E-2,-1.4271403E-2,4.1004475E-3,-3.260903E-2,3.7964094E-2,-4.6952112E-4,-1.1607406E-1,-5.162357E-2,1.0953665E-2,7.868004E-2],"split_indices":[16,27,18,0,38,14,9,0,0,36,12,31,0,37,4,2,11,0,0,0,0,0,0,35,17,22,0,0,0,0,0,0,0,0,0,0,0,0,0],"split_type":[0,0,0,0,0,0,0,0,0,0,0,0,0,0,0,0,0,0,0,0,0,0,0,0,0,0,0,0,0,0,0,0,0,0,0,0,0,0,0],"sum_hessian":[1.82E2,2.4E1,1.58E2,7E0,1.7E1,1.02E2,5.6E1,1.4E1,3E0,2.6E1,7.6E1,3E1,2.6E1,2.2E1,4E0,3.8E1,3.8E1,3E0,2.7E1,2.1E1,1E0,1E0,3E0,2.2E1,1.6E1,3.5E1,3E0,2.6E1,1E0,2E1,1E0,1.2E1,1E1,1E1,6E0,7E0,2.8E1,1E0,2E0],"tree_param":{"num_deleted":"0","num_feature":"44","num_nodes":"39","size_leaf_vector":"1"}},{"base_weights":[9.387496E-2,7.0127783E0,-1.0447202E0,5.161E-1,5.4244976E0,5.995487E-1,-2.4556758E0,2.2021508E-1,4.0745783E-1,1.4206694E0,-1.2410255E-3,-1.380607E0,-3.3089411E0,1.768536E0,-2.65553E-1,-3.2104066E-1,4.4299406E-1,-1.6168417E-1,-1.6041024E0,-1.4170338E0,-3.5100038E0,1.519977E0,1.9334884E-1,3.1055594E-2,-2.8355418E-2,3.43163E-2,-6.027008E-1,6.30585E-2,2.6189893E-1,7.76865E-1,-5.2990615E-2,-1.0312612E0,-2.1124897E0,-2.101748E-2,-7.6615036E-2,-2.0873933E-1,-1.4720714E-1,-1.3914633E-2,8.051311E-2,2.2660598E-2,-1.1589152E-2,-2.5461515E-4,-4.670699E-2,2.328841E-2,-9.5665455E-6,1.0679818E-2,4.4671122E-2,-5.4721065E-2,-1.8585349E-2,-6.094573E-2,-1.3360289E-1],"categories":[],"categories_nodes":[],"categories_segments":[],"categories_sizes":[],"default_left":[0,0,0,0,0,0,0,0,0,0,0,0,0,0,0,0,0,0,0,0,0,0,0,0,0,0,0,0,0,0,0,0,0,0,0,0,0,0,0,0,0,0,0,0,0,0,0,0,0,0,0],"id":10,"left_children":[1,3,5,-1,7,9,11,-1,-1,13,15,17,19,21,23,25,27,29,31,33,35,37,-1,-1,-1,39,41,-1,43,45,-1,47,49,-1,-1,-1,-1,-1,-1,-1,-1,-1,-1,-1,-1,-1,-1,-1,-1,-1,-1],"loss_changes":[1.3938242E3,7.5407715E1,3.5411078E2,0E0,1.6922668E1,3.502755E1,7.0651825E1,0E0,0E0,1.806705E1,6.109E0,1.0092735E1,1.214386E1,7.161949E0,1.9565088E0,2.5229304E0,2.3367195E0,6.7238927E0,7.140686E0,4.520607E-2,2.7557983E0,4.344696E0,0E0,0E0,0E0,1.4426613E0,2.7682328E0,0E0,8.5500336E-1,7.178092E-2,0E0,3.0137253E-1,4.743248E0,0E0,0E0,0E0,0E0,0E0,0E0,0E0,0E0,0E0,0E0,0E0,0E0,0E0,0E0,0E0,0E0,0E0,0E0],"parents":[2147483647,0,0,1,1,2,2,4,4,5,5,6,6,9,9,10,10,11,11,12,12,13,13,14,14,15,15,16,16,17,17,18,18,19,19,20,20,21,21,25,25,26,26,28,28,29,29,31,31,32,32],"right_children":[2,4,6,-1,8,10,12,-1,-1,14,16,18,20,22,24,26,28,30,32,34,36,38,-1,-1,-1,40,42,-1,44,46,-1,48,50,-1,-1,-1,-1,-1,-1,-1,-1,-1,-1,-1,-1,-1,-1,-1,-1,-1,-1],"split_conditions":[4.4762106E-3,3.1767204E-2,6.900862E-2,5.161E-1,9.932503E-1,2.1453569E-2,6.801843E-1,2.2021508E-1,4.0745783E-1,9.9467945E-1,2.104374E-4,8.21238E-1,1.1308298E-3,9.9372995E-1,-2.5503337E-3,9.5355296E-1,9.4201076E-1,3.1745306E-4,2.4539168E-4,5.6092144E-4,9.794291E-1,-4.121533E-3,1.9334884E-1,3.1055594E-2,-2.8355418E-2,9.014013E-3,7.015932E-4,6.30585E-2,7.353333E-2,-7.3814705E-2,-5.2990615E-2,9.945314E-1,1.7504604E-1,-2.101748E-2,-7.6615036E-2,-2.0873933E-1,-1.4720714E-1,-1.3914633E-2,8.051311E-2,2.2660598E-2,-1.1589152E-2,-2.5461515E-4,-4.670699E-2,2.328841E-2,-9.5665455E-6,1.0679818E-2,4.4671122E-2,-5.4721065E-2,-1.8585349E-2,-6.094573E-2,-1.3360289E-1],"split_indices":[16,27,13,0,38,14,18,0,0,36,2,25,8,37,10,37,34,0,3,0,28,5,0,0,0,12,1,0,15,0,0,30,14,0,0,0,0,0,0,0,0,0,0,0,0,0,0,0,0,0,0],"split_type":[0,0,0,0,0,0,0,0,0,0,0,0,0,0,0,0,0,0,0,0,0,0,0,0,0,0,0,0,0,0,0,0,0,0,0,0,0,0,0,0,0,0,0,0,0,0,0,0,0,0,0],"sum_hessian":[1.75E2,2.4E1,1.51E2,6E0,1.8E1,7E1,8.1E1,1.5E1,3E0,2.9E1,4.1E1,3.7E1,4.4E1,2.4E1,5E0,2.4E1,1.7E1,6E0,3.1E1,5E0,3.9E1,2.3E1,1E0,1E0,4E0,1.1E1,1.3E1,2E0,1.5E1,3E0,3E0,1.6E1,1.5E1,1E0,4E0,1.5E1,2.4E1,1E0,2.2E1,4E0,7E0,5E0,8E0,8E0,7E0,1E0,2E0,1.4E1,2E0,7E0,8E0],"tree_param":{"num_deleted":"0","num_feature":"44","num_nodes":"51","size_leaf_vector":"1"}},{"base_weights":[1.0335025E-1,6.791451E0,-1.047491E0,4.71274E-1,5.1863084E0,6.3593715E-1,-2.340851E0,4.19785E0,3.9217818E-1,1.6334327E0,1.3427044E-1,-1.3695822E0,-3.1419437E0,6.107092E-2,2.1574257E-1,4.7906876E-2,2.0711951E0,7.556154E-1,-5.4082666E-2,-1.600335E0,1.2226529E0,-2.6293652E0,-2.0013826E-1,3.704306E-2,-2.4189282E-2,1.5259562E-1,1.3265103E0,9.1838074E-1,-2.1800948E-2,-2.9085523E-1,2.748598E-1,-1.95292E0,-7.449404E-1,1.0412836E-2,7.45683E-2,-3.5965506E-2,-1.3646956E-1,3.6826928E-3,7.848581E-2,4.84693E-2,1.1483336E-2,-2.2166401E-2,4.960237E-3,2.2303086E-2,-4.490035E-4,-7.834408E-2,-1.8904601E-1,2.7357817E-2,-5.148043E-2],"categories":[],"categories_nodes":[],"categories_segments":[],"categories_sizes":[],"default_left":[0,0,0,0,0,0,0,0,0,0,0,0,0,0,0,0,0,0,0,0,0,0,0,0,0,0,0,0,0,0,0,0,0,0,0,0,0,0,0,0,0,0,0,0,0,0,0,0,0],"id":11,"left_children":[1,3,5,-1,7,9,11,13,-1,15,17,19,21,-1,-1,23,25,27,29,31,33,35,-1,-1,-1,-1,37,39,-1,41,43,45,47,-1,-1,-1,-1,-1,-1,-1,-1,-1,-1,-1,-1,-1,-1,-1,-1],"loss_changes":[1.4156543E3,6.527234E1,3.4332144E2,0E0,1.6979004E1,3.4308994E1,6.494565E1,3.0169678E-1,0E0,1.58646965E1,5.5413814E0,2.7079605E1,1.0654724E1,0E0,0E0,2.56905E0,9.0974655E0,2.533956E0,2.9616728E0,1.0307564E1,7.7973986E-1,4.341522E0,0E0,0E0,0E0,0E0,3.5408096E0,1.2864494E-1,0E0,1.3523978E0,7.8150845E-1,1.3129059E1,5.345001E0,0E0,0E0,0E0,0E0,0E0,0E0,0E0,0E0,0E0,0E0,0E0,0E0,0E0,0E0,0E0,0E0],"parents":[2147483647,0,0,1,1,2,2,4,4,5,5,6,6,7,7,9,9,10,10,11,11,12,12,15,15,16,16,17,17,18,18,19,19,20,20,21,21,26,26,27,27,29,29,30,30,31,31,32,32],"right_children":[2,4,6,-1,8,10,12,14,-1,16,18,20,22,-1,-1,24,26,28,30,32,34,36,-1,-1,-1,-1,38,40,-1,42,44,46,48,-1,-1,-1,-1,-1,-1,-1,-1,-1,-1,-1,-1,-1,-1,-1,-1],"split_conditions":[4.4762106E-3,6.289411E-2,1.660937E-2,4.71274E-1,9.932503E-1,3.2711062E-1,6.801843E-1,4.5015624E-1,3.9217818E-1,2.8526977E-1,8.4238246E-2,2.5963184E-1,9.1299486E-1,6.107092E-2,2.1574257E-1,4.7303428E-4,6.097751E-1,9.920815E-1,2.104374E-4,9.873988E-1,-7.3814705E-2,6.7165173E-3,-2.0013826E-1,3.704306E-2,-2.4189282E-2,1.5259562E-1,3.6395025E-1,1.32268615E-5,-2.1800948E-2,-1.5760856E-3,7.353333E-2,9.926604E-1,7.459604E-1,1.0412836E-2,7.45683E-2,-3.5965506E-2,-1.3646956E-1,3.6826928E-3,7.848581E-2,4.84693E-2,1.1483336E-2,-2.2166401E-2,4.960237E-3,2.2303086E-2,-4.490035E-4,-7.834408E-2,-1.8904601E-1,2.7357817E-2,-5.148043E-2],"split_indices":[16,28,11,0,38,20,18,28,0,22,16,11,17,0,0,1,25,35,2,36,0,9,0,0,0,0,22,7,0,6,15,38,22,0,0,0,0,0,0,0,0,0,0,0,0,0,0,0,0],"split_type":[0,0,0,0,0,0,0,0,0,0,0,0,0,0,0,0,0,0,0,0,0,0,0,0,0,0,0,0,0,0,0,0,0,0,0,0,0,0,0,0,0,0,0,0,0,0,0,0,0],"sum_hessian":[1.82E2,2.6E1,1.56E2,8E0,1.8E1,6.8E1,8.8E1,1.5E1,3E0,2.2E1,4.6E1,4.1E1,4.7E1,1E0,1.4E1,5E0,1.7E1,1E1,3.6E1,3.8E1,3E0,3.2E1,1.5E1,2E0,3E0,6E0,1.1E1,9E0,1E0,2.1E1,1.5E1,2.6E1,1.2E1,1E0,2E0,2E0,3E1,2E0,9E0,8E0,1E0,1.5E1,6E0,9E0,6E0,2.3E1,3E0,2E0,1E1],"tree_param":{"num_deleted":"0","num_feature":"44","num_nodes":"49","size_leaf_vector":"1"}},{"base_weights":[5.6960635E-2,7.182214E0,-8.998315E-1,5.0928802E0,9.169968E0,6.875639E-2,-2.9393342E0,1.2446227E-1,2.842088E-1,2.9000363E-1,5.9661597E-1,1.3743613E0,-4.94334E-1,-2.4785326E0,-1.8939312E-1,1.5987333E0,-1.12120055E-1,-2.8741485E-3,-1.0137951E0,-2.1142721E-2,-2.528012E0,1.3760688E0,1.8470025E-1,2.831707E-2,-2.116604E-2,-2.3203076E-1,4.5566016E-1,-1.2566842E0,1.182766E0,-2.9504538E-2,-1.2850659E-1,-1.2962055E-2,7.259255E-2,-7.228162E-3,-4.272137E-2,5.486352E-2,1.1962595E-2,-1.4079542E-1,-5.2943617E-2,2.2373073E-2,8.471699E-2],"categories":[],"categories_nodes":[],"categories_segments":[],"categories_sizes":[],"default_left":[0,0,0,0,0,0,0,0,0,0,0,0,0,0,0,0,0,0,0,0,0,0,0,0,0,0,0,0,0,0,0,0,0,0,0,0,0,0,0,0,0],"id":12,"left_children":[1,3,5,7,9,11,13,-1,-1,-1,-1,15,17,19,-1,21,23,25,27,-1,29,31,-1,-1,-1,33,35,37,39,-1,-1,-1,-1,-1,-1,-1,-1,-1,-1,-1,-1],"loss_changes":[1.1517837E3,3.6360107E1,2.945423E2,4.3249207E0,1.4571228E1,7.566709E1,9.379822E0,0E0,0E0,0E0,0E0,1.051852E1,1.8378273E1,2.3892822E0,0E0,7.513443E0,1.2954326E0,4.098622E0,2.0159584E1,0E0,1.177002E0,3.598484E0,0E0,0E0,0E0,1.291908E0,1.5425227E0,6.888172E0,7.464981E-1,0E0,0E0,0E0,0E0,0E0,0E0,0E0,0E0,0E0,0E0,0E0,0E0],"parents":[2147483647,0,0,1,1,2,2,3,3,4,4,5,5,6,6,11,11,12,12,13,13,15,15,16,16,17,17,18,18,20,20,21,21,25,25,26,26,27,27,28,28],"right_children":[2,4,6,8,10,12,14,-1,-1,-1,-1,16,18,20,-1,22,24,26,28,-1,30,32,-1,-1,-1,34,36,38,40,-1,-1,-1,-1,-1,-1,-1,-1,-1,-1,-1,-1],"split_conditions":[1.3931742E-3,4.959193E-4,6.6002226E-1,-9.684963E-4,-2.2550577E-3,1.1224662E-2,9.1299486E-1,1.2446227E-1,2.842088E-1,2.9000363E-1,5.9661597E-1,9.9467945E-1,1.660937E-2,7.243154E-1,-1.8939312E-1,9.9372995E-1,-2.5503337E-3,-7.877485E-4,2.5963184E-1,-2.1142721E-2,1.4068854E-2,-5.25899E-3,1.8470025E-1,2.831707E-2,-2.116604E-2,9.955387E-1,3.4435174E-1,4.3707666E-1,3.8124725E-1,-2.9504538E-2,-1.2850659E-1,-1.2962055E-2,7.259255E-2,-7.228162E-3,-4.272137E-2,5.486352E-2,1.1962595E-2,-1.4079542E-1,-5.2943617E-2,2.2373073E-2,8.471699E-2],"split_indices":[16,1,18,5,15,13,17,0,0,0,0,36,11,19,0,37,10,5,11,0,10,8,0,0,0,33,19,19,10,0,0,0,0,0,0,0,0,0,0,0,0],"split_type":[0,0,0,0,0,0,0,0,0,0,0,0,0,0,0,0,0,0,0,0,0,0,0,0,0,0,0,0,0,0,0,0,0,0,0,0,0,0,0,0,0],"sum_hessian":[1.67E2,1.9E1,1.48E2,1.1E1,8E0,1.01E2,4.7E1,3E0,8E0,5E0,3E0,3E1,7.1E1,3.3E1,1.4E1,2.6E1,4E0,3.7E1,3.4E1,1E0,3.2E1,2.5E1,1E0,1E0,3E0,2.5E1,1.2E1,3.1E1,3E0,1E0,3.1E1,1E0,2.4E1,2.3E1,2E0,2E0,1E1,2E0,2.9E1,2E0,1E0],"tree_param":{"num_deleted":"0","num_feature":"44","num_nodes":"41","size_leaf_vector":"1"}},{"base_weights":[4.8254848E-2,6.1613326E0,-9.5800006E-1,4.399806E-1,4.7261972E0,5.926658E-1,-2.1361995E0,3.89946E0,3.9178216E-1,1.5540229E0,1.0960453E-1,-1.5921032E0,-1.6420616E-1,5.772934E-2,1.9994265E-1,3.2672245E-2,1.9748052E0,6.894236E-1,-6.573641E-2,-9.9083865E-1,-1.9367061E0,3.338858E-2,-2.2591019E-2,1.4227061E-1,1.3023841E0,8.412731E-1,-2.0726776E-2,-2.835806E-1,2.726738E-1,-1.0990261E0,4.014149E-2,-2.0764642E0,2.16273E-2,2.7028243E-3,7.73322E-2,4.6884634E-2,1.5186501E-2,-2.057209E-2,7.3633194E-3,2.064991E-2,-3.322919E-4,-5.7971645E-2,-1.44850565E-2,-1.7595206E-1,-9.228384E-2],"categories":[],"categories_nodes":[],"categories_segments":[],"categories_sizes":[],"default_left":[0,0,0,0,0,0,0,0,0,0,0,0,0,0,0,0,0,0,0,0,0,0,0,0,0,0,0,0,0,0,0,0,0,0,0,0,0,0,0,0,0,0,0,0,0],"id":13,"left_children":[1,3,5,-1,7,9,11,13,-1,15,17,19,-1,-1,-1,21,23,25,27,29,31,-1,-1,-1,33,35,-1,37,39,41,-1,43,-1,-1,-1,-1,-1,-1,-1,-1,-1,-1,-1,-1,-1],"loss_changes":[1.1315931E3,5.6854736E1,2.8993103E2,0E0,1.8288452E1,3.1872889E1,5.0983673E1,2.0935059E-2,0E0,1.4659096E1,4.823624E0,1.1134476E1,0E0,0E0,0E0,2.1479187E0,6.83165E0,2.19273E0,2.8049912E0,5.7336407E0,1.381192E1,0E0,0E0,0E0,3.5753899E0,2.3349142E-1,0E0,1.3276296E0,5.906751E-1,8.374405E-1,0E0,5.823349E0,0E0,0E0,0E0,0E0,0E0,0E0,0E0,0E0,0E0,0E0,0E0,0E0,0E0],"parents":[2147483647,0,0,1,1,2,2,4,4,5,5,6,6,7,7,9,9,10,10,11,11,15,15,16,16,17,17,18,18,19,19,20,20,24,24,25,25,27,27,28,28,29,29,31,31],"right_children":[2,4,6,-1,8,10,12,14,-1,16,18,20,-1,-1,-1,22,24,26,28,30,32,-1,-1,-1,34,36,-1,38,40,42,-1,44,-1,-1,-1,-1,-1,-1,-1,-1,-1,-1,-1,-1,-1],"split_conditions":[4.4762106E-3,3.1767204E-2,1.660937E-2,4.399806E-1,9.910013E-1,3.2711062E-1,5.511897E-1,4.5015624E-1,3.9178216E-1,2.8526977E-1,8.4238246E-2,-4.309616E-5,-1.6420616E-1,5.772934E-2,1.9994265E-1,2.2401938E-3,5.364274E-1,9.8988116E-1,2.104374E-4,9.996951E-1,2.5963184E-1,3.338858E-2,-2.2591019E-2,1.4227061E-1,3.6395025E-1,8.677898E-1,-2.0726776E-2,9.9603474E-1,7.353333E-2,9.945314E-1,4.014149E-2,6.873051E-4,2.16273E-2,2.7028243E-3,7.73322E-2,4.6884634E-2,1.5186501E-2,-2.057209E-2,7.3633194E-3,2.064991E-2,-3.322919E-4,-5.7971645E-2,-1.44850565E-2,-1.7595206E-1,-9.228384E-2],"split_indices":[16,27,11,0,37,20,14,28,0,22,16,3,0,0,0,15,24,34,2,39,11,0,0,0,22,24,0,31,15,30,0,4,0,0,0,0,0,0,0,0,0,0,0,0,0],"split_type":[0,0,0,0,0,0,0,0,0,0,0,0,0,0,0,0,0,0,0,0,0,0,0,0,0,0,0,0,0,0,0,0,0,0,0,0,0,0,0,0,0,0,0,0,0],"sum_hessian":[1.82E2,2.5E1,1.57E2,7E0,1.8E1,6.8E1,8.9E1,1.6E1,2E0,2.2E1,4.6E1,6.2E1,2.7E1,1E0,1.5E1,5E0,1.7E1,1E1,3.6E1,2.4E1,3.8E1,2E0,3E0,6E0,1.1E1,9E0,1E0,2.2E1,1.4E1,2.3E1,1E0,3.6E1,2E0,2E0,9E0,7E0,2E0,1.7E1,5E0,9E0,5E0,2.1E1,2E0,3E0,3.3E1],"tree_param":{"num_deleted":"0","num_feature":"44","num_nodes":"45","size_leaf_vector":"1"}},{"base_weights":[-1.3131881E-3,5.932598E0,-8.761763E-1,7.2290688E0,1.7621396E-1,5.093037E-1,-2.0098147E0,3.7286162E-1,1.06573634E-1,1.1772809E0,-3.7810635E-2,-1.1112171E0,-2.6345806E0,1.4501375E0,-2.4678724E-1,-2.6786757E-1,3.634754E-1,-1.3426986E0,1.1341796E0,-2.2183747E0,-1.728918E-1,1.2343335E0,1.7652598E-1,2.5675869E-2,-2.5077581E-2,-9.399686E-2,-7.263742E-1,5.3201992E-2,1.7384705E-1,-1.5677044E0,-2.5086144E-1,8.2058385E-2,2.0906385E-2,-2.8550688E-2,-1.1492419E-1,6.302834E-4,6.678095E-2,2.0280572E-2,-1.2212482E-2,7.5751627E-3,-5.5391293E-2,1.4747259E-2,-3.94495E-3,-5.8130264E-2,-1.2175633E-1,-2.7679563E-2,3.9137937E-2],"categories":[],"categories_nodes":[],"categories_segments":[],"categories_sizes":[],"default_left":[0,0,0,0,0,0,0,0,0,0,0,0,0,0,0,0,0,0,0,0,0,0,0,0,0,0,0,0,0,0,0,0,0,0,0,0,0,0,0,0,0,0,0,0,0,0,0],"id":14,"left_children":[1,3,5,7,-1,9,11,-1,-1,13,15,17,19,21,23,25,27,29,31,33,-1,35,-1,-1,-1,37,39,-1,41,43,45,-1,-1,-1,-1,-1,-1,-1,-1,-1,-1,-1,-1,-1,-1,-1,-1],"loss_changes":[9.292601E2,4.633606E1,2.4604242E2,3.8830566E-1,0E0,2.5992167E1,4.5353912E1,0E0,0E0,1.2792E1,3.7901092E0,2.0754261E1,9.461395E0,7.763935E0,1.4197466E0,2.004466E0,1.8077233E0,7.9594955E0,7.659011E-1,3.4384003E0,0E0,3.200489E0,0E0,0E0,0E0,1.6004212E0,2.5119138E0,0E0,4.211629E-1,7.007889E0,2.6236818E0,0E0,0E0,0E0,0E0,0E0,0E0,0E0,0E0,0E0,0E0,0E0,0E0,0E0,0E0,0E0,0E0],"parents":[2147483647,0,0,1,1,2,2,3,3,5,5,6,6,9,9,10,10,11,11,12,12,13,13,14,14,15,15,16,16,17,17,18,18,19,19,21,21,25,25,26,26,28,28,29,29,30,30],"right_children":[2,4,6,8,-1,10,12,-1,-1,14,16,18,20,22,24,26,28,30,32,34,-1,36,-1,-1,-1,38,40,-1,42,44,46,-1,-1,-1,-1,-1,-1,-1,-1,-1,-1,-1,-1,-1,-1,-1,-1],"split_conditions":[4.4762106E-3,-3.4499794E-4,1.735235E-2,-4.7182702E-4,1.7621396E-1,4.5497105E-2,6.659058E-1,3.7286162E-1,1.06573634E-1,9.938137E-1,2.104374E-4,2.5963184E-1,9.1299486E-1,9.901889E-1,-2.5503337E-3,9.80087E-1,9.467997E-1,9.904022E-1,-1.3862607E-3,6.7165173E-3,-1.728918E-1,-4.194624E-3,1.7652598E-1,2.5675869E-2,-2.5077581E-2,1.9307772E-2,7.015932E-4,5.3201992E-2,2.2250379E-2,9.969765E-1,-9.8880155E-5,8.2058385E-2,2.0906385E-2,-2.8550688E-2,-1.1492419E-1,6.302834E-4,6.678095E-2,2.0280572E-2,-1.2212482E-2,7.5751627E-3,-5.5391293E-2,1.4747259E-2,-3.94495E-3,-5.8130264E-2,-1.2175633E-1,-2.7679563E-2,3.9137937E-2],"split_indices":[16,3,11,15,0,15,18,0,0,36,2,11,17,37,10,38,33,36,2,9,0,8,0,0,0,13,1,0,13,42,2,0,0,0,0,0,0,0,0,0,0,0,0,0,0,0,0],"split_type":[0,0,0,0,0,0,0,0,0,0,0,0,0,0,0,0,0,0,0,0,0,0,0,0,0,0,0,0,0,0,0,0,0,0,0,0,0,0,0,0,0,0,0,0,0,0,0],"sum_hessian":[1.77E2,2.2E1,1.55E2,1.3E1,9E0,7E1,8.5E1,1.2E1,1E0,3.1E1,3.9E1,3.6E1,4.9E1,2.6E1,5E0,2.5E1,1.4E1,3.3E1,3E0,3.5E1,1.4E1,2.5E1,1E0,1E0,4E0,1.9E1,6E0,2E0,1.2E1,2.7E1,6E0,1E0,2E0,2E0,3.3E1,2E0,2.3E1,4E0,1.5E1,2E0,4E0,8E0,4E0,2E1,7E0,5E0,1E0],"tree_param":{"num_deleted":"0","num_feature":"44","num_nodes":"47","size_leaf_vector":"1"}},{"base_weights":[6.740598E-2,5.688317E0,-8.758914E-1,3.990632E-1,4.2258263E0,-4.7688086E-2,-2.4688923E0,3.5116212E0,4.091827E-1,4.8316425E-1,-8.958596E-1,-2.0714812E0,-1.6687843E-1,5.1880743E-2,1.8006979E-1,1.105012E0,8.243029E-2,-1.1811116E0,9.174201E-1,-1.7615056E-2,-2.1074517E0,1.3451487E0,-1.2456455E-1,-1.19957075E-1,4.6686092E-1,-1.9567618E0,-8.3735716E-1,1.1878452E0,-1.0867643E-2,-4.3885946E-2,-1.09388985E-1,-1.2088967E-2,7.182921E-2,2.503395E-2,-2.030226E-2,-4.082497E-2,1.8340339E-3,3.698541E-2,4.417052E-3,-1.6875504E-1,-4.3337256E-2,-2.7503643E-2,-6.5944314E-2,2.0209504E-2,7.8777604E-2],"categories":[],"categories_nodes":[],"categories_segments":[],"categories_sizes":[],"default_left":[0,0,0,0,0,0,0,0,0,0,0,0,0,0,0,0,0,0,0,0,0,0,0,0,0,0,0,0,0,0,0,0,0,0,0,0,0,0,0,0,0,0,0,0,0],"id":15,"left_children":[1,3,5,-1,7,9,11,13,-1,15,17,19,-1,-1,-1,21,23,25,27,-1,29,31,33,35,37,39,41,43,-1,-1,-1,-1,-1,-1,-1,-1,-1,-1,-1,-1,-1,-1,-1,-1,-1],"loss_changes":[9.5937665E2,5.3461365E1,2.043782E2,0E0,2.21427E1,4.6809E1,1.1383057E1,3.8879395E-2,0E0,1.5857426E1,2.1773243E1,1.669281E0,0E0,0E0,0E0,7.549223E0,3.1681595E0,7.693657E0,2.0994086E0,0E0,1.8334503E0,3.3944626E0,1.0832682E0,2.9757795E0,1.3805468E0,1.2534775E1,2.8712482E0,8.8231945E-1,0E0,0E0,0E0,0E0,0E0,0E0,0E0,0E0,0E0,0E0,0E0,0E0,0E0,0E0,0E0,0E0,0E0],"parents":[2147483647,0,0,1,1,2,2,4,4,5,5,6,6,7,7,9,9,10,10,11,11,15,15,16,16,17,17,18,18,20,20,21,21,22,22,23,23,24,24,25,25,26,26,27,27],"right_children":[2,4,6,-1,8,10,12,14,-1,16,18,20,-1,-1,-1,22,24,26,28,-1,30,32,34,36,38,40,42,44,-1,-1,-1,-1,-1,-1,-1,-1,-1,-1,-1,-1,-1,-1,-1,-1,-1],"split_conditions":[4.4762106E-3,7.821501E-3,6.5986943E-1,3.990632E-1,9.910013E-1,2.2195669E-2,4.9480397E-2,4.5015624E-1,4.091827E-1,3.402848E-2,3.2562226E-1,7.243154E-1,-1.6687843E-1,5.1880743E-2,1.8006979E-1,9.9467945E-1,-6.7093276E-4,7.883515E-1,6.955529E-1,-1.7615056E-2,8.396385E-3,-4.121533E-3,-5.654124E-4,2.1299614E-1,9.8312956E-1,-1.864383E-4,5.999214E-2,7.2345835E-1,-1.0867643E-2,-4.3885946E-2,-1.09388985E-1,-1.2088967E-2,7.182921E-2,2.503395E-2,-2.030226E-2,-4.082497E-2,1.8340339E-3,3.698541E-2,4.417052E-3,-1.6875504E-1,-4.3337256E-2,-2.7503643E-2,-6.5944314E-2,2.0209504E-2,7.8777604E-2],"split_indices":[16,21,18,0,37,12,6,28,0,15,14,19,0,0,0,36,4,23,20,0,9,5,4,18,28,0,11,22,0,0,0,0,0,0,0,0,0,0,0,0,0,0,0,0,0],"split_type":[0,0,0,0,0,0,0,0,0,0,0,0,0,0,0,0,0,0,0,0,0,0,0,0,0,0,0,0,0,0,0,0,0,0,0,0,0,0,0,0,0,0,0,0,0],"sum_hessian":[1.79E2,2.5E1,1.54E2,8E0,1.7E1,1.02E2,5.2E1,1.6E1,1E0,6.3E1,3.9E1,3.8E1,1.4E1,1E0,1.5E1,2.4E1,3.9E1,3.4E1,5E0,1E0,3.7E1,2E1,4E0,2.6E1,1.3E1,9E0,2.5E1,4E0,1E0,3E0,3.4E1,1E0,1.9E1,1E0,3E0,4E0,2.2E1,7E0,6E0,3E0,6E0,1.7E1,8E0,2E0,2E0],"tree_param":{"num_deleted":"0","num_feature":"44","num_nodes":"45","size_leaf_vector":"1"}},{"base_weights":[-5.665448E-2,5.4109626E0,-8.915914E-1,6.7173996E0,1.5857491E-1,3.1375635E-1,-1.8873049E0,4.1774884E-1,2.324771E-1,1.3020622E0,2.2634378E-2,-1.145925E0,-2.3942528E0,1.428743E0,-1.1786747E-2,1.18615255E-1,-7.329882E-1,1.1474947E0,-1.3251231E0,-1.0014462E0,-2.5396817E0,8.3272636E-2,3.3478737E-2,4.4026285E-1,-2.6690534E-1,-9.936357E-3,-4.000475E-2,8.024598E-3,7.80375E-2,-6.6343653E-1,-1.8029106E0,-1.3120008E-2,-5.4838773E-2,-1.5439998E-1,-1.0874101E-1,3.7071954E-2,1.1860129E-2,2.7798416E-4,-1.9721318E-2,-4.0711246E-2,3.6190033E-2,-1.4547591E-1,-5.767416E-2],"categories":[],"categories_nodes":[],"categories_segments":[],"categories_sizes":[],"default_left":[0,0,0,0,0,0,0,0,0,0,0,0,0,0,0,0,0,0,0,0,0,0,0,0,0,0,0,0,0,0,0,0,0,0,0,0,0,0,0,0,0,0,0],"id":16,"left_children":[1,3,5,7,-1,9,11,-1,-1,13,15,17,19,21,-1,23,25,27,29,31,33,-1,-1,35,37,-1,-1,-1,-1,39,41,-1,-1,-1,-1,-1,-1,-1,-1,-1,-1,-1,-1],"loss_changes":[7.580685E2,4.3061646E1,1.7341824E2,5.1748047E0,0E0,1.8959885E1,2.6947815E1,0E0,0E0,3.2589493E0,3.8582602E0,1.5493759E1,6.77417E0,1.4006901E0,0E0,5.945592E0,5.6114674E-2,9.731643E-1,8.920544E0,1.3492203E-1,1.4866333E0,0E0,0E0,1.4142089E0,7.665831E-1,0E0,0E0,0E0,0E0,3.7270265E0,9.579823E0,0E0,0E0,0E0,0E0,0E0,0E0,0E0,0E0,0E0,0E0,0E0,0E0],"parents":[2147483647,0,0,1,1,2,2,3,3,5,5,6,6,9,9,10,10,11,11,12,12,13,13,15,15,16,16,17,17,18,18,19,19,20,20,23,23,24,24,29,29,30,30],"right_children":[2,4,6,8,-1,10,12,-1,-1,14,16,18,20,22,-1,24,26,28,30,32,34,-1,-1,36,38,-1,-1,-1,-1,40,42,-1,-1,-1,-1,-1,-1,-1,-1,-1,-1,-1,-1],"split_conditions":[4.4762106E-3,-3.4499794E-4,8.336605E-3,-1.376783E-3,1.5857491E-1,2.8224943E-2,6.801843E-1,4.1774884E-1,2.324771E-1,2.8945212E-3,9.9423265E-1,-2.380027E-2,-6.928603E-4,-1.1205067E-3,-1.1786747E-2,2.2312228E-2,-6.058275E-4,-7.3814705E-2,-4.309616E-5,5.6092144E-4,9.794291E-1,8.3272636E-2,3.3478737E-2,8.4238246E-2,5.418483E-2,-9.936357E-3,-4.000475E-2,8.024598E-3,7.80375E-2,9.974274E-1,9.830432E-1,-1.3120008E-2,-5.4838773E-2,-1.5439998E-1,-1.0874101E-1,3.7071954E-2,1.1860129E-2,2.7798416E-4,-1.9721318E-2,-4.0711246E-2,3.6190033E-2,-1.4547591E-1,-5.767416E-2],"split_indices":[16,3,10,5,0,16,18,0,0,0,35,0,7,7,0,13,0,0,3,0,28,0,0,16,14,0,0,0,0,38,34,0,0,0,0,0,0,0,0,0,0,0,0],"split_type":[0,0,0,0,0,0,0,0,0,0,0,0,0,0,0,0,0,0,0,0,0,0,0,0,0,0,0,0,0,0,0,0,0,0,0,0,0,0,0,0,0,0,0],"sum_hessian":[1.64E2,2.1E1,1.43E2,1.2E1,9E0,6.5E1,7.8E1,5E0,7E0,1.4E1,5.1E1,3.3E1,4.5E1,1.3E1,1E0,4.6E1,5E0,2E0,3.1E1,5E0,4E1,9E0,4E0,2.5E1,2.1E1,1E0,4E0,1E0,1E0,1.4E1,1.7E1,1E0,4E0,1.3E1,2.7E1,9E0,1.6E1,7E0,1.4E1,1.3E1,1E0,5E0,1.2E1],"tree_param":{"num_deleted":"0","num_feature":"44","num_nodes":"43","size_leaf_vector":"1"}},{"base_weights":[1.1809886E-1,5.6553745E0,-7.2055537E-1,3.6625883E-1,4.2764683E0,1.6203894E-1,-2.0765672E0,1.6675888E-1,3.4649527E-1,1.0897949E0,-2.5437585E-1,-9.337637E-1,-2.3727946E0,1.3733437E0,-2.2603305E-1,2.1049163E-1,-5.902157E-1,-1.1482605E0,-1.10456705E-1,-2.0396457E0,-1.5061927E-1,1.1335644E0,1.7220668E-1,2.357111E-2,-2.2990426E-2,7.881065E-1,-5.995965E-2,-3.1279284E-1,-1.3357203E0,-1.6791154E-2,-5.9796095E-2,-1.3225555E-2,8.792663E-3,-1.5732814E-2,-1.04119144E-1,-1.1492061E-2,6.0299236E-2,6.8015225E-2,2.1514608E-2,1.0920358E-2,-1.1332501E-2,-3.9316505E-2,6.05509E-3,-1.02059685E-1,-1.1100407E-2],"categories":[],"categories_nodes":[],"categories_segments":[],"categories_sizes":[],"default_left":[0,0,0,0,0,0,0,0,0,0,0,0,0,0,0,0,0,0,0,0,0,0,0,0,0,0,0,0,0,0,0,0,0,0,0,0,0,0,0,0,0,0,0,0,0],"id":17,"left_children":[1,3,5,-1,7,9,11,-1,-1,13,15,17,19,21,23,25,27,29,31,33,-1,35,-1,-1,-1,37,39,41,43,-1,-1,-1,-1,-1,-1,-1,-1,-1,-1,-1,-1,-1,-1,-1,-1],"loss_changes":[8.121066E2,2.1631653E1,1.8225137E2,0E0,1.4352386E1,3.6206028E1,1.809613E1,0E0,0E0,1.1130367E1,1.02721E1,2.345521E0,3.870514E0,8.012638E0,1.1950517E0,4.4213214E0,7.4413557E0,2.4323463E-2,2.2294438E-1,1.8512878E0,0E0,2.5481663E0,0E0,0E0,0E0,1.257338E0,9.775234E-1,6.0537195E0,7.403784E0,0E0,0E0,0E0,0E0,0E0,0E0,0E0,0E0,0E0,0E0,0E0,0E0,0E0,0E0,0E0,0E0],"parents":[2147483647,0,0,1,1,2,2,4,4,5,5,6,6,9,9,10,10,11,11,12,12,13,13,14,14,15,15,16,16,17,17,18,18,19,19,21,21,25,25,26,26,27,27,28,28],"right_children":[2,4,6,-1,8,10,12,-1,-1,14,16,18,20,22,24,26,28,30,32,34,-1,36,-1,-1,-1,38,40,42,44,-1,-1,-1,-1,-1,-1,-1,-1,-1,-1,-1,-1,-1,-1,-1,-1],"split_conditions":[4.4762106E-3,6.289411E-2,7.6328194E-1,3.6625883E-1,9.910013E-1,2.1453569E-2,7.440472E-2,1.6675888E-1,3.4649527E-1,9.9467945E-1,9.7030216E-1,9.973532E-1,3.1288426E-2,9.9372995E-1,-2.5503337E-3,9.785763E-1,4.6110046E-4,-3.4674027E-3,8.2069694E-4,7.789E-1,-1.5061927E-1,-4.121533E-3,1.7220668E-1,2.357111E-2,-2.2990426E-2,-1.3862607E-3,2.1277854E-2,-4.4814023E-4,9.861894E-1,-1.6791154E-2,-5.9796095E-2,-1.3225555E-2,8.792663E-3,-1.5732814E-2,-1.04119144E-1,-1.1492061E-2,6.0299236E-2,6.8015225E-2,2.1514608E-2,1.0920358E-2,-1.1332501E-2,-3.9316505E-2,6.05509E-3,-1.02059685E-1,-1.1100407E-2],"split_indices":[16,28,20,0,37,14,11,0,0,36,39,42,5,37,10,28,3,3,1,20,0,5,0,0,0,2,13,3,33,0,0,0,0,0,0,0,0,0,0,0,0,0,0,0,0],"split_type":[0,0,0,0,0,0,0,0,0,0,0,0,0,0,0,0,0,0,0,0,0,0,0,0,0,0,0,0,0,0,0,0,0,0,0,0,0,0,0,0,0,0,0,0,0],"sum_hessian":[1.73E2,2.2E1,1.51E2,8E0,1.4E1,9.2E1,5.9E1,1.2E1,2E0,2.8E1,6.4E1,1.3E1,4.6E1,2.3E1,5E0,2.7E1,3.7E1,1E1,3E0,3.3E1,1.3E1,2.2E1,1E0,1E0,4E0,8E0,1.9E1,2.8E1,9E0,1E0,9E0,2E0,1E0,1E0,3.2E1,1E0,2.1E1,2E0,6E0,7E0,1.2E1,1.3E1,1.5E1,5E0,4E0],"tree_param":{"num_deleted":"0","num_feature":"44","num_nodes":"45","size_leaf_vector":"1"}},{"base_weights":[-5.8311258E-2,4.369197E0,-7.861362E-1,5.266403E0,1.804333E0,3.6756262E-1,-1.6998466E0,4.1961017E0,4.609606E-1,1.0843911E-1,2.3699505E-2,1.018002E0,1.2493579E-2,-1.0227057E0,-2.279023E0,2.3625226E-1,1.0437081E-1,7.7026033E-1,1.6790152E-1,-1.9104369E-1,3.28413E-1,-1.213174E0,1.042419E0,-1.8956199E0,-1.4597271E-1,-1.9758234E-2,1.036411E0,-7.6453745E-1,-6.3605666E-2,4.9867284E-2,1.8246233E-1,-1.500259E0,-5.4568267E-1,7.2861197E-3,6.4637184E-2,-1.2461376E-2,-9.71096E-2,5.658682E-2,-1.6986132E-2,2.4347306E-4,-4.7905326E-2,2.3456527E-2,-1.1424524E-2,1.5110894E-2,-7.3415216E-4,-5.7928454E-2,-1.5449558E-1,3.5133887E-2,-3.541346E-2],"categories":[],"categories_nodes":[],"categories_segments":[],"categories_sizes":[],"default_left":[0,0,0,0,0,0,0,0,0,0,0,0,0,0,0,0,0,0,0,0,0,0,0,0,0,0,0,0,0,0,0,0,0,0,0,0,0,0,0,0,0,0,0,0,0,0,0,0,0],"id":18,"left_children":[1,3,5,7,9,11,13,15,-1,-1,-1,17,19,21,23,-1,-1,25,-1,27,29,31,33,35,-1,-1,37,39,41,-1,43,45,47,-1,-1,-1,-1,-1,-1,-1,-1,-1,-1,-1,-1,-1,-1,-1,-1],"loss_changes":[5.705861E2,4.8027985E1,1.6085509E2,3.7467804E1,2.8507595E0,1.5691945E1,3.1004852E1,7.98291E0,0E0,0E0,0E0,1.132678E1,2.9563031E0,1.7391605E1,5.515259E0,0E0,0E0,7.543663E0,0E0,1.9977485E0,1.5753827E0,6.463154E0,7.094798E-1,1.8929214E0,0E0,0E0,2.8769054E0,7.493324E-1,2.2153542E0,0E0,3.8218552E-1,1.0542496E1,3.1362503E0,0E0,0E0,0E0,0E0,0E0,0E0,0E0,0E0,0E0,0E0,0E0,0E0,0E0,0E0,0E0,0E0],"parents":[2147483647,0,0,1,1,2,2,3,3,4,4,5,5,6,6,7,7,11,11,12,12,13,13,14,14,17,17,19,19,20,20,21,21,22,22,23,23,26,26,27,27,28,28,30,30,31,31,32,32],"right_children":[2,4,6,8,10,12,14,16,-1,-1,-1,18,20,22,24,-1,-1,26,-1,28,30,32,34,36,-1,-1,38,40,42,-1,44,46,48,-1,-1,-1,-1,-1,-1,-1,-1,-1,-1,-1,-1,-1,-1,-1,-1],"split_conditions":[2.6220676E-2,1.601552E-1,8.336605E-3,3.886738E-3,9.8764664E-1,3.9073065E-2,6.801843E-1,5.1832106E-3,4.609606E-1,1.0843911E-1,2.3699505E-2,3.6067802E-2,2.104374E-4,2.5963184E-1,3.1288426E-2,2.3625226E-1,1.0437081E-1,3.626728E-1,1.6790152E-1,3.584445E-1,9.467997E-1,9.873988E-1,-7.3814705E-2,6.1015803E-3,-1.4597271E-1,-1.9758234E-2,3.402848E-2,7.513803E-4,3.398576E-1,4.9867284E-2,7.353333E-2,9.926604E-1,9.322769E-1,7.2861197E-3,6.4637184E-2,-1.2461376E-2,-9.71096E-2,5.658682E-2,-1.6986132E-2,2.4347306E-4,-4.7905326E-2,2.3456527E-2,-1.1424524E-2,1.5110894E-2,-7.3415216E-4,-5.7928454E-2,-1.5449558E-1,3.5133887E-2,-3.541346E-2],"split_indices":[17,22,10,17,38,15,18,19,0,0,0,15,2,11,5,0,0,22,0,19,33,36,0,9,0,0,15,0,18,0,15,38,30,0,0,0,0,0,0,0,0,0,0,0,0,0,0,0,0],"split_type":[0,0,0,0,0,0,0,0,0,0,0,0,0,0,0,0,0,0,0,0,0,0,0,0,0,0,0,0,0,0,0,0,0,0,0,0,0,0,0,0,0,0,0,0,0,0,0,0,0],"sum_hessian":[1.75E2,2.4E1,1.51E2,1.7E1,7E0,6.7E1,8.4E1,1.5E1,2E0,5E0,2E0,2.3E1,4.4E1,4E1,4.4E1,1.1E1,4E0,2.2E1,1E0,2.7E1,1.7E1,3.7E1,3E0,3E1,1.4E1,4E0,1.8E1,4E0,2.3E1,2E0,1.5E1,2.5E1,1.2E1,1E0,2E0,1E0,2.9E1,1.7E1,1E0,1E0,3E0,5E0,1.8E1,9E0,6E0,2.2E1,3E0,1E0,1.1E1],"tree_param":{"num_deleted":"0","num_feature":"44","num_nodes":"49","size_leaf_vector":"1"}},{"base_weights":[1.3341916E-1,4.8687887E0,-6.566644E-1,3.3823222E-1,3.6503727E0,1.8688121E-1,-1.8721812E0,3.68323E-1,2.9984581E0,1.0331354E0,-2.3249593E-1,-6.578994E-1,-2.1117887E0,1.7463984E-1,1.0028639E-1,1.2203912E0,-1.8467255E-1,-1.106743E-1,-1.3125877E-1,-4.183291E-2,-9.121728E-2,-1.7994E0,-1.3916068E-1,1.015477E0,1.6370396E-1,2.1567155E-2,-2.232561E-2,1.6388766E-1,-4.849631E-1,-1.198678E-2,8.858442E-3,-1.4454151E-2,-9.157689E-2,-1.0710812E-2,5.366167E-2,-3.3941064E-2,1.1888507E-2,-3.5224166E-2,5.0413944E-2],"categories":[],"categories_nodes":[],"categories_segments":[],"categories_sizes":[],"default_left":[0,0,0,0,0,0,0,0,0,0,0,0,0,0,0,0,0,0,0,0,0,0,0,0,0,0,0,0,0,0,0,0,0,0,0,0,0,0,0],"id":19,"left_children":[1,3,5,-1,7,9,11,-1,13,15,17,19,21,-1,-1,23,25,-1,27,-1,29,31,-1,33,-1,-1,-1,35,37,-1,-1,-1,-1,-1,-1,-1,-1,-1,-1],"loss_changes":[6.803793E2,3.536493E1,1.6030351E2,0E0,2.151828E1,3.324587E1,1.7231537E1,0E0,1.3370667E0,7.2946625E0,1.2344097E1,1.1392746E0,6.1083984E0,0E0,0E0,8.037651E0,9.990867E-1,0E0,6.4475484E0,0E0,2.0191473E-1,1.3635178E0,0E0,2.0764923E0,0E0,0E0,0E0,2.2782917E0,9.888624E0,0E0,0E0,0E0,0E0,0E0,0E0,0E0,0E0,0E0,0E0],"parents":[2147483647,0,0,1,1,2,2,4,4,5,5,6,6,8,8,9,9,10,10,11,11,12,12,15,15,16,16,18,18,20,20,21,21,23,23,27,27,28,28],"right_children":[2,4,6,-1,8,10,12,-1,14,16,18,20,22,-1,-1,24,26,-1,28,-1,30,32,-1,34,-1,-1,-1,36,38,-1,-1,-1,-1,-1,-1,-1,-1,-1,-1],"split_conditions":[4.4762106E-3,3.1767204E-2,7.6328194E-1,3.3823222E-1,-1.376783E-3,2.1453569E-2,5.39964E-3,3.68323E-1,3.47312E-2,9.9467945E-1,1.0719258E-1,9.9747294E-1,3.1288426E-2,1.7463984E-1,1.0028639E-1,9.9372995E-1,2.126579E-4,-1.106743E-1,1.2537739E-1,-4.183291E-2,8.2069694E-4,8.0844015E-1,-1.3916068E-1,-4.121533E-3,1.6370396E-1,2.1567155E-2,-2.232561E-2,-5.9325043E-3,3.1763205E-1,-1.198678E-2,8.858442E-3,-1.4454151E-2,-9.157689E-2,-1.0710812E-2,5.366167E-2,-3.3941064E-2,1.1888507E-2,-3.5224166E-2,5.0413944E-2],"split_indices":[16,27,20,0,5,14,8,0,21,36,17,42,5,0,0,37,0,0,15,0,1,21,0,5,0,0,0,6,12,0,0,0,0,0,0,0,0,0,0],"split_type":[0,0,0,0,0,0,0,0,0,0,0,0,0,0,0,0,0,0,0,0,0,0,0,0,0,0,0,0,0,0,0,0,0,0,0,0,0,0,0],"sum_hessian":[1.8E2,2.5E1,1.55E2,8E0,1.7E1,9.2E1,6.3E1,1E0,1.6E1,3E1,6.2E1,1.1E1,5.2E1,9E0,7E0,2.6E1,4E0,2E0,6E1,8E0,3E0,3.8E1,1.4E1,2.5E1,1E0,1E0,3E0,3.3E1,2.7E1,2E0,1E0,1E0,3.7E1,1E0,2.4E1,2E0,3.1E1,2.4E1,3E0],"tree_param":{"num_deleted":"0","num_feature":"44","num_nodes":"39","size_leaf_vector":"1"}},{"base_weights":[6.040592E-2,4.5395284E0,-6.6146886E-1,3.7881515E0,7.3493752E0,2.1095856E-1,-1.7037863E0,2.4275278E-1,1.0645258E-1,4.3381935E-1,8.420854E-2,8.7513745E-1,-9.570125E-2,1.031381E0,-1.8022971E0,1.0945538E0,-3.86761E-2,-3.2539117E-1,2.579878E-1,5.8436394E-3,7.1509935E-2,-2.2105308E0,-8.222473E-1,-1.044302E-2,1.1701676E0,2.022028E-2,-1.8065918E-2,-3.570714E-2,-5.674563E-1,1.7053284E-1,5.4549932E-2,-2.8600175E0,-9.0200216E-2,-2.0795545E-1,-1.3617895E0,6.414243E-2,1.9936562E-2,1.9041756E-2,-1.487667E-2,8.594847E-3,-3.0904068E-2,1.4663868E-2,-4.046488E-3,-1.468809E-1,-4.240036E-2,-3.3079423E-2,2.2427738E-3,-7.3792286E-2,-5.5306675E-3],"categories":[],"categories_nodes":[],"categories_segments":[],"categories_sizes":[],"default_left":[0,0,0,0,0,0,0,0,0,0,0,0,0,0,0,0,0,0,0,0,0,0,0,0,0,0,0,0,0,0,0,0,0,0,0,0,0,0,0,0,0,0,0,0,0,0,0,0,0],"id":20,"left_children":[1,3,5,7,9,11,13,-1,-1,-1,-1,15,17,19,21,23,25,27,29,-1,-1,31,33,-1,35,-1,-1,37,39,41,-1,43,-1,45,47,-1,-1,-1,-1,-1,-1,-1,-1,-1,-1,-1,-1,-1,-1],"loss_changes":[5.5914166E2,2.282959E1,1.3585204E2,2.683545E1,1.5458649E1,1.6785263E1,2.0181015E1,0E0,0E0,0E0,0E0,5.25548E0,4.7145596E0,9.2701507E-1,2.4588287E1,2.3140812E0,1.0038605E0,2.434022E0,1.4895208E0,0E0,0E0,6.9860535E0,6.6769724E0,0E0,1.2270145E0,0E0,0E0,1.9673601E0,8.174119E-1,7.027793E-1,0E0,7.003784E-3,0E0,1.291193E0,1.4065018E0,0E0,0E0,0E0,0E0,0E0,0E0,0E0,0E0,0E0,0E0,0E0,0E0,0E0,0E0],"parents":[2147483647,0,0,1,1,2,2,3,3,4,4,5,5,6,6,11,11,12,12,13,13,14,14,15,15,16,16,17,17,18,18,21,21,22,22,24,24,27,27,28,28,29,29,31,31,33,33,34,34],"right_children":[2,4,6,8,10,12,14,-1,-1,-1,-1,16,18,20,22,24,26,28,30,-1,-1,32,34,-1,36,-1,-1,38,40,42,-1,44,-1,46,48,-1,-1,-1,-1,-1,-1,-1,-1,-1,-1,-1,-1,-1,-1],"split_conditions":[4.4762106E-3,1.4733499E-2,9.006472E-3,4.256795E-3,8.1917184E-4,3.402848E-2,-2.380027E-2,2.4275278E-1,1.0645258E-1,4.3381935E-1,8.420854E-2,9.920153E-1,-1.5760856E-3,-7.3814705E-2,9.840453E-1,-4.121533E-3,-5.654124E-4,9.734922E-1,2.004339E-2,5.8436394E-3,7.1509935E-2,9.677154E-1,8.0844015E-1,-1.044302E-2,7.559661E-1,2.022028E-2,-1.8065918E-2,9.991304E-2,-2.2383263E-4,2.323156E-2,5.4549932E-2,9.701661E-1,-9.0200216E-2,9.871644E-1,2.2924438E-4,6.414243E-2,1.9936562E-2,1.9041756E-2,-1.487667E-2,8.594847E-3,-3.0904068E-2,1.4663868E-2,-4.046488E-3,-1.468809E-1,-4.240036E-2,-3.3079423E-2,2.2427738E-3,-7.3792286E-2,-5.5306675E-3],"split_indices":[16,18,9,19,0,15,0,0,0,0,0,38,6,0,35,5,4,39,12,0,0,31,21,0,23,0,0,15,2,13,0,33,0,34,0,0,0,0,0,0,0,0,0,0,0,0,0,0,0],"split_type":[0,0,0,0,0,0,0,0,0,0,0,0,0,0,0,0,0,0,0,0,0,0,0,0,0,0,0,0,0,0,0,0,0,0,0,0,0,0,0,0,0,0,0,0,0,0,0,0,0],"sum_hessian":[1.71E2,2.3E1,1.48E2,2E1,3E0,8.1E1,6.7E1,1.1E1,9E0,2E0,1E0,2.5E1,5.6E1,2E0,6.5E1,2E1,5E0,3.4E1,2.2E1,1E0,1E0,4.5E1,2E1,1E0,1.9E1,2E0,3E0,1.6E1,1.8E1,2.1E1,1E0,1.5E1,3E1,1E1,1E1,1.6E1,3E0,6E0,1E1,1E0,1.7E1,1.4E1,7E0,1.4E1,1E0,3E0,7E0,9E0,1E0],"tree_param":{"num_deleted":"0","num_feature":"44","num_nodes":"49","size_leaf_vector":"1"}},{"base_weights":[-4.226963E-3,4.3821416E0,-6.8337935E-1,2.8956454E0,5.627334E0,3.2154632E-1,-1.4933958E0,1.6679779E-1,7.6197915E-2,3.3751125E0,4.6439996E-1,9.863096E-1,3.5914823E-2,-1.1144679E0,-1.1192578E-1,1.871708E-1,6.9535E-2,7.1713555E-1,1.5924478E-1,1.9962507E-1,-2.9361832E-1,-1.3193052E0,-5.307932E-1,-8.7923594E-2,1.0684412E0,5.066257E-1,9.141749E-3,-6.937294E-1,-1.2309595E-2,-1.1363932E0,-1.4092994E-1,1.6648756E-1,-9.262634E-1,1.97148E-2,-1.7983532E-2,5.6789834E-2,4.82049E-3,3.147602E-2,1.55677935E-2,7.182312E-3,-6.921075E-3,-4.147617E-2,3.0258656E-3,1.1148044E-2,-1.6961318E-2,-3.462878E-2,-7.34018E-2,-1.0586034E-2,3.7066936E-2,-5.3624522E-2,-8.94138E-3],"categories":[],"categories_nodes":[],"categories_segments":[],"categories_sizes":[],"default_left":[0,0,0,0,0,0,0,0,0,0,0,0,0,0,0,0,0,0,0,0,0,0,0,0,0,0,0,0,0,0,0,0,0,0,0,0,0,0,0,0,0,0,0,0,0,0,0,0,0,0,0],"id":21,"left_children":[1,3,5,7,9,11,13,-1,-1,15,-1,17,19,21,-1,-1,-1,23,-1,25,27,29,31,33,35,37,39,41,43,45,-1,47,49,-1,-1,-1,-1,-1,-1,-1,-1,-1,-1,-1,-1,-1,-1,-1,-1,-1,-1],"loss_changes":[5.332589E2,2.8128632E1,1.2665117E2,2.7677155E0,6.7587494E1,1.3255991E1,2.1787064E1,0E0,0E0,1.3718262E0,0E0,1.01438465E1,2.7560112E0,6.3536606E0,0E0,0E0,0E0,5.7503777E0,0E0,1.9836377E0,1.9048911E0,8.589233E0,4.842025E0,1.059109E0,8.071022E-1,1.1596441E-1,4.5653796E-1,7.671559E-1,9.2168665E-1,4.8708305E0,0E0,1.6788508E0,1.010459E0,0E0,0E0,0E0,0E0,0E0,0E0,0E0,0E0,0E0,0E0,0E0,0E0,0E0,0E0,0E0,0E0,0E0,0E0],"parents":[2147483647,0,0,1,1,2,2,3,3,4,4,5,5,6,6,9,9,11,11,12,12,13,13,17,17,19,19,20,20,21,21,22,22,23,23,24,24,25,25,26,26,27,27,28,28,29,29,31,31,32,32],"right_children":[2,4,6,8,10,12,14,-1,-1,16,-1,18,20,22,-1,-1,-1,24,-1,26,28,30,32,34,36,38,40,42,44,46,-1,48,50,-1,-1,-1,-1,-1,-1,-1,-1,-1,-1,-1,-1,-1,-1,-1,-1,-1,-1],"split_conditions":[4.4762106E-3,5.262533E-4,1.660937E-2,2.0061769E-2,-1.9580284E-3,2.767106E-1,5.511897E-1,1.6679779E-1,7.6197915E-2,-5.8711815E-4,4.6439996E-1,1.6279848E-2,9.734922E-1,9.873988E-1,-1.1192578E-1,1.871708E-1,6.9535E-2,3.626728E-1,1.5924478E-1,9.8312956E-1,9.9493265E-1,9.926604E-1,7.1103346E-1,2.2401938E-3,9.969428E-1,9.875224E-1,5.1095117E-2,9.9583834E-1,7.4491283E-4,6.8122625E-2,-1.4092994E-1,3.2562226E-1,9.9705595E-1,1.97148E-2,-1.7983532E-2,5.6789834E-2,4.82049E-3,3.147602E-2,1.55677935E-2,7.182312E-3,-6.921075E-3,-4.147617E-2,3.0258656E-3,1.1148044E-2,-1.6961318E-2,-3.462878E-2,-7.34018E-2,-1.0586034E-2,3.7066936E-2,-5.3624522E-2,-8.94138E-3],"split_indices":[16,1,11,20,9,20,14,0,0,3,0,14,39,36,0,0,0,22,0,28,39,38,21,15,39,34,14,31,1,11,0,14,31,0,0,0,0,0,0,0,0,0,0,0,0,0,0,0,0,0,0],"split_type":[0,0,0,0,0,0,0,0,0,0,0,0,0,0,0,0,0,0,0,0,0,0,0,0,0,0,0,0,0,0,0,0,0,0,0,0,0,0,0,0,0,0,0,0,0,0,0,0,0,0,0],"sum_hessian":[1.77E2,2.3E1,1.54E2,1.2E1,1.1E1,6.9E1,8.5E1,8E0,4E0,8E0,3E0,2E1,4.9E1,5.8E1,2.7E1,6E0,2E0,1.9E1,1E0,3.3E1,1.6E1,4.2E1,1.6E1,6E0,1.3E1,1.2E1,2.1E1,6E0,1E1,3.9E1,3E0,6E0,1E1,2E0,4E0,1.2E1,1E0,6E0,6E0,1.1E1,1E1,5E0,1E0,6E0,4E0,1.8E1,2.1E1,4E0,2E0,8E0,2E0],"tree_param":{"num_deleted":"0","num_feature":"44","num_nodes":"51","size_leaf_vector":"1"}},{"base_weights":[7.134947E-2,4.3336344E0,-6.165762E-1,6.0035315E0,3.1946516E0,3.0648395E-1,-1.380349E0,1.5553914E-1,3.4657213E-1,2.4506862E0,2.9247972E-1,9.5857733E-1,8.344385E-2,-1.0142553E0,-1.0860453E-1,3.2665968E-2,1.266202E-1,9.588108E-2,1.1982133E0,-5.465598E-2,4.1484696E-1,-1.136269E0,9.78004E-1,1.9057656E-2,-1.10675655E-2,1.4391724E0,4.7665253E-1,1.3306667E-1,-3.0541864E-1,7.360761E-1,8.321582E-2,-1.4300523E0,-6.398045E-1,1.7495442E-2,7.155724E-2,8.153109E-2,3.721714E-2,4.6999934E-3,2.7440786E-2,1.5934372E-2,-9.554323E-3,4.1504046E-3,-2.6241696E-2,5.2685644E-2,2.272892E-2,-2.9305934E-3,8.194915E-3,-1.3564506E-1,-6.1250355E-2,-3.7123334E-2,1.4604966E-2],"categories":[],"categories_nodes":[],"categories_segments":[],"categories_sizes":[],"default_left":[0,0,0,0,0,0,0,0,0,0,0,0,0,0,0,0,0,0,0,0,0,0,0,0,0,0,0,0,0,0,0,0,0,0,0,0,0,0,0,0,0,0,0,0,0,0,0,0,0,0,0],"id":22,"left_children":[1,3,5,7,9,11,13,-1,-1,15,-1,17,19,21,-1,-1,-1,23,25,27,29,31,33,-1,-1,35,37,39,41,43,45,47,49,-1,-1,-1,-1,-1,-1,-1,-1,-1,-1,-1,-1,-1,-1,-1,-1,-1,-1],"loss_changes":[5.275242E2,2.8370392E1,1.0969935E2,2.5957031E0,1.924266E1,1.0246462E1,2.2434341E1,0E0,0E0,5.486908E-1,0E0,3.60631E0,2.4940763E0,1.5696251E1,0E0,0E0,0E0,5.3685635E-1,1.748148E0,1.8765205E0,1.6432207E0,7.3986664E0,6.3769174E-1,0E0,0E0,1.1650658E-1,8.647859E-2,1.4447966E0,1.4924204E0,2.3631716E-1,1.1259349E-1,5.883148E0,2.4173145E0,0E0,0E0,0E0,0E0,0E0,0E0,0E0,0E0,0E0,0E0,0E0,0E0,0E0,0E0,0E0,0E0,0E0,0E0],"parents":[2147483647,0,0,1,1,2,2,3,3,4,4,5,5,6,6,9,9,11,11,12,12,13,13,17,17,18,18,19,19,20,20,21,21,22,22,25,25,26,26,27,27,28,28,29,29,30,30,31,31,32,32],"right_children":[2,4,6,8,10,12,14,-1,-1,16,-1,18,20,22,-1,-1,-1,24,26,28,30,32,34,-1,-1,36,38,40,42,44,46,48,50,-1,-1,-1,-1,-1,-1,-1,-1,-1,-1,-1,-1,-1,-1,-1,-1,-1,-1],"split_conditions":[4.4762106E-3,3.1767204E-2,3.2517824E-2,-4.7804275E-1,9.93476E-1,2.4201623E-3,5.511897E-1,1.5553914E-1,3.4657213E-1,4.5015624E-1,2.9247972E-1,2.8526977E-1,-4.151816E-4,3.1763205E-1,-1.0860453E-1,3.2665968E-2,1.266202E-1,4.7303428E-4,-1.1205067E-3,9.734922E-1,2.3664297E-1,-1.864383E-4,3.8124725E-1,1.9057656E-2,-1.10675655E-2,9.8977435E-1,-1.0763743E-3,5.1095117E-2,9.2905945E-1,3.2711062E-1,-6.259581E-4,7.492226E-1,9.974274E-1,1.7495442E-2,7.155724E-2,8.153109E-2,3.721714E-2,4.6999934E-3,2.7440786E-2,1.5934372E-2,-9.554323E-3,4.1504046E-3,-2.6241696E-2,5.2685644E-2,2.272892E-2,-2.9305934E-3,8.194915E-3,-1.3564506E-1,-6.1250355E-2,-3.7123334E-2,1.4604966E-2],"split_indices":[16,27,12,9,38,13,14,0,0,28,0,22,8,12,0,0,0,1,7,39,18,0,10,0,0,32,7,14,31,20,5,22,38,0,0,0,0,0,0,0,0,0,0,0,0,0,0,0,0,0,0],"split_type":[0,0,0,0,0,0,0,0,0,0,0,0,0,0,0,0,0,0,0,0,0,0,0,0,0,0,0,0,0,0,0,0,0,0,0,0,0,0,0,0,0,0,0,0,0,0,0,0,0,0,0],"sum_hessian":[1.78E2,2.4E1,1.54E2,8E0,1.6E1,7E1,8.4E1,3E0,5E0,1.4E1,2E0,1.7E1,5.3E1,5.9E1,2.5E1,1E0,1.3E1,4E0,1.3E1,3.8E1,1.5E1,5.6E1,3E0,2E0,2E0,9E0,4E0,2.2E1,1.6E1,7E0,8E0,3.4E1,2.2E1,2E0,1E0,6E0,3E0,1E0,3E0,1.4E1,8E0,6E0,1E1,2E0,5E0,3E0,5E0,3E0,3.1E1,2E1,2E0],"tree_param":{"num_deleted":"0","num_feature":"44","num_nodes":"51","size_leaf_vector":"1"}},{"base_weights":[9.812192E-2,4.0505385E0,-5.570434E-1,3.0362108E-1,2.986033E0,3.4877795E-1,-1.2898741E0,2.339459E0,2.827304E-1,1.0358828E0,5.9013627E-2,-7.4283695E-1,-1.7396326E0,3.1849336E-2,2.4060519E0,7.02217E-1,1.4019029E-1,-1.6810754E-1,2.8386503E-1,-9.016258E-1,9.513664E-1,-1.4588175E0,-1.1486763E-1,7.4206814E-2,1.3450915E-1,-4.0402252E-2,9.7032404E-1,-6.05685E-1,2.4983356E-2,6.7799354E-1,1.0297594E-1,-1.003124E0,2.1189022E-1,6.976829E-2,1.6912239E-2,-1.8175619E-2,-1.5159143E0,1.8422382E-2,-1.6846955E-2,5.3417612E-2,-7.6010465E-3,-5.581379E-3,-4.39897E-2,1.7187847E-2,-9.480715E-3,4.503131E-2,1.8214436E-2,1.17902085E-2,-2.007494E-3,-1.0763627E-1,-4.3410856E-2,-8.988222E-3,3.4671355E-2,-7.686136E-2,-2.1380473E-2],"categories":[],"categories_nodes":[],"categories_segments":[],"categories_sizes":[],"default_left":[0,0,0,0,0,0,0,0,0,0,0,0,0,0,0,0,0,0,0,0,0,0,0,0,0,0,0,0,0,0,0,0,0,0,0,0,0,0,0,0,0,0,0,0,0,0,0,0,0,0,0,0,0,0,0],"id":23,"left_children":[1,3,5,-1,7,9,11,13,-1,15,17,19,21,-1,23,25,-1,27,29,31,33,35,-1,-1,-1,37,39,41,43,45,47,49,51,-1,-1,-1,53,-1,-1,-1,-1,-1,-1,-1,-1,-1,-1,-1,-1,-1,-1,-1,-1,-1,-1],"loss_changes":[4.735428E2,3.7827484E1,1.0466864E2,0E0,1.9554474E1,1.4074861E1,2.0112732E1,3.946991E-1,0E0,1.041893E1,2.6522145E0,1.1887621E1,4.009552E0,0E0,1.9852448E-1,3.8221312E0,0E0,2.2119298E0,1.7838151E0,4.507305E0,6.1692715E-1,1.5752487E0,0E0,0E0,0E0,8.515787E-1,1.702712E0,9.851949E-1,1.3649343E0,2.306397E-1,3.7067938E-1,3.5590897E0,8.790381E-1,0E0,0E0,0E0,8.48999E-2,0E0,0E0,0E0,0E0,0E0,0E0,0E0,0E0,0E0,0E0,0E0,0E0,0E0,0E0,0E0,0E0,0E0,0E0],"parents":[2147483647,0,0,1,1,2,2,4,4,5,5,6,6,7,7,9,9,10,10,11,11,12,12,14,14,15,15,17,17,18,18,19,19,20,20,21,21,25,25,26,26,27,27,28,28,29,29,30,30,31,31,32,32,36,36],"right_children":[2,4,6,-1,8,10,12,14,-1,16,18,20,22,-1,24,26,-1,28,30,32,34,36,-1,-1,-1,38,40,42,44,46,48,50,52,-1,-1,-1,54,-1,-1,-1,-1,-1,-1,-1,-1,-1,-1,-1,-1,-1,-1,-1,-1,-1,-1],"split_conditions":[4.4762106E-3,3.1767204E-2,3.2517824E-2,3.0362108E-1,9.910013E-1,2.767106E-1,6.801843E-1,5.378283E-1,2.827304E-1,6.390774E-2,-1.5760856E-3,3.1763205E-1,3.1288426E-2,3.1849336E-2,-2.731447E-3,2.8526977E-1,1.4019029E-1,8.7170684E-1,4.8311E-1,9.974274E-1,-1.3862607E-3,6.7165173E-3,-1.1486763E-1,7.4206814E-2,1.3450915E-1,4.7303428E-4,9.971206E-1,7.015932E-4,1.9307772E-2,2.5453191E-4,3.398576E-1,4.3707666E-1,-3.5870526E-4,6.976829E-2,1.6912239E-2,-1.8175619E-2,9.9428624E-1,1.8422382E-2,-1.6846955E-2,5.3417612E-2,-7.6010465E-3,-5.581379E-3,-4.39897E-2,1.7187847E-2,-9.480715E-3,4.503131E-2,1.8214436E-2,1.17902085E-2,-2.007494E-3,-1.0763627E-1,-4.3410856E-2,-8.988222E-3,3.4671355E-2,-7.686136E-2,-2.1380473E-2],"split_indices":[16,27,12,0,37,20,18,29,0,17,6,12,5,0,13,22,0,25,20,38,2,9,0,0,0,1,34,1,13,2,18,19,2,0,0,0,31,0,0,0,0,0,0,0,0,0,0,0,0,0,0,0,0,0,0],"split_type":[0,0,0,0,0,0,0,0,0,0,0,0,0,0,0,0,0,0,0,0,0,0,0,0,0,0,0,0,0,0,0,0,0,0,0,0,0,0,0,0,0,0,0,0,0,0,0,0,0,0,0,0,0,0,0],"sum_hessian":[1.81E2,2.5E1,1.56E2,7E0,1.8E1,7E1,8.6E1,1.6E1,2E0,2E1,5E1,4E1,4.6E1,1E0,1.5E1,1.8E1,2E0,2.5E1,2.5E1,3.7E1,3E0,3.3E1,1.3E1,5E0,1E1,5E0,1.3E1,7E0,1.8E1,7E0,1.8E1,3.4E1,3E0,1E0,2E0,2E0,3.1E1,2E0,3E0,1.2E1,1E0,3E0,4E0,7E0,1.1E1,3E0,4E0,9E0,9E0,2E0,3.2E1,2E0,1E0,3E1,1E0],"tree_param":{"num_deleted":"0","num_feature":"44","num_nodes":"55","size_leaf_vector":"1"}},{"base_weights":[4.335913E-3,3.757672E0,-5.844511E-1,5.766089E0,2.7678616E0,-6.556635E-2,-1.5910239E0,1.3832064E-1,3.6621216E-1,1.621361E-1,7.792034E-2,2.759947E-1,-5.8047414E-1,-1.3235936E0,-1.0812229E-1,1.266506E0,1.472523E-1,-7.237187E-1,9.2546797E-1,-9.3086725E-3,-1.349303E0,-4.403019E-3,7.5347185E-2,3.3534664E-1,-1.3720247E-1,-1.0404839E-1,-5.905113E-1,6.802406E-2,1.6348489E-2,-3.574525E-2,-7.130434E-2,3.462714E-2,8.450031E-4,6.9856495E-3,-2.2599664E-2,-4.8201453E-2,-1.3890336E-2],"categories":[],"categories_nodes":[],"categories_segments":[],"categories_sizes":[],"default_left":[0,0,0,0,0,0,0,0,0,0,0,0,0,0,0,0,0,0,0,0,0,0,0,0,0,0,0,0,0,0,0,0,0,0,0,0,0],"id":24,"left_children":[1,3,5,7,9,11,13,-1,-1,-1,-1,15,17,19,-1,21,23,25,27,-1,29,-1,-1,31,33,-1,35,-1,-1,-1,-1,-1,-1,-1,-1,-1,-1],"loss_changes":[3.9114133E2,3.175116E1,7.9806854E1,1.2455811E1,5.2843323E0,1.8099195E1,5.0842133E0,0E0,0E0,0E0,0E0,7.719792E0,9.51422E0,8.6000824E-1,0E0,2.4125252E0,3.042253E0,5.6414013E0,5.965824E-1,0E0,7.82814E-1,0E0,0E0,3.8557239E0,2.0680692E0,0E0,3.9370117E0,0E0,0E0,0E0,0E0,0E0,0E0,0E0,0E0,0E0,0E0],"parents":[2147483647,0,0,1,1,2,2,3,3,4,4,5,5,6,6,11,11,12,12,13,13,15,15,16,16,17,17,18,18,20,20,23,23,24,24,26,26],"right_children":[2,4,6,8,10,12,14,-1,-1,-1,-1,16,18,20,-1,22,24,26,28,-1,30,-1,-1,32,34,-1,36,-1,-1,-1,-1,-1,-1,-1,-1,-1,-1],"split_conditions":[4.4762106E-3,-1.376783E-3,6.6002226E-1,-4.7804275E-1,6.991008E-2,2.2195669E-2,4.9480397E-2,1.3832064E-1,3.6621216E-1,1.621361E-1,7.792034E-2,8.133895E-1,3.1763205E-1,7.243154E-1,-1.0812229E-1,-1.5522647E-4,9.734922E-1,4.3707666E-1,-1.3862607E-3,-9.3086725E-3,2.1115376E-3,-4.403019E-3,7.5347185E-2,8.677898E-1,7.692023E-4,-1.0404839E-1,-8.8552135E-4,6.802406E-2,1.6348489E-2,-3.574525E-2,-7.130434E-2,3.462714E-2,8.450031E-4,6.9856495E-3,-2.2599664E-2,-4.8201453E-2,-1.3890336E-2],"split_indices":[16,5,18,9,22,12,6,0,0,0,0,29,12,19,0,0,39,19,2,0,8,0,0,24,0,0,0,0,0,0,0,0,0,0,0,0,0],"split_type":[0,0,0,0,0,0,0,0,0,0,0,0,0,0,0,0,0,0,0,0,0,0,0,0,0,0,0,0,0,0,0,0,0,0,0,0,0],"sum_hessian":[1.75E2,2.3E1,1.52E2,6E0,1.7E1,1.01E2,5.1E1,3E0,3E0,1.1E1,6E0,6.1E1,4E1,3.7E1,1.4E1,6E0,5.5E1,3.7E1,3E0,1E0,3.6E1,1E0,5E0,3.3E1,2.2E1,2E0,3.5E1,1E0,2E0,5E0,3.1E1,1.5E1,1.8E1,1.2E1,1E1,1.5E1,2E1],"tree_param":{"num_deleted":"0","num_feature":"44","num_nodes":"37","size_leaf_vector":"1"}},{"base_weights":[1.0760924E-1,3.8372147E0,-5.0203794E-1,2.4123437E0,4.85731E0,4.040392E-1,-1.1864058E0,6.546571E-2,1.5065886E-1,1.1233939E-1,6.7739305E0,1.1341954E0,2.107465E-2,-8.29569E-1,-1.8345596E0,4.0060505E-1,1.22616805E-1,7.836871E-1,1.2577806E-1,1.5499523E-1,-2.3924345E-1,-9.4447196E-1,9.002881E-1,-1.0995119E-1,-7.448318E-2,-1.5830152E-2,9.3175673E-1,-3.3313442E-2,2.081214E-1,5.5291016E-2,-3.9203978E-1,-1.2083749E0,-5.176826E-1,6.6323474E-2,1.5803559E-2,5.4861505E-2,2.6930958E-2,1.2899754E-2,-7.780969E-3,7.6360228E-3,-1.5801907E-3,-5.296879E-3,-2.8255915E-2,-2.5306417E-2,-7.3058076E-2,-4.62535E-3,-5.0932135E-2],"categories":[],"categories_nodes":[],"categories_segments":[],"categories_sizes":[],"default_left":[0,0,0,0,0,0,0,0,0,0,0,0,0,0,0,0,0,0,0,0,0,0,0,0,0,0,0,0,0,0,0,0,0,0,0,0,0,0,0,0,0,0,0,0,0,0,0],"id":25,"left_children":[1,3,5,7,9,11,13,-1,-1,-1,15,17,19,21,23,-1,-1,25,-1,27,29,31,33,-1,-1,-1,35,-1,37,39,41,43,45,-1,-1,-1,-1,-1,-1,-1,-1,-1,-1,-1,-1,-1,-1],"loss_changes":[3.8846283E2,2.3166595E1,9.16326E1,4.0076523E0,4.982437E1,1.7872032E1,1.7906052E1,0E0,0E0,0E0,1.780774E1,8.680553E0,1.5361454E0,1.1981178E1,3.6956024E-1,0E0,0E0,3.3904686E0,0E0,1.4039527E0,6.967331E-1,5.3438873E0,5.766704E-1,0E0,0E0,0E0,5.1492596E-1,0E0,5.480995E-1,5.5623233E-2,4.353143E-1,4.9410515E0,4.5916815E0,0E0,0E0,0E0,0E0,0E0,0E0,0E0,0E0,0E0,0E0,0E0,0E0,0E0,0E0],"parents":[2147483647,0,0,1,1,2,2,3,3,4,4,5,5,6,6,10,10,11,11,12,12,13,13,14,14,17,17,19,19,20,20,21,21,22,22,26,26,28,28,29,29,30,30,31,31,32,32],"right_children":[2,4,6,8,10,12,14,-1,-1,-1,16,18,20,22,24,-1,-1,26,-1,28,30,32,34,-1,-1,-1,36,-1,38,40,42,44,46,-1,-1,-1,-1,-1,-1,-1,-1,-1,-1,-1,-1,-1,-1],"split_conditions":[4.4762106E-3,-2.646796E-3,1.660937E-2,3.3818028E-4,9.75E-1,3.2711062E-1,5.457711E-1,6.546571E-2,1.5065886E-1,1.1233939E-1,9.97287E-1,6.390774E-2,3.6559823E-1,2.5963184E-1,-9.1424445E-3,4.0060505E-1,1.22616805E-1,2.748379E-1,1.2577806E-1,-4.5486107E-3,9.426127E-1,9.8368573E-1,-1.3862607E-3,-1.0995119E-1,-7.448318E-2,-1.5830152E-2,-1.1205067E-3,-3.3313442E-2,9.933452E-1,8.252976E-4,7.429146E-4,-1.1690827E-3,8.0844015E-1,6.6323474E-2,1.5803559E-2,5.4861505E-2,2.6930958E-2,1.2899754E-2,-7.780969E-3,7.6360228E-3,-1.5801907E-3,-5.296879E-3,-2.8255915E-2,-2.5306417E-2,-7.3058076E-2,-4.62535E-3,-5.0932135E-2],"split_indices":[16,12,11,0,43,20,14,0,0,0,39,17,18,11,1,0,0,23,0,5,37,35,2,0,0,0,7,0,38,1,1,4,21,0,0,0,0,0,0,0,0,0,0,0,0,0,0],"split_type":[0,0,0,0,0,0,0,0,0,0,0,0,0,0,0,0,0,0,0,0,0,0,0,0,0,0,0,0,0,0,0,0,0,0,0,0,0,0,0,0,0,0,0,0,0,0,0],"sum_hessian":[1.69E2,2.3E1,1.46E2,1.1E1,1.2E1,6.3E1,8.3E1,5E0,6E0,6E0,6E0,2.1E1,4.2E1,5.5E1,2.8E1,4E0,2E0,1.8E1,3E0,2.8E1,1.4E1,5.2E1,3E0,1.1E1,1.7E1,2E0,1.6E1,1E0,2.7E1,5E0,9E0,3.1E1,2.1E1,1E0,2E0,1E1,6E0,2.4E1,3E0,2E0,3E0,4E0,5E0,9E0,2.2E1,1.2E1,9E0],"tree_param":{"num_deleted":"0","num_feature":"44","num_nodes":"47","size_leaf_vector":"1"}},{"base_weights":[1.0917992E-1,4.0663834E0,-3.9885372E-1,3.3138838E0,3.6129603E-1,4.4828403E-1,-1.093597E0,4.5361323E0,2.1237135E0,1.1522309E0,1.2958173E-1,-8.0295324E-1,-8.6671546E-2,6.650825E-2,2.4020521E-1,5.0961353E-2,1.2052462E-1,7.357385E-1,1.2105787E-1,6.1472034E-1,-2.3014288E-2,-9.0488565E-1,8.758049E-1,1.2683706E0,2.8148434E-1,6.5140307E-1,5.2802563E-3,2.6273599E-2,-3.1161342E-2,-5.008845E-1,-1.1378617E0,6.466537E-2,1.527675E-2,6.7112E-2,1.8782139E-2,-1.2158213E-2,3.0801063E-2,3.6930036E-2,1.570785E-2,7.153526E-3,-1.1448792E-2,-2.9473288E-2,1.4307292E-2,-4.455181E-2,-1.24498665E-1],"categories":[],"categories_nodes":[],"categories_segments":[],"categories_sizes":[],"default_left":[0,0,0,0,0,0,0,0,0,0,0,0,0,0,0,0,0,0,0,0,0,0,0,0,0,0,0,0,0,0,0,0,0,0,0,0,0,0,0,0,0,0,0,0,0],"id":26,"left_children":[1,3,5,7,-1,9,11,13,15,17,19,21,-1,-1,-1,-1,-1,23,-1,25,27,29,31,33,35,37,-1,39,-1,41,43,-1,-1,-1,-1,-1,-1,-1,-1,-1,-1,-1,-1,-1,-1],"loss_changes":[3.5344055E2,2.3605164E1,9.230301E1,1.6550858E1,0E0,1.5779506E1,1.4601021E1,4.8262024E-1,1.0273438E0,9.845625E0,3.7156587E0,1.1230816E1,0E0,0E0,0E0,0E0,0E0,3.9980803E0,0E0,1.5531778E-1,1.1701196E0,4.8891716E0,5.5720544E-1,2.3359299E-2,2.0804522E0,9.1441154E-2,0E0,1.1358167E0,0E0,1.7721448E0,9.795834E0,0E0,0E0,0E0,0E0,0E0,0E0,0E0,0E0,0E0,0E0,0E0,0E0,0E0,0E0],"parents":[2147483647,0,0,1,1,2,2,3,3,5,5,6,6,7,7,8,8,9,9,10,10,11,11,17,17,19,19,20,20,21,21,22,22,23,23,24,24,25,25,27,27,29,29,30,30],"right_children":[2,4,6,8,-1,10,12,14,16,18,20,22,-1,-1,-1,-1,-1,24,-1,26,28,30,32,34,36,38,-1,40,-1,42,44,-1,-1,-1,-1,-1,-1,-1,-1,-1,-1,-1,-1,-1,-1],"split_conditions":[6.674659E-4,3.886738E-3,1.660937E-2,5.1618204E-4,3.6129603E-1,3.7755594E-1,5.457711E-1,-7.9004616E-1,-1.8078793E-3,9.7242737E-1,8.885735E-3,2.5963184E-1,-8.6671546E-2,6.650825E-2,2.4020521E-1,5.0961353E-2,1.2052462E-1,8.1283605E-1,1.2105787E-1,9.9796563E-1,9.9608773E-1,-4.309616E-5,-1.3862607E-3,-1.27338335E-5,6.9376254E-1,9.394056E-1,5.2802563E-3,5.364829E-2,-3.1161342E-2,9.974274E-1,-8.5206534E-4,6.466537E-2,1.527675E-2,6.7112E-2,1.8782139E-2,-1.2158213E-2,3.0801063E-2,3.6930036E-2,1.570785E-2,7.153526E-3,-1.1448792E-2,-2.9473288E-2,1.4307292E-2,-4.455181E-2,-1.24498665E-1],"split_indices":[16,17,11,23,0,21,14,8,10,30,13,11,0,0,0,0,0,29,0,31,34,3,2,4,26,26,0,14,0,38,1,0,0,0,0,0,0,0,0,0,0,0,0,0,0],"split_type":[0,0,0,0,0,0,0,0,0,0,0,0,0,0,0,0,0,0,0,0,0,0,0,0,0,0,0,0,0,0,0,0,0,0,0,0,0,0,0,0,0,0,0,0,0],"sum_hessian":[1.74E2,1.9E1,1.55E2,1.7E1,2E0,7E1,8.5E1,7E0,1E1,2.1E1,4.9E1,6E1,2.5E1,1E0,6E0,3E0,7E0,1.7E1,4E0,1.1E1,3.8E1,5.7E1,3E0,7E0,1E1,1E1,1E0,3.6E1,2E0,2.2E1,3.5E1,1E0,2E0,6E0,1E0,4E0,6E0,7E0,3E0,2.5E1,1.1E1,2E1,2E0,3.1E1,4E0],"tree_param":{"num_deleted":"0","num_feature":"44","num_nodes":"45","size_leaf_vector":"1"}},{"base_weights":[4.8152134E-2,3.1815426E0,-4.436748E-1,4.8859367E0,2.0239744E0,3.47287E-1,-1.0477066E0,1.20647386E-1,2.860137E-1,6.0480006E-2,1.1420905E-1,1.0207304E0,5.9450466E-2,-5.641557E-1,-1.4664334E0,-5.6795914E-2,1.3836921E0,2.1551155E-1,-1.9009073E-1,-6.9493693E-1,8.520007E-1,-1.7237513E0,-1.0100474E0,1.55756315E-2,-1.5941417E-2,1.318574E-1,9.8799527E-1,5.6970155E-1,3.658717E-2,-4.3729356E-1,1.3316727E-1,-9.557864E-2,-5.7750875E-1,6.304874E-2,1.4767552E-2,-5.7577777E-1,-9.1923855E-2,-2.6602912E-1,-5.6646205E-2,6.1817806E-2,3.3911265E-2,3.5941344E-2,8.315349E-3,5.12227E-3,-1.9635534E-2,-3.616574E-2,-3.919506E-3,1.1924553E-2,-2.905512E-3,-2.9990291E-3,-3.7085745E-2,-6.966901E-3,-3.3740584E-2,-2.016074E-2,3.638196E-3],"categories":[],"categories_nodes":[],"categories_segments":[],"categories_sizes":[],"default_left":[0,0,0,0,0,0,0,0,0,0,0,0,0,0,0,0,0,0,0,0,0,0,0,0,0,0,0,0,0,0,0,0,0,0,0,0,0,0,0,0,0,0,0,0,0,0,0,0,0,0,0,0,0,0,0],"id":27,"left_children":[1,3,5,7,9,11,13,-1,-1,-1,-1,15,17,19,21,23,25,27,29,31,33,35,37,-1,-1,-1,39,41,43,45,47,-1,49,-1,-1,51,-1,53,-1,-1,-1,-1,-1,-1,-1,-1,-1,-1,-1,-1,-1,-1,-1,-1,-1],"loss_changes":[2.7264267E2,3.7461853E1,7.346207E1,4.767029E0,6.275482E-1,1.2926706E1,1.6788101E1,0E0,0E0,0E0,0E0,7.900608E0,1.9102631E0,8.37077E0,3.661003E0,6.783717E-1,4.834337E0,1.8803532E0,1.5765289E0,4.4678783E0,5.381911E-1,2.6291046E0,1.4356365E0,0E0,0E0,0E0,1.6162491E-1,4.8201752E-1,6.339602E-1,1.0724933E0,1.9517341E-1,0E0,3.0998201E0,0E0,0E0,7.886243E-2,0E0,2.1524969E-1,0E0,0E0,0E0,0E0,0E0,0E0,0E0,0E0,0E0,0E0,0E0,0E0,0E0,0E0,0E0,0E0,0E0],"parents":[2147483647,0,0,1,1,2,2,3,3,4,4,5,5,6,6,11,11,12,12,13,13,14,14,15,15,16,16,17,17,18,18,19,19,20,20,21,21,22,22,26,26,27,27,28,28,29,29,30,30,32,32,35,35,37,37],"right_children":[2,4,6,8,10,12,14,-1,-1,-1,-1,16,18,20,22,24,26,28,30,32,34,36,38,-1,-1,-1,40,42,44,46,48,-1,50,-1,-1,52,-1,54,-1,-1,-1,-1,-1,-1,-1,-1,-1,-1,-1,-1,-1,-1,-1,-1,-1],"split_conditions":[4.4762106E-3,3.1767204E-2,1.660937E-2,-5.045241E-1,-2.731447E-3,2.767106E-1,6.801843E-1,1.20647386E-1,2.860137E-1,6.0480006E-2,1.1420905E-1,2.8526977E-1,9.7531873E-1,2.5963184E-1,9.8519695E-1,4.7303428E-4,3.5786852E-1,2.4997936E-1,-2.4199567E-3,4.3707666E-1,-1.3862607E-3,6.378722E-2,9.835754E-1,1.55756315E-2,-1.5941417E-2,1.318574E-1,9.916361E-1,2.5453191E-4,9.97496E-1,9.150848E-1,1.4655747E-2,-9.557864E-2,2.2098781E-1,6.304874E-2,1.4767552E-2,1.7207254E-2,-9.1923855E-2,9.8257184E-1,-5.6646205E-2,6.1817806E-2,3.3911265E-2,3.5941344E-2,8.315349E-3,5.12227E-3,-1.9635534E-2,-3.616574E-2,-3.919506E-3,1.1924553E-2,-2.905512E-3,-2.9990291E-3,-3.7085745E-2,-6.966901E-3,-3.3740584E-2,-2.016074E-2,3.638196E-3],"split_indices":[16,27,11,10,13,20,18,0,0,0,0,22,36,11,26,1,22,18,8,19,2,10,25,0,0,0,33,2,39,24,12,0,15,0,0,10,0,32,0,0,0,0,0,0,0,0,0,0,0,0,0,0,0,0,0],"split_type":[0,0,0,0,0,0,0,0,0,0,0,0,0,0,0,0,0,0,0,0,0,0,0,0,0,0,0,0,0,0,0,0,0,0,0,0,0,0,0,0,0,0,0,0,0,0,0,0,0,0,0,0,0,0,0],"sum_hessian":[1.75E2,2.3E1,1.52E2,8E0,1.5E1,6.6E1,8.6E1,3E0,5E0,5E0,1E1,1.9E1,4.7E1,4.1E1,4.5E1,5E0,1.4E1,2.9E1,1.8E1,3.8E1,3E0,2.7E1,1.8E1,2E0,3E0,2E0,1.2E1,9E0,2E1,1E1,8E0,2E0,3.6E1,1E0,2E0,3E0,2.4E1,3E0,1.5E1,5E0,7E0,6E0,3E0,1.8E1,2E0,5E0,5E0,5E0,3E0,9E0,2.7E1,1E0,2E0,2E0,1E0],"tree_param":{"num_deleted":"0","num_feature":"44","num_nodes":"55","size_leaf_vector":"1"}},{"base_weights":[1.0416084E-1,2.8748362E0,-5.315089E-1,4.686824E0,2.1075273E0,-8.033819E-2,-1.4045882E0,1.161231E-1,2.740964E-1,1.6539716E0,4.882278E0,1.9135745E-1,-4.8233843E-1,-1.0962397E0,-8.665934E-2,1.0675799E-1,1.192125E0,7.4949645E-2,2.912212E-1,4.765312E-1,3.8476256E-3,-6.9408816E-1,4.2495286E-1,-1.25049595E-2,-1.1517082E0,1.2694838E0,4.6614646E-3,-2.3623638E-1,6.3902104E-1,-4.1788593E-2,7.7818535E-2,-4.0610722E-1,-1.2069511E0,9.4177973E-1,-3.273189E-1,-1.1748047E0,-1.4357424E-2,6.7845896E-2,2.628657E-2,1.1576653E-3,-1.53436065E-2,3.8962886E-2,1.4364637E-2,1.6106026E-2,-4.4377553E-3,-8.129175E-3,-4.059754E-2,-1.1609175E-1,-2.4932016E-2,1.4275329E-2,6.420632E-2,-3.181634E-2,-6.1036745E-4,-5.998956E-2,-1.4378167E-2],"categories":[],"categories_nodes":[],"categories_segments":[],"categories_sizes":[],"default_left":[0,0,0,0,0,0,0,0,0,0,0,0,0,0,0,0,0,0,0,0,0,0,0,0,0,0,0,0,0,0,0,0,0,0,0,0,0,0,0,0,0,0,0,0,0,0,0,0,0,0,0,0,0,0,0],"id":28,"left_children":[1,3,5,7,9,11,13,-1,-1,15,17,19,21,23,-1,-1,25,-1,-1,27,29,31,33,-1,35,37,-1,39,41,-1,43,45,47,49,51,53,-1,-1,-1,-1,-1,-1,-1,-1,-1,-1,-1,-1,-1,-1,-1,-1,-1,-1,-1],"loss_changes":[3.115053E2,3.600409E1,5.660988E1,4.1876526E0,2.3387444E1,1.0577582E1,3.0648346E0,0E0,0E0,2.5660324E0,8.3187103E-1,3.0995936E0,7.7875853E0,1.0261192E0,0E0,0E0,1.0717793E0,0E0,0E0,2.8147616E0,2.3009057E0,4.236081E0,3.4186165E0,0E0,1.8183136E-1,1.3200569E-1,0E0,9.871602E-2,7.1330404E-1,0E0,1.4121952E0,2.042306E0,7.5287666E0,7.567382E-1,3.8171995E-1,2.0921326E-1,0E0,0E0,0E0,0E0,0E0,0E0,0E0,0E0,0E0,0E0,0E0,0E0,0E0,0E0,0E0,0E0,0E0,0E0,0E0],"parents":[2147483647,0,0,1,1,2,2,3,3,4,4,5,5,6,6,9,9,10,10,11,11,12,12,13,13,16,16,19,19,20,20,21,21,22,22,24,24,25,25,27,27,28,28,30,30,31,31,32,32,33,33,34,34,35,35],"right_children":[2,4,6,8,10,12,14,-1,-1,16,18,20,22,24,-1,-1,26,-1,-1,28,30,32,34,-1,36,38,-1,40,42,-1,44,46,48,50,52,54,-1,-1,-1,-1,-1,-1,-1,-1,-1,-1,-1,-1,-1,-1,-1,-1,-1,-1,-1],"split_conditions":[3.5883334E-2,3.1767204E-2,6.5986943E-1,-4.7804275E-1,9.910013E-1,2.2195669E-2,1.8979825E-2,1.161231E-1,2.740964E-1,2.0061769E-2,-1.226737E-4,2.3432018E-2,6.1654124E-2,9.759677E-1,-8.665934E-2,1.0675799E-1,9.880205E-1,7.4949645E-2,2.912212E-1,1.9836813E-1,2.6597911E-2,9.970513E-1,7.459604E-1,-1.25049595E-2,7.2452268E-3,-1.5976324E-3,4.6614646E-3,3.0445544E-5,9.948472E-1,-4.1788593E-2,2.1573967E-1,5.999214E-2,-1.864383E-4,7.2345835E-1,-5.9306053E-3,2.9946717E-2,-1.4357424E-2,6.7845896E-2,2.628657E-2,1.1576653E-3,-1.53436065E-2,3.8962886E-2,1.4364637E-2,1.6106026E-2,-4.4377553E-3,-8.129175E-3,-4.059754E-2,-1.1609175E-1,-2.4932016E-2,1.4275329E-2,6.420632E-2,-3.181634E-2,-6.1036745E-4,-5.998956E-2,-1.4378167E-2],"split_indices":[17,27,18,9,37,12,5,0,0,20,0,14,10,31,0,0,37,0,0,20,14,39,22,0,0,10,0,0,31,0,17,11,0,22,0,6,0,0,0,0,0,0,0,0,0,0,0,0,0,0,0,0,0,0,0],"split_type":[0,0,0,0,0,0,0,0,0,0,0,0,0,0,0,0,0,0,0,0,0,0,0,0,0,0,0,0,0,0,0,0,0,0,0,0,0,0,0,0,0,0,0,0,0,0,0,0,0,0,0,0,0,0,0],"sum_hessian":[1.75E2,3.2E1,1.43E2,8E0,2.4E1,9.5E1,4.8E1,3E0,5E0,2.2E1,2E0,5.7E1,3.8E1,2.7E1,2.1E1,9E0,1.3E1,1E0,1E0,2.2E1,3.5E1,3.1E1,7E0,2E0,2.5E1,1.2E1,1E0,4E0,1.8E1,2E0,3.3E1,2.1E1,1E1,4E0,3E0,2.4E1,1E0,1E1,2E0,1E0,3E0,1.2E1,6E0,1.3E1,2E1,1.4E1,7E0,3E0,7E0,2E0,2E0,1E0,2E0,2.3E1,1E0],"tree_param":{"num_deleted":"0","num_feature":"44","num_nodes":"55","size_leaf_vector":"1"}},{"base_weights":[6.6989094E-2,3.4957552E0,-3.1194606E-1,4.495841E0,1.0536262E-1,3.526292E-1,-8.699568E-1,1.11768484E-1,2.6267573E-1,9.359922E-1,3.482701E-2,-3.8434663E-1,-1.1766388E0,6.956507E-1,1.2333065E-1,3.104349E-1,-5.8009703E-2,-9.004231E-2,-2.3953897E-1,-4.6794564E-1,-1.2607325E0,9.356951E-1,-1.4042442E-1,3.8822696E-1,-1.363194E-2,-2.8833998E-2,6.617286E-3,6.445123E-1,-4.6833974E-1,-2.513679E-2,-6.4801215E-3,-8.9508794E-2,-1.0978752E0,5.0566792E-2,-8.754921E-3,7.919979E-3,-1.6471816E-2,2.1191655E-2,8.041382E-4,6.27316E-3,-8.181763E-3,4.780016E-2,-4.473829E-3,-3.539941E-2,-6.4875404E-3,-5.563977E-2,-1.4018702E-2],"categories":[],"categories_nodes":[],"categories_segments":[],"categories_sizes":[],"default_left":[0,0,0,0,0,0,0,0,0,0,0,0,0,0,0,0,0,0,0,0,0,0,0,0,0,0,0,0,0,0,0,0,0,0,0,0,0,0,0,0,0,0,0,0,0,0,0],"id":29,"left_children":[1,3,5,7,-1,9,11,-1,-1,13,15,17,19,21,-1,23,25,-1,27,29,31,33,35,37,-1,-1,39,41,43,-1,-1,-1,45,-1,-1,-1,-1,-1,-1,-1,-1,-1,-1,-1,-1,-1,-1],"loss_changes":[2.219681E2,1.4132721E1,5.7416153E1,3.6707764E0,0E0,1.3130379E1,1.2057716E1,0E0,0E0,7.480892E0,1.2205751E0,6.5427065E0,2.4494781E0,4.747384E0,0E0,6.501478E-1,1.2105396E0,0E0,6.774543E0,1.7241359E-2,1.9146805E0,1.6894646E0,3.910703E-1,1.3894033E-1,0E0,0E0,6.8824625E-1,1.6859562E0,2.017839E0,0E0,0E0,0E0,1.393013E-1,0E0,0E0,0E0,0E0,0E0,0E0,0E0,0E0,0E0,0E0,0E0,0E0,0E0,0E0],"parents":[2147483647,0,0,1,1,2,2,3,3,5,5,6,6,9,9,10,10,11,11,12,12,13,13,15,15,16,16,18,18,19,19,20,20,21,21,22,22,23,23,26,26,27,27,28,28,32,32],"right_children":[2,4,6,8,-1,10,12,-1,-1,14,16,18,20,22,-1,24,26,-1,28,30,32,34,36,38,-1,-1,40,42,44,-1,-1,-1,46,-1,-1,-1,-1,-1,-1,-1,-1,-1,-1,-1,-1,-1,-1],"split_conditions":[4.4917148E-2,3.1767204E-2,1.660937E-2,-4.7804275E-1,1.0536262E-1,3.2711062E-1,7.243154E-1,1.11768484E-1,2.6267573E-1,1.6279848E-2,8.4238246E-2,4.3707666E-1,2.1115376E-3,9.920153E-1,1.2333065E-1,9.920815E-1,-2.597506E-3,-9.004231E-2,8.21238E-1,7.9391456E-1,9.7537225E-1,3.0019E-3,-5.654124E-4,1.32268615E-5,-1.363194E-2,-2.8833998E-2,3.6559823E-1,6.3930523E-1,9.861894E-1,-2.513679E-2,-6.4801215E-3,-8.9508794E-2,9.933489E-1,5.0566792E-2,-8.754921E-3,7.919979E-3,-1.6471816E-2,2.1191655E-2,8.041382E-4,6.27316E-3,-8.181763E-3,4.780016E-2,-4.473829E-3,-3.539941E-2,-6.4875404E-3,-5.563977E-2,-1.4018702E-2],"split_indices":[21,27,11,9,0,20,19,0,0,14,16,19,8,38,0,35,10,0,25,17,27,0,4,7,0,0,18,18,33,0,0,0,33,0,0,0,0,0,0,0,0,0,0,0,0,0,0],"split_type":[0,0,0,0,0,0,0,0,0,0,0,0,0,0,0,0,0,0,0,0,0,0,0,0,0,0,0,0,0,0,0,0,0,0,0,0,0,0,0,0,0,0,0,0,0,0,0],"sum_hessian":[1.69E2,1.6E1,1.53E2,8E0,8E0,7E1,8.3E1,3E0,5E0,2.4E1,4.6E1,3.3E1,5E1,2.2E1,2E0,1.1E1,3.5E1,2E0,3.1E1,6E0,4.4E1,1.7E1,5E0,1E1,1E0,3E0,3.2E1,6E0,2.5E1,5E0,1E0,8E0,3.6E1,1.6E1,1E0,2E0,3E0,9E0,1E0,1.9E1,1.3E1,4E0,2E0,1.4E1,1.1E1,3.5E1,1E0],"tree_param":{"num_deleted":"0","num_feature":"44","num_nodes":"47","size_leaf_vector":"1"}},{"base_weights":[9.208895E-2,3.210582E0,-4.3562883E-1,2.1357477E0,4.286682E0,1.0133048E-2,-1.0813897E0,1.3070673E-1,5.3110488E-2,2.2985494E0,3.5956383E-1,2.3061259E-1,-4.7203088E-1,-1.3905517E0,-7.0048213E-1,3.0266142E-2,1.2269821E-1,6.195604E-1,-6.364772E-4,-1.4430819E0,-1.8574286E-1,-7.6449044E-2,-3.4875568E-2,-2.4141729E-1,-8.420077E-1,-8.536053E-3,6.653224E-1,-6.4083226E-2,5.8672335E-2,-1.097278E-1,3.9910953E-2,-2.7999545E-2,-1.04004145E-2,-1.6634226E-2,9.936333E-3,-1.4291859E-1,-9.0807396E-1,4.2168617E-2,1.352849E-2,-4.135343E-2,1.5732356E-4,1.4743614E-2,-1.1750293E-2,1.24593675E-2,-1.1999475E-2,-1.7156888E-2,6.437993E-3,-5.7217837E-3,-4.7290374E-2],"categories":[],"categories_nodes":[],"categories_segments":[],"categories_sizes":[],"default_left":[0,0,0,0,0,0,0,0,0,0,0,0,0,0,0,0,0,0,0,0,0,0,0,0,0,0,0,0,0,0,0,0,0,0,0,0,0,0,0,0,0,0,0,0,0,0,0,0,0],"id":30,"left_children":[1,3,5,7,9,11,13,-1,-1,15,-1,17,19,21,23,-1,-1,25,27,29,31,-1,-1,33,35,-1,37,39,-1,-1,41,-1,43,-1,-1,45,47,-1,-1,-1,-1,-1,-1,-1,-1,-1,-1,-1,-1],"loss_changes":[2.7293652E2,1.8603851E1,4.088645E1,4.413166E0,4.69924E1,9.144975E0,5.8561554E0,0E0,0E0,6.197777E-1,0E0,5.3070803E0,7.237965E0,1.9075661E0,1.6158686E0,0E0,0E0,9.0921116E-1,2.905885E0,6.77417E0,1.4378504E0,0E0,0E0,3.87479E-1,8.4012985E-1,0E0,1.2478085E0,1.9005278E0,0E0,0E0,2.7957618E-1,0E0,1.0133786E0,0E0,0E0,2.0736806E-1,4.6075535E-1,0E0,0E0,0E0,0E0,0E0,0E0,0E0,0E0,0E0,0E0,0E0,0E0],"parents":[2147483647,0,0,1,1,2,2,3,3,4,4,5,5,6,6,9,9,11,11,12,12,13,13,14,14,17,17,18,18,19,19,20,20,23,23,24,24,26,26,27,27,30,30,32,32,35,35,36,36],"right_children":[2,4,6,8,10,12,14,-1,-1,16,-1,18,20,22,24,-1,-1,26,28,30,32,-1,-1,34,36,-1,38,40,-1,-1,42,-1,44,-1,-1,46,48,-1,-1,-1,-1,-1,-1,-1,-1,-1,-1,-1,-1],"split_conditions":[4.4762106E-3,5.3373666E-4,7.6328194E-1,5.1832106E-3,-1.9580284E-3,9.903126E-1,-4.6293954E-3,1.3070673E-1,5.3110488E-2,-1.9929896E-3,3.5956383E-1,5.2742913E-2,-1.864383E-4,9.8519695E-1,9.6085757E-1,3.0266142E-2,1.2269821E-1,-5.099793E-3,3.8124725E-1,9.146506E-1,9.921146E-1,-7.6449044E-2,-3.4875568E-2,-4.309616E-5,-1.0550416E-2,-8.536053E-3,9.948472E-1,4.8246557E-1,5.8672335E-2,-1.097278E-1,-1.63153E-3,-2.7999545E-2,9.618625E-1,-1.6634226E-2,9.936333E-3,-1.4395534E-2,8.0844015E-1,4.2168617E-2,1.352849E-2,-4.135343E-2,1.5732356E-4,1.4743614E-2,-1.1750293E-2,1.24593675E-2,-1.1999475E-2,-1.7156888E-2,6.437993E-3,-5.7217837E-3,-4.7290374E-2],"split_indices":[16,1,20,19,9,38,1,0,0,0,0,15,0,26,35,0,0,9,10,28,38,0,0,3,0,0,31,20,0,0,0,0,32,0,0,0,21,0,0,0,0,0,0,0,0,0,0,0,0],"split_type":[0,0,0,0,0,0,0,0,0,0,0,0,0,0,0,0,0,0,0,0,0,0,0,0,0,0,0,0,0,0,0,0,0,0,0,0,0,0,0,0,0,0,0,0,0,0,0,0,0],"sum_hessian":[1.64E2,2.3E1,1.41E2,1.3E1,1E1,8.4E1,5.7E1,8E0,5E0,7E0,3E0,5.8E1,2.6E1,3E1,2.7E1,1E0,6E0,2.1E1,3.7E1,5E0,2.1E1,2.4E1,6E0,7E0,2E1,1E0,2E1,3.6E1,1E0,3E0,2E0,6E0,1.5E1,6E0,1E0,2E0,1.8E1,1.3E1,7E0,2E0,3.4E1,1E0,1E0,7E0,8E0,1E0,1E0,1E0,1.7E1],"tree_param":{"num_deleted":"0","num_feature":"44","num_nodes":"49","size_leaf_vector":"1"}},{"base_weights":[5.023685E-2,2.9533682E0,-3.5950112E-1,1.7365947E0,4.2398367E0,2.6691225E-1,-8.9960444E-1,4.0492058E-2,1.02925144E-1,2.1017077E0,3.4608018E-1,8.097062E-1,6.0934648E-2,-6.567525E-1,-1.4160913E0,4.397043E-2,1.2073729E-1,4.377346E-1,1.09407954E-1,4.855011E-1,-3.4767553E-2,-7.9442346E-1,-1.5749434E-1,-8.59415E-2,-5.5972636E-2,7.5115967E-1,-1.1732401E-1,2.8728267E-2,1.041317E-2,-5.8960134E-1,3.374309E-2,-6.898107E-1,-1.031968E-1,3.0733554E-2,-3.3741117E-1,4.2978317E-2,-8.322668E-3,5.141401E-3,-1.5407252E-2,5.130291E-4,-3.71066E-2,6.63354E-3,-8.326129E-3,-1.8043755E-2,-4.7444362E-2,1.648593E-2,-2.1401687E-2],"categories":[],"categories_nodes":[],"categories_segments":[],"categories_sizes":[],"default_left":[0,0,0,0,0,0,0,0,0,0,0,0,0,0,0,0,0,0,0,0,0,0,0,0,0,0,0,0,0,0,0,0,0,0,0,0,0,0,0,0,0,0,0,0,0,0,0],"id":31,"left_children":[1,3,5,7,9,11,13,-1,-1,15,-1,17,19,21,23,-1,-1,25,-1,27,29,31,33,-1,-1,35,37,-1,-1,39,41,43,-1,-1,45,-1,-1,-1,-1,-1,-1,-1,-1,-1,-1,-1,-1],"loss_changes":[2.1160736E2,2.707463E1,5.301927E1,2.2112236E0,4.279245E1,8.1123085E0,9.606087E0,0E0,0E0,5.5483437E-1,0E0,9.297072E0,2.2110047E0,3.930151E0,4.1075134E-1,0E0,0E0,3.0456069E0,0E0,1.2725902E-1,1.730436E0,4.6854057E0,2.1523545E0,0E0,0E0,1.2373061E0,3.2575345E-1,0E0,0E0,4.6510136E-1,8.343776E-1,3.4072304E0,0E0,0E0,8.6661494E-1,0E0,0E0,0E0,0E0,0E0,0E0,0E0,0E0,0E0,0E0,0E0,0E0],"parents":[2147483647,0,0,1,1,2,2,3,3,4,4,5,5,6,6,9,9,11,11,12,12,13,13,14,14,17,17,19,19,20,20,21,21,22,22,25,25,26,26,29,29,30,30,31,31,34,34],"right_children":[2,4,6,8,10,12,14,-1,-1,16,-1,18,20,22,24,-1,-1,26,-1,28,30,32,34,-1,-1,36,38,-1,-1,40,42,44,-1,-1,46,-1,-1,-1,-1,-1,-1,-1,-1,-1,-1,-1,-1],"split_conditions":[4.4762106E-3,5.3373666E-4,1.660937E-2,-1.8845373E-3,-1.9801445E-3,3.7755594E-1,5.5226696E-1,4.0492058E-2,1.02925144E-1,-1.4486254E-4,3.4608018E-1,6.390774E-2,3.402848E-2,9.873988E-1,-9.1424445E-3,4.397043E-2,1.2073729E-1,9.885214E-1,1.09407954E-1,-5.3697237E-4,2.9645386E-1,9.990297E-1,8.21238E-1,-8.59415E-2,-5.5972636E-2,2.8945212E-3,-1.2912895E-3,2.8728267E-2,1.041317E-2,7.513803E-4,5.364829E-2,5.2563906E-2,-1.031968E-1,3.0733554E-2,-1.175916E-2,4.2978317E-2,-8.322668E-3,5.141401E-3,-1.5407252E-2,5.130291E-4,-3.71066E-2,6.63354E-3,-8.326129E-3,-1.8043755E-2,-4.7444362E-2,1.648593E-2,-2.1401687E-2],"split_indices":[16,1,11,9,9,21,14,0,0,0,0,17,15,36,1,0,0,38,0,10,19,39,25,0,0,0,12,0,0,0,14,10,0,0,0,0,0,0,0,0,0,0,0,0,0,0,0],"split_type":[0,0,0,0,0,0,0,0,0,0,0,0,0,0,0,0,0,0,0,0,0,0,0,0,0,0,0,0,0,0,0,0,0,0,0,0,0,0,0,0,0,0,0,0,0,0,0],"sum_hessian":[1.76E2,2.1E1,1.55E2,1.2E1,9E0,7.2E1,8.3E1,4E0,8E0,6E0,3E0,1.9E1,5.3E1,5.8E1,2.5E1,2E0,4E0,1.6E1,3E0,9E0,4.4E1,4.5E1,1.3E1,1E1,1.5E1,1E1,6E0,6E0,3E0,4E0,4E1,4.3E1,2E0,2E0,1.1E1,9E0,1E0,3E0,3E0,1E0,3E0,2.7E1,1.3E1,2E1,2.3E1,1E0,1E1],"tree_param":{"num_deleted":"0","num_feature":"44","num_nodes":"47","size_leaf_vector":"1"}},{"base_weights":[4.6159104E-2,2.6862109E0,-3.577097E-1,2.102437E0,5.0794706E0,2.4667136E-1,-8.5954374E-1,1.5158531E-1,1.4212521E0,3.0512908E-1,5.025344E-2,1.3612252E-1,1.4400215E0,-6.473768E-1,-1.3242606E0,8.263269E-2,4.1863713E-2,4.744318E-1,-3.9816074E-2,1.0847533E-1,-1.263237E-2,-7.181342E-1,9.599781E-1,-8.0078445E-2,-5.2542247E-2,-1.5236816E-1,6.144091E-1,-5.2365273E-1,3.3754826E-2,1.3873196E-2,-1.4820623E-2,-4.3135276E-1,-9.0246E-1,5.8391668E-2,1.3606692E-2,3.9069178E-3,-1.1476469E-2,4.2463027E-2,1.5905838E-2,-2.6792209E-3,-3.7264537E-2,8.276371E-3,-7.713133E-3,-8.250221E-2,-1.2681928E-2,-5.8095533E-2,-1.8700592E-2],"categories":[],"categories_nodes":[],"categories_segments":[],"categories_sizes":[],"default_left":[0,0,0,0,0,0,0,0,0,0,0,0,0,0,0,0,0,0,0,0,0,0,0,0,0,0,0,0,0,0,0,0,0,0,0,0,0,0,0,0,0,0,0,0,0,0,0],"id":32,"left_children":[1,3,5,7,9,11,13,-1,15,-1,-1,17,19,21,23,-1,-1,25,27,-1,29,31,33,-1,-1,35,37,39,41,-1,-1,43,45,-1,-1,-1,-1,-1,-1,-1,-1,-1,-1,-1,-1,-1,-1],"loss_changes":[1.928831E2,2.285167E1,4.7829964E1,8.984268E0,1.0540749E1,9.302471E0,7.622101E0,0E0,5.081463E-1,0E0,0E0,4.0068417E0,6.385541E0,7.6270638E0,2.883339E-1,0E0,0E0,2.1115851E0,1.6195092E0,0E0,3.292144E-1,2.7295341E0,1.1110926E-1,0E0,0E0,1.0686587E-1,1.0519447E0,5.851741E-1,1.0165569E0,0E0,0E0,4.9959545E0,4.364151E0,0E0,0E0,0E0,0E0,0E0,0E0,0E0,0E0,0E0,0E0,0E0,0E0,0E0,0E0],"parents":[2147483647,0,0,1,1,2,2,3,3,4,4,5,5,6,6,8,8,11,11,12,12,13,13,14,14,17,17,18,18,20,20,21,21,22,22,25,25,26,26,27,27,28,28,31,31,32,32],"right_children":[2,4,6,8,10,12,14,-1,16,-1,-1,18,20,22,24,-1,-1,26,28,-1,30,32,34,-1,-1,36,38,40,42,-1,-1,44,46,-1,-1,-1,-1,-1,-1,-1,-1,-1,-1,-1,-1,-1,-1],"split_conditions":[4.4762106E-3,1.4733499E-2,1.660937E-2,4.17243E-1,8.1917184E-4,9.983172E-1,5.511897E-1,1.5158531E-1,2.0061769E-2,3.0512908E-1,5.025344E-2,3.402848E-2,3.95004E-4,2.5963184E-1,-9.1424445E-3,8.263269E-2,4.1863713E-2,3.626728E-1,1.788838E1,1.0847533E-1,-5.585105E-4,9.134981E-2,-2.380027E-2,-8.0078445E-2,-5.2542247E-2,-1.5650569E-3,-2.3832514E-3,7.513803E-4,3.6559823E-1,1.3873196E-2,-1.4820623E-2,3.8102716E-2,6.583234E-2,5.8391668E-2,1.3606692E-2,3.9069178E-3,-1.1476469E-2,4.2463027E-2,1.5905838E-2,-2.6792209E-3,-3.7264537E-2,8.276371E-3,-7.713133E-3,-8.250221E-2,-1.2681928E-2,-5.8095533E-2,-1.8700592E-2],"split_indices":[16,18,11,27,0,39,14,0,20,0,0,15,1,11,1,0,0,22,41,0,0,12,0,0,0,14,8,0,18,0,0,12,9,0,0,0,0,0,0,0,0,0,0,0,0,0,0],"split_type":[0,0,0,0,0,0,0,0,0,0,0,0,0,0,0,0,0,0,0,0,0,0,0,0,0,0,0,0,0,0,0,0,0,0,0,0,0,0,0,0,0,0,0,0,0,0,0],"sum_hessian":[1.79E2,2.3E1,1.56E2,2E1,3E0,7.1E1,8.5E1,7E0,1.3E1,2E0,1E0,6.6E1,5E0,6E1,2.5E1,8E0,5E0,2.2E1,4.4E1,3E0,2E0,5.8E1,2E0,1E1,1.5E1,4E0,1.8E1,5E0,3.9E1,1E0,1E0,2.4E1,3.4E1,1E0,1E0,1E0,3E0,9E0,9E0,2E0,3E0,2.3E1,1.6E1,2E0,2.2E1,2.2E1,1.2E1],"tree_param":{"num_deleted":"0","num_feature":"44","num_nodes":"47","size_leaf_vector":"1"}},{"base_weights":[1.2666737E-1,2.759307E0,-3.2810956E-1,2.2420592E0,4.9143424E0,2.412408E-1,-7.937222E-1,3.206227E0,6.639627E-2,2.9495808E-1,4.8997115E-2,1.2469248E-1,1.385942E0,-3.9515188E-1,-1.0378146E0,4.625659E-2,1.6784449E-1,7.459597E-1,4.335497E-2,1.0440753E-1,-1.2316704E-2,-6.213271E-1,5.0137776E-1,-1.2325068E0,-6.9388574E-1,4.2244565E-2,3.8092614E-3,1.5403645E-1,-1.5803942E-1,1.3526345E-2,-1.4450097E-2,-7.975213E-2,-4.7372404E-1,1.0260777E0,-1.4866662E-1,-7.027661E-2,-8.558409E-1,-9.5249176E-2,-7.551093E-1,1.8937886E-2,-1.2257417E-3,-2.0968905E-2,4.69542E-3,-5.8349404E-3,-5.2789982E-2,1.3266516E-2,5.9560843E-2,1.3587952E-3,-1.6904855E-2,-1.5442769E-2,-4.6717625E-2,-1.5074349E-2,7.930661E-3,-2.585575E-2,-4.9398143E-2],"categories":[],"categories_nodes":[],"categories_segments":[],"categories_sizes":[],"default_left":[0,0,0,0,0,0,0,0,0,0,0,0,0,0,0,0,0,0,0,0,0,0,0,0,0,0,0,0,0,0,0,0,0,0,0,0,0,0,0,0,0,0,0,0,0,0,0,0,0,0,0,0,0,0,0],"id":33,"left_children":[1,3,5,7,9,11,13,15,-1,-1,-1,17,19,21,23,-1,-1,25,27,-1,29,31,33,35,37,-1,-1,39,41,-1,-1,-1,43,45,47,-1,49,51,53,-1,-1,-1,-1,-1,-1,-1,-1,-1,-1,-1,-1,-1,-1,-1,-1],"loss_changes":[2.032429E2,1.6848938E1,3.863051E1,1.5132698E1,9.717857E0,8.632443E0,7.372944E0,3.3119202E-1,0E0,0E0,0E0,3.050131E0,5.916935E0,6.800249E0,2.4258308E0,0E0,0E0,3.9946485E-1,1.2503284E0,0E0,3.1295872E-1,2.9811983E0,2.5400915E0,7.5227356E-1,6.6108894E-1,0E0,0E0,1.453759E0,1.3562573E0,0E0,0E0,0E0,4.8643646E0,1.8645048E-1,1.4242783E-1,0E0,2.2675705E-1,2.0488787E-1,4.8663044E-1,0E0,0E0,0E0,0E0,0E0,0E0,0E0,0E0,0E0,0E0,0E0,0E0,0E0,0E0,0E0,0E0],"parents":[2147483647,0,0,1,1,2,2,3,3,4,4,5,5,6,6,7,7,11,11,12,12,13,13,14,14,17,17,18,18,20,20,21,21,22,22,23,23,24,24,27,27,28,28,32,32,33,33,34,34,36,36,37,37,38,38],"right_children":[2,4,6,8,10,12,14,16,-1,-1,-1,18,20,22,24,-1,-1,26,28,-1,30,32,34,36,38,-1,-1,40,42,-1,-1,-1,44,46,48,-1,50,52,54,-1,-1,-1,-1,-1,-1,-1,-1,-1,-1,-1,-1,-1,-1,-1,-1],"split_conditions":[4.4762106E-3,3.2126147E-2,1.735235E-2,-5.8778684E-4,8.1917184E-4,9.9793124E-1,7.904567E-1,-7.808907E-1,6.639627E-2,2.9495808E-1,4.8997115E-2,-1.0985843E-5,3.95004E-4,1.0588496E-1,-4.6293954E-3,4.625659E-2,1.6784449E-1,-2.738474E-3,9.734922E-1,1.0440753E-1,-5.585105E-4,3.8102716E-2,7.459604E-1,9.8299867E-1,-1.0550416E-2,4.2244565E-2,3.8092614E-3,9.919748E-1,9.9493265E-1,1.3526345E-2,-1.4450097E-2,-7.975213E-2,5.999214E-2,6.121433E-1,-8.151541E-6,-7.027661E-2,4.2520758E-2,-1.4395534E-2,8.270928E-2,1.8937886E-2,-1.2257417E-3,-2.0968905E-2,4.69542E-3,-5.8349404E-3,-5.2789982E-2,1.3266516E-2,5.9560843E-2,1.3587952E-3,-1.6904855E-2,-1.5442769E-2,-4.6717625E-2,-1.5074349E-2,7.930661E-3,-2.585575E-2,-4.9398143E-2],"split_indices":[16,19,11,19,0,39,20,7,0,0,0,14,1,11,1,0,0,11,39,0,0,12,22,26,0,0,0,29,39,0,0,0,11,19,0,0,7,0,11,0,0,0,0,0,0,0,0,0,0,0,0,0,0,0,0],"split_type":[0,0,0,0,0,0,0,0,0,0,0,0,0,0,0,0,0,0,0,0,0,0,0,0,0,0,0,0,0,0,0,0,0,0,0,0,0,0,0,0,0,0,0,0,0,0,0,0,0,0,0,0,0,0,0],"sum_hessian":[1.68E2,2.4E1,1.44E2,2.1E1,3E0,6.5E1,7.9E1,9E0,1.2E1,2E0,1E0,6E1,5E0,3.1E1,4.8E1,1E0,8E0,6E0,5.4E1,3E0,2E0,2.5E1,6E0,2.9E1,1.9E1,5E0,1E0,3.5E1,1.9E1,1E0,1E0,2E0,2.3E1,3E0,3E0,1.8E1,1.1E1,2E0,1.7E1,1.5E1,2E1,9E0,1E1,1.5E1,8E0,1E0,2E0,2E0,1E0,2E0,9E0,1E0,1E0,1E1,7E0],"tree_param":{"num_deleted":"0","num_feature":"44","num_nodes":"55","size_leaf_vector":"1"}},{"base_weights":[1.19347304E-1,2.8108978E0,-2.6344922E-1,2.2366092E0,2.8512615E-1,3.2874897E-1,-7.300955E-1,3.4073238E0,1.4914942E0,8.564804E-1,2.8259298E-2,6.8164253E-1,-7.886295E-1,4.5100164E-2,1.8372717E-1,8.218091E-2,3.5013985E-2,6.115727E-1,1.9893527E0,-2.397593E-2,6.302847E-2,5.544286E-2,8.480931E-3,-3.1221658E-1,-9.7399104E-1,7.782367E-1,-1.1073227E-1,1.31698E-1,4.4824854E-2,1.4292899E-1,-1.5529196E-1,-3.7675953E-1,3.0920362E-2,-1.5787588E0,-7.731243E-1,5.0007474E-2,1.8791353E-2,7.004992E-3,-1.6232682E-2,9.181011E-3,-1.5581305E-2,-2.080769E-3,-1.8612063E-2,-2.526387E-2,-1.030676E-2,-8.430084E-2,-4.610157E-3,-2.4309477E-3,-4.6024706E-2],"categories":[],"categories_nodes":[],"categories_segments":[],"categories_sizes":[],"default_left":[0,0,0,0,0,0,0,0,0,0,0,0,0,0,0,0,0,0,0,0,0,0,0,0,0,0,0,0,0,0,0,0,0,0,0,0,0,0,0,0,0,0,0,0,0,0,0,0,0],"id":34,"left_children":[1,3,5,7,-1,9,11,13,15,17,19,21,23,-1,-1,-1,-1,25,27,-1,29,-1,-1,31,33,35,37,-1,-1,39,41,43,-1,45,47,-1,-1,-1,-1,-1,-1,-1,-1,-1,-1,-1,-1,-1,-1],"loss_changes":[1.8207619E2,2.3779495E1,4.307382E1,1.2364342E1,0E0,1.0917667E1,7.72678E0,1.3718491E0,5.340862E-1,5.719597E0,