{"learner":{"attributes":{"best_iteration":"10","best_score":"4.998118412556267"},"feature_names":["f_cycle_1","f_cycle_2","f_cycle_3","f_cycle_4","f_cycle_5","f_cycle_6","f_cycle_7","f_cycle_8","f_cycle_9","f_cycle_10","f_cycle_11","f_cycle_12","f_cycle_13","f_cycle_14","f_cycle_15","f_slope10","f_area","f_max","f_argmax"],"feature_types":[],"gradient_booster":{"model":{"cats":{"enc":[],"feature_segments":[],"sorted_idx":[]},"gbtree_model_param":{"num_parallel_tree":"1","num_trees":"61"},"iteration_indptr":[0,1,2,3,4,5,6,7,8,9,10,11,12,13,14,15,16,17,18,19,20,21,22,23,24,25,26,27,28,29,30,31,32,33,34,35,36,37,38,39,40,41,42,43,44,45,46,47,48,49,50,51,52,53,54,55,56,57,58,59,60,61],"tree_info":[0,0,0,0,0,0,0,0,0,0,0,0,0,0,0,0,0,0,0,0,0,0,0,0,0,0,0,0,0,0,0,0,0,0,0,0,0,0,0,0,0,0,0,0,0,0,0,0,0,0,0,0,0,0,0,0,0,0,0,0,0],"trees":[{"base_weights":[-2.706068E-1,8.249141E0,-2.8759313E0,6.5452642E0,6.456277E-1,-7.495203E-2,-4.7261558E0,6.1718124E-1,3.9267204E0,6.6037863E-1,-1.1086569E0,-3.9909961E0,-3.6364743E-1,6.9609036E0,2.2242727E0,8.5812485E-1,2.3545435E-1,-1.4894245E0,1.03070065E-1,2.4878187E0,-4.478202E0,3.874613E-1,7.548227E-2,-3.329928E-2,1.2603132E-1,3.2479477E-1,5.3551044E-2,-9.298921E-3,4.7716713E-1,-2.3033166E-1,-9.2205964E-2,1.54506685E-2,-2.5669098E-2,9.615946E-3,1.5944396E-1,-2.3786478E-1,-1.8712096E0,3.3216666E-2,-1.1809412E-2,5.0120354E-3,2.6625214E-2,-1.7329955E-2,-3.8021405E-3,9.554863E-4,-4.0001394E-3,-1.7885352E-2,-1.05118446E-1],"categories":[],"categories_nodes":[],"categories_segments":[],"categories_sizes":[],"default_left":[0,0,0,0,0,0,0,0,0,0,0,0,0,0,0,0,0,0,0,0,0,0,0,0,0,0,0,0,0,0,0,0,0,0,0,0,0,0,0,0,0,0,0,0,0,0,0],"id":0,"left_children":[1,3,5,7,-1,9,11,-1,13,15,17,19,-1,21,23,25,27,29,31,33,35,-1,-1,-1,-1,37,-1,-1,39,41,-1,-1,43,-1,-1,-1,45,-1,-1,-1,-1,-1,-1,-1,-1,-1,-1],"loss_changes":[2.8427058E3,1.5386035E2,5.075249E2,3.1592822E2,0E0,3.1136728E1,8.143921E1,0E0,7.7496735E1,1.8146029E0,7.9970818E0,1.6265375E2,0E0,1.408551E1,1.2813705E1,1.4688406E0,1.0055339E0,5.3809586E0,1.4049694E-1,5.8238544E0,2.3839905E1,0E0,0E0,0E0,0E0,1.29976E0,0E0,0E0,7.1769595E-2,4.5398697E-2,0E0,0E0,1.1260825E-2,0E0,0E0,0E0,1.3471279E0,0E0,0E0,0E0,0E0,0E0,0E0,0E0,0E0,0E0,0E0],"parents":[2147483647,0,0,1,1,2,2,3,3,5,5,6,6,8,8,9,9,10,10,11,11,13,13,14,14,15,15,16,16,17,17,18,18,19,19,20,20,25,25,28,28,29,29,32,32,36,36],"right_children":[2,4,6,8,-1,10,12,-1,14,16,18,20,-1,22,24,26,28,30,32,34,36,-1,-1,-1,-1,38,-1,-1,40,42,-1,-1,44,-1,-1,-1,46,-1,-1,-1,-1,-1,-1,-1,-1,-1,-1],"split_conditions":[8.6083955E-1,6.1247605E-1,5.706554E-2,-3.6511505E-1,6.456277E-1,9.5891625E-1,7.694564E-1,6.1718124E-1,-2.1339981E-1,9.380379E-1,1.0118277E-2,-6.763694E-2,-3.6364743E-1,1.0501599E-1,-1.4262682E-1,-7.086567E-2,-7.69205E-3,5.434736E-1,-3.0432219E-2,-1.19574934E-1,2.0898345E-1,3.874613E-1,7.548227E-2,-3.329928E-2,1.2603132E-1,-3.5001364E-2,5.3551044E-2,-9.298921E-3,-5.723759E-2,7.0713186E-3,-9.2205964E-2,1.54506685E-2,6.806115E-3,9.615946E-3,1.5944396E-1,-2.3786478E-1,-1.2322812E-1,3.3216666E-2,-1.1809412E-2,5.0120354E-3,2.6625214E-2,-1.7329955E-2,-3.8021405E-3,9.554863E-4,-4.0001394E-3,-1.7885352E-2,-1.05118446E-1],"split_indices":[14,8,7,14,0,14,12,0,0,14,2,1,0,2,0,5,2,13,0,0,8,0,0,0,0,9,0,0,0,0,0,0,0,0,0,0,0,0,0,0,0,0,0,0,0,0,0],"split_type":[0,0,0,0,0,0,0,0,0,0,0,0,0,0,0,0,0,0,0,0,0,0,0,0,0,0,0,0,0,0,0,0,0,0,0,0,0,0,0,0,0,0,0,0,0,0,0],"sum_hessian":[1.26E2,2.9E1,9.7E1,2.3E1,6E0,3.9E1,5.8E1,6E0,1.7E1,2.3E1,1.6E1,4.7E1,1.1E1,5E0,1.2E1,1.5E1,8E0,1.2E1,4E0,3E0,4.4E1,4E0,1E0,1E0,1.1E1,5E0,1E1,3E0,5E0,3E0,9E0,1E0,3E0,1E0,2E0,3.9E1,5E0,3E0,2E0,1E0,4E0,1E0,2E0,2E0,1E0,1E0,4E0],"tree_param":{"num_deleted":"0","num_feature":"19","num_nodes":"47","size_leaf_vector":"1"}},{"base_weights":[1.4437177E-2,1.0829346E1,-2.2469933E0,1.1193295E1,7.056232E-2,4.8045364E-1,-4.4457693E0,1.18239355E1,1.628959E-1,2.888347E0,-3.5594282E-1,-5.1550555E0,-2.1287117E0,6.0554475E-1,1.5929298E-1,3.3037382E-1,1.01389825E-1,8.7043E-2,-1.7930131E0,-2.0297208E-1,-2.9208514E-1,-3.747348E-1,-1.271333E0,3.996818E-1,-4.8930418E-1,-1.0035967E-1,-1.9892694E-3,2.405692E0,-2.3910637E0,2.9673114E-2,-2.2488253E-3,6.7648888E-3,-5.161777E-2,9.375525E-3,1.5412913E-1,-1.7438222E-2,-1.2725107E-1],"categories":[],"categories_nodes":[],"categories_segments":[],"categories_sizes":[],"default_left":[0,0,0,0,0,0,0,0,0,0,0,0,0,0,0,0,0,0,0,0,0,0,0,0,0,0,0,0,0,0,0,0,0,0,0,0,0],"id":1,"left_children":[1,3,5,7,-1,9,11,13,-1,15,17,19,21,-1,-1,-1,-1,23,25,-1,-1,-1,27,29,31,-1,-1,33,35,-1,-1,-1,-1,-1,-1,-1,-1],"loss_changes":[3.2526792E3,6.3040283E1,6.618111E2,7.157495E1,0E0,1.0172577E2,8.927722E1,1.0991699E1,0E0,2.8207863E1,2.4346935E1,1.0891846E1,6.408263E1,0E0,0E0,0E0,0E0,5.6012216E0,3.2997074E0,0E0,0E0,0E0,6.751133E1,1.7500138E0,3.8707757E0,0E0,0E0,5.427849E0,2.885521E0,0E0,0E0,0E0,0E0,0E0,0E0,0E0,0E0],"parents":[2147483647,0,0,1,1,2,2,3,3,5,5,6,6,7,7,9,9,10,10,11,11,12,12,17,17,18,18,22,22,23,23,24,24,27,27,28,28],"right_children":[2,4,6,8,-1,10,12,14,-1,16,18,20,22,-1,-1,-1,-1,24,26,-1,-1,-1,28,30,32,-1,-1,34,36,-1,-1,-1,-1,-1,-1,-1,-1],"split_conditions":[9.3333334E-1,4.899199E-1,8.4293395E-2,1.3210134E-1,7.056232E-2,8.845955E-1,9.8645456E-2,3.8315615E-1,1.628959E-1,-2.1339981E-1,9.756195E-1,3.5409304E-1,-1.2462062E-1,6.0554475E-1,1.5929298E-1,3.3037382E-1,1.01389825E-1,6.5930635E-2,2.174826E-3,-2.0297208E-1,-2.9208514E-1,-3.747348E-1,-6.763694E-2,9.614066E-1,-4.942191E-2,-1.0035967E-1,-1.9892694E-3,-1.19574934E-1,-1.2322812E-1,2.9673114E-2,-2.2488253E-3,6.7648888E-3,-5.161777E-2,9.375525E-3,1.5412913E-1,-1.7438222E-2,-1.2725107E-1],"split_indices":[18,0,8,1,0,14,6,3,0,0,14,11,0,0,0,0,0,0,3,0,0,0,1,14,3,0,0,0,0,0,0,0,0,0,0,0,0],"split_type":[0,0,0,0,0,0,0,0,0,0,0,0,0,0,0,0,0,0,0,0,0,0,0,0,0,0,0,0,0,0,0,0,0,0,0,0,0],"sum_hessian":[1.31E2,2.2E1,1.09E2,2.1E1,1E0,4.9E1,6E1,1.9E1,2E0,1.2E1,3.7E1,4.5E1,1.5E1,1.8E1,1E0,1E0,1.1E1,2.9E1,8E0,2E1,2.5E1,1E0,1.4E1,1.9E1,1E1,7E0,1E0,3E0,1.1E1,1.3E1,6E0,5E0,5E0,1E0,2E0,1E0,1E1],"tree_param":{"num_deleted":"0","num_feature":"19","num_nodes":"37","size_leaf_vector":"1"}},{"base_weights":[2.1311797E-1,1.0482268E1,-1.9893172E0,1.0818371E1,6.879826E-2,6.290639E-1,-4.188768E0,1.1398788E1,1.5746607E-1,2.8241591E0,-2.539754E-1,-3.5111709E0,-3.3315125E-1,5.8290535E-1,1.5531068E-1,1.0527789E-1,3.2211447E-1,5.159137E-1,-1.1380696E0,2.326284E0,-3.9332697E0,1.7698403E-1,7.5536233E-1,-1.4997312E0,1.021965E-1,9.141159E-3,1.489915E-1,-2.1183212E-1,-1.5944785E0,1.8932901E-2,-1.1009574E-2,4.8644796E-2,2.3049805E-2,-9.1594726E-2,-2.677291E-2,1.5120602E-2,-1.1730194E-3,-1.700225E-2,-8.7343834E-2],"categories":[],"categories_nodes":[],"categories_segments":[],"categories_sizes":[],"default_left":[0,0,0,0,0,0,0,0,0,0,0,0,0,0,0,0,0,0,0,0,0,0,0,0,0,0,0,0,0,0,0,0,0,0,0,0,0,0,0],"id":2,"left_children":[1,3,5,7,-1,9,11,13,-1,15,17,19,-1,-1,-1,-1,-1,21,23,25,27,29,31,33,35,-1,-1,-1,37,-1,-1,-1,-1,-1,-1,-1,-1,-1,-1],"loss_changes":[3.0741663E3,5.8569824E1,6.476431E2,6.648047E1,0E0,1.0151175E2,7.887451E1,8.946289E0,0E0,2.5435303E1,2.6452017E1,1.32349E2,0E0,0E0,0E0,0E0,0E0,1.5705943E0,8.227287E0,5.0586185E0,2.6592407E1,8.8437706E-1,3.199134E-1,3.5032463E0,1.32887E-1,0E0,0E0,0E0,7.4419594E-1,0E0,0E0,0E0,0E0,0E0,0E0,0E0,0E0,0E0,0E0],"parents":[2147483647,0,0,1,1,2,2,3,3,5,5,6,6,7,7,9,9,10,10,11,11,17,17,18,18,19,19,20,20,21,21,22,22,23,23,24,24,28,28],"right_children":[2,4,6,8,-1,10,12,14,-1,16,18,20,-1,-1,-1,-1,-1,22,24,26,28,30,32,34,36,-1,-1,-1,38,-1,-1,-1,-1,-1,-1,-1,-1,-1,-1],"split_conditions":[9.3333334E-1,4.899199E-1,4.3302447E-1,1.3210134E-1,6.879826E-2,8.845955E-1,7.694564E-1,3.8315615E-1,1.5746607E-1,1.02981046E-1,9.5891625E-1,-6.763694E-2,-3.3315125E-1,5.8290535E-1,1.5531068E-1,1.0527789E-1,3.2211447E-1,-1.8738383E-2,1.0118277E-2,-1.19574934E-1,1.6745885E-1,-4.9080558E-2,9.322652E-1,-3.1137373E-3,-3.0432219E-2,9.141159E-3,1.489915E-1,-2.1183212E-1,-1.2322812E-1,1.8932901E-2,-1.1009574E-2,4.8644796E-2,2.3049805E-2,-9.1594726E-2,-2.677291E-2,1.5120602E-2,-1.1730194E-3,-1.700225E-2,-8.7343834E-2],"split_indices":[18,0,12,1,0,17,12,3,0,3,17,1,0,0,0,0,0,6,2,0,7,6,17,3,0,0,0,0,0,0,0,0,0,0,0,0,0,0,0],"split_type":[0,0,0,0,0,0,0,0,0,0,0,0,0,0,0,0,0,0,0,0,0,0,0,0,0,0,0,0,0,0,0,0,0,0,0,0,0,0,0],"sum_hessian":[1.34E2,2.3E1,1.11E2,2.2E1,1E0,5.1E1,6E1,2E1,2E0,1.4E1,3.7E1,4.9E1,1.1E1,1.9E1,1E0,1.3E1,1E0,2E1,1.7E1,3E0,4.6E1,9E0,1.1E1,1.3E1,4E0,1E0,2E0,4E1,6E0,6E0,3E0,5E0,6E0,9E0,4E0,1E0,3E0,1E0,5E0],"tree_param":{"num_deleted":"0","num_feature":"19","num_nodes":"39","size_leaf_vector":"1"}},{"base_weights":[2.3333108E-1,1.0149534E1,-1.8612194E0,1.0488916E1,6.707831E-2,6.477418E-1,-3.7736213E0,8.500128E-2,1.0826481E1,2.8478138E0,-1.6472146E-1,-4.4317007E0,-3.1964388E-1,5.5324745E-1,1.514279E-1,1.0191299E-1,3.140616E-1,4.291129E-1,-1.0246971E0,-1.7669432E-1,-2.6299927E-1,-1.3508434E0,1.4402513E-1,5.324024E-1,-2.0126073E-2,-1.5025234E-1,-1.3290178E0,-1.02194466E-1,-8.4650055E-2,3.75693E-2,9.063425E-3,-1.6171146E-2,-1.3051986E-3,-8.0391936E-2,-2.4774552E-3,-1.6577197E-2,8.912611E-3],"categories":[],"categories_nodes":[],"categories_segments":[],"categories_sizes":[],"default_left":[0,0,0,0,0,0,0,0,0,0,0,0,0,0,0,0,0,0,0,0,0,0,0,0,0,0,0,0,0,0,0,0,0,0,0,0,0],"id":3,"left_children":[1,3,5,7,-1,9,11,-1,13,15,17,19,21,-1,-1,-1,-1,23,25,-1,-1,27,-1,29,-1,31,33,35,-1,-1,-1,-1,-1,-1,-1,-1,-1],"loss_changes":[2.739759E3,5.468164E1,5.2544183E2,4.6864746E1,0E0,8.626803E1,1.3950897E2,0E0,5.539795E0,2.3331215E1,1.8824305E1,2.0081482E1,4.0190994E1,0E0,0E0,0E0,0E0,2.104084E0,3.7919846E0,0E0,0E0,3.6721E0,0E0,1.4016485E0,0E0,9.905161E-2,3.8445034E0,2.5205934E-1,0E0,0E0,0E0,0E0,0E0,0E0,0E0,0E0,0E0],"parents":[2147483647,0,0,1,1,2,2,3,3,5,5,6,6,8,8,9,9,10,10,11,11,12,12,17,17,18,18,21,21,23,23,25,25,26,26,27,27],"right_children":[2,4,6,8,-1,10,12,-1,14,16,18,20,22,-1,-1,-1,-1,24,26,-1,-1,28,-1,30,-1,32,34,36,-1,-1,-1,-1,-1,-1,-1,-1,-1],"split_conditions":[9.3333334E-1,4.899199E-1,4.3302447E-1,-3.511444E-1,6.707831E-2,8.845955E-1,1.6745885E-1,8.500128E-2,3.8315615E-1,1.02981046E-1,9.614066E-1,5.216438E-1,7.472653E-1,5.5324745E-1,1.514279E-1,1.0191299E-1,3.140616E-1,9.875432E-2,5.434736E-1,-1.7669432E-1,-2.6299927E-1,-1.19574934E-1,1.4402513E-1,9.380379E-1,-2.0126073E-2,-2.628525E-2,1.0118277E-2,-1.2322812E-1,-8.4650055E-2,3.75693E-2,9.063425E-3,-1.6171146E-2,-1.3051986E-3,-8.0391936E-2,-2.4774552E-3,-1.6577197E-2,8.912611E-3],"split_indices":[18,0,12,5,0,14,7,0,3,3,14,12,12,0,0,0,0,0,13,0,0,0,0,14,0,6,2,0,0,0,0,0,0,0,0,0,0],"split_type":[0,0,0,0,0,0,0,0,0,0,0,0,0,0,0,0,0,0,0,0,0,0,0,0,0,0,0,0,0,0,0,0,0,0,0,0,0],"sum_hessian":[1.3E2,2.2E1,1.08E2,2.1E1,1E0,4.7E1,6.1E1,1E0,2E1,1.2E1,3.5E1,5.1E1,1E1,1.9E1,1E0,1.1E1,1E0,2.1E1,1.4E1,2.7E1,2.4E1,8E0,2E0,1.9E1,2E0,4E0,1E1,2E0,6E0,1.1E1,8E0,1E0,3E0,8E0,2E0,1E0,1E0],"tree_param":{"num_deleted":"0","num_feature":"19","num_nodes":"37","size_leaf_vector":"1"}},{"base_weights":[9.249032E-3,9.671082E0,-1.8187485E0,1.0241996E1,1.4157969E-1,3.4914517E-1,-3.7353523E0,1.066566E1,6.540137E-2,1.3017447E0,-6.163856E-1,-3.1691115E0,-3.0965105E-1,1.0942011E1,1.49192E-1,1.9131657E0,5.9734195E-1,-1.2510344E-1,-1.5850495E0,2.175262E0,-3.5565238E0,5.729902E-1,4.705711E0,1.12897515E-1,6.229083E-2,8.105388E-1,1.7798965E-1,2.4655944E-1,-7.974626E-1,-8.884964E-2,-1.2375832E-3,8.689785E-3,1.3922428E-1,-3.8205228E0,-1.5021693E0,-7.600925E-2,4.2893758E-1,2.1258403E-2,4.6618145E-2,2.2397233E-2,-1.2064013E-2,2.1920001E-2,9.7480504E-4,-1.6836321E-2,-5.2941658E-2,-2.0825207E-1,-1.4292952E-1,-1.6162777E-2,-8.223894E-2],"categories":[],"categories_nodes":[],"categories_segments":[],"categories_sizes":[],"default_left":[0,0,0,0,0,0,0,0,0,0,0,0,0,0,0,0,0,0,0,0,0,0,0,0,0,0,0,0,0,0,0,0,0,0,0,0,0,0,0,0,0,0,0,0,0,0,0,0,0],"id":4,"left_children":[1,3,5,7,-1,9,11,13,-1,15,17,19,-1,21,-1,23,25,27,29,31,33,-1,35,-1,-1,37,39,41,43,-1,-1,-1,-1,45,47,-1,-1,-1,-1,-1,-1,-1,-1,-1,-1,-1,-1,-1,-1],"loss_changes":[2.331286E3,5.29989E1,4.625084E2,5.796399E1,0E0,4.954988E1,6.247998E1,5.562744E0,0E0,1.0485725E1,1.2650663E1,1.1126016E2,0E0,9.6850586E-1,0E0,4.0829086E-1,1.1073971E0,4.94455E0,2.651413E0,4.393429E0,1.9751282E1,0E0,8.538072E1,0E0,0E0,2.6115894E-2,7.871842E-1,5.5773234E-1,4.8642302E-1,0E0,0E0,0E0,0E0,1.6814575E0,6.4518833E-1,0E0,0E0,0E0,0E0,0E0,0E0,0E0,0E0,0E0,0E0,0E0,0E0,0E0,0E0],"parents":[2147483647,0,0,1,1,2,2,3,3,5,5,6,6,7,7,9,9,10,10,11,11,13,13,15,15,16,16,17,17,18,18,19,19,20,20,22,22,25,25,26,26,27,27,28,28,33,33,34,34],"right_children":[2,4,6,8,-1,10,12,14,-1,16,18,20,-1,22,-1,24,26,28,30,32,34,-1,36,-1,-1,38,40,42,44,-1,-1,-1,-1,46,48,-1,-1,-1,-1,-1,-1,-1,-1,-1,-1,-1,-1,-1,-1],"split_conditions":[9.3333334E-1,1.3210134E-1,4.3302447E-1,4.899199E-1,1.4157969E-1,9.380379E-1,7.694564E-1,8.8961166E-1,6.540137E-2,8.845955E-1,9.756195E-1,-6.763694E-2,-3.0965105E-1,8.046962E-1,1.49192E-1,7.623352E-1,3.257172E-2,3.783175E-2,2.174826E-3,-1.19574934E-1,1.0789039E-1,5.729902E-1,-1.4262682E-1,1.12897515E-1,6.229083E-2,-4.2976197E-2,6.5930635E-2,-1.8278234E-2,5.101364E-1,-8.884964E-2,-1.2375832E-3,8.689785E-3,1.3922428E-1,5.379539E-2,-1.2322812E-1,-7.600925E-2,4.2893758E-1,2.1258403E-2,4.6618145E-2,2.2397233E-2,-1.2064013E-2,2.1920001E-2,9.7480504E-4,-1.6836321E-2,-5.2941658E-2,-2.0825207E-1,-1.4292952E-1,-1.6162777E-2,-8.223894E-2],"split_indices":[18,1,12,0,0,14,12,8,0,14,14,1,0,13,0,14,1,0,3,0,5,0,0,0,0,7,0,7,13,0,0,0,0,5,0,0,0,0,0,0,0,0,0,0,0,0,0,0,0],"split_type":[0,0,0,0,0,0,0,0,0,0,0,0,0,0,0,0,0,0,0,0,0,0,0,0,0,0,0,0,0,0,0,0,0,0,0,0,0,0,0,0,0,0,0,0,0,0,0,0,0],"sum_hessian":[1.3E2,2E1,1.1E2,1.8E1,2E0,5.2E1,5.8E1,1.7E1,1E0,2.6E1,2.6E1,4.9E1,9E0,1.6E1,1E0,1.3E1,1.3E1,1.8E1,8E0,3E0,4.6E1,1.4E1,2E0,7E0,6E0,8E0,5E0,1.2E1,6E0,7E0,1E0,1E0,2E0,4E1,6E0,1E0,1E0,3E0,5E0,3E0,2E0,6E0,6E0,3E0,3E0,2.7E1,1.3E1,1E0,5E0],"tree_param":{"num_deleted":"0","num_feature":"19","num_nodes":"49","size_leaf_vector":"1"}},{"base_weights":[3.845628E-2,9.177455E0,-1.7194133E0,9.526234E0,6.376634E-2,3.0523446E-1,-3.52874E0,7.933674E-2,9.879166E0,1.0079571E0,-1.0000477E0,-2.9402144E0,-2.941542E-1,5.575376E-1,6.287993E0,1.8468502E0,4.4064432E-1,-2.7295908E-2,-1.3720834E0,-3.341018E0,2.103477E0,-7.410901E-2,3.915026E-1,1.1187198E-1,5.9621252E-2,1.5755463E-1,7.362875E-1,2.0924759E-1,-1.9787955E-1,-8.032045E-2,-5.552864E-2,-3.6305225E0,-1.333491E0,8.472539E-3,1.3458344E-1,1.9214166E-2,-1.183611E-2,4.0167596E-2,3.31769E-3,1.4227199E-2,1.4663696E-3,-1.579125E-2,-2.6644708E-3,1.3599396E-4,-4.3006423E-3,-1.8427421E-1,-4.1297745E-2,-1.5758706E-2,-7.253407E-2],"categories":[],"categories_nodes":[],"categories_segments":[],"categories_sizes":[],"default_left":[0,0,0,0,0,0,0,0,0,0,0,0,0,0,0,0,0,0,0,0,0,0,0,0,0,0,0,0,0,0,0,0,0,0,0,0,0,0,0,0,0,0,0,0,0,0,0,0,0],"id":5,"left_children":[1,3,5,7,-1,9,11,-1,13,15,17,19,-1,-1,21,23,25,27,29,31,33,-1,-1,-1,-1,35,37,39,41,-1,43,45,47,-1,-1,-1,-1,-1,-1,-1,-1,-1,-1,-1,-1,-1,-1,-1,-1],"loss_changes":[1.9917955E3,4.29729E1,3.8205502E2,3.756421E1,0E0,4.6870564E1,5.8910034E1,0E0,1.2080933E1,1.489138E1,6.476719E0,1.000181E2,0E0,0E0,9.548001E1,6.549759E-1,1.6415591E0,2.8350854E-1,3.9213295E0,2.014981E1,4.094208E0,0E0,0E0,0E0,0E0,1.1636947E0,3.9598227E-1,3.229709E-2,5.1384866E-2,0E0,5.5609234E-3,2.6592407E0,3.781433E-1,0E0,0E0,0E0,0E0,0E0,0E0,0E0,0E0,0E0,0E0,0E0,0E0,0E0,0E0,0E0,0E0],"parents":[2147483647,0,0,1,1,2,2,3,3,5,5,6,6,8,8,9,9,10,10,11,11,14,14,15,15,16,16,17,17,18,18,19,19,20,20,25,25,26,26,27,27,28,28,30,30,31,31,32,32],"right_children":[2,4,6,8,-1,10,12,-1,14,16,18,20,-1,-1,22,24,26,28,30,32,34,-1,-1,-1,-1,36,38,40,42,-1,44,46,48,-1,-1,-1,-1,-1,-1,-1,-1,-1,-1,-1,-1,-1,-1,-1,-1],"split_conditions":[9.3333334E-1,4.899199E-1,4.3302447E-1,-3.511444E-1,6.376634E-2,9.614066E-1,7.694564E-1,7.933674E-2,3.3441556E-1,8.845955E-1,5.434736E-1,1.1924482E-1,-2.941542E-1,5.575376E-1,3.5003024E-1,7.623352E-1,-1.8738383E-2,6.806115E-3,1.0118277E-2,2.0898345E-1,-1.19574934E-1,-7.410901E-2,3.915026E-1,1.1187198E-1,5.9621252E-2,4.450743E-1,1.3117862E-2,-3.0432219E-2,7.0713186E-3,-8.032045E-2,-2.780091E-2,1.0789039E-1,-1.2322812E-1,8.472539E-3,1.3458344E-1,1.9214166E-2,-1.183611E-2,4.0167596E-2,3.31769E-3,1.4227199E-2,1.4663696E-3,-1.579125E-2,-2.6644708E-3,1.3599396E-4,-4.3006423E-3,-1.8427421E-1,-4.1297745E-2,-1.5758706E-2,-7.253407E-2],"split_indices":[18,0,12,5,0,14,12,0,5,14,13,4,0,0,5,14,6,0,2,8,0,0,0,0,0,13,3,0,0,0,0,5,0,0,0,0,0,0,0,0,0,0,0,0,0,0,0,0,0],"split_type":[0,0,0,0,0,0,0,0,0,0,0,0,0,0,0,0,0,0,0,0,0,0,0,0,0,0,0,0,0,0,0,0,0,0,0,0,0,0,0,0,0,0,0,0,0,0,0,0,0],"sum_hessian":[1.22E2,1.9E1,1.03E2,1.8E1,1E0,4.9E1,5.4E1,1E0,1.7E1,3.2E1,1.7E1,4.5E1,9E0,1.1E1,6E0,1.2E1,2E1,5E0,1.2E1,4.2E1,3E0,1E0,5E0,6E0,6E0,1.1E1,9E0,2E0,3E0,1E1,2E0,3.6E1,6E0,1E0,2E0,7E0,4E0,8E0,1E0,1E0,1E0,1E0,2E0,1E0,1E0,3.5E1,1E0,1E0,5E0],"tree_param":{"num_deleted":"0","num_feature":"19","num_nodes":"49","size_leaf_vector":"1"}},{"base_weights":[1.5759021E-1,7.0095615E0,-2.1972039E0,8.664281E0,2.7620308E0,-1.1199884E-1,-3.5507205E0,9.107636E0,1.2624578E-1,1.825585E0,3.0316225E-1,4.5017E-1,-9.8338777E-1,-2.977131E0,-2.7984923E-1,9.42291E0,6.2172174E-2,2.5335837E-2,9.5791206E-2,6.706914E-1,5.231886E-2,-1.4059259E0,-4.483652E-2,1.6589336E0,-3.2097068E0,9.646996E0,1.2352987E-1,1.6387081E-1,8.86167E-1,-2.2873227E-1,3.7911645E-1,-7.6781236E-2,-2.7234554E-3,1.3871527E-2,-1.6477604E-1,8.260727E-3,1.161593E-1,-3.4493573E0,-1.3475091E0,4.9345508E-1,1.3567463E-1,-1.1267313E-2,2.0740796E-2,1.1376333E-2,4.6463918E-2,3.234768E-3,-1.5017844E-2,5.6735515E-3,2.0858003E-2,-1.3059728E-2,-6.7160925E-4,-8.431082E-2,-1.7971969E-1,-1.5364743E-2,-7.348312E-2],"categories":[],"categories_nodes":[],"categories_segments":[],"categories_sizes":[],"default_left":[0,0,0,0,0,0,0,0,0,0,0,0,0,0,0,0,0,0,0,0,0,0,0,0,0,0,0,0,0,0,0,0,0,0,0,0,0,0,0,0,0,0,0,0,0,0,0,0,0,0,0,0,0,0,0],"id":6,"left_children":[1,3,5,7,9,11,13,15,-1,17,-1,19,21,23,-1,25,-1,-1,-1,27,29,31,33,35,37,39,-1,41,43,45,47,-1,-1,-1,49,-1,-1,51,53,-1,-1,-1,-1,-1,-1,-1,-1,-1,-1,-1,-1,-1,-1,-1,-1],"loss_changes":[2.145219E3,2.1503723E2,2.79016E2,4.233008E1,2.2936523E1,2.0037401E1,5.376001E1,4.2829346E1,0E0,2.1935272E-1,0E0,2.1582775E0,6.2821426E0,5.8158295E1,0E0,8.882324E0,0E0,0E0,0E0,1.6021028E0,1.0051845E0,1.8444614E0,2.7762923E-1,2.5927954E0,1.6326965E1,4.0197754E0,0E0,6.795099E-1,1.0090828E-1,1.455315E-1,3.1949878E-3,0E0,0E0,0E0,6.945333E-2,0E0,0E0,4.4235535E0,4.378395E-1,0E0,0E0,0E0,0E0,0E0,0E0,0E0,0E0,0E0,0E0,0E0,0E0,0E0,0E0,0E0,0E0],"parents":[2147483647,0,0,1,1,2,2,3,3,4,4,5,5,6,6,7,7,9,9,11,11,12,12,13,13,15,15,19,19,20,20,21,21,22,22,23,23,24,24,25,25,27,27,28,28,29,29,30,30,34,34,37,37,38,38],"right_children":[2,4,6,8,10,12,14,16,-1,18,-1,20,22,24,-1,26,-1,-1,-1,28,30,32,34,36,38,40,-1,42,44,46,48,-1,-1,-1,50,-1,-1,52,54,-1,-1,-1,-1,-1,-1,-1,-1,-1,-1,-1,-1,-1,-1,-1,-1],"split_conditions":[8.6083955E-1,9.3333334E-1,5.706554E-2,1.3210134E-1,1.02981046E-1,9.614066E-1,7.694564E-1,4.899199E-1,1.2624578E-1,-6.728656E-2,3.0316225E-1,9.380379E-1,2.577667E-4,-6.795459E-2,-2.7984923E-1,3.8315615E-1,6.2172174E-2,2.5335837E-2,9.5791206E-2,-7.086567E-2,9.5147866E-1,-3.1137373E-3,-3.0432219E-2,-1.19574934E-1,1.6745885E-1,8.365004E-1,1.2352987E-1,-1.8066484E-2,-7.988625E-2,-5.723759E-2,-4.1373994E-2,-7.6781236E-2,-2.7234554E-3,1.3871527E-2,2.740126E-3,8.260727E-3,1.161593E-1,-1.0708893E-2,-1.2322812E-1,4.9345508E-1,1.3567463E-1,-1.1267313E-2,2.0740796E-2,1.1376333E-2,4.6463918E-2,3.234768E-3,-1.5017844E-2,5.6735515E-3,2.0858003E-2,-1.3059728E-2,-6.7160925E-4,-8.431082E-2,-1.7971969E-1,-1.5364743E-2,-7.348312E-2],"split_indices":[14,18,7,1,3,14,12,0,0,2,0,14,2,1,0,3,0,0,0,5,14,3,0,0,7,9,0,2,10,0,0,0,0,0,1,0,0,2,0,0,0,0,0,0,0,0,0,0,0,0,0,0,0,0,0],"split_type":[0,0,0,0,0,0,0,0,0,0,0,0,0,0,0,0,0,0,0,0,0,0,0,0,0,0,0,0,0,0,0,0,0,0,0,0,0,0,0,0,0,0,0,0,0,0,0,0,0,0,0,0,0,0,0],"sum_hessian":[1.31E2,3.3E1,9.8E1,2.3E1,1E1,3.9E1,5.9E1,2.1E1,2E0,9E0,1E0,2.4E1,1.5E1,4.8E1,1.1E1,2E1,1E0,1E0,8E0,1.5E1,9E0,1E1,5E0,2E0,4.6E1,1.9E1,1E0,5E0,1E1,5E0,4E0,9E0,1E0,1E0,4E0,1E0,1E0,4E1,6E0,1.8E1,1E0,2E0,3E0,1E0,9E0,1E0,4E0,1E0,3E0,2E0,2E0,4E0,3.6E1,1E0,5E0],"tree_param":{"num_deleted":"0","num_feature":"19","num_nodes":"55","size_leaf_vector":"1"}},{"base_weights":[-7.267958E-2,6.6062427E0,-2.0756295E0,8.372788E0,2.7937727E0,-1.6461669E-1,-3.1953573E0,6.0617875E-2,8.685845E0,9.454086E-2,2.9558322E-1,4.8685437E-1,-9.155209E-1,-3.6225288E0,-5.690959E-1,8.926483E0,1.08859204E-1,6.3284326E-1,1.0447039E-1,-1.2092525E0,9.003182E-2,-1.4186333E-1,-2.1513537E-1,-1.1356857E0,1.13255315E-1,1.0067353E1,5.695493E0,1.4697647E-1,7.9616064E-1,-9.732666E-2,2.0298768E-2,-1.8848586E-1,-7.352542E-2,-2.2707462E-2,1.3524723E-2,-9.235191E-2,-1.4205879E0,5.252883E-1,1.3112049E-1,-8.45927E-2,3.6043465E-1,2.3139795E-2,-1.0891756E-2,1.1091948E-2,4.1570444E-2,3.1538964E-3,-7.6598646E-3,-1.5069986E-2,-2.5190671E-3,-3.8666248E-3,1.063919E-3,8.054209E-3,-1.4980602E-2,-2.792894E-2,-8.2683794E-2],"categories":[],"categories_nodes":[],"categories_segments":[],"categories_sizes":[],"default_left":[0,0,0,0,0,0,0,0,0,0,0,0,0,0,0,0,0,0,0,0,0,0,0,0,0,0,0,0,0,0,0,0,0,0,0,0,0,0,0,0,0,0,0,0,0,0,0,0,0,0,0,0,0,0,0],"id":7,"left_children":[1,3,5,7,9,11,13,-1,15,-1,-1,17,19,21,23,25,-1,27,29,31,33,-1,-1,35,-1,37,39,41,43,45,-1,47,-1,49,-1,51,53,-1,-1,-1,-1,-1,-1,-1,-1,-1,-1,-1,-1,-1,-1,-1,-1,-1,-1],"loss_changes":[1.7394155E3,1.7865552E2,2.1345535E2,3.4302002E1,1.9790619E1,1.9035034E1,6.8615906E1,0E0,1.032373E1,0E0,0E0,1.1061873E0,5.4254007E0,1.663446E1,1.8630749E1,9.011963E0,0E0,1.0732403E0,4.654119E-1,3.4563656E0,1.0786839E-1,0E0,0E0,2.5440407E0,0E0,1.1617065E1,9.0445816E1,6.768861E-1,3.8242817E-2,5.4472893E-2,0E0,4.7190726E-2,0E0,1.1256424E-2,0E0,2.0584434E-1,4.8276043E-1,0E0,0E0,0E0,0E0,0E0,0E0,0E0,0E0,0E0,0E0,0E0,0E0,0E0,0E0,0E0,0E0,0E0,0E0],"parents":[2147483647,0,0,1,1,2,2,3,3,4,4,5,5,6,6,8,8,11,11,12,12,13,13,14,14,15,15,17,17,18,18,19,19,20,20,23,23,25,25,26,26,27,27,28,28,29,29,31,31,33,33,35,35,36,36],"right_children":[2,4,6,8,10,12,14,-1,16,-1,-1,18,20,22,24,26,-1,28,30,32,34,-1,-1,36,-1,38,40,42,44,46,-1,48,-1,50,-1,52,54,-1,-1,-1,-1,-1,-1,-1,-1,-1,-1,-1,-1,-1,-1,-1,-1,-1,-1],"split_conditions":[8.6083955E-1,9.3333334E-1,5.706554E-2,-2.7927053E-1,1.02981046E-1,9.614066E-1,1.6745885E-1,6.0617875E-2,1.2868516E-1,9.454086E-2,2.9558322E-1,9.380379E-1,1.0118277E-2,5.216438E-1,7.472653E-1,3.3441556E-1,1.08859204E-1,-7.086567E-2,9.5147866E-1,5.434736E-1,1.0081596E-2,-1.4186333E-1,-2.1513537E-1,8.8042504E-1,1.13255315E-1,6.239639E-1,3.5003024E-1,2.6295241E-2,-7.988625E-2,-1.4229394E-2,2.0298768E-2,2.740126E-3,-7.352542E-2,-5.70131E-3,1.3524723E-2,-7.913786E-2,2.5840549E-2,5.252883E-1,1.3112049E-1,-8.45927E-2,3.6043465E-1,2.3139795E-2,-1.0891756E-2,1.1091948E-2,4.1570444E-2,3.1538964E-3,-7.6598646E-3,-1.5069986E-2,-2.5190671E-3,-3.8666248E-3,1.063919E-3,8.054209E-3,-1.4980602E-2,-2.792894E-2,-8.2683794E-2],"split_indices":[14,18,7,3,3,14,7,0,1,0,0,14,2,12,12,5,0,5,14,13,4,0,0,14,0,7,5,1,10,1,0,1,0,1,0,1,3,0,0,0,0,0,0,0,0,0,0,0,0,0,0,0,0,0,0],"split_type":[0,0,0,0,0,0,0,0,0,0,0,0,0,0,0,0,0,0,0,0,0,0,0,0,0,0,0,0,0,0,0,0,0,0,0,0,0,0,0,0,0,0,0,0,0,0,0,0,0,0,0,0,0,0,0],"sum_hessian":[1.28E2,2.9E1,9.9E1,1.9E1,1E1,3.7E1,6.2E1,1E0,1.8E1,9E0,1E0,2E1,1.7E1,5.3E1,9E0,1.7E1,1E0,1.4E1,6E0,1.3E1,4E0,2.7E1,2.6E1,8E0,1E0,1.1E1,6E0,4E0,1E1,4E0,2E0,3E0,1E1,3E0,1E0,2E0,6E0,1E1,1E0,1E0,5E0,2E0,2E0,1E0,9E0,1E0,3E0,1E0,2E0,1E0,2E0,1E0,1E0,2E0,4E0],"tree_param":{"num_deleted":"0","num_feature":"19","num_nodes":"55","size_leaf_vector":"1"}},{"base_weights":[2.5600424E-1,6.679823E0,-1.8229674E0,8.148608E0,2.6336336E0,4.576052E-2,-2.9878433E0,8.411541E0,5.9102442E-2,1.6453991E0,2.881936E-1,-1.5545933E-1,1.2561093E-1,-9.3051064E-1,-3.525652E0,8.599841E0,1.1143074E-1,2.2338916E-2,8.696897E-2,3.089698E-1,-1.440315E0,-1.176187E0,-2.2273064E-2,-3.8196518E0,-9.136233E-2,4.391645E-1,1.23271845E-1,4.2598507E-1,-4.0407624E-2,-9.004339E-2,-1.7666274E0,-2.4350802E-3,-7.10664E-2,2.0568848E-2,-3.76997E-3,-2.8251977E0,-2.0969132E-1,7.6757125E-3,3.4332357E-2,-1.4606095E-2,7.85284E-3,-4.6712566E-2,-1.0396015E-1,1.2278557E-4,1.419878E-3,-1.4567013E-1,-4.196334E-2],"categories":[],"categories_nodes":[],"categories_segments":[],"categories_sizes":[],"default_left":[0,0,0,0,0,0,0,0,0,0,0,0,0,0,0,0,0,0,0,0,0,0,0,0,0,0,0,0,0,0,0,0,0,0,0,0,0,0,0,0,0,0,0,0,0,0,0],"id":8,"left_children":[1,3,5,7,9,11,13,15,-1,17,-1,19,-1,21,23,25,-1,-1,-1,27,29,31,33,35,-1,-1,-1,37,-1,39,41,-1,-1,43,-1,45,-1,-1,-1,-1,-1,-1,-1,-1,-1,-1,-1],"loss_changes":[1.7483188E3,1.6871497E2,2.1564346E2,3.2187134E1,2.1450226E1,1.974626E1,6.421289E1,6.447754E0,0E0,2.3670387E-1,0E0,2.2523815E1,0E0,3.0976572E0,1.6988403E1,1.9776611E0,0E0,0E0,0E0,4.0044317E0,4.2470303E0,2.9711008E0,1.0655014E-2,3.0355835E0,0E0,0E0,0E0,1.7411823E0,0E0,1.9568063E-1,1.3894653E-1,0E0,0E0,3.556715E-4,0E0,7.2402954E-3,0E0,0E0,0E0,0E0,0E0,0E0,0E0,0E0,0E0,0E0,0E0],"parents":[2147483647,0,0,1,1,2,2,3,3,4,4,5,5,6,6,7,7,9,9,11,11,13,13,14,14,15,15,19,19,20,20,21,21,22,22,23,23,27,27,29,29,30,30,33,33,35,35],"right_children":[2,4,6,8,10,12,14,16,-1,18,-1,20,-1,22,24,26,-1,-1,-1,28,30,32,34,36,-1,-1,-1,38,-1,40,42,-1,-1,44,-1,46,-1,-1,-1,-1,-1,-1,-1,-1,-1,-1,-1],"split_conditions":[8.6083955E-1,9.3333334E-1,9.6228415E-1,4.899199E-1,1.02981046E-1,7.472653E-1,6.361839E-1,3.8315615E-1,5.9102442E-2,-6.728656E-2,2.881936E-1,5.706554E-2,1.2561093E-1,1.0118277E-2,6.5019056E-2,8.8961166E-1,1.1143074E-1,2.2338916E-2,8.696897E-2,9.614066E-1,-1.19574934E-1,5.434736E-1,6.806115E-3,1.1832544E-1,-9.136233E-2,4.391645E-1,1.23271845E-1,-1.8738383E-2,-4.0407624E-2,-1.2322812E-1,2.3772444E-3,-2.4350802E-3,-7.10664E-2,-2.780091E-2,-3.76997E-3,1.3204582E-2,-2.0969132E-1,7.6757125E-3,3.4332357E-2,-1.4606095E-2,7.85284E-3,-4.6712566E-2,-1.0396015E-1,1.2278557E-4,1.419878E-3,-1.4567013E-1,-4.196334E-2],"split_indices":[14,18,14,0,3,12,13,3,0,2,0,7,0,2,5,8,0,0,0,14,0,13,0,8,0,0,0,6,0,0,2,0,0,0,0,3,0,0,0,0,0,0,0,0,0,0,0],"split_type":[0,0,0,0,0,0,0,0,0,0,0,0,0,0,0,0,0,0,0,0,0,0,0,0,0,0,0,0,0,0,0,0,0,0,0,0,0,0,0,0,0,0,0,0,0,0,0],"sum_hessian":[1.29E2,3.1E1,9.8E1,2.2E1,9E0,3.8E1,6E1,2.1E1,1E0,8E0,1E0,3.6E1,2E0,1.3E1,4.7E1,2E1,1E0,1E0,7E0,2.7E1,9E0,1E1,3E0,3.9E1,8E0,1.9E1,1E0,2.5E1,2E0,2E0,7E0,2E0,8E0,2E0,1E0,1.3E1,2.6E1,1.3E1,1.2E1,1E0,1E0,3E0,4E0,1E0,1E0,1.2E1,1E0],"tree_param":{"num_deleted":"0","num_feature":"19","num_nodes":"47","size_leaf_vector":"1"}},{"base_weights":[1.0245153E-1,5.9067535E0,-1.8333201E0,7.4512887E0,2.4541643E0,3.886676E-3,-2.9707003E0,7.8644495E0,1.037701E-1,8.277464E-2,2.8098878E-1,4.157913E-1,-7.9077846E-1,-2.486167E0,-2.5176033E-1,8.310593E0,1.208696E-1,5.956071E-1,5.054369E-2,-1.0414547E0,9.627581E-2,1.897924E0,-2.787171E0,9.770838E0,5.0814013E0,2.251824E-1,7.6205426E-1,-2.883543E-1,3.2453474E-1,-1.816318E-1,-6.705921E-2,1.3183546E-2,-4.7412872E-2,7.6565268E-3,1.21423915E-1,-1.6078854E-1,-1.9186256E0,5.117069E-1,1.1686335E-1,-9.3457006E-2,3.170678E-1,2.2233507E-2,-1.0784563E-2,3.9674405E-2,1.0407067E-2,-7.660437E-3,-2.0723416E-2,4.2551043E-3,2.1148777E-2,-1.4632344E-2,-2.3538908E-3,1.1973381E-4,-3.6756992E-3,-1.13373004E-1,-6.3954584E-2],"categories":[],"categories_nodes":[],"categories_segments":[],"categories_sizes":[],"default_left":[0,0,0,0,0,0,0,0,0,0,0,0,0,0,0,0,0,0,0,0,0,0,0,0,0,0,0,0,0,0,0,0,0,0,0,0,0,0,0,0,0,0,0,0,0,0,0,0,0,0,0,0,0,0,0],"id":9,"left_children":[1,3,5,7,9,11,13,15,-1,-1,-1,17,19,21,-1,23,-1,25,27,29,31,33,35,37,39,41,43,45,47,49,-1,-1,51,-1,-1,-1,53,-1,-1,-1,-1,-1,-1,-1,-1,-1,-1,-1,-1,-1,-1,-1,-1,-1,-1],"loss_changes":[1.5276625E3,1.6302332E2,2.1315103E2,3.476367E1,2.1035912E1,1.3421847E1,5.0502014E1,3.0943604E1,0E0,0E0,0E0,1.7431831E0,3.213354E0,7.523013E1,0E0,3.9943237E1,0E0,9.3820953E-1,1.0221311E0,2.5912561E0,1.0871253E-1,3.3309565E0,1.2443024E1,1.7407837E1,8.1911835E1,7.732758E-1,4.378128E-2,2.1718562E-2,1.0542351E-1,4.59729E-2,0E0,0E0,4.07614E-3,0E0,0E0,0E0,1.3384552E0,0E0,0E0,0E0,0E0,0E0,0E0,0E0,0E0,0E0,0E0,0E0,0E0,0E0,0E0,0E0,0E0,0E0,0E0],"parents":[2147483647,0,0,1,1,2,2,3,3,4,4,5,5,6,6,7,7,11,11,12,12,13,13,15,15,17,17,18,18,19,19,20,20,21,21,22,22,23,23,24,24,25,25,26,26,27,27,28,28,29,29,32,32,36,36],"right_children":[2,4,6,8,10,12,14,16,-1,-1,-1,18,20,22,-1,24,-1,26,28,30,32,34,36,38,40,42,44,46,48,50,-1,-1,52,-1,-1,-1,54,-1,-1,-1,-1,-1,-1,-1,-1,-1,-1,-1,-1,-1,-1,-1,-1,-1,-1],"split_conditions":[8.6083955E-1,9.3333334E-1,5.706554E-2,1.3210134E-1,1.02981046E-1,9.5891625E-1,7.694564E-1,3.2874608E-1,1.037701E-1,8.277464E-2,2.8098878E-1,9.380379E-1,1.0118277E-2,-6.763694E-2,-2.5176033E-1,3.3441556E-1,1.208696E-1,-7.086567E-2,-7.69205E-3,5.434736E-1,-3.0432219E-2,-1.19574934E-1,1.1622906E-1,6.239639E-1,3.5003024E-1,1.968904E-1,9.322652E-1,8.639747E-2,-6.1893016E-3,7.0713186E-3,-6.705921E-2,1.3183546E-2,-2.780091E-2,7.6565268E-3,1.21423915E-1,-1.6078854E-1,6.715154E-1,5.117069E-1,1.1686335E-1,-9.3457006E-2,3.170678E-1,2.2233507E-2,-1.0784563E-2,3.9674405E-2,1.0407067E-2,-7.660437E-3,-2.0723416E-2,4.2551043E-3,2.1148777E-2,-1.4632344E-2,-2.3538908E-3,1.1973381E-4,-3.6756992E-3,-1.13373004E-1,-6.3954584E-2],"split_indices":[14,18,7,1,3,14,12,0,0,0,0,14,2,1,0,5,0,5,2,13,0,0,7,7,5,12,14,0,1,0,0,0,0,0,0,0,13,0,0,0,0,0,0,0,0,0,0,0,0,0,0,0,0,0,0],"split_type":[0,0,0,0,0,0,0,0,0,0,0,0,0,0,0,0,0,0,0,0,0,0,0,0,0,0,0,0,0,0,0,0,0,0,0,0,0,0,0,0,0,0,0,0,0,0,0,0,0,0,0,0,0,0,0],"sum_hessian":[1.34E2,3.3E1,1.01E2,2.2E1,1.1E1,3.9E1,6.2E1,2E1,2E0,1E1,1E0,2.6E1,1.3E1,5.2E1,1E1,1.8E1,2E0,1.7E1,9E0,1E1,3E0,3E0,4.9E1,1.1E1,7E0,6E0,1.1E1,4E0,5E0,3E0,7E0,1E0,2E0,1E0,2E0,3.1E1,1.8E1,1E1,1E0,1E0,6E0,4E0,2E0,1E1,1E0,3E0,1E0,2E0,3E0,1E0,2E0,1E0,1E0,1E1,8E0],"tree_param":{"num_deleted":"0","num_feature":"19","num_nodes":"55","size_leaf_vector":"1"}},{"base_weights":[-1.7453983E-1,5.2571588E0,-1.8076283E0,4.0837965E0,4.7327676E-1,-7.4534364E-2,-2.819675E0,5.541152E0,1.921786E0,3.8901445E-1,-7.651992E-1,-2.339311E0,-2.37317E-1,1.4009333E-1,6.2825403E0,1.1002607E0,2.7396408E-1,4.793037E-2,6.2922233E-1,-1.0564761E0,8.6905286E-2,1.8352981E0,-2.6208625E0,3.2702684E-1,9.2564344E-2,-9.11206E-2,1.5747693E0,3.025848E-1,-3.181719E-1,4.059553E-3,6.651331E-1,-6.2458128E-2,-3.5881257E-1,1.2853957E-2,-1.9907951E-2,7.465124E-3,1.1737646E-1,-2.8302407E0,-1.141674E0,8.9069895E-2,4.097383E-2,1.9210642E-2,-4.6795844E-3,-6.711197E-3,-1.9803127E-2,2.179248E-2,3.996988E-2,-3.2468107E-2,-2.275435E-3,1.0620117E-3,-3.5838129E-3,-6.855705E-2,-1.4709361E-1,-7.412548E-2,-3.203354E-2],"categories":[],"categories_nodes":[],"categories_segments":[],"categories_sizes":[],"default_left":[0,0,0,0,0,0,0,0,0,0,0,0,0,0,0,0,0,0,0,0,0,0,0,0,0,0,0,0,0,0,0,0,0,0,0,0,0,0,0,0,0,0,0,0,0,0,0,0,0,0,0,0,0,0,0],"id":10,"left_children":[1,3,5,7,-1,9,11,13,15,17,19,21,-1,-1,23,25,-1,27,29,31,33,35,37,-1,-1,-1,39,41,43,-1,45,-1,47,-1,49,-1,-1,51,53,-1,-1,-1,-1,-1,-1,-1,-1,-1,-1,-1,-1,-1,-1,-1,-1],"loss_changes":[1.189272E3,1.1442114E2,1.8044897E2,7.127237E1,0E0,1.2783791E1,4.9054382E1,1.2860321E1,2.9042225E1,1.9361873E0,4.0629873E0,6.827988E1,0E0,0E0,4.6728516E-1,1.8125042E1,0E0,1.1217991E0,2.215209E-1,1.1649485E0,9.600201E-2,3.1039848E0,1.2564026E1,0E0,0E0,0E0,1.0083771E-1,2.6233286E-1,1.8478036E-2,0E0,5.178356E-2,0E0,3.345695E-1,0E0,1.0043107E-2,0E0,0E0,3.1330872E0,4.162779E-1,0E0,0E0,0E0,0E0,0E0,0E0,0E0,0E0,0E0,0E0,0E0,0E0,0E0,0E0,0E0,0E0],"parents":[2147483647,0,0,1,1,2,2,3,3,5,5,6,6,7,7,8,8,9,9,10,10,11,11,14,14,15,15,17,17,18,18,19,19,20,20,21,21,22,22,26,26,27,27,28,28,30,30,32,32,34,34,37,37,38,38],"right_children":[2,4,6,8,-1,10,12,14,16,18,20,22,-1,-1,24,26,-1,28,30,32,34,36,38,-1,-1,-1,40,42,44,-1,46,-1,48,-1,50,-1,-1,52,54,-1,-1,-1,-1,-1,-1,-1,-1,-1,-1,-1,-1,-1,-1,-1,-1],"split_conditions":[8.6083955E-1,6.1887536E0,5.706554E-2,8.666667E-1,4.7327676E-1,9.614066E-1,7.694564E-1,-3.2734435E-2,1.2943774E-1,2.066097E-3,1.0118277E-2,-6.763694E-2,-2.37317E-1,1.4009333E-1,1.2868516E-1,-9.2947915E-2,2.7396408E-1,6.5930635E-2,-6.1893016E-3,-3.1137373E-3,-3.0432219E-2,-1.19574934E-1,1.6745885E-1,3.2702684E-1,9.2564344E-2,-9.11206E-2,7.623352E-1,-1.5124038E-2,8.639747E-2,4.059553E-3,3.1398483E-2,-6.2458128E-2,-1.6783647E-2,1.2853957E-2,6.806115E-3,7.465124E-3,1.1737646E-1,-1.0708893E-2,-4.6430815E-2,8.9069895E-2,4.097383E-2,1.9210642E-2,-4.6795844E-3,-6.711197E-3,-1.9803127E-2,2.179248E-2,3.996988E-2,-3.2468107E-2,-2.275435E-3,1.0620117E-3,-3.5838129E-3,-6.855705E-2,-1.4709361E-1,-7.412548E-2,-3.203354E-2],"split_indices":[14,16,7,18,0,14,12,2,3,2,2,1,0,0,1,1,0,0,1,3,0,0,7,0,0,0,14,9,0,0,1,0,0,0,0,0,0,2,1,0,0,0,0,0,0,0,0,0,0,0,0,0,0,0,0],"split_type":[0,0,0,0,0,0,0,0,0,0,0,0,0,0,0,0,0,0,0,0,0,0,0,0,0,0,0,0,0,0,0,0,0,0,0,0,0,0,0,0,0,0,0,0,0,0,0,0,0,0,0,0,0,0,0],"sum_hessian":[1.32E2,3E1,1.02E2,2.5E1,5E0,3.8E1,6.4E1,1.4E1,1.1E1,2.3E1,1.5E1,5.3E1,1.1E1,4E0,1E1,1E1,1E0,1E1,1.3E1,1.1E1,4E0,3E0,5E1,9E0,1E0,1E0,9E0,6E0,4E0,1E0,1.2E1,8E0,3E0,1E0,3E0,1E0,2E0,4.3E1,7E0,6E0,3E0,5E0,1E0,2E0,2E0,6E0,6E0,1E0,2E0,2E0,1E0,4E0,3.9E1,3E0,4E0],"tree_param":{"num_deleted":"0","num_feature":"19","num_nodes":"55","size_leaf_vector":"1"}},{"base_weights":[3.68104E-2,5.3745084E0,-1.6736832E0,6.5558863E0,2.415763E0,-5.7567596E-2,-2.7414763E0,6.9047318E0,9.643351E-2,7.944397E-2,2.6711497E-1,3.760081E-1,-7.856286E-1,-3.3229163E-1,-2.5685225E0,7.147767E0,5.1100828E-2,5.512893E-1,2.2901058E-2,-2.4225307E-1,-1.181337E0,1.7747436E0,-2.8237731E0,8.049327E0,4.323538E0,3.1416652E-1,4.0421106E-2,-2.1330118E-1,3.0176353E-1,-2.9027557E-2,7.683601E-2,-2.4157525E-3,-6.584627E-2,7.2784903E-3,1.13463916E-1,-3.237868E0,-1.8033743E0,4.3326816E-1,1.4510359E-1,-8.884261E-2,2.818206E-1,2.5836755E-2,2.961842E-3,2.0088672E-3,-1.3601618E-2,3.9580823E-3,1.688118E-2,1.2532616E-2,-1.464057E-3,-1.1938782E-1,-1.8018919E-1,-1.1841202E-2,-9.386241E-2],"categories":[],"categories_nodes":[],"categories_segments":[],"categories_sizes":[],"default_left":[0,0,0,0,0,0,0,0,0,0,0,0,0,0,0,0,0,0,0,0,0,0,0,0,0,0,0,0,0,0,0,0,0,0,0,0,0,0,0,0,0,0,0,0,0,0,0,0,0,0,0,0,0],"id":11,"left_children":[1,3,5,7,9,11,13,15,-1,-1,-1,17,19,-1,21,23,-1,25,27,29,31,33,35,37,39,41,-1,43,45,-1,47,-1,-1,-1,-1,49,51,-1,-1,-1,-1,-1,-1,-1,-1,-1,-1,-1,-1,-1,-1,-1,-1],"loss_changes":[1.2415583E3,9.951062E1,1.7758691E2,2.3809265E1,1.8130676E1,1.3553525E1,2.4797028E1,2.271875E1,0E0,0E0,0E0,1.6584873E0,3.15411E0,0E0,7.263739E1,1.612268E1,0E0,8.435178E-1,7.2304595E-1,9.0818506E-1,1.3189936E0,2.892393E0,1.8668365E1,1.9245056E1,6.6078384E1,5.374384E-1,0E0,1.0025209E-1,1.3185769E-2,0E0,9.9563845E-2,0E0,0E0,0E0,0E0,3.8378296E0,1.7542381E0,0E0,0E0,0E0,0E0,0E0,0E0,0E0,0E0,0E0,0E0,0E0,0E0,0E0,0E0,0E0,0E0],"parents":[2147483647,0,0,1,1,2,2,3,3,4,4,5,5,6,6,7,7,11,11,12,12,14,14,15,15,17,17,18,18,19,19,20,20,21,21,22,22,23,23,24,24,25,25,27,27,28,28,30,30,35,35,36,36],"right_children":[2,4,6,8,10,12,14,16,-1,-1,-1,18,20,-1,22,24,-1,26,28,30,32,34,36,38,40,42,-1,44,46,-1,48,-1,-1,-1,-1,50,52,-1,-1,-1,-1,-1,-1,-1,-1,-1,-1,-1,-1,-1,-1,-1,-1],"split_conditions":[8.6083955E-1,9.3333334E-1,5.706554E-2,1.3210134E-1,1.02981046E-1,9.614066E-1,-1.2462062E-1,4.899199E-1,9.643351E-2,7.944397E-2,2.6711497E-1,9.380379E-1,5.3527363E-2,-3.3229163E-1,-6.763694E-2,1.1208479E-1,5.1100828E-2,-3.6310676E-2,9.5147866E-1,-1.9717058E-2,-1.4615488E-2,-1.19574934E-1,6.5019056E-2,3.90847E-1,4.823101E-3,6.752972E-2,4.0421106E-2,-5.723759E-2,-4.1373994E-2,-2.9027557E-2,-3.0432219E-2,-2.4157525E-3,-6.584627E-2,7.2784903E-3,1.13463916E-1,2.3622239E-1,-1.2322812E-1,4.3326816E-1,1.4510359E-1,-8.884261E-2,2.818206E-1,2.5836755E-2,2.961842E-3,2.0088672E-3,-1.3601618E-2,3.9580823E-3,1.688118E-2,1.2532616E-2,-1.464057E-3,-1.1938782E-1,-1.8018919E-1,-1.1841202E-2,-9.386241E-2],"split_indices":[14,18,7,1,3,14,0,0,0,0,0,14,10,0,1,3,0,7,14,5,2,0,5,5,2,11,0,0,0,0,0,0,0,0,0,10,0,0,0,0,0,0,0,0,0,0,0,0,0,0,0,0,0],"split_type":[0,0,0,0,0,0,0,0,0,0,0,0,0,0,0,0,0,0,0,0,0,0,0,0,0,0,0,0,0,0,0,0,0,0,0,0,0,0,0,0,0,0,0,0,0,0,0,0,0,0,0,0,0],"sum_hessian":[1.34E2,3.2E1,1.02E2,2.2E1,1E1,4.1E1,6.1E1,2E1,2E0,9E0,1E0,2.6E1,1.5E1,1E0,6E1,1.9E1,1E0,1.7E1,9E0,7E0,8E0,3E0,5.7E1,1.3E1,6E0,1E1,7E0,5E0,4E0,3E0,4E0,1E0,7E0,1E0,2E0,3.9E1,1.8E1,1.1E1,2E0,1E0,5E0,5E0,5E0,1E0,4E0,1E0,3E0,1E0,3E0,1.4E1,2.5E1,1E0,1.7E1],"tree_param":{"num_deleted":"0","num_feature":"19","num_nodes":"53","size_leaf_vector":"1"}},{"base_weights":[1.9699602E-1,5.641568E0,-1.5805492E0,7.1979265E0,2.2989564E0,4.6874564E-2,-2.5353644E0,5.161319E0,4.8038363E-1,1.4871037E0,2.604371E-1,4.089473E-1,-5.973214E-1,-3.2398435E-1,-2.352487E0,6.769226E0,1.4080402E-1,8.5388474E-2,3.6458135E-2,7.3386157E-1,1.4765514E-1,-9.209602E-1,1.0469284E-1,1.7161918E0,-2.6103063E0,3.6559173E-1,8.783942E-2,8.440161E-3,3.8894497E-2,4.151179E-1,-2.7814817E-1,-3.457594E-3,-5.0939616E-2,1.22192865E-2,8.673191E-3,7.096529E-3,1.0968176E-1,-1.9063376E0,-1.6753282E-1,3.8785299E-3,2.5023922E-2,-6.636858E-3,-1.8965675E-2,2.1484375E-3,-2.3553371E-3,-1.096602E-1,-5.5664238E-2],"categories":[],"categories_nodes":[],"categories_segments":[],"categories_sizes":[],"default_left":[0,0,0,0,0,0,0,0,0,0,0,0,0,0,0,0,0,0,0,0,0,0,0,0,0,0,0,0,0,0,0,0,0,0,0,0,0,0,0,0,0,0,0,0,0,0,0],"id":12,"left_children":[1,3,5,7,9,11,13,15,-1,17,-1,19,21,-1,23,25,-1,-1,-1,27,29,31,33,35,37,-1,-1,-1,-1,39,41,-1,-1,-1,43,-1,-1,45,-1,-1,-1,-1,-1,-1,-1,-1,-1],"loss_changes":[1.1799517E3,1.3952142E2,1.4307661E2,4.8565918E1,1.8239555E1,8.407875E0,2.6593597E1,2.995935E1,0E0,4.272747E-1,0E0,1.8442855E0,3.0500054E0,0E0,6.427179E1,6.1931763E0,0E0,0E0,0E0,1.1747551E-1,1.7098757E0,6.795559E-1,6.49467E-2,2.69514E0,2.1756409E1,0E0,0E0,0E0,0E0,2.2049677E-1,3.7914306E-2,0E0,0E0,0E0,9.676134E-3,0E0,0E0,4.383339E0,0E0,0E0,0E0,0E0,0E0,0E0,0E0,0E0,0E0],"parents":[2147483647,0,0,1,1,2,2,3,3,4,4,5,5,6,6,7,7,9,9,11,11,12,12,14,14,15,15,19,19,20,20,21,21,22,22,23,23,24,24,29,29,30,30,34,34,37,37],"right_children":[2,4,6,8,10,12,14,16,-1,18,-1,20,22,-1,24,26,-1,-1,-1,28,30,32,34,36,38,-1,-1,-1,-1,40,42,-1,-1,-1,44,-1,-1,46,-1,-1,-1,-1,-1,-1,-1,-1,-1],"split_conditions":[8.6083955E-1,9.3333334E-1,5.706554E-2,1.7871794E-1,1.02981046E-1,9.614066E-1,-1.2462062E-1,-3.2828102E-1,4.8038363E-1,7.623352E-1,2.604371E-1,9.241602E-1,6.7864736E-3,-3.2398435E-1,-6.763694E-2,1.3210134E-1,1.4080402E-1,8.5388474E-2,3.6458135E-2,-7.988625E-2,2.5697349E-2,-5.70131E-3,-3.0432219E-2,-1.19574934E-1,7.5074023E-1,3.6559173E-1,8.783942E-2,8.440161E-3,3.8894497E-2,-6.1893016E-3,8.639747E-2,-3.457594E-3,-5.0939616E-2,1.22192865E-2,6.806115E-3,7.096529E-3,1.0968176E-1,1.478895E-1,-1.6753282E-1,3.8785299E-3,2.5023922E-2,-6.636858E-3,-1.8965675E-2,2.1484375E-3,-2.3553371E-3,-1.096602E-1,-5.5664238E-2],"split_indices":[14,18,7,14,3,14,0,14,0,14,0,14,15,0,1,1,0,0,0,10,0,1,0,0,13,0,0,0,0,1,0,0,0,0,0,0,0,7,0,0,0,0,0,0,0,0,0],"split_type":[0,0,0,0,0,0,0,0,0,0,0,0,0,0,0,0,0,0,0,0,0,0,0,0,0,0,0,0,0,0,0,0,0,0,0,0,0,0,0,0,0,0,0,0,0,0,0],"sum_hessian":[1.2E2,2.9E1,9.1E1,1.9E1,1E1,3.4E1,5.7E1,1.2E1,7E0,9E0,1E0,2.2E1,1.2E1,1E0,5.6E1,6E0,6E0,6E0,3E0,9E0,1.3E1,8E0,4E0,3E0,5.3E1,5E0,1E0,1E0,8E0,8E0,5E0,1E0,7E0,1E0,3E0,1E0,2E0,2.9E1,2.4E1,2E0,6E0,3E0,2E0,2E0,1E0,2E1,9E0],"tree_param":{"num_deleted":"0","num_feature":"19","num_nodes":"47","size_leaf_vector":"1"}},{"base_weights":[8.414054E-2,4.9873605E0,-1.5352149E0,4.1797814E-1,4.1176853E0,-7.629163E-2,-2.4987564E0,5.768609E0,1.6420401E0,1.9760163E-1,-1.1025226E0,-2.0498765E0,-2.099133E-1,1.2159838E-1,6.6081934E0,9.3245625E-1,2.539262E-1,5.003384E-1,-9.929429E-2,-6.181987E-2,-7.881165E-4,1.6595764E0,-2.3162918E0,7.159076E0,1.1927799E-1,-9.863112E-2,1.3758836E0,2.5658417E-1,3.7124444E-2,9.2705436E-2,-4.9874464E-1,6.919098E-3,1.06025696E-1,-2.5212634E0,-1.2852728E0,3.766205E-1,8.564343E-2,7.7046536E-2,3.5090923E-2,2.015355E-2,-3.1956912E-3,1.3317871E-2,-2.456087E-3,-3.7001611E-3,-2.8444616E-2,-4.4810023E-2,-1.2924415E-1,-7.200263E-2,-2.2205146E-2],"categories":[],"categories_nodes":[],"categories_segments":[],"categories_sizes":[],"default_left":[0,0,0,0,0,0,0,0,0,0,0,0,0,0,0,0,0,0,0,0,0,0,0,0,0,0,0,0,0,0,0,0,0,0,0,0,0,0,0,0,0,0,0,0,0,0,0,0,0],"id":13,"left_children":[1,3,5,-1,7,9,11,13,15,17,19,21,-1,-1,23,25,-1,27,29,-1,-1,31,33,35,-1,-1,37,39,-1,41,43,-1,-1,45,47,-1,-1,-1,-1,-1,-1,-1,-1,-1,-1,-1,-1,-1,-1],"loss_changes":[1.0875042E3,6.529047E1,1.4459984E2,0E0,1.0905365E2,1.2023127E1,3.8692383E1,3.1552795E1,2.6964657E1,3.1056452E0,1.2899199E0,5.4245102E1,0E0,0E0,1.3161865E1,1.8172398E1,0E0,8.129177E-1,1.4267348E0,0E0,0E0,2.511262E0,6.9033203E0,9.463806E0,0E0,0E0,1.4232254E-1,4.952492E-1,0E0,3.3325535E-1,1.3666773E-1,0E0,0E0,1.7154541E0,6.624279E-1,0E0,0E0,0E0,0E0,0E0,0E0,0E0,0E0,0E0,0E0,0E0,0E0,0E0,0E0],"parents":[2147483647,0,0,1,1,2,2,4,4,5,5,6,6,7,7,8,8,9,9,10,10,11,11,14,14,15,15,17,17,18,18,21,21,22,22,23,23,26,26,27,27,29,29,30,30,33,33,34,34],"right_children":[2,4,6,-1,8,10,12,14,16,18,20,22,-1,-1,24,26,-1,28,30,-1,-1,32,34,36,-1,-1,38,40,-1,42,44,-1,-1,46,48,-1,-1,-1,-1,-1,-1,-1,-1,-1,-1,-1,-1,-1,-1],"split_conditions":[8.6083955E-1,-1.0959787E-1,5.706554E-2,4.1797814E-1,3.652081E-1,9.756195E-1,7.694564E-1,-3.2734435E-2,1.2943774E-1,9.380379E-1,2.174826E-3,-6.763694E-2,-2.099133E-1,1.2159838E-1,2.4058957E-1,-9.2947915E-2,2.539262E-1,-3.6310676E-2,3.783175E-2,-6.181987E-2,-7.881165E-4,-1.19574934E-1,1.478895E-1,1.3210134E-1,1.1927799E-1,-9.863112E-2,7.623352E-1,4.3123883E-1,3.7124444E-2,-1.8278234E-2,-5.993441E-2,6.919098E-3,1.06025696E-1,-1.0708893E-2,-2.734812E-2,3.766205E-1,8.564343E-2,7.7046536E-2,3.5090923E-2,2.015355E-2,-3.1956912E-3,1.3317871E-2,-2.456087E-3,-3.7001611E-3,-2.8444616E-2,-4.4810023E-2,-1.2924415E-1,-7.200263E-2,-2.2205146E-2],"split_indices":[14,1,7,0,14,14,12,2,3,14,3,1,0,0,5,1,0,7,0,0,0,0,7,1,0,0,14,13,0,7,3,0,0,2,1,0,0,0,0,0,0,0,0,0,0,0,0,0,0],"split_type":[0,0,0,0,0,0,0,0,0,0,0,0,0,0,0,0,0,0,0,0,0,0,0,0,0,0,0,0,0,0,0,0,0,0,0,0,0,0,0,0,0,0,0,0,0,0,0,0,0],"sum_hessian":[1.35E2,3.3E1,1.02E2,5E0,2.8E1,4.1E1,6.1E1,1.6E1,1.2E1,3.3E1,8E0,5E1,1.1E1,4E0,1.2E1,1.1E1,1E0,1.6E1,1.7E1,7E0,1E0,3E0,4.7E1,1E1,2E0,1E0,1E1,9E0,7E0,1.2E1,5E0,1E0,2E0,3.8E1,9E0,9E0,1E0,7E0,3E0,6E0,3E0,5E0,7E0,1E0,4E0,2E0,3.6E1,7E0,2E0],"tree_param":{"num_deleted":"0","num_feature":"19","num_nodes":"49","size_leaf_vector":"1"}},{"base_weights":[-8.211904E-2,4.9767084E0,-1.3946788E0,3.1495311E0,6.702166E0,-6.099302E-4,-2.3390384E0,3.016615E-1,1.5524379E0,1.9065295E-1,4.3169102E-1,3.5492238E-1,-6.227534E-1,-1.9253768E0,-2.0409445E-1,1.6480343E0,1.49118425E-2,5.102792E-1,2.4252225E-2,-9.8919535E-1,-1.03000915E-2,-2.1253817E0,1.0249151E-1,8.706667E-2,2.020855E-2,3.3460554E-1,3.550024E-2,-1.8781805E-1,2.738861E-1,-1.0891725E0,-2.2350312E-3,1.4819002E-1,-1.6621518E-1,-1.2587881E-1,-1.5117898E0,2.7018493E-2,1.9389788E-3,-3.9950944E-3,-1.8184973E-2,3.8236142E-3,1.5206075E-2,-5.7196137E-2,-1.6279269E-2,1.1580897E-2,2.1587373E-3,-1.056873E-2,-7.684231E-4,-7.983147E-2,6.7461017E-3],"categories":[],"categories_nodes":[],"categories_segments":[],"categories_sizes":[],"default_left":[0,0,0,0,0,0,0,0,0,0,0,0,0,0,0,0,0,0,0,0,0,0,0,0,0,0,0,0,0,0,0,0,0,0,0,0,0,0,0,0,0,0,0,0,0,0,0,0,0],"id":14,"left_children":[1,3,5,7,9,11,13,-1,15,-1,-1,17,19,21,-1,23,-1,25,27,29,31,33,-1,-1,-1,35,-1,37,39,41,-1,43,45,-1,47,-1,-1,-1,-1,-1,-1,-1,-1,-1,-1,-1,-1,-1,-1],"loss_changes":[8.7014264E2,6.401471E1,1.369148E2,5.9716827E1,3.96286E1,9.732289E0,3.6839752E1,0E0,8.273659E-1,0E0,0E0,1.4260373E0,3.5806699E0,4.569983E1,0E0,4.5671844E-1,0E0,4.2907238E-1,5.8084005E-1,8.9559174E-1,1.9760844E-1,8.226318E0,0E0,0E0,0E0,7.0949006E-1,0E0,8.48224E-2,6.587535E-3,3.8137436E-3,0E0,2.5044769E-2,2.4000108E-2,0E0,3.2889633E0,0E0,0E0,0E0,0E0,0E0,0E0,0E0,0E0,0E0,0E0,0E0,0E0,0E0,0E0],"parents":[2147483647,0,0,1,1,2,2,3,3,4,4,5,5,6,6,8,8,11,11,12,12,13,13,15,15,17,17,18,18,19,19,20,20,21,21,25,25,27,27,28,28,29,29,31,31,32,32,34,34],"right_children":[2,4,6,8,10,12,14,-1,16,-1,-1,18,20,22,-1,24,-1,26,28,30,32,34,-1,-1,-1,36,-1,38,40,42,-1,44,46,-1,48,-1,-1,-1,-1,-1,-1,-1,-1,-1,-1,-1,-1,-1,-1],"split_conditions":[7.7615225E-1,7.240698E-2,5.706554E-2,-5.025718E-1,1.7871794E-1,9.614066E-1,7.694564E-1,3.016615E-1,7.623352E-1,1.9065295E-1,4.3169102E-1,9.380379E-1,2.577667E-4,7.587024E-1,-2.0409445E-1,4.708708E-2,1.49118425E-2,-3.6310676E-2,9.5147866E-1,-7.1208193E-3,6.806115E-3,1.1622906E-1,1.0249151E-1,8.706667E-2,2.020855E-2,6.752972E-2,3.550024E-2,8.639747E-2,-4.1373994E-2,7.138128E-2,-2.2350312E-3,-3.0432219E-2,2.740126E-3,-1.2587881E-1,8.085652E-1,2.7018493E-2,1.9389788E-3,-3.9950944E-3,-1.8184973E-2,3.8236142E-3,1.5206075E-2,-5.7196137E-2,-1.6279269E-2,1.1580897E-2,2.1587373E-3,-1.056873E-2,-7.684231E-4,-7.983147E-2,6.7461017E-3],"split_indices":[14,15,7,14,14,14,12,0,14,0,0,14,2,12,0,3,0,7,14,3,0,7,0,0,0,11,0,0,0,0,0,0,1,0,13,0,0,0,0,0,0,0,0,0,0,0,0,0,0],"split_type":[0,0,0,0,0,0,0,0,0,0,0,0,0,0,0,0,0,0,0,0,0,0,0,0,0,0,0,0,0,0,0,0,0,0,0,0,0,0,0,0,0,0,0,0,0,0,0,0,0],"sum_hessian":[1.29E2,2.6E1,1.03E2,1.4E1,1.2E1,4.2E1,6.1E1,4E0,1E1,6E0,6E0,2.7E1,1.5E1,5.1E1,1E1,9E0,1E0,1.8E1,9E0,9E0,6E0,4.9E1,2E0,8E0,1E0,1.1E1,7E0,5E0,4E0,8E0,1E0,3E0,3E0,2.8E1,2.1E1,6E0,5E0,4E0,1E0,1E0,3E0,7E0,1E0,1E0,2E0,2E0,1E0,2E1,1E0],"tree_param":{"num_deleted":"0","num_feature":"19","num_nodes":"49","size_leaf_vector":"1"}},{"base_weights":[5.359233E-2,4.642484E0,-1.372603E0,5.978768E0,1.9171139E0,-2.9106071E-2,-2.2605753E0,8.160814E-2,6.350402E0,6.151789E-2,2.367858E-1,3.1882176E-1,-6.1441517E-1,-1.8779961E0,-3.863624E0,6.6070857E0,4.325242E-2,1.12161316E-1,5.327514E-1,-7.5525033E-1,-3.0970573E-3,1.5519013E0,-2.1196613E0,-3.0553454E-1,-1.5139243E-1,7.7407913E0,4.222354E0,3.3250123E-1,-2.7376541E-1,3.4035277E-2,2.4668725E-1,-1.4813161E-1,-4.612864E-2,2.0867668E-3,-3.4398555E-3,6.5774443E-3,9.907513E-2,-1.22667566E-1,-1.5131432E0,4.095398E-1,8.101864E-2,-9.416955E-2,2.6818296E-1,1.9251792E-2,-3.5077573E-3,-5.402279E-3,-1.6480697E-2,3.8340252E-3,1.5626026E-2,-1.1884809E-2,-1.9522349E-3,-9.1213904E-2,-4.6508487E-2],"categories":[],"categories_nodes":[],"categories_segments":[],"categories_sizes":[],"default_left":[0,0,0,0,0,0,0,0,0,0,0,0,0,0,0,0,0,0,0,0,0,0,0,0,0,0,0,0,0,0,0,0,0,0,0,0,0,0,0,0,0,0,0,0,0,0,0,0,0,0,0,0,0],"id":15,"left_children":[1,3,5,7,9,11,13,-1,15,-1,-1,17,19,21,23,25,-1,27,29,31,33,35,37,-1,-1,39,41,43,45,-1,47,49,-1,-1,-1,-1,-1,-1,51,-1,-1,-1,-1,-1,-1,-1,-1,-1,-1,-1,-1,-1,-1],"loss_changes":[8.833562E2,1.0507776E2,1.22811935E2,2.3557434E1,1.7401684E1,8.748993E0,3.076828E1,0E0,2.1036621E1,0E0,0E0,1.1339376E0,1.3751826E0,4.6391617E1,2.1562347E0,1.5980225E1,0E0,1.3665532E0,3.8229585E-1,1.183938E0,1.4653232E-2,2.1800756E0,6.2048035E0,0E0,0E0,1.7024231E1,6.585002E1,2.3854613E-1,1.9917935E-2,0E0,4.3188363E-2,2.9800512E-2,0E0,0E0,0E0,0E0,0E0,0E0,1.9307785E0,0E0,0E0,0E0,0E0,0E0,0E0,0E0,0E0,0E0,0E0,0E0,0E0,0E0,0E0],"parents":[2147483647,0,0,1,1,2,2,3,3,4,4,5,5,6,6,8,8,11,11,12,12,13,13,14,14,15,15,17,17,18,18,19,19,20,20,21,21,22,22,25,25,26,26,27,27,28,28,30,30,31,31,38,38],"right_children":[2,4,6,8,10,12,14,-1,16,-1,-1,18,20,22,24,26,-1,28,30,32,34,36,38,-1,-1,40,42,44,46,-1,48,50,-1,-1,-1,-1,-1,-1,52,-1,-1,-1,-1,-1,-1,-1,-1,-1,-1,-1,-1,-1,-1],"split_conditions":[8.6083955E-1,9.3333334E-1,6.353649E-1,-1.8308084E-1,1.02981046E-1,9.614066E-1,7.694564E-1,8.160814E-2,1.3210134E-1,6.151789E-2,2.367858E-1,-1.8738383E-2,1.0118277E-2,-6.763694E-2,-1.2462062E-1,3.3441556E-1,4.325242E-2,4.512936E-1,9.322652E-1,5.434736E-1,6.806115E-3,-1.19574934E-1,1.1622906E-1,-3.0553454E-1,-1.5139243E-1,2.0034865E-1,3.5003024E-1,-1.3056677E-2,8.639747E-2,3.4035277E-2,-6.1893016E-3,7.0713186E-3,-4.612864E-2,2.0867668E-3,-3.4398555E-3,6.5774443E-3,9.907513E-2,-1.22667566E-1,6.715154E-1,4.095398E-1,8.101864E-2,-9.416955E-2,2.6818296E-1,1.9251792E-2,-3.5077573E-3,-5.402279E-3,-1.6480697E-2,3.8340252E-3,1.5626026E-2,-1.1884809E-2,-1.9522349E-3,-9.1213904E-2,-4.6508487E-2],"split_indices":[14,18,13,3,3,14,12,0,1,0,0,6,2,1,0,5,0,13,14,13,0,0,7,0,0,4,5,5,0,0,1,0,0,0,0,0,0,0,13,0,0,0,0,0,0,0,0,0,0,0,0,0,0],"split_type":[0,0,0,0,0,0,0,0,0,0,0,0,0,0,0,0,0,0,0,0,0,0,0,0,0,0,0,0,0,0,0,0,0,0,0,0,0,0,0,0,0,0,0,0,0,0,0,0,0,0,0,0,0],"sum_hessian":[1.33E2,3.1E1,1.02E2,2E1,1.1E1,4.1E1,6.1E1,2E0,1.8E1,1E1,1E0,2.6E1,1.5E1,5.1E1,1E1,1.7E1,1E0,1.4E1,1.2E1,1.2E1,3E0,3E0,4.8E1,1E0,9E0,1E1,7E0,9E0,5E0,7E0,5E0,3E0,9E0,2E0,1E0,1E0,2E0,2.9E1,1.9E1,9E0,1E0,1E0,6E0,8E0,1E0,2E0,3E0,2E0,3E0,1E0,2E0,1.1E1,8E0],"tree_param":{"num_deleted":"0","num_feature":"19","num_nodes":"53","size_leaf_vector":"1"}},{"base_weights":[8.559118E-2,4.5407696E0,-1.3691049E0,3.678811E0,3.759564E-1,-6.9887385E-2,-2.196711E0,5.1700444E0,1.1753073E0,3.030312E-1,-6.015899E-1,-1.7706397E0,-3.6824315E0,1.0315418E-1,6.0337744E0,1.6600993E0,-9.181531E-2,6.6398185E-1,1.3657913E-1,-7.697205E-1,9.523201E-2,5.683172E-1,-1.9430302E0,-2.9789618E-1,-1.4669697E-1,6.640484E0,1.00007534E-1,1.7864452E-1,5.2528955E-2,6.568623E-3,3.6542736E-2,2.9831263E-1,-1.3708483E-1,-1.4418387E-1,-4.7148157E-2,1.1239195E-2,-2.2879919E-2,1.624012E-2,5.5613708E-2,-2.2876208E0,-1.3692205E0,3.5129678E-1,7.928548E-2,-3.76029E-3,1.7159251E-2,-1.3072801E-2,1.5228557E-2,-1.15876915E-2,-1.8871308E-3,1.637888E-3,-3.3538819E-3,-5.1950216E-3,6.413031E-3,-6.8343155E-2,-1.2208801E-1,-8.2736306E-2,-4.3406684E-2],"categories":[],"categories_nodes":[],"categories_segments":[],"categories_sizes":[],"default_left":[0,0,0,0,0,0,0,0,0,0,0,0,0,0,0,0,0,0,0,0,0,0,0,0,0,0,0,0,0,0,0,0,0,0,0,0,0,0,0,0,0,0,0,0,0,0,0,0,0,0,0,0,0,0,0,0,0],"id":16,"left_children":[1,3,5,7,-1,9,11,13,15,17,19,21,23,-1,25,27,-1,29,31,33,35,37,39,-1,-1,41,-1,-1,-1,-1,-1,43,45,47,-1,-1,49,51,-1,53,55,-1,-1,-1,-1,-1,-1,-1,-1,-1,-1,-1,-1,-1,-1,-1,-1],"loss_changes":[8.1633307E2,5.1922363E1,1.0199432E2,9.0989624E1,0E0,7.7170076E0,3.0195068E1,3.0489014E1,1.9108517E1,1.2911766E0,1.9478154E0,2.0055328E1,2.958084E0,0E0,1.60849E1,7.905245E0,0E0,1.5330553E-1,7.933248E-1,1.2728448E0,6.634953E-2,1.1831615E0,5.5678406E0,0E0,0E0,8.342621E0,0E0,0E0,0E0,0E0,0E0,2.1017694E-1,4.6413696E-1,2.8537229E-2,0E0,0E0,9.574488E-3,5.3700943E-2,0E0,3.524933E-1,1.2816772E0,0E0,0E0,0E0,0E0,0E0,0E0,0E0,0E0,0E0,0E0,0E0,0E0,0E0,0E0,0E0,0E0],"parents":[2147483647,0,0,1,1,2,2,3,3,5,5,6,6,7,7,8,8,9,9,10,10,11,11,12,12,14,14,15,15,17,17,18,18,19,19,20,20,21,21,22,22,25,25,31,31,32,32,33,33,36,36,37,37,39,39,40,40],"right_children":[2,4,6,8,-1,10,12,14,16,18,20,22,24,-1,26,28,-1,30,32,34,36,38,40,-1,-1,42,-1,-1,-1,-1,-1,44,46,48,-1,-1,50,52,-1,54,56,-1,-1,-1,-1,-1,-1,-1,-1,-1,-1,-1,-1,-1,-1,-1,-1],"split_conditions":[8.6083955E-1,6.1887536E0,4.6230376E-2,3.652081E-1,3.759564E-1,9.614066E-1,7.604834E-1,-3.2734435E-2,6.3668823E-1,9.0977764E-1,1.0118277E-2,-1.1540449E-1,-1.2462062E-1,1.0315418E-1,2.4058957E-1,-1.22353934E-1,-9.181531E-2,-6.424299E-2,6.444938E-2,5.434736E-1,-3.0432219E-2,-1.19574934E-1,1.1622906E-1,-2.9789618E-1,-1.4669697E-1,1.3210134E-1,1.00007534E-1,1.7864452E-1,5.2528955E-2,6.568623E-3,3.6542736E-2,-4.1021876E-2,1.3424501E-1,7.0713186E-3,-4.7148157E-2,1.1239195E-2,-2.780091E-2,-1.2322812E-1,5.5613708E-2,3.1137288E0,6.715154E-1,3.5129678E-1,7.928548E-2,-3.76029E-3,1.7159251E-2,-1.3072801E-2,1.5228557E-2,-1.15876915E-2,-1.8871308E-3,1.637888E-3,-3.3538819E-3,-5.1950216E-3,6.413031E-3,-6.8343155E-2,-1.2208801E-1,-8.2736306E-2,-4.3406684E-2],"split_indices":[14,16,7,14,0,14,12,2,9,14,2,0,0,0,5,1,0,9,0,13,0,0,7,0,0,1,0,0,0,0,0,5,0,0,0,0,0,0,0,16,13,0,0,0,0,0,0,0,0,0,0,0,0,0,0,0,0],"split_type":[0,0,0,0,0,0,0,0,0,0,0,0,0,0,0,0,0,0,0,0,0,0,0,0,0,0,0,0,0,0,0,0,0,0,0,0,0,0,0,0,0,0,0,0,0,0,0,0,0,0,0,0,0,0,0,0,0],"sum_hessian":[1.24E2,3E1,9.4E1,2.5E1,5E0,3.7E1,5.7E1,1.5E1,1E1,2.2E1,1.5E1,4.6E1,1.1E1,4E0,1.1E1,9E0,1E0,6E0,1.6E1,1.2E1,3E0,3E0,4.3E1,1E0,1E1,9E0,2E0,1E0,8E0,1E0,5E0,1E1,6E0,3E0,9E0,1E0,2E0,2E0,1E0,2.5E1,1.8E1,8E0,1E0,1E0,9E0,5E0,1E0,1E0,2E0,1E0,1E0,1E0,1E0,5E0,2E1,1E1,8E0],"tree_param":{"num_deleted":"0","num_feature":"19","num_nodes":"57","size_leaf_vector":"1"}},{"base_weights":[6.822939E-3,5.3762836E0,-9.8758477E-1,5.71388E0,7.793042E-2,3.1263164E-1,-2.0727243E0,6.4880614E0,3.084174E0,1.3162173E-1,2.2955294E-1,-1.6681794E0,-3.5181773E0,6.7548E0,8.2180075E-2,-8.951991E-2,4.417168E0,5.1724213E-1,-6.2467796E-1,1.3062044E0,-1.8258961E0,-2.9044876E-1,-1.3909172E-1,3.5220176E-1,8.933029E-2,6.502395E-2,2.4356103E-1,5.415812E-2,2.2409576E-1,-2.1766119E-1,-5.2768208E-2,6.252718E-3,9.171262E-2,-1.9951661E0,-7.724682E-1,1.696057E-2,3.668414E-4,-2.5235588E-2,2.8912227E-3,-4.62201E-2,-1.0293593E-1,-5.5622518E-2,-1.7299442E-2],"categories":[],"categories_nodes":[],"categories_segments":[],"categories_sizes":[],"default_left":[0,0,0,0,0,0,0,0,0,0,0,0,0,0,0,0,0,0,0,0,0,0,0,0,0,0,0,0,0,0,0,0,0,0,0,0,0,0,0,0,0,0,0],"id":17,"left_children":[1,3,5,7,-1,9,11,13,15,17,-1,19,21,23,-1,-1,25,27,29,31,33,-1,-1,-1,-1,-1,-1,-1,35,37,-1,-1,-1,39,41,-1,-1,-1,-1,-1,-1,-1,-1],"loss_changes":[6.8341754E2,1.6870972E1,1.5302695E2,1.6635315E1,0E0,3.81176E1,2.8631363E1,5.696411E0,4.689514E1,1.4613694E1,0E0,2.4902298E1,4.082138E0,4.6588135E0,0E0,0E0,7.407837E-1,5.231886E0,2.7503285E0,1.6417303E0,6.6612244E0,0E0,0E0,0E0,0E0,0E0,0E0,0E0,5.714153E-1,8.199676E-1,0E0,0E0,0E0,7.508545E-1,7.750678E-1,0E0,0E0,0E0,0E0,0E0,0E0,0E0,0E0],"parents":[2147483647,0,0,1,1,2,2,3,3,5,5,6,6,7,7,8,8,9,9,11,11,12,12,13,13,16,16,17,17,18,18,19,19,20,20,28,28,29,29,33,33,34,34],"right_children":[2,4,6,8,-1,10,12,14,16,18,-1,20,22,24,-1,-1,26,28,30,32,34,-1,-1,-1,-1,-1,-1,-1,36,38,-1,-1,-1,40,42,-1,-1,-1,-1,-1,-1,-1,-1],"split_conditions":[9.3333334E-1,1.3210134E-1,4.3302447E-1,1.1208479E-1,7.793042E-2,1.02981046E-1,7.694564E-1,3.2874608E-1,1.2943774E-1,9.614066E-1,2.2955294E-1,-6.795459E-2,-1.2462062E-1,3.90847E-1,8.2180075E-2,-8.951991E-2,-3.8213784E-1,8.845955E-1,9.756195E-1,-1.19574934E-1,1.6745885E-1,-2.9044876E-1,-1.3909172E-1,3.5220176E-1,8.933029E-2,6.502395E-2,2.4356103E-1,5.415812E-2,6.444938E-2,-1.6844641E-2,-5.2768208E-2,6.252718E-3,9.171262E-2,6.3804954E-1,-4.6430815E-2,1.696057E-2,3.668414E-4,-2.5235588E-2,2.8912227E-3,-4.62201E-2,-1.0293593E-1,-5.5622518E-2,-1.7299442E-2],"split_indices":[18,1,12,3,0,3,12,0,3,17,0,1,0,5,0,0,0,17,17,0,7,0,0,0,0,0,0,0,0,6,0,0,0,13,1,0,0,0,0,0,0,0,0],"split_type":[0,0,0,0,0,0,0,0,0,0,0,0,0,0,0,0,0,0,0,0,0,0,0,0,0,0,0,0,0,0,0,0,0,0,0,0,0,0,0,0,0,0,0],"sum_hessian":[1.26E2,1.9E1,1.07E2,1.7E1,2E0,4.9E1,5.8E1,1.2E1,5E0,4.8E1,1E0,4.7E1,1.1E1,1.1E1,1E0,1E0,4E0,3.2E1,1.6E1,2E0,4.5E1,1E0,1E1,1E1,1E0,1E0,3E0,1E1,2.2E1,9E0,7E0,1E0,1E0,3.8E1,7E0,1.4E1,8E0,4E0,5E0,3E0,3.5E1,3E0,4E0],"tree_param":{"num_deleted":"0","num_feature":"19","num_nodes":"43","size_leaf_vector":"1"}},{"base_weights":[-1.6913031E-1,4.4115615E0,-1.109374E0,4.859982E0,5.8933664E-2,4.8523344E-2,-1.9505662E0,5.0535073E0,3.4413006E-2,3.7092838E-1,-6.425089E-1,-1.576438E0,-3.3780637E0,5.455545E0,1.1412454E-1,7.6821136E-1,2.289607E-1,8.636741E-2,-9.1540647E-1,-1.7591772E0,9.668913E-2,-2.8318754E-1,-1.3276939E-1,4.0763426E0,3.6993405E-1,4.094523E-2,1.0333967E-2,3.73415E-1,-2.5062274E-2,1.0885906E-2,-8.997917E-4,-4.7765456E-2,-1.2909508E-2,-1.9667581E0,-1.0330487E0,2.6715136E-1,7.43858E-2,2.4572516E-2,1.1350208E-2,-1.2543352E-2,1.2545796E-2,1.3769786E-3,-2.1554471E-3,-4.168439E-2,-1.02110736E-1,-5.6972872E-2,6.096411E-3],"categories":[],"categories_nodes":[],"categories_segments":[],"categories_sizes":[],"default_left":[0,0,0,0,0,0,0,0,0,0,0,0,0,0,0,0,0,0,0,0,0,0,0,0,0,0,0,0,0,0,0,0,0,0,0,0,0,0,0,0,0,0,0,0,0,0,0],"id":18,"left_children":[1,3,5,7,-1,9,11,13,-1,15,17,19,21,23,-1,25,27,29,31,33,-1,-1,-1,35,-1,-1,-1,37,39,-1,41,-1,-1,43,45,-1,-1,-1,-1,-1,-1,-1,-1,-1,-1,-1,-1],"loss_changes":[5.5618585E2,2.6164948E1,1.0431415E2,1.1861267E1,0E0,1.048677E1,2.778685E1,7.600708E0,0E0,1.628953E0,3.0626898E0,3.6116074E1,4.7822723E0,1.00401E1,0E0,5.8476925E-2,9.2672646E-1,5.7508953E-2,4.1820526E-2,5.3540344E0,0E0,0E0,0E0,2.8119812E1,0E0,0E0,0E0,1.6494489E-1,6.861184E-1,0E0,5.988807E-3,0E0,0E0,1.460846E0,1.7366266E0,0E0,0E0,0E0,0E0,0E0,0E0,0E0,0E0,0E0,0E0,0E0,0E0],"parents":[2147483647,0,0,1,1,2,2,3,3,5,5,6,6,7,7,9,9,10,10,11,11,12,12,13,13,15,15,16,16,17,17,18,18,19,19,23,23,27,27,28,28,30,30,33,33,34,34],"right_children":[2,4,6,8,-1,10,12,14,-1,16,18,20,22,24,-1,26,28,30,32,34,-1,-1,-1,36,-1,-1,-1,38,40,-1,42,-1,-1,44,46,-1,-1,-1,-1,-1,-1,-1,-1,-1,-1,-1,-1],"split_conditions":[7.4170804E-1,1.3210134E-1,5.706554E-2,4.899199E-1,5.8933664E-2,9.614066E-1,7.694564E-1,3.5590643E-1,3.4413006E-2,8.845955E-1,5.434736E-1,7.587024E-1,-1.2462062E-1,6.552787E-1,1.1412454E-1,3.0672315E-1,6.444938E-2,-3.0432219E-2,7.138128E-2,1.478895E-1,9.668913E-2,-2.8318754E-1,-1.3276939E-1,-2.2294588E-1,3.6993405E-1,4.094523E-2,1.0333967E-2,9.322652E-1,-1.8066484E-2,1.0885906E-2,1.15708625E-2,-4.7765456E-2,-1.2909508E-2,-1.0708893E-2,8.085652E-1,2.6715136E-1,7.43858E-2,2.4572516E-2,1.1350208E-2,-1.2543352E-2,1.2545796E-2,1.3769786E-3,-2.1554471E-3,-4.168439E-2,-1.02110736E-1,-5.6972872E-2,6.096411E-3],"split_indices":[14,1,7,0,0,14,12,5,0,14,13,12,0,15,0,0,0,0,0,7,0,0,0,13,0,0,0,14,2,0,0,0,0,2,13,0,0,0,0,0,0,0,0,0,0,0,0],"split_type":[0,0,0,0,0,0,0,0,0,0,0,0,0,0,0,0,0,0,0,0,0,0,0,0,0,0,0,0,0,0,0,0,0,0,0,0,0,0,0,0,0,0,0,0,0,0,0],"sum_hessian":[1.27E2,2.1E1,1.06E2,1.8E1,3E0,4.5E1,6.1E1,1.7E1,1E0,3.1E1,1.4E1,5E1,1.1E1,1.4E1,3E0,7E0,2.4E1,4E0,1E1,4.8E1,2E0,1E0,1E1,1E1,4E0,6E0,1E0,1.5E1,9E0,1E0,3E0,9E0,1E0,3.6E1,1.2E1,6E0,4E0,7E0,8E0,5E0,4E0,2E0,1E0,3E0,3.3E1,1.1E1,1E0],"tree_param":{"num_deleted":"0","num_feature":"19","num_nodes":"47","size_leaf_vector":"1"}},{"base_weights":[7.932722E-2,4.211101E0,-1.1649866E0,3.0225232E0,6.0973773E0,7.933321E-3,-1.9407551E0,5.043645E0,1.3907831E0,1.0984488E-1,3.6427227E-1,2.0684725E-1,-8.6330676E-1,-1.5904264E0,-3.2679224E0,2.652346E-1,7.388177E-2,1.4730963E0,1.0075617E-2,4.3282193E-1,-8.854908E-2,-4.9512263E-2,6.315708E-4,-1.691837E0,8.700257E-2,-2.7610785E-1,-1.280489E-1,4.3088492E-2,8.3551906E-2,2.349697E-1,5.733402E-1,2.0603824E-1,-3.4056568E-1,-1.8500105E0,-8.741417E-1,1.797173E-2,-8.762996E-3,3.0052433E-2,7.4063777E-3,1.691897E-2,2.9478837E-3,-2.2221064E-2,-4.9820426E-3,-5.6376826E-2,-9.95494E-2,-1.066761E-2,-6.395547E-2],"categories":[],"categories_nodes":[],"categories_segments":[],"categories_sizes":[],"default_left":[0,0,0,0,0,0,0,0,0,0,0,0,0,0,0,0,0,0,0,0,0,0,0,0,0,0,0,0,0,0,0,0,0,0,0,0,0,0,0,0,0,0,0,0,0,0,0],"id":19,"left_children":[1,3,5,7,9,11,13,15,17,-1,-1,19,21,23,25,-1,-1,27,-1,29,31,-1,-1,33,-1,-1,-1,-1,-1,35,37,39,41,43,45,-1,-1,-1,-1,-1,-1,-1,-1,-1,-1,-1,-1],"loss_changes":[6.886886E2,5.1072205E1,9.373657E1,6.2242264E1,3.4968994E1,7.4572473E0,2.3629166E1,5.396576E-1,9.757576E-1,0E0,0E0,2.374649E0,9.0203047E-1,2.0168915E1,4.981308E0,0E0,0E0,1.20334625E-2,0E0,4.2131925E-1,1.2580239E0,0E0,0E0,4.849716E0,0E0,0E0,0E0,0E0,0E0,5.735863E-1,4.057026E-2,1.3576841E-1,1.8090999E-1,1.9310455E0,2.4030843E0,0E0,0E0,0E0,0E0,0E0,0E0,0E0,0E0,0E0,0E0,0E0,0E0],"parents":[2147483647,0,0,1,1,2,2,3,3,4,4,5,5,6,6,7,7,8,8,11,11,12,12,13,13,14,14,17,17,19,19,20,20,23,23,29,29,30,30,31,31,32,32,33,33,34,34],"right_children":[2,4,6,8,10,12,14,16,18,-1,-1,20,22,24,26,-1,-1,28,-1,30,32,-1,-1,34,-1,-1,-1,-1,-1,36,38,40,42,44,46,-1,-1,-1,-1,-1,-1,-1,-1,-1,-1,-1,-1],"split_conditions":[7.7615225E-1,2.2972775E-1,5.706554E-2,-3.2828102E-1,1.3147317E-1,9.7138566E-1,7.694564E-1,1.3210134E-1,7.623352E-1,1.0984488E-1,3.6427227E-1,9.380379E-1,2.174826E-3,7.587024E-1,-1.2462062E-1,2.652346E-1,7.388177E-2,-1.9406892E-1,1.0075617E-2,-4.415126E-2,2.5697349E-2,-4.9512263E-2,6.315708E-4,1.6745885E-1,8.700257E-2,-2.7610785E-1,-1.280489E-1,4.3088492E-2,8.3551906E-2,4.512936E-1,9.322652E-1,-1.8278234E-2,-1.1464999E-2,6.631301E-1,2.3772444E-3,1.797173E-2,-8.762996E-3,3.0052433E-2,7.4063777E-3,1.691897E-2,2.9478837E-3,-2.2221064E-2,-4.9820426E-3,-5.6376826E-2,-9.95494E-2,-1.066761E-2,-6.395547E-2],"split_indices":[14,5,7,14,14,14,12,1,14,0,0,14,3,12,0,0,0,12,0,6,0,0,0,7,0,0,0,0,0,13,14,7,8,13,2,0,0,0,0,0,0,0,0,0,0,0,0],"split_type":[0,0,0,0,0,0,0,0,0,0,0,0,0,0,0,0,0,0,0,0,0,0,0,0,0,0,0,0,0,0,0,0,0,0,0,0,0,0,0,0,0,0,0,0,0,0,0],"sum_hessian":[1.32E2,3E1,1.02E2,2E1,1E1,4.1E1,6.1E1,8E0,1.2E1,3E0,7E0,3.4E1,7E0,5E1,1.1E1,7E0,1E0,1.1E1,1E0,1.9E1,1.5E1,6E0,1E0,4.9E1,1E0,1E0,1E1,4E0,7E0,9E0,1E1,7E0,8E0,4E1,9E0,7E0,2E0,9E0,1E0,3E0,4E0,5E0,3E0,8E0,3.2E1,4E0,5E0],"tree_param":{"num_deleted":"0","num_feature":"19","num_nodes":"47","size_leaf_vector":"1"}},{"base_weights":[9.9977754E-2,3.8333497E0,-1.1326808E0,2.5061057E0,5.580391E0,-9.90386E-2,-1.7145911E0,2.4788669E-1,1.3583807E0,4.2318726E-1,3.3584838E0,2.5051075E-1,-5.516322E-1,-2.6920515E-1,-1.5661712E0,8.970277E-2,8.685913E-1,-8.425873E-2,4.199588E0,4.2786115E-1,-1.6531304E-1,-6.848173E-1,1.9127369E-2,1.4205985E0,-1.7451524E0,2.1023894E-2,5.1128417E-2,2.5138646E-1,1.0572572E-1,4.6926147E-1,1.0583941E-1,-2.292568E-1,5.4587363E-3,-3.6807644E-1,-4.9650114E-2,2.6242575E-3,-2.0236492E-3,6.2107085E-3,9.056609E-2,-1.3832321E0,-1.2076198E-1,1.4123072E-2,2.9451206E-2,7.221222E-3,7.167339E-4,-3.7003835E-3,-1.4418972E-2,-2.4455778E-2,-1.6530356E-4,-7.675519E-2,-3.447756E-2],"categories":[],"categories_nodes":[],"categories_segments":[],"categories_sizes":[],"default_left":[0,0,0,0,0,0,0,0,0,0,0,0,0,0,0,0,0,0,0,0,0,0,0,0,0,0,0,0,0,0,0,0,0,0,0,0,0,0,0,0,0,0,0,0,0,0,0,0,0,0,0],"id":20,"left_children":[1,3,5,7,9,11,13,-1,15,-1,17,19,21,-1,23,-1,25,-1,27,29,31,33,35,37,39,-1,-1,-1,-1,41,43,45,-1,47,-1,-1,-1,-1,-1,49,-1,-1,-1,-1,-1,-1,-1,-1,-1,-1,-1],"loss_changes":[5.9339453E2,6.0214966E1,5.817443E1,4.9541405E1,5.485971E1,5.8335266E0,2.5334549E1,0E0,1.6425343E0,0E0,4.525721E1,1.6194079E0,1.2293658E0,0E0,3.5088257E1,0E0,1.9102621E-1,0E0,3.1826782E0,1.5031075E-1,1.4789149E-1,9.034915E-1,1.00767715E-2,1.8011189E0,1.0725235E1,0E0,0E0,0E0,0E0,1.2445521E-1,8.521859E-3,3.373012E-2,0E0,3.515948E-1,0E0,0E0,0E0,0E0,0E0,3.155487E0,0E0,0E0,0E0,0E0,0E0,0E0,0E0,0E0,0E0,0E0,0E0],"parents":[2147483647,0,0,1,1,2,2,3,3,4,4,5,5,6,6,8,8,10,10,11,11,12,12,14,14,16,16,18,18,19,19,20,20,21,21,22,22,23,23,24,24,29,29,30,30,31,31,33,33,39,39],"right_children":[2,4,6,8,10,12,14,-1,16,-1,18,20,22,-1,24,-1,26,-1,28,30,32,34,36,38,40,-1,-1,-1,-1,42,44,46,-1,48,-1,-1,-1,-1,-1,50,-1,-1,-1,-1,-1,-1,-1,-1,-1,-1,-1],"split_conditions":[8.6083955E-1,2.2972775E-1,5.706554E-2,-3.6511505E-1,3.3441556E-1,9.614066E-1,-1.2462062E-1,2.4788669E-1,4.4872612E-1,4.2318726E-1,3.5003024E-1,6.444938E-2,1.0118277E-2,-2.6920515E-1,-6.763694E-2,8.970277E-2,-1.8559007E-1,-8.425873E-2,-7.920111E-2,1.3117862E-2,-1.8066484E-2,3.0087453E-1,6.806115E-3,-1.19574934E-1,6.311907E-1,2.1023894E-2,5.1128417E-2,2.5138646E-1,1.0572572E-1,-2.0677399E-2,-6.1689295E-2,8.639747E-2,5.4587363E-3,-1.5942853E-2,-4.9650114E-2,2.6242575E-3,-2.0236492E-3,6.2107085E-3,9.056609E-2,3.1043783E-1,-1.2076198E-1,1.4123072E-2,2.9451206E-2,7.221222E-3,7.167339E-4,-3.7003835E-3,-1.4418972E-2,-2.4455778E-2,-1.6530356E-4,-7.675519E-2,-3.447756E-2],"split_indices":[14,5,7,14,5,14,0,0,14,0,5,0,2,0,1,0,4,0,1,3,2,12,0,0,12,0,0,0,0,9,0,0,0,6,0,0,0,0,0,10,0,0,0,0,0,0,0,0,0,0,0],"split_type":[0,0,0,0,0,0,0,0,0,0,0,0,0,0,0,0,0,0,0,0,0,0,0,0,0,0,0,0,0,0,0,0,0,0,0,0,0,0,0,0,0,0,0,0,0,0,0,0,0,0,0],"sum_hessian":[1.27E2,3.1E1,9.6E1,1.9E1,1.2E1,3.5E1,6.1E1,5E0,1.4E1,4E0,8E0,2E1,1.5E1,1E0,6E1,6E0,8E0,1E0,7E0,1.4E1,6E0,1.2E1,3E0,3E0,5.7E1,3E0,5E0,4E0,3E0,1.2E1,2E0,5E0,1E0,7E0,5E0,2E0,1E0,1E0,2E0,3.9E1,1.8E1,6E0,6E0,1E0,1E0,2E0,3E0,5E0,2E0,3.1E1,8E0],"tree_param":{"num_deleted":"0","num_feature":"19","num_nodes":"51","size_leaf_vector":"1"}},{"base_weights":[9.556515E-2,3.9414086E0,-1.051711E0,4.9597487E0,1.6389953E0,7.0413746E-2,-1.6219251E0,5.2625275E0,6.944498E-2,9.761734E-1,2.0668034E-1,3.6052436E-1,-1.7970094E-1,-1.2861003E0,-2.9696248E0,6.179527E0,3.2292128E0,5.626281E-2,2.3561765E-2,9.929303E-2,4.9398753E-1,5.7640314E-2,-4.761892E-1,1.3737626E0,-1.4593104E0,-2.62475E-1,-1.17108844E-1,6.4875126E0,6.9792174E-2,-8.215225E-2,4.1599703E0,1.4501596E-2,-1.1626911E-1,4.563713E-3,5.251314E-1,1.7079438E-1,-2.1136642E-1,-1.973057E-3,-5.2584755E-1,6.0554505E-3,8.7547205E-2,-1.1581389E0,-9.986563E-2,1.6774972E-1,3.621416E-1,2.4133098E-1,8.311155E-2,3.5848617E-4,-7.990265E-3,2.7609369E-2,7.0406916E-3,1.4513664E-2,8.5783005E-4,-3.5770417E-3,-1.577108E-2,-2.8623914E-2,-4.9858093E-3,-6.0261946E-2,1.3436556E-2],"categories":[],"categories_nodes":[],"categories_segments":[],"categories_sizes":[],"default_left":[0,0,0,0,0,0,0,0,0,0,0,0,0,0,0,0,0,0,0,0,0,0,0,0,0,0,0,0,0,0,0,0,0,0,0,0,0,0,0,0,0,0,0,0,0,0,0,0,0,0,0,0,0,0,0,0,0,0,0],"id":21,"left_children":[1,3,5,7,9,11,13,15,-1,17,-1,19,21,23,25,27,29,-1,-1,31,33,35,37,39,41,-1,-1,43,-1,-1,45,-1,47,-1,49,51,53,-1,55,-1,-1,57,-1,-1,-1,-1,-1,-1,-1,-1,-1,-1,-1,-1,-1,-1,-1,-1,-1],"loss_changes":[5.95386E2,6.455484E1,6.665875E1,1.539563E1,1.4153196E1,2.6769803E0,2.7409546E1,1.54713745E1,0E0,2.225151E-1,0E0,5.436516E-1,1.4348255E0,2.8265526E1,6.301285E0,8.624115E0,4.3114143E1,0E0,0E0,3.215343E-1,9.0031624E-2,4.0137064E-1,1.7443442E-1,1.6778564E0,6.436493E0,0E0,0E0,1.7269287E0,0E0,0E0,3.6328583E0,0E0,2.2641987E-2,0E0,2.6225328E-2,1.6022813E-1,3.563279E-2,0E0,1.01881266E-1,0E0,0E0,2.8104897E0,0E0,0E0,0E0,0E0,0E0,0E0,0E0,0E0,0E0,0E0,0E0,0E0,0E0,0E0,0E0,0E0,0E0],"parents":[2147483647,0,0,1,1,2,2,3,3,4,4,5,5,6,6,7,7,9,9,11,11,12,12,13,13,14,14,15,15,16,16,19,19,20,20,21,21,22,22,23,23,24,24,27,27,30,30,32,32,34,34,35,35,36,36,38,38,41,41],"right_children":[2,4,6,8,10,12,14,16,-1,18,-1,20,22,24,26,28,30,-1,-1,32,34,36,38,40,42,-1,-1,44,-1,-1,46,-1,48,-1,50,52,54,-1,56,-1,-1,58,-1,-1,-1,-1,-1,-1,-1,-1,-1,-1,-1,-1,-1,-1,-1,-1,-1],"split_conditions":[8.6083955E-1,9.3333334E-1,5.6917846E-1,3.2874608E-1,1.433799E-1,9.380379E-1,7.694564E-1,3.3441556E-1,6.944498E-2,7.623352E-1,2.0668034E-1,-7.086567E-2,5.434736E-1,-6.763694E-2,-1.2462062E-1,1.3210134E-1,3.5003024E-1,5.626281E-2,2.3561765E-2,-3.5001364E-2,-7.988625E-2,3.783175E-2,-5.70131E-3,-1.19574934E-1,7.5074023E-1,-2.62475E-1,-1.17108844E-1,-7.309135E-1,6.9792174E-2,-8.215225E-2,-7.920111E-2,1.4501596E-2,6.5930635E-2,4.563713E-3,9.322652E-1,-1.8878845E-2,8.639747E-2,-1.973057E-3,1.963901E-2,6.0554505E-3,8.7547205E-2,1.2768105E-2,-9.986563E-2,1.6774972E-1,3.621416E-1,2.4133098E-1,8.311155E-2,3.5848617E-4,-7.990265E-3,2.7609369E-2,7.0406916E-3,1.4513664E-2,8.5783005E-4,-3.5770417E-3,-1.577108E-2,-2.8623914E-2,-4.9858093E-3,-6.0261946E-2,1.3436556E-2],"split_indices":[14,18,13,0,5,14,12,5,0,14,0,5,13,1,0,1,5,0,0,9,10,0,1,0,13,0,0,14,0,0,1,0,0,0,14,7,0,0,1,0,0,1,0,0,0,0,0,0,0,0,0,0,0,0,0,0,0,0,0],"split_type":[0,0,0,0,0,0,0,0,0,0,0,0,0,0,0,0,0,0,0,0,0,0,0,0,0,0,0,0,0,0,0,0,0,0,0,0,0,0,0,0,0,0,0,0,0,0,0,0,0,0,0,0,0,0,0,0,0,0,0],"sum_hessian":[1.33E2,3E1,1.03E2,2E1,1E1,3.5E1,6.8E1,1.8E1,2E0,9E0,1E0,1.6E1,1.9E1,5.6E1,1.2E1,1.1E1,7E0,6E0,3E0,6E0,1E1,1.1E1,8E0,3E0,5.3E1,1E0,1.1E1,1E1,1E0,1E0,6E0,3E0,3E0,1E0,9E0,8E0,3E0,1E0,7E0,1E0,2E0,3.6E1,1.7E1,3E0,7E0,4E0,2E0,1E0,2E0,8E0,1E0,4E0,4E0,2E0,1E0,6E0,1E0,3.5E1,1E0],"tree_param":{"num_deleted":"0","num_feature":"19","num_nodes":"59","size_leaf_vector":"1"}},{"base_weights":[-2.1943595E-1,3.948164E0,-7.973678E-1,4.3957853E0,1.5063536E0,1.4904445E-1,-1.5808992E0,3.1032255E0,3.8349554E-1,1.5382256E-1,-8.0098465E-2,5.8082443E-1,-2.8825572E-1,-1.2486842E0,-2.8887563E0,2.1321061E-1,1.8306313E0,8.474561E-1,2.7270535E-1,-5.3370427E-2,-7.520963E-1,-1.4335812E0,1.328475E0,-2.5591314E-1,-1.1103886E-1,3.9735254E-2,1.0430304E-1,1.0629177E-2,8.799399E-1,7.1059704E-2,4.641996E-1,1.1308413E-1,-3.5487598E-1,-4.2455036E-2,5.984783E-4,-1.5631334E0,-5.742345E-1,5.9040547E-3,8.462896E-2,5.385154E-2,2.7857168E-2,8.599281E-3,-7.723936E-3,2.479008E-2,6.8646907E-3,1.3145638E-2,-2.644968E-3,-2.0514012E-3,-2.0017298E-2,-3.3973455E-2,-8.191349E-2,-1.220177E-2,-5.2161057E-2],"categories":[],"categories_nodes":[],"categories_segments":[],"categories_sizes":[],"default_left":[0,0,0,0,0,0,0,0,0,0,0,0,0,0,0,0,0,0,0,0,0,0,0,0,0,0,0,0,0,0,0,0,0,0,0,0,0,0,0,0,0,0,0,0,0,0,0,0,0,0,0,0,0],"id":22,"left_children":[1,3,5,7,9,11,13,15,-1,-1,-1,17,19,21,23,-1,25,27,29,31,33,35,37,-1,-1,-1,-1,-1,39,41,43,45,47,-1,-1,49,51,-1,-1,-1,-1,-1,-1,-1,-1,-1,-1,-1,-1,-1,-1,-1,-1],"loss_changes":[3.162647E2,1.0866516E1,8.551317E1,3.1214615E1,2.444986E1,1.0174753E1,2.3765732E1,8.445923E0,0E0,0E0,0E0,1.9870605E0,2.901492E0,2.6682945E1,6.5046387E0,0E0,1.9443893E-1,1.0166168E-1,5.0760996E-1,9.936833E-1,6.772232E-1,4.557579E0,1.5629768E0,0E0,0E0,0E0,0E0,0E0,2.270031E-1,2.0866951E-1,4.245639E-3,3.3720595E-1,8.346921E-2,0E0,0E0,1.6754532E0,9.8428893E-1,0E0,0E0,0E0,0E0,0E0,0E0,0E0,0E0,0E0,0E0,0E0,0E0,0E0,0E0,0E0,0E0],"parents":[2147483647,0,0,1,1,2,2,3,3,4,4,5,5,6,6,7,7,11,11,12,12,13,13,14,14,16,16,17,17,18,18,19,19,20,20,21,21,22,22,28,28,29,29,30,30,31,31,32,32,35,35,36,36],"right_children":[2,4,6,8,10,12,14,16,-1,-1,-1,18,20,22,24,-1,26,28,30,32,34,36,38,-1,-1,-1,-1,-1,40,42,44,46,48,-1,-1,50,52,-1,-1,-1,-1,-1,-1,-1,-1,-1,-1,-1,-1,-1,-1,-1,-1],"split_conditions":[9.3333334E-1,1.8801442E-1,4.3302447E-1,1.3630013E-1,-2.6782465E-1,9.380379E-1,7.694564E-1,-5.025718E-1,3.8349554E-1,1.5382256E-1,-8.0098465E-2,8.845955E-1,9.7138566E-1,1.1924482E-1,-1.2462062E-1,2.1321061E-1,-1.1717803E-1,-4.4006568E-1,-4.415126E-2,3.783175E-2,2.174826E-3,1.6745885E-1,-1.19574934E-1,-2.5591314E-1,-1.1103886E-1,3.9735254E-2,1.0430304E-1,1.0629177E-2,7.623352E-1,4.512936E-1,1.1290931E-2,-1.8278234E-2,-5.993441E-2,-4.2455036E-2,5.984783E-4,-1.0708893E-2,4.9281012E-2,5.9040547E-3,8.462896E-2,5.385154E-2,2.7857168E-2,8.599281E-3,-7.723936E-3,2.479008E-2,6.8646907E-3,1.3145638E-2,-2.644968E-3,-2.0514012E-3,-2.0017298E-2,-3.3973455E-2,-8.191349E-2,-1.220177E-2,-5.2161057E-2],"split_indices":[18,4,12,4,0,14,12,14,0,0,0,14,14,4,0,0,4,10,6,0,3,7,0,0,0,0,0,0,14,13,3,7,3,0,0,2,3,0,0,0,0,0,0,0,0,0,0,0,0,0,0,0,0],"split_type":[0,0,0,0,0,0,0,0,0,0,0,0,0,0,0,0,0,0,0,0,0,0,0,0,0,0,0,0,0,0,0,0,0,0,0,0,0,0,0,0,0,0,0,0,0,0,0,0,0,0,0,0,0],"sum_hessian":[1.29E2,1.5E1,1.14E2,1.2E1,3E0,5.2E1,6.2E1,1E1,2E0,2E0,1E0,2.6E1,2.6E1,5.1E1,1.1E1,4E0,6E0,1.3E1,1.3E1,1.8E1,8E0,4.8E1,3E0,1E0,1E1,2E0,4E0,1E0,1.2E1,7E0,6E0,1.2E1,6E0,7E0,1E0,4.1E1,7E0,1E0,2E0,6E0,6E0,5E0,2E0,5E0,1E0,6E0,6E0,1E0,5E0,4E0,3.7E1,5E0,2E0],"tree_param":{"num_deleted":"0","num_feature":"19","num_nodes":"53","size_leaf_vector":"1"}},{"base_weights":[1.4759266E-1,3.573666E0,-9.40946E-1,2.465744E0,5.307051E0,-5.2679665E-2,-1.4952893E0,2.0596837E-1,1.0040536E0,3.8618124E-1,3.1333113E0,2.389375E-1,-4.7842962E-1,-2.4951532E-1,-1.3606015E0,5.6610048E-2,2.1633578E-2,-7.809599E-2,4.0271897E0,7.63451E-2,4.0871716E-1,8.992036E-3,-6.822713E-1,-1.5142773E0,1.2846847E0,8.2267985E-2,2.325425E-1,2.3036727E-1,-1.23484135E-2,2.5875568E-2,2.1367104E-1,-1.01191765E-2,9.174385E-2,-7.361055E-1,-2.252388E-3,-1.1296748E0,-1.0037669E-1,5.7564736E-3,8.180799E-2,1.494187E-2,2.6476383E-3,1.4788533E-2,1.6490618E-3,9.433746E-3,1.0171175E-3,-3.8445037E-2,-1.0203815E-2,-6.597642E-2,-3.4613896E-2],"categories":[],"categories_nodes":[],"categories_segments":[],"categories_sizes":[],"default_left":[0,0,0,0,0,0,0,0,0,0,0,0,0,0,0,0,0,0,0,0,0,0,0,0,0,0,0,0,0,0,0,0,0,0,0,0,0,0,0,0,0,0,0,0,0,0,0,0,0],"id":23,"left_children":[1,3,5,7,9,11,13,-1,15,-1,17,19,21,-1,23,-1,-1,-1,25,27,29,31,33,35,37,-1,-1,39,-1,-1,41,-1,43,45,-1,47,-1,-1,-1,-1,-1,-1,-1,-1,-1,-1,-1,-1,-1],"loss_changes":[5.1056284E2,5.0289215E1,5.1131294E1,4.903981E1,3.883551E1,5.2047105E0,2.333728E1,0E0,4.620037E-1,0E0,3.986589E1,6.589185E-1,1.6952014E0,0E0,2.7555893E1,0E0,0E0,0E0,2.7458572E0,7.540574E-1,1.440618E-1,1.23517714E-1,3.7849283E-1,9.1145935E0,1.4559078E0,0E0,0E0,1.0565168E-1,0E0,0E0,7.925251E-2,0E0,3.0767031E-2,3.5014153E-2,0E0,2.0760117E0,0E0,0E0,0E0,0E0,0E0,0E0,0E0,0E0,0E0,0E0,0E0,0E0,0E0],"parents":[2147483647,0,0,1,1,2,2,3,3,4,4,5,5,6,6,8,8,10,10,11,11,12,12,14,14,18,18,19,19,20,20,21,21,22,22,23,23,24,24,27,27,30,30,32,32,33,33,35,35],"right_children":[2,4,6,8,10,12,14,-1,16,-1,18,20,22,-1,24,-1,-1,-1,26,28,30,32,34,36,38,-1,-1,40,-1,-1,42,-1,44,46,-1,48,-1,-1,-1,-1,-1,-1,-1,-1,-1,-1,-1,-1,-1],"split_conditions":[8.6083955E-1,2.2972775E-1,5.706554E-2,-2.7627108E-1,3.3441556E-1,9.614066E-1,-1.2462062E-1,2.0596837E-1,7.623352E-1,3.8618124E-1,3.5003024E-1,-1.8738383E-2,5.434736E-1,-2.4951532E-1,2.2136322E-1,5.6610048E-2,2.1633578E-2,-7.809599E-2,-3.1286538E-1,4.512936E-1,1.2671296E-1,-2.628525E-2,1.0118277E-2,7.6245147E-1,-1.19574934E-1,8.2267985E-2,2.325425E-1,-3.53543E-2,-1.23484135E-2,2.5875568E-2,1.4212702E-2,-1.01191765E-2,-3.0432219E-2,7.138128E-2,-2.252388E-3,4.840187E-1,-1.0037669E-1,5.7564736E-3,8.180799E-2,1.494187E-2,2.6476383E-3,1.4788533E-2,1.6490618E-3,9.433746E-3,1.0171175E-3,-3.8445037E-2,-1.0203815E-2,-6.597642E-2,-3.4613896E-2],"split_indices":[14,5,7,14,5,14,0,0,14,0,5,6,13,0,5,0,0,0,0,13,11,6,2,13,0,0,0,8,0,0,5,0,0,0,0,12,0,0,0,0,0,0,0,0,0,0,0,0,0],"split_type":[0,0,0,0,0,0,0,0,0,0,0,0,0,0,0,0,0,0,0,0,0,0,0,0,0,0,0,0,0,0,0,0,0,0,0,0,0,0,0,0,0,0,0,0,0,0,0,0,0],"sum_hessian":[1.35E2,3.2E1,1.03E2,2.1E1,1.1E1,4E1,6.3E1,9E0,1.2E1,4E0,7E0,2.4E1,1.6E1,1E0,6.2E1,9E0,3E0,1E0,6E0,1.3E1,1.1E1,5E0,1.1E1,5.9E1,3E0,2E0,4E0,9E0,4E0,6E0,5E0,1E0,4E0,1E1,1E0,3.5E1,2.4E1,1E0,2E0,6E0,3E0,3E0,2E0,1E0,3E0,9E0,1E0,2.3E1,1.2E1],"tree_param":{"num_deleted":"0","num_feature":"19","num_nodes":"49","size_leaf_vector":"1"}},{"base_weights":[4.8084952E-2,3.4650128E0,-8.310116E-1,4.1659427E0,8.6722213E-1,1.7422551E-2,-1.4676276E0,3.0601683E0,2.9701623E-1,8.948184E-3,4.7605228E-2,2.5705975E-1,-4.0649152E-1,-2.1294735E-1,-1.2979451E0,4.0320926E0,1.7057228E0,9.8823726E-2,4.0870756E-1,-5.642205E-1,8.490219E-2,1.2423415E0,-1.4590942E0,2.1317942E-1,6.0290575E-2,9.5452994E-2,3.6523726E-2,3.5571808E-1,-9.0884686E-2,2.5893021E-2,2.0998137E-1,-3.4127605E-1,-4.263382E-2,1.5418498E-1,-1.2681325E-2,5.6125643E-3,7.908106E-2,-1.137312E0,-1.02867566E-1,3.8610937E-3,1.9463189E-2,-9.722485E-3,5.6537627E-3,1.5329719E-2,3.0436516E-3,-2.2142895E-2,4.7534308E-4,9.197903E-3,2.3659708E-3,1.2449742E-3,-2.1960735E-3,-6.496224E-2,-2.7698798E-2],"categories":[],"categories_nodes":[],"categories_segments":[],"categories_sizes":[],"default_left":[0,0,0,0,0,0,0,0,0,0,0,0,0,0,0,0,0,0,0,0,0,0,0,0,0,0,0,0,0,0,0,0,0,0,0,0,0,0,0,0,0,0,0,0,0,0,0,0,0,0,0,0,0],"id":24,"left_children":[1,3,5,7,9,11,13,15,-1,-1,-1,17,19,-1,21,23,25,27,29,31,33,35,37,-1,-1,-1,-1,39,41,-1,43,45,-1,47,49,-1,-1,51,-1,-1,-1,-1,-1,-1,-1,-1,-1,-1,-1,-1,-1,-1,-1],"loss_changes":[3.9637854E2,4.555069E1,5.6738884E1,2.3025024E1,2.3855591E-1,4.777429E0,2.2890411E1,1.2868652E1,0E0,0E0,0E0,6.794945E-1,1.3655231E0,0E0,2.5555862E1,9.309387E-2,1.919136E-1,8.120897E-1,2.1663213E-1,5.4502726E-1,3.5759564E-2,1.3561277E0,8.248123E0,0E0,0E0,0E0,0E0,3.5336733E-2,2.3321861E-1,0E0,8.217728E-2,3.249086E-1,0E0,8.403659E-4,4.6157115E-3,0E0,0E0,2.8697739E0,0E0,0E0,0E0,0E0,0E0,0E0,0E0,0E0,0E0,0E0,0E0,0E0,0E0,0E0,0E0],"parents":[2147483647,0,0,1,1,2,2,3,3,4,4,5,5,6,6,7,7,11,11,12,12,14,14,15,15,16,16,17,17,18,18,19,19,20,20,21,21,22,22,27,27,28,28,30,30,31,31,33,33,34,34,37,37],"right_children":[2,4,6,8,10,12,14,16,-1,-1,-1,18,20,-1,22,24,26,28,30,32,34,36,38,-1,-1,-1,-1,40,42,-1,44,46,-1,48,50,-1,-1,52,-1,-1,-1,-1,-1,-1,-1,-1,-1,-1,-1,-1,-1,-1,-1],"split_conditions":[7.685332E-1,9.3333334E-1,5.706554E-2,1.7871794E-1,-1.8962628E-1,9.614066E-1,-1.2462062E-1,-3.2828102E-1,2.9701623E-1,8.948184E-3,4.7605228E-2,-1.8738383E-2,1.0118277E-2,-2.1294735E-1,-6.763694E-2,1.3210134E-1,1.6437216E-2,1.6197902E-1,9.322652E-1,3.0087453E-1,-2.780091E-2,-1.19574934E-1,6.311907E-1,2.1317942E-1,6.0290575E-2,9.5452994E-2,3.6523726E-2,1.3013845E-2,-7.69205E-3,2.5893021E-2,2.5338852E-3,-5.747773E-3,-4.263382E-2,-3.0432219E-2,6.806115E-3,5.6125643E-3,7.908106E-2,1.478895E-1,-1.02867566E-1,3.8610937E-3,1.9463189E-2,-9.722485E-3,5.6537627E-3,1.5329719E-2,3.0436516E-3,-2.2142895E-2,4.7534308E-4,9.197903E-3,2.3659708E-3,1.2449742E-3,-2.1960735E-3,-6.496224E-2,-2.7698798E-2],"split_indices":[14,18,7,14,4,14,0,14,0,0,0,6,2,0,1,1,1,12,14,12,0,0,12,0,0,0,0,0,2,0,6,8,0,0,0,0,0,7,0,0,0,0,0,0,0,0,0,0,0,0,0,0,0],"split_type":[0,0,0,0,0,0,0,0,0,0,0,0,0,0,0,0,0,0,0,0,0,0,0,0,0,0,0,0,0,0,0,0,0,0,0,0,0,0,0,0,0,0,0,0,0,0,0,0,0,0,0,0,0],"sum_hessian":[1.3E2,2.6E1,1.04E2,2E1,6E0,4.5E1,5.9E1,1.4E1,6E0,1E0,5E0,2.9E1,1.6E1,2E0,5.7E1,7E0,7E0,1.5E1,1.4E1,1.2E1,4E0,3E0,5.4E1,6E0,1E0,5E0,2E0,6E0,9E0,8E0,6E0,8E0,4E0,2E0,2E0,1E0,2E0,3.7E1,1.7E1,1E0,5E0,6E0,3E0,3E0,3E0,6E0,2E0,1E0,1E0,1E0,1E0,2.8E1,9E0],"tree_param":{"num_deleted":"0","num_feature":"19","num_nodes":"53","size_leaf_vector":"1"}},{"base_weights":[1.9366045E-1,4.3124623E0,-6.630122E-1,2.9989574E0,3.118113E-1,3.1879535E-1,-1.3925226E0,3.9861116E0,1.6369336E0,1.5122539E-1,1.964861E-1,-2.3795377E-1,-1.2570955E0,2.1098259E-1,5.8783293E-2,9.147578E-2,3.5306264E-2,4.8387083E-1,-2.1853442E-1,1.2013979E0,-1.407567E0,6.6723585E-1,2.7738997E-1,-4.784447E-2,-2.8873185E-2,5.472231E-3,7.6445036E-2,-1.1108954E0,-9.504324E-2,8.724499E-3,3.480841E-2,3.38432E-3,1.9999696E-2,-1.0896879E-2,7.4745417E-3,-5.7695657E-2,1.2019062E-2],"categories":[],"categories_nodes":[],"categories_segments":[],"categories_sizes":[],"default_left":[0,0,0,0,0,0,0,0,0,0,0,0,0,0,0,0,0,0,0,0,0,0,0,0,0,0,0,0,0,0,0,0,0,0,0,0,0],"id":25,"left_children":[1,3,5,7,-1,9,11,13,15,17,-1,-1,19,-1,-1,-1,-1,21,23,25,27,29,31,33,-1,-1,-1,35,-1,-1,-1,-1,-1,-1,-1,-1,-1],"loss_changes":[4.5097427E2,3.6889008E1,7.636525E1,1.3642914E1,0E0,2.7239536E1,2.182866E1,2.89917E-1,1.4218712E-1,5.6406937E0,0E0,0E0,2.3887047E1,0E0,0E0,0E0,0E0,7.2358847E-1,1.3202153E0,1.2631416E0,6.2301407E0,4.9601555E-2,3.0716217E-1,5.696256E-1,0E0,0E0,0E0,2.4862747E0,0E0,0E0,0E0,0E0,0E0,0E0,0E0,0E0,0E0],"parents":[2147483647,0,0,1,1,2,2,3,3,5,5,6,6,7,7,8,8,9,9,12,12,17,17,18,18,19,19,20,20,21,21,22,22,23,23,27,27],"right_children":[2,4,6,8,-1,10,12,14,16,18,-1,-1,20,-1,-1,-1,-1,22,24,26,28,30,32,34,-1,-1,-1,36,-1,-1,-1,-1,-1,-1,-1,-1,-1],"split_conditions":[9.3333334E-1,1.7871794E-1,6.3540107E-1,-3.2828102E-1,3.118113E-1,1.02981046E-1,-1.2462062E-1,1.3210134E-1,1.6437216E-2,9.380379E-1,1.964861E-1,-2.3795377E-1,-6.763694E-2,2.1098259E-1,5.8783293E-2,9.147578E-2,3.5306264E-2,8.845955E-1,9.7138566E-1,-1.19574934E-1,6.311907E-1,-4.4006568E-1,-4.415126E-2,-8.725226E-3,-2.8873185E-2,5.472231E-3,7.6445036E-2,1.2768105E-2,-9.504324E-2,8.724499E-3,3.480841E-2,3.38432E-3,1.9999696E-2,-1.0896879E-2,7.4745417E-3,-5.7695657E-2,1.2019062E-2],"split_indices":[18,14,13,14,0,3,0,1,1,14,0,0,1,0,0,0,0,14,14,0,12,10,6,6,0,0,0,1,0,0,0,0,0,0,0,0,0],"split_type":[0,0,0,0,0,0,0,0,0,0,0,0,0,0,0,0,0,0,0,0,0,0,0,0,0,0,0,0,0,0,0,0,0,0,0,0,0],"sum_hessian":[1.26E2,2.1E1,1.05E2,1.4E1,7E0,4.5E1,6E1,7E0,7E0,4.4E1,1E0,1E0,5.9E1,6E0,1E0,5E0,2E0,2.3E1,2.1E1,3E0,5.6E1,1.1E1,1.2E1,1.5E1,6E0,1E0,2E0,3.7E1,1.9E1,1E0,1E1,5E0,7E0,8E0,7E0,3.6E1,1E0],"tree_param":{"num_deleted":"0","num_feature":"19","num_nodes":"37","size_leaf_vector":"1"}},{"base_weights":[1.0614604E-1,3.0295846E0,-8.0118144E-1,4.0619016E0,1.2877691E0,-3.6822844E-2,-1.289266E0,4.8964286E0,2.5906017E0,1.2398787E-1,6.821968E-1,1.9425945E-1,-3.6089063E-1,-2.3200491E-1,-1.1560838E0,2.6256282E0,3.5481316E-1,-7.8615166E-2,3.3075027E0,6.1150077E-3,7.308186E-1,3.472174E-2,3.5090366E-1,-5.0288546E-1,8.047409E-2,1.1618075E0,-1.2984607E0,1.5640806E-1,4.5643203E-2,1.988877E-1,8.214064E-2,3.898195E-2,8.506394E-3,2.0691848E-1,-2.0066087E-1,2.3762552E-2,1.4734776E-1,1.2680531E-3,-2.745097E-2,1.453476E-1,-1.1224111E-2,5.3354264E-3,7.3896885E-2,-9.4286823E-1,-8.5795216E-2,1.4364036E-2,-1.1389415E-3,-1.8107415E-3,-1.1315356E-2,1.2434324E-3,1.0118509E-2,8.7811E-3,2.1199703E-3,1.0269642E-3,-1.8687726E-3,-5.1203173E-2,1.0521889E-2],"categories":[],"categories_nodes":[],"categories_segments":[],"categories_sizes":[],"default_left":[0,0,0,0,0,0,0,0,0,0,0,0,0,0,0,0,0,0,0,0,0,0,0,0,0,0,0,0,0,0,0,0,0,0,0,0,0,0,0,0,0,0,0,0,0,0,0,0,0,0,0,0,0,0,0,0,0],"id":26,"left_children":[1,3,5,7,9,11,13,15,17,-1,19,21,23,-1,25,27,-1,-1,29,-1,31,33,35,37,39,41,43,-1,-1,-1,-1,-1,-1,45,47,-1,49,-1,-1,51,53,-1,-1,55,-1,-1,-1,-1,-1,-1,-1,-1,-1,-1,-1,-1,-1],"loss_changes":[3.4725433E2,5.0510468E1,3.7259697E1,1.0644257E1,7.692171E0,3.0655594E0,2.18582E1,3.6317078E1,3.2059914E1,0E0,1.8285322E-1,5.875918E-1,1.1058848E0,0E0,2.130941E1,3.1694565E0,0E0,0E0,2.3913803E0,0E0,1.1371994E-1,5.6843793E-1,2.3371267E-1,3.307352E-1,3.1375326E-2,1.176486E0,6.8432007E0,0E0,0E0,0E0,0E0,0E0,0E0,1.5421587E-1,1.7108843E-2,0E0,3.5401896E-2,0E0,0E0,1.903817E-3,3.2596309E-3,0E0,0E0,3.3057117E0,0E0,0E0,0E0,0E0,0E0,0E0,0E0,0E0,0E0,0E0,0E0,0E0,0E0],"parents":[2147483647,0,0,1,1,2,2,3,3,4,4,5,5,6,6,7,7,8,8,10,10,11,11,12,12,14,14,15,15,18,18,20,20,21,21,22,22,23,23,24,24,25,25,26,26,33,33,34,34,36,36,39,39,40,40,43,43],"right_children":[2,4,6,8,10,12,14,16,18,-1,20,22,24,-1,26,28,-1,-1,30,-1,32,34,36,38,40,42,44,-1,-1,-1,-1,-1,-1,46,48,-1,50,-1,-1,52,54,-1,-1,56,-1,-1,-1,-1,-1,-1,-1,-1,-1,-1,-1,-1,-1],"split_conditions":[8.6083955E-1,-7.084566E-2,6.361839E-1,3.3441556E-1,-2.7627108E-1,9.5862603E-1,-1.2462062E-1,2.2972775E-1,3.5003024E-1,1.2398787E-1,-6.728656E-2,-1.8738383E-2,1.0118277E-2,-2.3200491E-1,-6.763694E-2,1.1633576E-1,3.5481316E-1,-7.8615166E-2,-7.920111E-2,6.1150077E-3,4.4760514E-2,4.512936E-1,9.322652E-1,5.410885E-1,-2.780091E-2,-1.19574934E-1,7.5074023E-1,1.5640806E-1,4.5643203E-2,1.988877E-1,8.214064E-2,3.898195E-2,8.506394E-3,-3.53543E-2,4.259468E-3,2.3762552E-2,-6.1893016E-3,1.2680531E-3,-2.745097E-2,-3.0432219E-2,6.806115E-3,5.3354264E-3,7.3896885E-2,7.6753106E-3,-8.5795216E-2,1.4364036E-2,-1.1389415E-3,-1.8107415E-3,-1.1315356E-2,1.2434324E-3,1.0118509E-2,8.7811E-3,2.1199703E-3,1.0269642E-3,-1.8687726E-3,-5.1203173E-2,1.0521889E-2],"split_indices":[14,0,13,5,14,14,0,5,5,0,2,6,2,0,1,11,0,0,1,0,2,13,14,13,0,0,13,0,0,0,0,0,0,8,1,0,1,0,0,0,0,0,0,2,0,0,0,0,0,0,0,0,0,0,0,0,0],"split_type":[0,0,0,0,0,0,0,0,0,0,0,0,0,0,0,0,0,0,0,0,0,0,0,0,0,0,0,0,0,0,0,0,0,0,0,0,0,0,0,0,0,0,0,0,0,0,0,0,0,0,0,0,0,0,0,0,0],"sum_hessian":[1.29E2,3E1,9.9E1,1.8E1,1.2E1,3.9E1,6E1,1E1,8E0,3E0,9E0,2.3E1,1.6E1,1E0,5.9E1,6E0,4E0,1E0,7E0,1E0,8E0,1.2E1,1.1E1,1.2E1,4E0,3E0,5.6E1,4E0,2E0,4E0,3E0,7E0,1E0,7E0,5E0,6E0,5E0,1E0,1.1E1,2E0,2E0,1E0,2E0,3.2E1,2.4E1,5E0,2E0,1E0,4E0,2E0,3E0,1E0,1E0,1E0,1E0,3E1,2E0],"tree_param":{"num_deleted":"0","num_feature":"19","num_nodes":"57","size_leaf_vector":"1"}},{"base_weights":[6.437907E-2,2.750895E0,-7.860941E-1,1.9181248E0,4.0906477E0,-2.6203792E-3,-1.2822505E0,3.3328466E0,7.9115385E-1,3.3836475E-1,2.240993E0,1.9817382E-1,-3.371027E-1,-2.2620478E-1,-1.1506244E0,1.8280523E-1,7.338149E-2,4.436269E-2,1.7655779E-2,-7.6649785E-2,2.9991338E0,3.041525E-1,8.790588E-3,-4.601446E-1,1.16298676E-1,-1.309128E0,8.2304156E-1,1.7235021E-1,6.264859E-2,7.350985E-2,4.0230733E-1,1.5809974E-1,-1.1709881E-1,-1.044747E-1,-2.6041556E-2,8.561564E-3,2.0455362E-3,-1.0639652E0,-8.9727655E-2,7.143367E-2,-5.6937534E-2,1.0363007E-2,-6.4663566E-3,3.3208847E-3,2.1462727E-2,1.2019794E-3,1.1973E-2,-5.3787233E-5,-1.16381645E-2,-9.071946E-3,1.2363434E-3,-5.520114E-2,1.1455536E-2,3.801179E-3,-8.071494E-3],"categories":[],"categories_nodes":[],"categories_segments":[],"categories_sizes":[],"default_left":[0,0,0,0,0,0,0,0,0,0,0,0,0,0,0,0,0,0,0,0,0,0,0,0,0,0,0,0,0,0,0,0,0,0,0,0,0,0,0,0,0,0,0,0,0,0,0,0,0,0,0,0,0,0,0],"id":27,"left_children":[1,3,5,7,9,11,13,15,17,-1,19,21,23,-1,25,-1,-1,-1,-1,-1,27,29,31,33,35,37,39,-1,-1,41,43,45,47,49,-1,-1,-1,51,-1,-1,53,-1,-1,-1,-1,-1,-1,-1,-1,-1,-1,-1,-1,-1,-1],"loss_changes":[2.946181E2,2.6740509E1,3.8091736E1,3.0844559E1,3.9294144E1,2.6861274E0,2.039714E1,6.071472E-2,2.3393726E-1,0E0,2.7487377E1,4.990908E-1,8.9032483E-1,0E0,1.953463E1,0E0,0E0,0E0,0E0,0E0,1.1553802E0,3.3264554E-1,2.064777E-1,2.045989E-1,9.559825E-3,4.6361084E0,2.7460623E0,0E0,0E0,1.895814E-1,7.105398E-2,4.8779324E-2,8.02681E-2,3.4318104E-2,0E0,0E0,0E0,2.2730446E0,0E0,0E0,5.3952735E-2,0E0,0E0,0E0,0E0,0E0,0E0,0E0,0E0,0E0,0E0,0E0,0E0,0E0,0E0],"parents":[2147483647,0,0,1,1,2,2,3,3,4,4,5,5,6,6,7,7,8,8,10,10,11,11,12,12,14,14,20,20,21,21,22,22,23,23,24,24,25,25,26,26,29,29,30,30,31,31,32,32,33,33,37,37,40,40],"right_children":[2,4,6,8,10,12,14,16,18,-1,20,22,24,-1,26,-1,-1,-1,-1,-1,28,30,32,34,36,38,40,-1,-1,42,44,46,48,50,-1,-1,-1,52,-1,-1,54,-1,-1,-1,-1,-1,-1,-1,-1,-1,-1,-1,-1,-1,-1],"split_conditions":[8.6083955E-1,2.2972775E-1,6.3540107E-1,-2.7627108E-1,3.3441556E-1,9.614066E-1,-1.2462062E-1,-1.5538573E-1,7.623352E-1,3.3836475E-1,3.5003024E-1,9.322652E-1,1.0118277E-2,-2.2620478E-1,4.5362473E-1,1.8280523E-1,7.338149E-2,4.436269E-2,1.7655779E-2,-7.6649785E-2,1.1453818E-2,-7.086567E-2,2.5697349E-2,5.410885E-1,-3.0432219E-2,3.998782E0,-6.763694E-2,1.7235021E-1,6.264859E-2,-3.5001364E-2,-7.988625E-2,-6.1893016E-3,3.7088715E-2,7.0713186E-3,-2.6041556E-2,8.561564E-3,2.0455362E-3,1.2768105E-2,-8.9727655E-2,7.143367E-2,-1.2322812E-1,1.0363007E-2,-6.4663566E-3,3.3208847E-3,2.1462727E-2,1.2019794E-3,1.1973E-2,-5.3787233E-5,-1.16381645E-2,-9.071946E-3,1.2363434E-3,-5.520114E-2,1.1455536E-2,3.801179E-3,-8.071494E-3],"split_indices":[14,5,13,14,5,14,0,6,14,0,5,14,2,0,15,0,0,0,0,0,2,5,0,13,0,16,1,0,0,9,10,1,1,0,0,0,0,1,0,0,0,0,0,0,0,0,0,0,0,0,0,0,0,0,0],"split_type":[0,0,0,0,0,0,0,0,0,0,0,0,0,0,0,0,0,0,0,0,0,0,0,0,0,0,0,0,0,0,0,0,0,0,0,0,0,0,0,0,0,0,0,0,0,0,0,0,0,0,0,0,0,0,0],"sum_hessian":[1.27E2,3E1,9.7E1,2E1,1E1,3.8E1,5.9E1,8E0,1.2E1,3E0,7E0,2.4E1,1.4E1,1E0,5.8E1,6E0,2E0,9E0,3E0,1E0,6E0,1.5E1,9E0,1.1E1,3E0,5.4E1,4E0,4E0,2E0,5E0,1E1,4E0,5E0,2E0,9E0,1E0,2E0,3.8E1,1.6E1,2E0,2E0,3E0,2E0,1E0,9E0,2E0,2E0,3E0,2E0,1E0,1E0,3.7E1,1E0,1E0,1E0],"tree_param":{"num_deleted":"0","num_feature":"19","num_nodes":"55","size_leaf_vector":"1"}},{"base_weights":[8.850851E-2,3.0627708E0,-7.5798285E-1,2.039417E0,4.1654053E0,4.6085357E-3,-1.2301364E0,1.7865287E-1,1.1026454E0,3.2708603E-1,2.3824074E0,2.693671E-1,-2.027942E-1,-2.2054966E-1,-1.1076872E0,5.7530235E-2,1.4377308E-2,-7.473352E-2,3.053876E0,6.0600553E-2,3.6870036E-1,-4.0853828E-1,1.05526924E-1,-1.2365493E0,1.0699501E0,7.5339794E-2,1.8403824E-1,9.974408E-3,-9.3437195E-2,3.2378675E-3,3.904445E-1,-1.6128406E-1,-2.4565578E-2,1.2772592E-2,3.6114216E-2,-9.945604E-1,-8.879503E-2,3.4162046E-3,6.905254E-2,3.2520296E-5,-6.250826E-3,2.5039751E-2,1.2792246E-2,-3.3410788E-3,-1.3478351E-2,2.941246E-3,-6.513596E-5,-5.2879404E-2,9.9168625E-3],"categories":[],"categories_nodes":[],"categories_segments":[],"categories_sizes":[],"default_left":[0,0,0,0,0,0,0,0,0,0,0,0,0,0,0,0,0,0,0,0,0,0,0,0,0,0,0,0,0,0,0,0,0,0,0,0,0,0,0,0,0,0,0,0,0,0,0,0,0],"id":28,"left_children":[1,3,5,7,9,11,13,-1,15,-1,17,19,21,-1,23,-1,-1,-1,25,27,29,31,33,35,37,-1,-1,-1,39,-1,41,43,-1,-1,45,47,-1,-1,-1,-1,-1,-1,-1,-1,-1,-1,-1,-1,-1],"loss_changes":[3.2962088E2,2.422818E1,3.673181E1,2.0483582E1,3.94955E1,2.2510922E0,1.965207E1,0E0,1.3824749E-1,0E0,2.799456E1,3.509308E-1,1.5021226E0,0E0,1.872116E1,0E0,0E0,0E0,2.212616E0,1.6839714E-1,5.4023623E-2,2.0728421E-1,9.48415E-2,5.934265E0,1.1520672E0,0E0,0E0,0E0,1.1966206E-2,0E0,3.525853E-2,3.3130497E-2,0E0,0E0,6.8747504E-3,3.4427338E0,0E0,0E0,0E0,0E0,0E0,0E0,0E0,0E0,0E0,0E0,0E0,0E0,0E0],"parents":[2147483647,0,0,1,1,2,2,3,3,4,4,5,5,6,6,8,8,10,10,11,11,12,12,14,14,18,18,19,19,20,20,21,21,22,22,23,23,24,24,28,28,30,30,31,31,34,34,35,35],"right_children":[2,4,6,8,10,12,14,-1,16,-1,18,20,22,-1,24,-1,-1,-1,26,28,30,32,34,36,38,-1,-1,-1,40,-1,42,44,-1,-1,46,48,-1,-1,-1,-1,-1,-1,-1,-1,-1,-1,-1,-1,-1],"split_conditions":[8.6083955E-1,2.2972775E-1,6.361839E-1,-3.6511505E-1,3.3441556E-1,9.380379E-1,-1.2462062E-1,1.7865287E-1,7.623352E-1,3.2708603E-1,3.5003024E-1,-7.086567E-2,-2.874617E-3,-2.2054966E-1,1.1924482E-1,5.7530235E-2,1.4377308E-2,-7.473352E-2,6.164009E-1,-3.5001364E-2,-7.988625E-2,9.5147866E-1,9.859472E-2,6.956869E-1,-1.19574934E-1,7.5339794E-2,1.8403824E-1,9.974408E-3,6.5930635E-2,3.2378675E-3,9.0977764E-1,8.639747E-2,-2.4565578E-2,1.2772592E-2,2.149069E-2,7.6753106E-3,-8.879503E-2,3.4162046E-3,6.905254E-2,3.2520296E-5,-6.250826E-3,2.5039751E-2,1.2792246E-2,-3.3410788E-3,-1.3478351E-2,2.941246E-3,-6.513596E-5,-5.2879404E-2,9.9168625E-3],"split_indices":[14,5,13,14,5,14,0,0,14,0,5,5,2,0,4,0,0,0,10,9,10,14,11,12,0,0,0,0,0,0,14,0,0,0,2,2,0,0,0,0,0,0,0,0,0,0,0,0,0],"split_type":[0,0,0,0,0,0,0,0,0,0,0,0,0,0,0,0,0,0,0,0,0,0,0,0,0,0,0,0,0,0,0,0,0,0,0,0,0,0,0,0,0,0,0,0,0,0,0,0,0],"sum_hessian":[1.29E2,2.8E1,1.01E2,1.6E1,1.2E1,3.9E1,6.2E1,5E0,1.1E1,4E0,8E0,1.7E1,2.2E1,1E0,6.1E1,1E1,1E0,1E0,7E0,6E0,1.1E1,1.3E1,9E0,5.8E1,3E0,3E0,4E0,3E0,3E0,1E0,1E1,4E0,9E0,2E0,7E0,4.2E1,1.6E1,1E0,2E0,1E0,2E0,4E0,6E0,3E0,1E0,4E0,3E0,4E1,2E0],"tree_param":{"num_deleted":"0","num_feature":"19","num_nodes":"49","size_leaf_vector":"1"}},{"base_weights":[2.3101676E-1,2.751166E0,-6.9281226E-1,1.5892186E0,3.8196304E0,-1.1574771E-3,-1.1296265E0,1.4777654E-1,6.597681E-1,4.931054E0,2.283803E0,2.0524797E-1,-3.1756866E-1,-2.1503592E-1,-9.9620134E-1,6.98851E-1,5.7464126E-3,5.3711624E0,3.5254717E-2,-7.286518E-2,2.9336042E0,7.9135165E-2,3.3563146E-1,-4.2395744E-1,8.098984E-2,-1.1879159E0,1.3696565E-1,3.9818753E-2,1.6454507E-2,2.9166758E-1,5.3395938E-2,1.7667672E-1,7.2514534E-2,1.7678536E-1,-1.1246224E-1,2.001512E-2,1.2238169E-1,-8.464273E-2,-4.833561E-1,1.3294029E-1,-1.8715382E-3,-9.3433166E-1,-7.7932455E-2,-1.8074393E-1,6.696606E-2,3.485155E-3,1.4660621E-2,-1.6806126E-3,-6.1885836E-3,1.1640866E-3,1.0492039E-2,-9.1645E-3,2.8162957E-3,-2.52595E-2,-7.171273E-3,8.028174E-3,1.9423486E-3,-4.9001887E-2,1.092124E-2,-3.0681228E-2,3.2910188E-3],"categories":[],"categories_nodes":[],"categories_segments":[],"categories_sizes":[],"default_left":[0,0,0,0,0,0,0,0,0,0,0,0,0,0,0,0,0,0,0,0,0,0,0,0,0,0,0,0,0,0,0,0,0,0,0,0,0,0,0,0,0,0,0,0,0,0,0,0,0,0,0,0,0,0,0,0,0,0,0,0,0],"id":29,"left_children":[1,3,5,7,9,11,13,-1,15,17,19,21,23,-1,25,27,-1,29,-1,-1,31,33,35,37,39,41,43,-1,-1,-1,-1,-1,-1,45,47,-1,49,51,53,55,-1,57,-1,59,-1,-1,-1,-1,-1,-1,-1,-1,-1,-1,-1,-1,-1,-1,-1,-1,-1],"loss_changes":[2.952576E2,3.6140747E1,2.8096287E1,2.0908592E1,1.7756699E1,2.481613E0,1.983252E1,0E0,1.7520905E-1,1.2951736E1,2.6153938E1,3.5162944E-1,6.703687E-1,0E0,1.2328411E1,1.3458729E-1,0E0,9.681763E0,0E0,0E0,1.9944229E0,2.6310548E-1,1.02712035E-1,2.0094562E-1,2.9584074E-2,3.0562897E0,3.680073E0,0E0,0E0,0E0,0E0,0E0,0E0,9.176764E-2,2.9850006E-4,0E0,2.9783312E-2,5.20425E-2,1.7631054E-3,1.5600659E-3,0E0,1.8473911E0,0E0,8.942524E-1,0E0,0E0,0E0,0E0,0E0,0E0,0E0,0E0,0E0,0E0,0E0,0E0,0E0,0E0,0E0,0E0,0E0],"parents":[2147483647,0,0,1,1,2,2,3,3,4,4,5,5,6,6,8,8,9,9,10,10,11,11,12,12,14,14,15,15,17,17,20,20,21,21,22,22,23,23,24,24,25,25,26,26,33,33,34,34,36,36,37,37,38,38,39,39,41,41,43,43],"right_children":[2,4,6,8,10,12,14,-1,16,18,20,22,24,-1,26,28,-1,30,-1,-1,32,34,36,38,40,42,44,-1,-1,-1,-1,-1,-1,46,48,-1,50,52,54,56,-1,58,-1,60,-1,-1,-1,-1,-1,-1,-1,-1,-1,-1,-1,-1,-1,-1,-1,-1,-1],"split_conditions":[8.6083955E-1,7.240698E-2,6.361839E-1,-3.341881E-1,3.3441556E-1,9.614066E-1,-1.2462062E-1,1.4777654E-1,4.708708E-2,6.239639E-1,3.5003024E-1,-1.8738383E-2,1.0118277E-2,-2.1503592E-1,1.6745885E-1,7.623352E-1,5.7464126E-3,-7.7438064E-2,3.5254717E-2,-7.286518E-2,-7.920111E-2,4.512936E-1,9.322652E-1,5.434736E-1,-2.780091E-2,5.3979874E-1,7.472653E-1,3.9818753E-2,1.6454507E-2,2.9166758E-1,5.3395938E-2,1.7667672E-1,7.2514534E-2,3.9969493E-2,4.259468E-3,2.001512E-2,-6.1893016E-3,7.0713186E-3,7.138128E-2,-3.0432219E-2,-1.8715382E-3,1.2768105E-2,-7.7932455E-2,6.7610586E-1,6.696606E-2,3.485155E-3,1.4660621E-2,-1.6806126E-3,-6.1885836E-3,1.1640866E-3,1.0492039E-2,-9.1645E-3,2.8162957E-3,-2.52595E-2,-7.171273E-3,8.028174E-3,1.9423486E-3,-4.9001887E-2,1.092124E-2,-3.0681228E-2,3.2910188E-3],"split_indices":[14,15,13,14,5,14,0,0,3,7,5,6,2,0,7,14,0,0,0,0,1,13,14,13,0,12,12,0,0,0,0,0,0,1,1,0,1,0,0,0,0,1,0,13,0,0,0,0,0,0,0,0,0,0,0,0,0,0,0,0,0],"split_type":[0,0,0,0,0,0,0,0,0,0,0,0,0,0,0,0,0,0,0,0,0,0,0,0,0,0,0,0,0,0,0,0,0,0,0,0,0,0,0,0,0,0,0,0,0,0,0,0,0,0,0,0,0,0,0,0,0,0,0,0,0],"sum_hessian":[1.25E2,3.3E1,9.2E1,1.7E1,1.6E1,3.6E1,5.6E1,6E0,1.1E1,8E0,8E0,2.2E1,1.4E1,1E0,5.5E1,1E1,1E0,7E0,1E0,1E0,7E0,1.2E1,1E1,1.1E1,3E0,4.7E1,8E0,7E0,3E0,6E0,1E0,4E0,3E0,8E0,4E0,7E0,3E0,2E0,9E0,2E0,1E0,3E1,1.7E1,7E0,1E0,5E0,3E0,1E0,3E0,2E0,1E0,1E0,1E0,8E0,1E0,1E0,1E0,2.9E1,1E0,2E0,5E0],"tree_param":{"num_deleted":"0","num_feature":"19","num_nodes":"61","size_leaf_vector":"1"}},{"base_weights":[1.7909768E-1,2.7802162E0,-5.9760886E-1,1.7573718E0,4.445599E0,-3.435884E-2,-1.0141948E0,1.4696915E-1,6.305107E-1,6.979527E-2,2.7765977E-1,1.4301263E-1,-3.2044005E-1,9.138724E-1,-1.1059258E0,4.749918E-3,3.3728104E-2,2.6976448E-1,-4.4903387E-3,-4.3034744E-1,1.1686897E-1,3.2485486E-3,6.529188E-2,-8.9337593E-1,-8.095171E-2,2.1891117E-2,3.3537623E-1,-1.3628244E-2,1.03188515E-1,-6.76713E-3,-2.3584042E-2,1.1617851E-2,9.206136E-4,-1.0280017E0,-5.048012E-1,5.6643486E-3,-2.3168246E-3,3.0697824E-3,1.7831735E-2,-7.826169E-4,6.742764E-3,1.8938065E-3,-1.8247605E-3,-3.2225396E-2,-5.6257106E-2,-2.1693707E-3,-2.963726E-2],"categories":[],"categories_nodes":[],"categories_segments":[],"categories_sizes":[],"default_left":[0,0,0,0,0,0,0,0,0,0,0,0,0,0,0,0,0,0,0,0,0,0,0,0,0,0,0,0,0,0,0,0,0,0,0,0,0,0,0,0,0,0,0,0,0,0,0],"id":30,"left_children":[1,3,5,7,9,11,13,-1,15,-1,-1,17,19,21,23,-1,-1,25,27,29,31,-1,-1,33,-1,35,37,-1,39,-1,-1,-1,41,43,45,-1,-1,-1,-1,-1,-1,-1,-1,-1,-1,-1,-1],"loss_changes":[2.461185E2,3.9883392E1,2.2021507E1,2.3453972E1,2.602658E1,2.1262755E0,1.0561298E1,0E0,1.9540834E-1,0E0,0E0,4.8731458E-1,8.193102E-1,9.1337776E-1,4.224777E0,0E0,0E0,2.2034597E-1,4.0338305E-1,9.467769E-2,5.3348687E-2,0E0,0E0,1.5212383E0,0E0,3.0192206E-2,4.217279E-2,0E0,3.9743833E-2,0E0,0E0,0E0,5.5304603E-3,3.1791306E-1,4.612255E-1,0E0,0E0,0E0,0E0,0E0,0E0,0E0,0E0,0E0,0E0,0E0,0E0],"parents":[2147483647,0,0,1,1,2,2,3,3,4,4,5,5,6,6,8,8,11,11,12,12,13,13,14,14,17,17,18,18,19,19,20,20,23,23,25,25,26,26,28,28,32,32,33,33,34,34],"right_children":[2,4,6,8,10,12,14,-1,16,-1,-1,18,20,22,24,-1,-1,26,28,30,32,-1,-1,34,-1,36,38,-1,40,-1,-1,-1,42,44,46,-1,-1,-1,-1,-1,-1,-1,-1,-1,-1,-1,-1],"split_conditions":[8.6083955E-1,2.2972775E-1,6.361839E-1,-2.7627108E-1,1.3147317E-1,5.434736E-1,-6.795459E-2,1.4696915E-1,-6.728656E-2,6.979527E-2,2.7765977E-1,9.285448E-1,1.0118277E-2,-1.19574934E-1,6.956869E-1,4.749918E-3,3.3728104E-2,-8.125902E-2,-2.628525E-2,-3.3672977E-2,-6.773479E-2,3.2485486E-3,6.529188E-2,1.6236939E-1,-8.095171E-2,2.9920585E-2,7.979697E-5,-1.3628244E-2,4.9892944E-1,-6.76713E-3,-2.3584042E-2,1.1617851E-2,-2.780091E-2,3.1424859E0,-1.1488222E-1,5.6643486E-3,-2.3168246E-3,3.0697824E-3,1.7831735E-2,-7.826169E-4,6.742764E-3,1.8938065E-3,-1.8247605E-3,-3.2225396E-2,-5.6257106E-2,-2.1693707E-3,-2.963726E-2],"split_indices":[14,5,13,14,14,13,1,0,2,0,0,14,2,0,12,0,0,5,6,5,0,0,0,8,0,0,11,0,13,0,0,0,0,16,0,0,0,0,0,0,0,0,0,0,0,0,0],"split_type":[0,0,0,0,0,0,0,0,0,0,0,0,0,0,0,0,0,0,0,0,0,0,0,0,0,0,0,0,0,0,0,0,0,0,0,0,0,0,0,0,0,0,0,0,0,0,0],"sum_hessian":[1.2E2,2.7E1,9.3E1,1.8E1,9E0,4E1,5.3E1,8E0,1E1,3E0,6E0,2.5E1,1.5E1,2E0,5.1E1,1E0,9E0,1.3E1,1.2E1,1.2E1,3E0,1E0,1E0,3.8E1,1.3E1,3E0,1E1,3E0,9E0,2E0,1E1,1E0,2E0,2.7E1,1.1E1,1E0,2E0,1E0,9E0,2E0,7E0,1E0,1E0,7E0,2E1,2E0,9E0],"tree_param":{"num_deleted":"0","num_feature":"19","num_nodes":"47","size_leaf_vector":"1"}},{"base_weights":[1.01976335E-1,2.5128856E0,-6.2462723E-1,1.2981584E0,3.3180687E0,-4.2073455E-1,-2.0038276E0,1.10640384E-1,5.441524E-1,4.162008E0,2.0116844E0,2.9972675E-1,-6.4115477E-1,-2.0974122E-1,-7.35838E-2,4.6311854E-3,5.890155E-1,2.0828552E0,2.912295E-1,-7.798507E-2,2.6530702E0,1.3536072E-1,6.477957E-2,-2.415705E-1,-1.033837E0,3.229816E-2,4.75955E-3,1.311425E-1,3.342886E-2,1.502187E-1,5.330531E-2,2.3263454E-1,-3.1189322E-1,-3.7494177E-1,1.4268894E-1,-2.302204E-1,-1.130103E0,2.1007538E-3,1.8093333E-2,3.167343E-3,-2.2904444E-2,-2.5752808E-3,-2.542073E-2,-1.2009144E-4,1.0260691E-2,-2.0353794E-3,-1.3371087E-2,-3.8088184E-2,-6.943158E-2],"categories":[],"categories_nodes":[],"categories_segments":[],"categories_sizes":[],"default_left":[0,0,0,0,0,0,0,0,0,0,0,0,0,0,0,0,0,0,0,0,0,0,0,0,0,0,0,0,0,0,0,0,0,0,0,0,0,0,0,0,0,0,0,0,0,0,0,0,0],"id":31,"left_children":[1,3,5,7,9,11,13,-1,15,17,19,21,23,-1,-1,-1,25,27,-1,-1,29,31,-1,33,35,-1,-1,-1,-1,-1,-1,37,39,41,43,45,47,-1,-1,-1,-1,-1,-1,-1,-1,-1,-1,-1,-1],"loss_changes":[2.3455573E2,2.6013031E1,2.8121437E1,8.451014E0,1.1472519E1,1.4643356E1,8.983833E0,0E0,1.2775588E-1,2.2435837E1,2.4753727E1,3.425727E0,1.0733929E1,0E0,0E0,0E0,1.6348743E-1,2.828638E0,0E0,0E0,1.2570686E0,9.426791E-1,0E0,1.8984699E0,2.4474564E0,0E0,0E0,0E0,0E0,0E0,0E0,4.0357685E-1,2.484524E-1,1.1394017E0,9.121071E-2,2.4364531E-2,1.8942032E0,0E0,0E0,0E0,0E0,0E0,0E0,0E0,0E0,0E0,0E0,0E0,0E0],"parents":[2147483647,0,0,1,1,2,2,3,3,4,4,5,5,6,6,8,8,9,9,10,10,11,11,12,12,16,16,17,17,20,20,21,21,23,23,24,24,31,31,32,32,33,33,34,34,35,35,36,36],"right_children":[2,4,6,8,10,12,14,-1,16,18,20,22,24,-1,-1,-1,26,28,-1,-1,30,32,-1,34,36,-1,-1,-1,-1,-1,-1,38,40,42,44,46,48,-1,-1,-1,-1,-1,-1,-1,-1,-1,-1,-1,-1],"split_conditions":[8.6083955E-1,-4.2662874E-2,7.694564E-1,-3.341881E-1,3.3441556E-1,9.335955E-1,-1.2462062E-1,1.10640384E-1,-6.728656E-2,2.2972775E-1,3.5003024E-1,7.472653E-1,6.631301E-1,-2.0974122E-1,-7.35838E-2,4.6311854E-3,4.708708E-2,-7.83555E-2,2.912295E-1,-7.798507E-2,1.1453818E-2,4.681235E-2,6.477957E-2,1.0118277E-2,-1.0708893E-2,3.229816E-2,4.75955E-3,1.311425E-1,3.342886E-2,1.502187E-1,5.330531E-2,-4.415126E-2,-1.19574934E-1,5.434736E-1,-5.70131E-3,-3.226845E-2,1.1832544E-1,2.1007538E-3,1.8093333E-2,3.167343E-3,-2.2904444E-2,-2.5752808E-3,-2.542073E-2,-1.2009144E-4,1.0260691E-2,-2.0353794E-3,-1.3371087E-2,-3.8088184E-2,-6.943158E-2],"split_indices":[14,15,12,14,5,14,0,0,2,5,5,12,13,0,0,0,3,3,0,0,2,3,0,2,2,0,0,0,0,0,0,6,0,13,1,1,8,0,0,0,0,0,0,0,0,0,0,0,0],"split_type":[0,0,0,0,0,0,0,0,0,0,0,0,0,0,0,0,0,0,0,0,0,0,0,0,0,0,0,0,0,0,0,0,0,0,0,0,0,0,0,0,0,0,0,0,0,0,0,0,0],"sum_hessian":[1.32E2,3E1,1.02E2,1.3E1,1.7E1,9E1,1.2E1,5E0,8E0,9E0,8E0,2.1E1,6.9E1,1E0,1.1E1,1E0,7E0,5E0,4E0,1E0,7E0,1.9E1,2E0,3.5E1,3.4E1,6E0,1E0,3E0,2E0,5E0,2E0,1.6E1,3E0,2.6E1,9E0,4E0,3E1,7E0,9E0,1E0,2E0,8E0,1.8E1,3E0,6E0,1E0,3E0,1.4E1,1.6E1],"tree_param":{"num_deleted":"0","num_feature":"19","num_nodes":"49","size_leaf_vector":"1"}},{"base_weights":[3.687124E-2,2.330054E0,-6.405148E-1,2.9037898E0,1.0229172E0,-3.0590806E-2,-1.0307693E0,3.0763304E0,4.215511E-2,5.4699516E-1,1.4455342E-1,1.2770176E-1,-3.2403088E-1,-2.0449768E-1,-9.1729105E-1,3.7386217E0,1.925049E0,9.498629E-3,6.1250424E-1,3.1509423E-1,5.0233115E-2,-4.240892E-1,5.7151794E-2,9.701853E-1,-1.0278347E0,3.9817061E0,3.2694437E-2,-7.603543E-2,2.5458572E0,3.5439204E-2,1.0788823E-2,6.8427087E-3,1.9733373E-2,-8.3942935E-2,1.7984252E-1,-2.200718E-2,-6.1872723E-3,4.994202E-3,-1.7761231E-3,3.0881406E-3,6.262026E-2,-8.1655335E-1,-7.3773004E-2,6.5074414E-2,2.2445373E-1,1.524945E-1,6.3967586E-2,2.9094887E-3,-8.673723E-3,1.3630359E-2,2.8552057E-3,-4.351073E-2,9.450086E-3],"categories":[],"categories_nodes":[],"categories_segments":[],"categories_sizes":[],"default_left":[0,0,0,0,0,0,0,0,0,0,0,0,0,0,0,0,0,0,0,0,0,0,0,0,0,0,0,0,0,0,0,0,0,0,0,0,0,0,0,0,0,0,0,0,0,0,0,0,0,0,0,0,0],"id":32,"left_children":[1,3,5,7,9,11,13,15,-1,17,-1,19,21,-1,23,25,27,-1,29,31,33,35,37,39,41,43,-1,-1,45,-1,-1,-1,-1,47,49,-1,-1,-1,-1,-1,-1,51,-1,-1,-1,-1,-1,-1,-1,-1,-1,-1,-1],"loss_changes":[2.1119739E2,2.0278152E1,2.4961163E1,4.87294E0,8.198635E0,1.9922533E0,1.8465996E1,7.2901764E0,0E0,1.1752319E-1,0E0,3.9064896E-1,5.9634507E-1,0E0,1.414204E1,5.6447754E0,2.3123901E1,0E0,1.5263653E-1,5.945319E-2,3.8029653E-1,3.3962727E-3,1.9388841E-2,9.481478E-1,4.4697E0,7.7561035E0,0E0,0E0,1.2050018E0,0E0,0E0,0E0,0E0,1.5007338E-1,1.0967666E-1,0E0,0E0,0E0,0E0,0E0,0E0,2.4847202E0,0E0,0E0,0E0,0E0,0E0,0E0,0E0,0E0,0E0,0E0,0E0],"parents":[2147483647,0,0,1,1,2,2,3,3,4,4,5,5,6,6,7,7,9,9,11,11,12,12,14,14,15,15,16,16,18,18,19,19,20,20,21,21,22,22,23,23,24,24,25,25,28,28,33,33,34,34,41,41],"right_children":[2,4,6,8,10,12,14,16,-1,18,-1,20,22,-1,24,26,28,-1,30,32,34,36,38,40,42,44,-1,-1,46,-1,-1,-1,-1,48,50,-1,-1,-1,-1,-1,-1,52,-1,-1,-1,-1,-1,-1,-1,-1,-1,-1,-1],"split_conditions":[8.6083955E-1,9.3333334E-1,6.3804954E-1,3.2874608E-1,1.02981046E-1,5.434736E-1,-1.2462062E-1,3.3441556E-1,4.215511E-2,-1.9406892E-1,1.4455342E-1,1.7384975E-1,1.0118277E-2,-2.0449768E-1,-6.763694E-2,6.239639E-1,3.5003024E-1,9.498629E-3,7.623352E-1,1.0592193E-1,-1.5652813E-2,7.138128E-2,-2.780091E-2,-1.19574934E-1,6.956869E-1,-5.551166E-1,3.2694437E-2,-7.603543E-2,-7.920111E-2,3.5439204E-2,1.0788823E-2,6.8427087E-3,1.9733373E-2,1.968904E-1,1.2671296E-1,-2.200718E-2,-6.1872723E-3,4.994202E-3,-1.7761231E-3,3.0881406E-3,6.262026E-2,7.6753106E-3,-7.3773004E-2,6.5074414E-2,2.2445373E-1,1.524945E-1,6.3967586E-2,2.9094887E-3,-8.673723E-3,1.3630359E-2,2.8552057E-3,-4.351073E-2,9.450086E-3],"split_indices":[14,18,13,0,3,13,0,5,0,12,0,12,2,0,1,7,5,0,14,12,6,0,0,0,12,9,0,0,1,0,0,0,0,12,11,0,0,0,0,0,0,2,0,0,0,0,0,0,0,0,0,0,0],"split_type":[0,0,0,0,0,0,0,0,0,0,0,0,0,0,0,0,0,0,0,0,0,0,0,0,0,0,0,0,0,0,0,0,0,0,0,0,0,0,0,0,0,0,0,0,0,0,0,0,0,0,0,0,0],"sum_hessian":[1.34E2,3E1,1.04E2,2E1,1E1,4.1E1,6.3E1,1.8E1,2E0,9E0,1E0,2.7E1,1.4E1,1E0,6.2E1,1E1,8E0,2E0,7E0,7E0,2E1,1.1E1,3E0,3E0,5.9E1,9E0,1E0,1E0,7E0,5E0,2E0,3E0,4E0,1E1,1E1,1E1,1E0,2E0,1E0,1E0,2E0,4.2E1,1.7E1,