{"learner":{"attributes":{"best_iteration":"10","best_score":"5.081318581703657"},"feature_names":["f_cycle_1","f_cycle_2","f_cycle_3","f_cycle_4","f_cycle_5","f_cycle_6","f_cycle_7","f_cycle_8","f_cycle_9","f_cycle_10","f_cycle_11","f_cycle_12","f_cycle_13","f_cycle_14","f_slope10","f_area","f_max","f_argmax"],"feature_types":[],"gradient_booster":{"model":{"cats":{"enc":[],"feature_segments":[],"sorted_idx":[]},"gbtree_model_param":{"num_parallel_tree":"1","num_trees":"61"},"iteration_indptr":[0,1,2,3,4,5,6,7,8,9,10,11,12,13,14,15,16,17,18,19,20,21,22,23,24,25,26,27,28,29,30,31,32,33,34,35,36,37,38,39,40,41,42,43,44,45,46,47,48,49,50,51,52,53,54,55,56,57,58,59,60,61],"tree_info":[0,0,0,0,0,0,0,0,0,0,0,0,0,0,0,0,0,0,0,0,0,0,0,0,0,0,0,0,0,0,0,0,0,0,0,0,0,0,0,0,0,0,0,0,0,0,0,0,0,0,0,0,0,0,0,0,0,0,0,0,0],"trees":[{"base_weights":[-2.706068E-1,8.854083E0,-2.266771E0,1.1351765E1,3.7074919E0,-2.646796E0,5.7681686E-1,1.1951997E1,7.371312E-2,3.4006032E-1,1.2353134E-1,1.717088E-1,-4.669586E0,1.6897951E-1,6.1757225E-1,-5.617315E-1,1.0017496E0,-3.726539E0,-3.5150287E-1,6.4251554E-1,-1.3271141E0,7.175767E-1,1.0150454E-1,-4.3003306E0,1.7238607E0,5.644956E-2,-3.487911E-3,-7.522952E-2,-5.7839393E-3,4.9621346E-3,4.1731365E-2,-2.3123375E-1,-1.03213765E-1,-1.5788889E-2,1.5944396E-1],"categories":[],"categories_nodes":[],"categories_segments":[],"categories_sizes":[],"default_left":[0,0,0,0,0,0,0,0,0,0,0,0,0,0,0,0,0,0,0,0,0,0,0,0,0,0,0,0,0,0,0,0,0,0,0],"id":0,"left_children":[1,3,5,7,9,11,-1,13,-1,-1,-1,15,17,-1,-1,19,21,23,-1,25,27,29,-1,31,33,-1,-1,-1,-1,-1,-1,-1,-1,-1,-1],"loss_changes":[2.3332964E3,2.53568E2,5.8131433E2,7.13114E1,1.763533E1,5.880299E2,0E0,6.196411E0,0E0,0E0,0E0,2.7349274E1,1.073645E2,0E0,0E0,2.2973726E1,4.6800156E0,1.4814587E2,0E0,3.5437946E0,3.0509663E0,1.219945E0,0E0,2.018872E1,1.5947516E1,0E0,0E0,0E0,0E0,0E0,0E0,0E0,0E0,0E0,0E0],"parents":[2147483647,0,0,1,1,2,2,3,3,4,4,5,5,7,7,11,11,12,12,15,15,16,16,17,17,19,19,20,20,21,21,23,23,24,24],"right_children":[2,4,6,8,10,12,-1,14,-1,-1,-1,16,18,-1,-1,20,22,24,-1,26,28,30,-1,32,34,-1,-1,-1,-1,-1,-1,-1,-1,-1,-1],"split_conditions":[9.285714E-1,1.3643795E-1,4.2938802E-1,3.5080954E-1,-2.9781437E-1,1.1811246E-1,5.7681686E-1,-4.344618E-1,7.371312E-2,3.4006032E-1,1.2353134E-1,1.6766015E-2,8.053408E-1,1.6897951E-1,6.1757225E-1,3.606056E-2,1.0501599E-1,1.3517047E-1,-3.5150287E-1,3.4502602E-1,7.796764E-2,-1.0305508E-2,1.0150454E-1,4.1996512E-1,-1.2687804E-1,5.644956E-2,-3.487911E-3,-7.522952E-2,-5.7839393E-3,4.9621346E-3,4.1731365E-2,-2.3123375E-1,-1.03213765E-1,-1.5788889E-2,1.5944396E-1],"split_indices":[17,1,6,0,0,8,0,0,0,0,0,2,12,0,0,10,2,4,0,12,9,1,0,10,0,0,0,0,0,0,0,0,0,0,0],"split_type":[0,0,0,0,0,0,0,0,0,0,0,0,0,0,0,0,0,0,0,0,0,0,0,0,0,0,0,0,0,0,0,0,0,0,0],"sum_hessian":[1.26E2,2.2E1,1.04E2,1.4E1,8E0,1.02E2,2E0,1.3E1,1E0,1E0,7E0,4.3E1,5.9E1,1E0,1.2E1,2.3E1,2E1,4.4E1,1.5E1,9E0,1.4E1,1.7E1,3E0,4E1,4E0,5E0,4E0,1.2E1,2E0,3E0,1.4E1,3.4E1,6E0,2E0,2E0],"tree_param":{"num_deleted":"0","num_feature":"18","num_nodes":"35","size_leaf_vector":"1"}},{"base_weights":[1.7159527E-2,5.2109137E0,-3.5332189E0,3.2747922E0,6.2408406E-1,-7.648506E-1,-4.800707E0,8.720154E0,9.602765E-1,-2.056444E-1,-1.7982796E0,-5.271453E0,-2.7138085E0,1.2002982E1,1.4448456E-1,1.4751737E0,-3.750384E-1,1.9102603E-1,-1.0308229E0,-1.01102345E-1,-2.0356178E-4,-2.1631995E-1,-2.9884478E-1,-1.4885233E-1,-4.658723E-2,6.388118E-1,1.6475502E-1,9.4830227E-1,3.03827E-1,2.5908986E-2,-1.1951129E-2,-5.9182536E-2,-6.6670896E-3,-5.565045E-2,7.120588E-2,1.7282994E-2,-8.175285E-3],"categories":[],"categories_nodes":[],"categories_segments":[],"categories_sizes":[],"default_left":[0,0,0,0,0,0,0,0,0,0,0,0,0,0,0,0,0,0,0,0,0,0,0,0,0,0,0,0,0,0,0,0,0,0,0,0,0],"id":1,"left_children":[1,3,5,7,-1,9,11,13,15,17,19,21,23,25,-1,27,-1,29,31,-1,-1,-1,-1,-1,-1,-1,-1,33,-1,-1,35,-1,-1,-1,-1,-1,-1],"loss_changes":[2.4524639E3,7.1928796E2,2.735293E2,5.461748E2,0E0,1.4655593E1,3.8743774E1,2.1414038E2,1.504751E2,6.0887446E0,3.6051311E0,2.808838E0,2.8554459E0,1.1768433E1,0E0,6.939178E1,0E0,8.6945426E-1,6.651311E-1,0E0,0E0,0E0,0E0,0E0,0E0,0E0,0E0,3.0028357E1,0E0,0E0,5.4429555E-1,0E0,0E0,0E0,0E0,0E0,0E0],"parents":[2147483647,0,0,1,1,2,2,3,3,5,5,6,6,7,7,8,8,9,9,10,10,11,11,12,12,13,13,15,15,17,17,18,18,27,27,30,30],"right_children":[2,4,6,8,-1,10,12,14,16,18,20,22,24,26,-1,28,-1,30,32,-1,-1,-1,-1,-1,-1,-1,-1,34,-1,-1,36,-1,-1,-1,-1,-1,-1],"split_conditions":[8.943229E-1,4.2938802E-1,2.2769708E-2,3.8372222E-1,6.2408406E-1,9.576452E-1,1.7577265E-1,1.3643795E-1,4.0058076E-1,6.927146E-2,3.1312841E-3,4.9391466E-1,1.8993293E-1,2.861053E-1,1.4448456E-1,5.315813E-1,-3.750384E-1,-5.3178485E-2,-3.7088666E-2,-1.01102345E-1,-2.0356178E-4,-2.1631995E-1,-2.9884478E-1,-1.4885233E-1,-4.658723E-2,6.388118E-1,1.6475502E-1,-1.2818213E-1,3.03827E-1,2.5908986E-2,-4.9297273E-2,-5.9182536E-2,-6.6670896E-3,-5.565045E-2,7.120588E-2,1.7282994E-2,-8.175285E-3],"split_indices":[16,6,7,16,0,16,7,1,6,0,3,11,6,3,0,7,0,0,3,0,0,0,0,0,0,0,0,0,0,0,3,0,0,0,0,0,0],"split_type":[0,0,0,0,0,0,0,0,0,0,0,0,0,0,0,0,0,0,0,0,0,0,0,0,0,0,0,0,0,0,0,0,0,0,0,0,0],"sum_hessian":[1.31E2,5.3E1,7.8E1,4.3E1,1E1,2.5E1,5.3E1,1.2E1,3.1E1,1.7E1,8E0,4.2E1,1.1E1,7E0,5E0,3E1,1E0,1.2E1,5E0,7E0,1E0,2.1E1,2.1E1,9E0,2E0,6E0,1E0,2.8E1,2E0,4E0,8E0,4E0,1E0,5E0,2.3E1,2E0,6E0],"tree_param":{"num_deleted":"0","num_feature":"18","num_nodes":"37","size_leaf_vector":"1"}},{"base_weights":[2.1471687E-1,8.900512E0,-2.039144E0,1.1191012E1,3.658508E0,3.0236548E-1,-4.218802E0,1.165698E1,7.009015E-2,1.12721615E-1,3.091604E-1,-3.1729093E-1,5.367868E-1,-1.3710186E0,-4.66487E0,1.1964717E1,1.6063614E-1,-3.1106815E-2,-3.6566243E-1,-1.5414037E0,-1.9845963E-4,-3.756566E0,-2.8269026E-1,6.2713975E-1,2.5430444E-1,7.902093E-1,-1.4127388E0,-3.2699585E-3,-8.714594E-2,-4.322486E-2,-1.9158307E-1,2.6968932E-2,1.5175562E-1,-1.4690235E-1,-1.390692E-2],"categories":[],"categories_nodes":[],"categories_segments":[],"categories_sizes":[],"default_left":[0,0,0,0,0,0,0,0,0,0,0,0,0,0,0,0,0,0,0,0,0,0,0,0,0,0,0,0,0,0,0,0,0,0,0],"id":2,"left_children":[1,3,5,7,9,11,13,15,-1,-1,-1,17,-1,19,21,23,-1,25,-1,27,-1,29,-1,-1,-1,31,33,-1,-1,-1,-1,-1,-1,-1,-1],"loss_changes":[2.660987E3,2.9524854E2,5.524742E2,7.032666E1,2.1509079E1,3.4605695E2,6.4741516E1,8.335449E0,0E0,0E0,0E0,1.0188123E2,0E0,2.0902061E0,2.187732E1,3.8049316E0,0E0,5.7854187E1,0E0,2.2655106E0,0E0,2.7685852E0,0E0,0E0,0E0,1.638182E1,3.2064503E1,0E0,0E0,0E0,0E0,0E0,0E0,0E0,0E0],"parents":[2147483647,0,0,1,1,2,2,3,3,4,4,5,5,6,6,7,7,11,11,13,13,14,14,15,15,17,17,19,19,21,21,25,25,26,26],"right_children":[2,4,6,8,10,12,14,16,-1,-1,-1,18,-1,20,22,24,-1,26,-1,28,-1,30,-1,-1,-1,32,34,-1,-1,-1,-1,-1,-1,-1,-1],"split_conditions":[9.285714E-1,1.3643795E-1,9.468215E-1,4.899199E-1,-2.1959281E-1,4.2938802E-1,5.363126E-1,2.861053E-1,7.009015E-2,1.12721615E-1,3.091604E-1,4.0058076E-1,5.367868E-1,3.1312841E-3,7.472653E-1,3.90847E-1,1.6063614E-1,9.090495E-1,-3.6566243E-1,-2.512217E-2,-1.9845963E-4,-4.4534124E-2,-2.8269026E-1,6.2713975E-1,2.5430444E-1,7.9223734E-1,-3.1276476E-2,-3.2699585E-3,-8.714594E-2,-4.322486E-2,-1.9158307E-1,2.6968932E-2,1.5175562E-1,-1.4690235E-1,-1.390692E-2],"split_indices":[17,1,16,0,6,6,12,3,0,0,0,6,0,3,12,5,0,16,0,2,0,1,0,0,0,12,1,0,0,0,0,0,0,0,0],"split_type":[0,0,0,0,0,0,0,0,0,0,0,0,0,0,0,0,0,0,0,0,0,0,0,0,0,0,0,0,0,0,0,0,0,0,0],"sum_hessian":[1.34E2,2.7E1,1.07E2,1.8E1,9E0,5.2E1,5.5E1,1.7E1,1E0,7E0,2E0,5E1,2E0,8E0,4.7E1,1.6E1,1E0,4.9E1,1E0,7E0,1E0,2.7E1,2E1,1.4E1,2E0,3.1E1,1.8E1,1E0,6E0,1E0,2.6E1,2.9E1,2E0,7E0,1.1E1],"tree_param":{"num_deleted":"0","num_feature":"18","num_nodes":"35","size_leaf_vector":"1"}},{"base_weights":[2.299744E-1,8.81365E0,-1.8776251E0,3.6529834E0,1.0522687E1,1.1899908E0,-3.6810133E0,3.562791E-1,2.1389577E0,1.0955419E1,6.833792E-2,4.3331563E-1,5.188939E-1,-1.0373343E0,-4.3597713E0,1.1425171E-1,3.1562474E-2,5.615668E-1,1.5662022E-1,2.1289359E-1,1.4669709E-1,-4.8550075E-1,-7.9932205E-2,-4.746606E0,-1.3212682E-1,7.9782444E-1,-1.6305461E0,-1.22287616E-1,-5.8558226E-2,-1.882493E-1,-2.631754E-1,9.483159E-2,2.0596957E-2,-9.36073E-2,7.556343E-3,-1.489718E-2,-2.1677176E-3],"categories":[],"categories_nodes":[],"categories_segments":[],"categories_sizes":[],"default_left":[0,0,0,0,0,0,0,0,0,0,0,0,0,0,0,0,0,0,0,0,0,0,0,0,0,0,0,0,0,0,0,0,0,0,0,0,0],"id":3,"left_children":[1,3,5,7,9,11,13,-1,15,17,-1,19,-1,21,23,-1,-1,-1,-1,25,-1,27,-1,29,-1,31,33,35,-1,-1,-1,-1,-1,-1,-1,-1,-1],"loss_changes":[2.3864634E3,1.9087488E2,5.907832E2,2.6819504E1,6.0305664E1,2.7359293E2,1.1570343E2,0E0,9.925842E-2,3.6723633E0,0E0,2.032072E1,0E0,3.8701E0,2.2664185E1,0E0,0E0,0E0,0E0,4.011914E1,0E0,2.0981603E0,0E0,1.4938354E0,0E0,1.1091085E1,4.1570015E0,8.413854E-2,0E0,0E0,0E0,0E0,0E0,0E0,0E0,0E0,0E0],"parents":[2147483647,0,0,1,1,2,2,3,3,4,4,5,5,6,6,8,8,9,9,11,11,13,13,14,14,19,19,21,21,23,23,25,25,26,26,27,27],"right_children":[2,4,6,8,10,12,14,-1,16,18,-1,20,-1,22,24,-1,-1,-1,-1,26,-1,28,-1,30,-1,32,34,36,-1,-1,-1,-1,-1,-1,-1,-1,-1],"split_conditions":[9.285714E-1,-3.0767146E-1,9.2100567E-1,-5.6794304E-1,4.899199E-1,4.0058076E-1,1.1929696E-2,3.562791E-1,4.111609E-1,3.8315615E-1,6.833792E-2,7.9223734E-1,5.188939E-1,4.639193E-2,1.7577265E-1,1.1425171E-1,3.1562474E-2,5.615668E-1,1.5662022E-1,1.0314587E-1,1.4669709E-1,-2.440852E-3,-7.9932205E-2,6.760645E-1,-1.3212682E-1,7.8558946E-1,7.070619E-1,-5.25774E-2,-5.8558226E-2,-1.882493E-1,-2.631754E-1,9.483159E-2,2.0596957E-2,-9.36073E-2,7.556343E-3,-1.489718E-2,-2.1677176E-3],"split_indices":[17,5,13,13,0,6,5,0,0,3,0,12,0,0,7,0,0,0,0,7,0,5,0,12,0,13,11,6,0,0,0,0,0,0,0,0,0],"split_type":[0,0,0,0,0,0,0,0,0,0,0,0,0,0,0,0,0,0,0,0,0,0,0,0,0,0,0,0,0,0,0,0,0,0,0,0,0],"sum_hessian":[1.3E2,2.5E1,1.05E2,7E0,1.8E1,3.9E1,6.6E1,1E0,6E0,1.7E1,1E0,3.7E1,2E0,1.4E1,5.2E1,5E0,1E0,1.6E1,1E0,3.5E1,2E0,8E0,6E0,4.1E1,1.1E1,2.7E1,8E0,6E0,2E0,1.7E1,2.4E1,6E0,2.1E1,7E0,1E0,1E0,5E0],"tree_param":{"num_deleted":"0","num_feature":"18","num_nodes":"37","size_leaf_vector":"1"}},{"base_weights":[1.2947817E-2,6.394165E0,-2.201076E0,3.780833E0,5.162434E-1,-3.3154193E-1,-3.7821608E0,7.9401546E0,1.7248276E0,-7.2309273E-1,4.3220615E-1,-1.2635158E0,-4.201842E0,4.7188997E-1,1.3986804E-1,9.7121276E-2,5.864277E-1,-4.0362376E-1,-3.6949322E-1,-1.4207588E0,-1.3928414E-4,-2.256609E-1,-1.2274338E-1,3.4064677E-2,7.5457576E-3,-6.254256E-1,1.4180714E-1,-3.1340122E-3,-8.029079E-2,8.064169E-3,-1.1051818E-1],"categories":[],"categories_nodes":[],"categories_segments":[],"categories_sizes":[],"default_left":[0,0,0,0,0,0,0,0,0,0,0,0,0,0,0,0,0,0,0,0,0,0,0,0,0,0,0,0,0,0,0],"id":4,"left_children":[1,3,5,7,-1,9,11,13,15,17,-1,19,21,-1,-1,-1,23,25,-1,27,-1,-1,-1,-1,-1,29,-1,-1,-1,-1,-1],"loss_changes":[1.8648639E3,3.1021924E2,2.884235E2,1.7443954E2,0E0,1.6791425E2,5.071338E1,2.7513641E1,2.8243256E0,9.285949E1,0E0,1.7802114E0,1.3399109E1,0E0,0E0,0E0,6.2443614E-2,3.3391586E1,0E0,1.9099236E0,0E0,0E0,0E0,0E0,0E0,5.2725674E1,0E0,0E0,0E0,0E0,0E0],"parents":[2147483647,0,0,1,1,2,2,3,3,5,5,6,6,7,7,8,8,9,9,11,11,12,12,16,16,17,17,19,19,25,25],"right_children":[2,4,6,8,-1,10,12,14,16,18,-1,20,22,-1,-1,-1,24,26,-1,28,-1,-1,-1,-1,-1,30,-1,-1,-1,-1,-1],"split_conditions":[8.046962E-1,2.547401E-1,9.468215E-1,-4.9785832E-1,5.162434E-1,5.315813E-1,5.363126E-1,1.3643795E-1,7.8558946E-1,5.658762E-1,4.3220615E-1,3.1312841E-3,4.9416248E-2,4.7188997E-1,1.3986804E-1,9.7121276E-2,5.523141E-2,7.9223734E-1,-3.6949322E-1,-3.9323214E-2,-1.3928414E-4,-2.256609E-1,-1.2274338E-1,3.4064677E-2,7.5457576E-3,7.245797E-2,1.4180714E-1,-3.1340122E-3,-8.029079E-2,8.064169E-3,-1.1051818E-1],"split_indices":[13,14,13,13,0,7,12,1,13,8,0,3,4,0,0,0,1,12,0,5,0,0,0,0,0,7,0,0,0,0,0],"split_type":[0,0,0,0,0,0,0,0,0,0,0,0,0,0,0,0,0,0,0,0,0,0,0,0,0,0,0,0,0,0,0],"sum_hessian":[1.3E2,3.3E1,9.7E1,2.1E1,1.2E1,4.5E1,5.2E1,6E0,1.5E1,4.4E1,1E0,8E0,4.4E1,4E0,2E0,1.2E1,3E0,4.3E1,1E0,7E0,1E0,3.6E1,8E0,2E0,1E0,4.1E1,2E0,1E0,6E0,2.8E1,1.3E1],"tree_param":{"num_deleted":"0","num_feature":"18","num_nodes":"31","size_leaf_vector":"1"}},{"base_weights":[4.9397144E-2,7.720098E0,-1.6055521E0,4.762819E0,5.1221967E-1,-1.929137E0,4.8578998E-1,4.4001314E-1,2.439197E0,8.857218E-2,-3.5160618E0,1.301185E-1,2.8345346E-2,8.318866E-1,-8.8216513E-1,-2.7241614E0,-2.84859E-1,8.361129E-2,4.9617356E-1,-1.2699851E0,2.344122E-1,-3.1970663E0,1.5093305E0,6.539666E-3,4.2423725E-2,-7.20172E-2,-5.421734E-3,2.5816951E-2,-1.7817974E-3,-1.772397E-1,-7.032614E-2,-1.1302678E-2,1.3708024E-1],"categories":[],"categories_nodes":[],"categories_segments":[],"categories_sizes":[],"default_left":[0,0,0,0,0,0,0,0,0,0,0,0,0,0,0,0,0,0,0,0,0,0,0,0,0,0,0,0,0,0,0,0,0],"id":5,"left_children":[1,3,5,7,-1,9,-1,-1,11,13,15,-1,-1,17,19,21,-1,-1,23,25,27,29,31,-1,-1,-1,-1,-1,-1,-1,-1,-1,-1],"loss_changes":[1.5738333E3,1.1543884E2,3.9241196E2,9.1112335E1,0E0,3.205067E2,0E0,0E0,1.2742615E0,3.3204197E1,8.120477E1,0E0,0E0,6.5052185E0,8.958322E0,9.091315E1,0E0,0E0,2.4635015E0,2.812025E0,4.7520304E-1,1.9296387E1,1.1312095E1,0E0,0E0,0E0,0E0,0E0,0E0,0E0,0E0,0E0,0E0],"parents":[2147483647,0,0,1,1,2,2,3,3,5,5,8,8,9,9,10,10,13,13,14,14,15,15,18,18,19,19,20,20,21,21,22,22],"right_children":[2,4,6,8,-1,10,-1,-1,12,14,16,-1,-1,18,20,22,-1,-1,24,26,28,30,32,-1,-1,-1,-1,-1,-1,-1,-1,-1,-1],"split_conditions":[9.285714E-1,-2.043119E-1,4.2938802E-1,-6.1856574E-1,5.1221967E-1,1.1811246E-1,4.8578998E-1,4.4001314E-1,5.051592E-1,9.161982E-1,8.053408E-1,1.301185E-1,2.8345346E-2,7.8558946E-1,1.6766015E-2,1.4326468E-1,-2.84859E-1,8.361129E-2,-3.7036028E-2,7.796764E-2,-5.3178485E-2,3.3940926E-1,-1.2687804E-1,6.539666E-3,4.2423725E-2,-7.20172E-2,-5.421734E-3,2.5816951E-2,-1.7817974E-3,-1.772397E-1,-7.032614E-2,-1.1302678E-2,1.3708024E-1],"split_indices":[17,10,6,11,0,8,0,0,0,13,12,0,0,13,2,4,0,0,6,9,0,9,0,0,0,0,0,0,0,0,0,0,0],"split_type":[0,0,0,0,0,0,0,0,0,0,0,0,0,0,0,0,0,0,0,0,0,0,0,0,0,0,0,0,0,0,0,0,0],"sum_hessian":[1.22E2,2.1E1,1.01E2,1.1E1,1E1,9.9E1,2E0,3E0,8E0,4.4E1,5.5E1,7E0,1E0,2.5E1,1.9E1,4.2E1,1.3E1,6E0,1.9E1,1.4E1,5E0,3.8E1,4E0,1E1,9E0,1.2E1,2E0,2E0,3E0,3.1E1,7E0,2E0,2E0],"tree_param":{"num_deleted":"0","num_feature":"18","num_nodes":"33","size_leaf_vector":"1"}},{"base_weights":[1.583756E-1,6.0722375E0,-2.2088363E0,4.4380965E0,1.0204022E1,-4.328798E-1,-3.4925704E0,8.267468E0,2.585599E0,2.0266621E-1,5.6175154E-1,-8.529581E-1,4.0925628E-1,-1.1089345E0,-3.817081E0,4.7539362E-1,1.3086848E-1,1.4753122E0,2.9217267E-1,-5.1263964E-1,-3.5313442E-1,-7.351048E-2,-1.6739527E-2,-4.1826487E0,-1.10360205E-1,8.617798E-2,5.3480685E-1,6.379318E-2,-1.5465406E0,1.6646385E-3,-2.920103E-3,-1.5498719E-1,-2.281615E-1,2.9828621E-2,7.1936133E-3,-2.0174708E-2,2.8105928E-2,-1.11611925E-1,8.558824E-2],"categories":[],"categories_nodes":[],"categories_segments":[],"categories_sizes":[],"default_left":[0,0,0,0,0,0,0,0,0,0,0,0,0,0,0,0,0,0,0,0,0,0,0,0,0,0,0,0,0,0,0,0,0,0,0,0,0,0,0],"id":6,"left_children":[1,3,5,7,9,11,13,15,17,-1,-1,19,-1,21,23,-1,-1,25,-1,27,-1,-1,29,31,-1,-1,33,35,37,-1,-1,-1,-1,-1,-1,-1,-1,-1,-1],"loss_changes":[1.8613286E3,2.112865E2,2.1507443E2,1.8434686E2,1.7875E1,1.5541127E2,3.8310425E1,3.8190125E1,6.7339294E1,0E0,0E0,8.091081E1,0E0,3.1320515E0,1.9016907E1,0E0,0E0,3.0473518E0,0E0,2.3341663E1,0E0,0E0,8.1977835E-3,1.5162964E0,0E0,0E0,3.4901142E-2,6.281201E0,3.510005E1,0E0,0E0,0E0,0E0,0E0,0E0,0E0,0E0,0E0,0E0],"parents":[2147483647,0,0,1,1,2,2,3,3,4,4,5,5,6,6,7,7,8,8,11,11,13,13,14,14,17,17,19,19,22,22,23,23,26,26,27,27,28,28],"right_children":[2,4,6,8,10,12,14,16,18,-1,-1,20,-1,22,24,-1,-1,26,-1,28,-1,-1,30,32,-1,-1,34,36,38,-1,-1,-1,-1,-1,-1,-1,-1,-1,-1],"split_conditions":[8.046962E-1,1.4927903E-1,9.46115E-1,-4.3160206E-1,7.084238E-1,4.2938802E-1,5.363126E-1,1.3643795E-1,2.1286018E-1,2.0266621E-1,5.6175154E-1,4.0058076E-1,4.0925628E-1,-6.8559935E-3,9.1921456E-2,4.7539362E-1,1.3086848E-1,7.8558946E-1,2.9217267E-1,7.245797E-2,-3.5313442E-1,-7.351048E-2,1.299149E-2,4.5533794E-1,-1.10360205E-1,8.617798E-2,5.523141E-2,-2.8804973E-2,7.070619E-1,1.6646385E-3,-2.920103E-3,-1.5498719E-1,-2.281615E-1,2.9828621E-2,7.1936133E-3,-2.0174708E-2,2.8105928E-2,-1.11611925E-1,8.558824E-2],"split_indices":[13,4,13,13,14,6,12,1,6,0,0,6,0,3,5,0,0,13,0,7,0,0,0,11,0,0,1,6,11,0,0,0,0,0,0,0,0,0,0],"split_type":[0,0,0,0,0,0,0,0,0,0,0,0,0,0,0,0,0,0,0,0,0,0,0,0,0,0,0,0,0,0,0,0,0,0,0,0,0,0,0],"sum_hessian":[1.31E2,3.7E1,9.4E1,2.8E1,9E0,4E1,5.4E1,8E0,2E1,2E0,7E0,3.9E1,1E0,7E0,4.7E1,6E0,2E0,1.6E1,4E0,3.8E1,1E0,5E0,2E0,3.7E1,1E1,1.2E1,4E0,2.5E1,1.3E1,1E0,1E0,1.2E1,2.5E1,3E0,1E0,1.3E1,1.2E1,1.1E1,2E0],"tree_param":{"num_deleted":"0","num_feature":"18","num_nodes":"39","size_leaf_vector":"1"}},{"base_weights":[-7.416083E-2,5.923678E0,-2.031882E0,3.4626095E0,8.840579E0,-9.66867E-2,-3.3094401E0,3.7135193E-1,1.5162394E0,4.561479E-1,1.2924133E-1,-6.4372766E-1,3.432364E-1,-1.1122155E0,-3.6322947E0,8.4913105E-2,1.4136791E-2,9.8487586E-2,-1.9231315E0,-1.2593575E0,1.6230106E-3,-3.9529605E0,-2.1068769E0,-3.235781E-1,5.129773E-1,-1.4278252E-1,-8.667859E-1,-2.8470994E-3,-7.1149826E-2,-1.4639744E-1,-2.1621446E-1,-3.1255316E-2,-1.09627165E-1,2.49233E-2,-3.1001896E-2,1.6741181E-3,3.6118295E-2,-5.1894397E-2,8.273221E-3],"categories":[],"categories_nodes":[],"categories_segments":[],"categories_sizes":[],"default_left":[0,0,0,0,0,0,0,0,0,0,0,0,0,0,0,0,0,0,0,0,0,0,0,0,0,0,0,0,0,0,0,0,0,0,0,0,0,0,0],"id":7,"left_children":[1,3,5,7,9,11,13,-1,15,-1,-1,17,-1,19,21,-1,-1,23,25,27,-1,29,31,33,35,-1,37,-1,-1,-1,-1,-1,-1,-1,-1,-1,-1,-1,-1],"loss_changes":[1.5267666E3,1.9910681E2,2.419679E2,1.3534752E2,1.1496582E0,1.5674617E2,3.781378E1,0E0,2.6632004E0,0E0,0E0,3.627394E1,0E0,1.5567484E0,1.6618164E1,0E0,0E0,4.5395355E0,1.1315636E1,1.4930696E0,0E0,2.9439697E0,2.5749207E-2,3.477208E0,1.2810233E0,0E0,1.5846958E0,0E0,0E0,0E0,0E0,0E0,0E0,0E0,0E0,0E0,0E0,0E0,0E0],"parents":[2147483647,0,0,1,1,2,2,3,3,4,4,5,5,6,6,8,8,11,11,13,13,14,14,17,17,18,18,19,19,21,21,22,22,23,23,24,24,26,26],"right_children":[2,4,6,8,10,12,14,-1,16,-1,-1,18,-1,20,22,-1,-1,24,26,28,-1,30,32,34,36,-1,38,-1,-1,-1,-1,-1,-1,-1,-1,-1,-1,-1,-1],"split_conditions":[8.046962E-1,9.975838E-2,9.468215E-1,-4.9785832E-1,3.8315615E-1,7.9223734E-1,5.363126E-1,3.7135193E-1,7.8558946E-1,4.561479E-1,1.2924133E-1,7.245797E-2,3.432364E-1,3.1312841E-3,9.1921456E-2,8.4913105E-2,1.4136791E-2,-3.7146308E-2,6.9804764E-1,-2.512217E-2,1.6230106E-3,4.5533794E-1,-4.4534124E-2,9.675131E-2,-1.8926626E-2,-1.4278252E-1,7.070619E-1,-2.8470994E-3,-7.1149826E-2,-1.4639744E-1,-2.1621446E-1,-3.1255316E-2,-1.09627165E-1,2.49233E-2,-3.1001896E-2,1.6741181E-3,3.6118295E-2,-5.1894397E-2,8.273221E-3],"split_indices":[13,14,13,13,3,12,12,0,13,0,0,7,0,3,5,0,0,5,12,2,0,11,1,11,4,0,11,0,0,0,0,0,0,0,0,0,0,0,0],"split_type":[0,0,0,0,0,0,0,0,0,0,0,0,0,0,0,0,0,0,0,0,0,0,0,0,0,0,0,0,0,0,0,0,0,0,0,0,0,0,0],"sum_hessian":[1.28E2,3.1E1,9.7E1,1.8E1,1.3E1,3.9E1,5.8E1,5E0,1.3E1,1.2E1,1E0,3.7E1,2E0,8E0,5E1,1.1E1,2E0,2.4E1,1.3E1,7E0,1E0,4E1,1E1,1.2E1,1.2E1,6E0,7E0,1E0,6E0,1.3E1,2.7E1,1E0,9E0,3E0,9E0,4E0,8E0,6E0,1E0],"tree_param":{"num_deleted":"0","num_feature":"18","num_nodes":"39","size_leaf_vector":"1"}},{"base_weights":[2.5446978E-1,7.355232E0,-1.4226389E0,5.2062392E-2,8.1689005E0,1.0791548E0,-2.8950138E0,7.828372E-2,8.750939E0,4.4107288E-1,4.4009042E-1,-8.6882645E-1,-3.4627826E0,9.158685E0,1.6937433E-1,2.6307136E-1,1.2150335E-1,-1.2102892E0,1.24449536E-1,-2.0417264E0,-3.8380563E0,4.7004682E-1,1.2601028E-1,5.786922E-1,-1.1271709E0,-7.244229E-2,-3.7096453E-1,1.7862415E-2,-2.306223E-2,-1.08762145E-1,-4.3579515E-2,-1.5783183E-1,-2.212533E-1,7.0043825E-2,1.5738813E-2,-7.824647E-2,-1.0925134E-3,-3.5902977E-2,-7.9565047E-4,2.5982857E-3,-3.2696724E-3],"categories":[],"categories_nodes":[],"categories_segments":[],"categories_sizes":[],"default_left":[0,0,0,0,0,0,0,0,0,0,0,0,0,0,0,0,0,0,0,0,0,0,0,0,0,0,0,0,0,0,0,0,0,0,0,0,0,0,0,0,0],"id":8,"left_children":[1,3,5,-1,7,9,11,-1,13,15,-1,17,19,21,-1,23,-1,25,27,29,31,-1,-1,33,35,-1,37,-1,39,-1,-1,-1,-1,-1,-1,-1,-1,-1,-1,-1,-1],"loss_changes":[1.5586014E3,1.199314E2,3.9358344E2,0E0,7.085217E1,1.9322517E2,7.4068665E1,0E0,1.2713501E1,1.2814394E1,0E0,5.5772905E0,1.9894531E1,5.254883E0,0E0,1.6448706E1,0E0,1.8652477E0,1.7994174E-1,1.3510895E-1,2.0316772E0,0E0,0E0,6.0686646E0,3.352849E0,0E0,4.8152E-1,0E0,1.6102314E-2,0E0,0E0,0E0,0E0,0E0,0E0,0E0,0E0,0E0,0E0,0E0,0E0],"parents":[2147483647,0,0,1,1,2,2,4,4,5,5,6,6,8,8,9,9,11,11,12,12,13,13,15,15,17,17,18,18,19,19,20,20,23,23,24,24,26,26,28,28],"right_children":[2,4,6,-1,8,10,12,-1,14,16,-1,18,20,22,-1,24,-1,26,28,30,32,-1,-1,34,36,-1,38,-1,40,-1,-1,-1,-1,-1,-1,-1,-1,-1,-1,-1,-1],"split_conditions":[9.285714E-1,-2.7062532E-1,9.2100567E-1,5.2062392E-2,-3.1750947E-1,4.0058076E-1,1.1929696E-2,7.828372E-2,3.90847E-1,7.9223734E-1,4.4009042E-1,1.6766015E-2,-4.361404E-3,3.8315615E-1,1.6937433E-1,5.796211E-1,1.2150335E-1,-6.8559935E-3,-5.7555005E-2,2.2435014E-1,3.9663208E-1,4.7004682E-1,1.2601028E-1,7.8558946E-1,-1.2818213E-1,-7.244229E-2,-2.996911E-2,1.7862415E-2,-5.2567374E-2,-1.08762145E-1,-4.3579515E-2,-1.5783183E-1,-2.212533E-1,7.0043825E-2,1.5738813E-2,-7.824647E-2,-1.0925134E-3,-3.5902977E-2,-7.9565047E-4,2.5982857E-3,-3.2696724E-3],"split_indices":[17,4,13,0,3,6,5,0,5,12,0,2,2,3,0,11,0,3,0,7,10,0,0,13,0,0,0,0,4,0,0,0,0,0,0,0,0,0,0,0,0],"split_type":[0,0,0,0,0,0,0,0,0,0,0,0,0,0,0,0,0,0,0,0,0,0,0,0,0,0,0,0,0,0,0,0,0,0,0,0,0,0,0,0,0],"sum_hessian":[1.29E2,2.4E1,1.05E2,3E0,2.1E1,3.9E1,6.6E1,2E0,1.9E1,3.7E1,2E0,1.5E1,5.1E1,1.7E1,2E0,3.5E1,2E0,1.1E1,4E0,1.2E1,3.9E1,1.6E1,1E0,2.9E1,6E0,8E0,3E0,1E0,3E0,1E1,2E0,2.1E1,1.8E1,6E0,2.3E1,4E0,2E0,1E0,2E0,1E0,2E0],"tree_param":{"num_deleted":"0","num_feature":"18","num_nodes":"41","size_leaf_vector":"1"}},{"base_weights":[8.518276E-2,6.3205204E0,-1.4601319E0,8.109181E0,2.468879E0,-1.7259778E0,4.2542073E-1,8.457453E0,5.471406E-2,1.3688233E0,2.2897005E-1,1.6190423E-1,-2.9969282E0,8.930199E0,1.6372852E-1,1.5374203E0,2.8767744E-2,7.3137516E-1,-4.966294E-1,-2.3835692E0,-2.5086206E-1,4.6085212E-1,1.2286001E-1,2.2586728E-2,8.321053E-2,6.7041956E-2,4.5372942E-1,-8.416475E-1,3.1364223E-1,-2.7255883E0,1.3081243E0,9.384866E-3,3.8140368E-2,-1.16646765E-2,-5.6124758E-2,2.3851376E-2,-3.160699E-3,-1.5090896E-1,-8.640917E-2,-8.442863E-3,1.1745323E-1],"categories":[],"categories_nodes":[],"categories_segments":[],"categories_sizes":[],"default_left":[0,0,0,0,0,0,0,0,0,0,0,0,0,0,0,0,0,0,0,0,0,0,0,0,0,0,0,0,0,0,0,0,0,0,0,0,0,0,0,0,0],"id":9,"left_children":[1,3,5,7,9,11,-1,13,-1,15,-1,17,19,21,-1,23,-1,25,27,29,-1,-1,-1,-1,-1,-1,31,33,35,37,39,-1,-1,-1,-1,-1,-1,-1,-1,-1,-1],"loss_changes":[1.3100292E3,1.6598999E2,3.0354587E2,3.4720825E1,1.6948528E1,2.572215E2,0E0,1.2410767E1,0E0,1.8564892E-1,0E0,1.6863914E1,6.734839E1,5.203003E0,0E0,7.414436E-2,0E0,3.4527845E0,6.1347036E0,6.79595E1,0E0,0E0,0E0,0E0,0E0,0E0,1.3368669E0,2.300951E0,4.6116418E-1,8.500122E0,8.083906E0,0E0,0E0,0E0,0E0,0E0,0E0,0E0,0E0,0E0,0E0],"parents":[2147483647,0,0,1,1,2,2,3,3,4,4,5,5,7,7,9,9,11,11,12,12,13,13,15,15,17,17,18,18,19,19,26,26,27,27,28,28,29,29,30,30],"right_children":[2,4,6,8,10,12,-1,14,-1,16,-1,18,20,22,-1,24,-1,26,28,30,-1,-1,-1,-1,-1,-1,32,34,36,38,40,-1,-1,-1,-1,-1,-1,-1,-1,-1,-1],"split_conditions":[9.285714E-1,1.3643795E-1,4.2938802E-1,4.899199E-1,-2.1959281E-1,1.845666E-1,4.2542073E-1,3.90847E-1,5.471406E-2,-4.3008384E-1,2.2897005E-1,8.9818066E-1,8.118977E-1,2.861053E-1,1.6372852E-1,-2.9297307E-2,2.8767744E-2,7.8558946E-1,1.6766015E-2,2.2376442E-1,-2.5086206E-1,4.6085212E-1,1.2286001E-1,2.2586728E-2,8.321053E-2,6.7041956E-2,-7.751206E-2,9.342165E-1,-5.3178485E-2,2.379918E-1,-1.2687804E-1,9.384866E-3,3.8140368E-2,-1.16646765E-2,-5.6124758E-2,2.3851376E-2,-3.160699E-3,-1.5090896E-1,-8.640917E-2,-8.442863E-3,1.1745323E-1],"split_indices":[17,1,6,0,6,9,0,5,0,7,0,13,12,3,0,0,0,13,2,5,0,0,0,0,0,0,7,13,0,8,0,0,0,0,0,0,0,0,0,0,0],"split_type":[0,0,0,0,0,0,0,0,0,0,0,0,0,0,0,0,0,0,0,0,0,0,0,0,0,0,0,0,0,0,0,0,0,0,0,0,0,0,0,0,0],"sum_hessian":[1.34E2,2.6E1,1.08E2,1.7E1,9E0,1.06E2,2E0,1.6E1,1E0,7E0,2E0,4.3E1,6.3E1,1.4E1,2E0,5E0,2E0,2.3E1,2E1,5E1,1.3E1,1.3E1,1E0,1E0,4E0,6E0,1.7E1,1.4E1,6E0,4.6E1,4E0,1E1,7E0,5E0,9E0,4E0,2E0,3.4E1,1.2E1,2E0,2E0],"tree_param":{"num_deleted":"0","num_feature":"18","num_nodes":"41","size_leaf_vector":"1"}},{"base_weights":[-1.8700656E-1,5.590864E0,-1.4459329E0,1.6615057E0,7.1111E0,4.1124007E-1,-1.7011762E0,2.890714E-2,9.631348E-2,7.4221783E0,5.3346206E-2,8.563769E-2,-2.839537E0,3.818909E-1,1.04689695E-1,5.773747E-1,-7.0039386E-1,-2.23373E0,-2.3751827E-1,6.416875E-2,3.1454718E-1,-1.1074222E0,2.3039532E-1,-2.551595E0,1.2645203E0,-1.9038253E-3,2.6723767E-2,-6.672822E-2,-1.5974855E-2,2.4353314E-2,-9.853364E-4,-1.4059971E-1,-6.404399E-2,-8.16145E-3,1.1353814E-1],"categories":[],"categories_nodes":[],"categories_segments":[],"categories_sizes":[],"default_left":[0,0,0,0,0,0,0,0,0,0,0,0,0,0,0,0,0,0,0,0,0,0,0,0,0,0,0,0,0,0,0,0,0,0,0],"id":10,"left_children":[1,3,5,7,9,-1,11,-1,-1,13,-1,15,17,-1,-1,19,21,23,-1,-1,25,27,29,31,33,-1,-1,-1,-1,-1,-1,-1,-1,-1,-1],"loss_changes":[9.7551465E2,1.3155017E2,2.855146E2,1.1810246E0,2.4044739E1,0E0,2.199194E2,0E0,0E0,2.392212E0,0E0,1.7024784E1,6.57901E1,0E0,0E0,4.6063395E0,6.6957245E0,6.1049072E1,0E0,0E0,1.6489403E0,1.7212629E0,3.9476207E-1,1.2281036E1,7.553965E0,0E0,0E0,0E0,0E0,0E0,0E0,0E0,0E0,0E0,0E0],"parents":[2147483647,0,0,1,1,2,2,3,3,4,4,6,6,9,9,11,11,12,12,15,15,16,16,17,17,20,20,21,21,22,22,23,23,24,24],"right_children":[2,4,6,8,10,-1,12,-1,-1,14,-1,16,18,-1,-1,20,22,24,-1,-1,26,28,30,32,34,-1,-1,-1,-1,-1,-1,-1,-1,-1,-1],"split_conditions":[9.285714E-1,-2.9938063E-1,-1.0959787E-1,-2.8898466E-1,4.899199E-1,4.1124007E-1,1.845666E-1,2.890714E-2,9.631348E-2,8.365004E-1,5.3346206E-2,9.2100567E-1,8.118977E-1,3.818909E-1,1.04689695E-1,7.8558946E-1,1.6766015E-2,1.4326468E-1,-2.3751827E-1,6.416875E-2,-1.1675324E-2,-6.8559935E-3,-5.3178485E-2,3.6608303E0,-1.2687804E-1,-1.9038253E-3,2.6723767E-2,-6.672822E-2,-1.5974855E-2,2.4353314E-2,-9.853364E-4,-1.4059971E-1,-6.404399E-2,-8.16145E-3,1.1353814E-1],"split_indices":[17,5,1,4,0,0,9,0,0,9,0,16,12,0,0,16,2,4,0,0,2,3,0,15,0,0,0,0,0,0,0,0,0,0,0],"split_type":[0,0,0,0,0,0,0,0,0,0,0,0,0,0,0,0,0,0,0,0,0,0,0,0,0,0,0,0,0,0,0,0,0,0,0],"sum_hessian":[1.32E2,2.3E1,1.09E2,7E0,1.6E1,2E0,1.07E2,2E0,5E0,1.5E1,1E0,4.2E1,6.5E1,1.4E1,1E0,2.6E1,1.6E1,5.1E1,1.4E1,6E0,2E1,1.1E1,5E0,4.7E1,4E0,8E0,1.2E1,8E0,3E0,2E0,3E0,3.8E1,9E0,2E0,2E0],"tree_param":{"num_deleted":"0","num_feature":"18","num_nodes":"35","size_leaf_vector":"1"}},{"base_weights":[1.4043081E-2,5.7170644E0,-1.3340714E0,7.052977E0,2.4100091E0,-1.5796275E0,3.9753208E-1,7.3454757E0,5.201254E-2,1.2697176E0,2.1336766E-1,7.251115E-2,-2.7608776E0,7.7242274E0,1.501612E-1,2.1417744E-2,7.602959E-2,6.557439E-1,-5.392322E-1,-2.5449476E0,-3.1155807E-1,4.1723892E-1,1.9657591E-1,6.141866E-2,3.9662457E-1,-1.887337E-1,-1.1728252E0,-3.016691E0,-1.2641482E-1,2.8385853E-2,2.3331235E-3,7.887914E-3,-3.962567E-2,-6.799139E-2,3.404808E-3,-1.2747595E-1,-1.8066661E-1,-5.358864E-2,6.1118472E-2],"categories":[],"categories_nodes":[],"categories_segments":[],"categories_sizes":[],"default_left":[0,0,0,0,0,0,0,0,0,0,0,0,0,0,0,0,0,0,0,0,0,0,0,0,0,0,0,0,0,0,0,0,0,0,0,0,0,0,0],"id":11,"left_children":[1,3,5,7,9,11,-1,13,-1,15,-1,17,19,21,-1,-1,-1,23,25,27,-1,-1,-1,-1,29,31,33,35,37,-1,-1,-1,-1,-1,-1,-1,-1,-1,-1],"loss_changes":[1.0455509E3,9.786859E1,2.633501E2,2.4015686E1,1.3642887E1,2.109718E2,0E0,4.7612305E0,0E0,8.261795E-1,0E0,1.6765882E1,3.1350342E1,2.4959106E0,0E0,0E0,0E0,3.0739021E0,4.886337E0,6.921518E1,0E0,0E0,0E0,0E0,1.0512753E0,3.4723027E0,1.9490423E0,5.003174E0,1.5336026E1,0E0,0E0,0E0,0E0,0E0,0E0,0E0,0E0,0E0,0E0],"parents":[2147483647,0,0,1,1,2,2,3,3,4,4,5,5,7,7,9,9,11,11,12,12,13,13,17,17,18,18,19,19,24,24,25,25,26,26,27,27,28,28],"right_children":[2,4,6,8,10,12,-1,14,-1,16,-1,18,20,22,-1,-1,-1,24,26,28,-1,-1,-1,-1,30,32,34,36,38,-1,-1,-1,-1,-1,-1,-1,-1,-1,-1],"split_conditions":[9.285714E-1,1.3643795E-1,4.2938802E-1,4.899199E-1,-2.1959281E-1,1.845666E-1,3.9753208E-1,3.90847E-1,5.201254E-2,-2.9297307E-2,2.1336766E-1,8.9818066E-1,7.4394196E-1,1.3184199E-1,1.501612E-1,2.1417744E-2,7.602959E-2,7.8558946E-1,9.576452E-1,1.8993293E-1,-3.1155807E-1,4.1723892E-1,1.9657591E-1,6.141866E-2,1.4577532E-1,6.927146E-2,3.1312841E-3,5.254768E-1,1.4326468E-1,2.8385853E-2,2.3331235E-3,7.887914E-3,-3.962567E-2,-6.799139E-2,3.404808E-3,-1.2747595E-1,-1.8066661E-1,-5.358864E-2,6.1118472E-2],"split_indices":[17,1,6,0,6,9,0,5,0,0,0,16,11,3,0,0,0,16,16,6,0,0,0,0,0,0,3,11,4,0,0,0,0,0,0,0,0,0,0],"split_type":[0,0,0,0,0,0,0,0,0,0,0,0,0,0,0,0,0,0,0,0,0,0,0,0,0,0,0,0,0,0,0,0,0,0,0,0,0,0,0],"sum_hessian":[1.34E2,2.5E1,1.09E2,1.7E1,8E0,1.07E2,2E0,1.6E1,1E0,6E0,2E0,4.5E1,6.2E1,1.4E1,2E0,2E0,4E0,2.3E1,2.2E1,6E1,2E0,1.1E1,3E0,6E0,1.7E1,1.5E1,7E0,5E1,1E1,1.1E1,6E0,1E1,5E0,6E0,1E0,3.1E1,1.9E1,6E0,4E0],"tree_param":{"num_deleted":"0","num_feature":"18","num_nodes":"39","size_leaf_vector":"1"}},{"base_weights":[1.4878215E-1,4.732548E0,-1.5524882E0,3.1971347E0,7.9442854E0,-1.7285787E0,3.485869E-1,5.351719E0,1.5476031E0,8.390014E0,9.831839E-2,-9.511163E-2,-2.5718355E0,6.579404E-2,6.8933806E0,1.1286887E0,1.4235157E-1,4.4560653E-1,1.05326846E-1,9.9634804E-2,-5.6386005E-2,-3.4389076E-1,-2.3756287E0,3.749495E-1,8.1493095E-2,1.0291815E-2,1.18844E0,3.6833382E-1,-3.9398688E-1,-2.6324637E0,1.6855512E0,6.98187E-2,3.0902881E-2,2.4198478E-2,-1.4556503E-3,2.4427224E-2,-3.378439E-2,-1.5440701E-1,-7.747739E-2,6.9808005E-3,1.0771622E-1],"categories":[],"categories_nodes":[],"categories_segments":[],"categories_sizes":[],"default_left":[0,0,0,0,0,0,0,0,0,0,0,0,0,0,0,0,0,0,0,0,0,0,0,0,0,0,0,0,0,0,0,0,0,0,0,0,0,0,0,0,0],"id":12,"left_children":[1,3,5,7,9,11,-1,13,15,17,-1,19,21,-1,23,25,-1,-1,-1,27,-1,-1,29,-1,-1,-1,31,33,35,37,39,-1,-1,-1,-1,-1,-1,-1,-1,-1,-1],"loss_changes":[9.509325E2,1.3733551E2,1.4564336E2,7.7014984E1,1.01474E1,1.2096942E2,0E0,5.31481E1,4.951832E0,1.0752686E1,0E0,6.3463616E0,3.2662933E1,0E0,1.0091156E1,4.7221947E-1,0E0,0E0,0E0,3.7262816E0,0E0,0E0,6.3891174E1,0E0,0E0,0E0,5.601845E-1,8.4135294E-1,2.8162026E0,2.1861572E1,2.597993E0,0E0,0E0,0E0,0E0,0E0,0E0,0E0,0E0,0E0,0E0],"parents":[2147483647,0,0,1,1,2,2,3,3,4,4,5,5,7,7,8,8,9,9,11,11,12,12,14,14,15,15,19,19,22,22,26,26,27,27,28,28,29,29,30,30],"right_children":[2,4,6,8,10,12,-1,14,16,18,-1,20,22,-1,24,26,-1,-1,-1,28,-1,-1,30,-1,-1,-1,32,34,36,38,40,-1,-1,-1,-1,-1,-1,-1,-1,-1,-1],"split_conditions":[8.046962E-1,2.2972775E-1,8.075326E-2,-1.6034429E-1,8.129934E-1,7.245797E-2,3.485869E-1,-3.413009E-2,2.1286018E-1,3.8315615E-1,9.831839E-2,9.576452E-1,-8.748816E-2,6.579404E-2,1.3643795E-1,-8.2624054E-1,1.4235157E-1,4.4560653E-1,1.05326846E-1,9.875432E-2,-5.6386005E-2,-3.4389076E-1,2.2376442E-1,3.749495E-1,8.1493095E-2,1.0291815E-2,7.043496E-1,9.433779E-1,-1.3040191E-1,1.7577265E-1,-1.2687804E-1,6.98187E-2,3.0902881E-2,2.4198478E-2,-1.4556503E-3,2.4427224E-2,-3.378439E-2,-1.5440701E-1,-7.747739E-2,6.9808005E-3,1.0771622E-1],"split_indices":[13,5,3,13,8,7,0,2,6,3,0,13,1,0,1,8,0,0,0,0,0,0,5,0,0,0,13,13,3,7,0,0,0,0,0,0,0,0,0,0,0],"split_type":[0,0,0,0,0,0,0,0,0,0,0,0,0,0,0,0,0,0,0,0,0,0,0,0,0,0,0,0,0,0,0,0,0,0,0,0,0,0,0,0,0],"sum_hessian":[1.2E2,3.2E1,8.8E1,2.3E1,9E0,8.7E1,1E0,9E0,1.4E1,8E0,1E0,3E1,5.7E1,3E0,6E0,1.2E1,2E0,7E0,1E0,2.6E1,4E0,1E0,5.6E1,5E0,1E0,1E0,1.1E1,1.7E1,9E0,5.3E1,3E0,7E0,4E0,1.3E1,4E0,2E0,7E0,3.6E1,1.7E1,1E0,2E0],"tree_param":{"num_deleted":"0","num_feature":"18","num_nodes":"41","size_leaf_vector":"1"}},{"base_weights":[7.267458E-2,5.3385606E0,-1.2205218E0,6.8575587E0,2.0705078E0,-1.4492599E0,3.7104446E-1,1.3751541E-1,7.495655E0,2.1674986E-1,1.3372315E0,4.899711E-2,-2.520221E0,7.757172E0,9.586044E-2,1.5549486E0,1.9174067E-2,3.137832E-1,-1.0744327E0,-2.3445513E0,-3.352935E-1,4.0189487E-1,1.02693655E-1,8.504874E-2,1.6969776E-2,7.435425E-1,-3.2566417E-2,-6.161918E-2,4.7293664E-3,-2.5975614E0,1.0592744E0,5.635015E-2,2.159637E-2,1.0953399E-2,-3.015392E-2,-1.454082E-1,-8.002349E-2,-1.5852816E-2,1.0412569E-1],"categories":[],"categories_nodes":[],"categories_segments":[],"categories_sizes":[],"default_left":[0,0,0,0,0,0,0,0,0,0,0,0,0,0,0,0,0,0,0,0,0,0,0,0,0,0,0,0,0,0,0,0,0,0,0,0,0,0,0],"id":13,"left_children":[1,3,5,7,9,11,-1,-1,13,-1,15,17,19,21,-1,23,-1,25,27,29,-1,-1,-1,-1,-1,31,33,-1,-1,35,37,-1,-1,-1,-1,-1,-1,-1,-1],"loss_changes":[9.32652E2,1.1983386E2,2.2818295E2,2.655951E1,1.0808067E1,1.7341762E2,0E0,0E0,7.010742E0,0E0,1.2725353E0,1.4020694E1,3.0601074E1,5.906006E0,0E0,6.6521645E-1,0E0,5.680399E0,1.7783985E0,5.6146027E1,0E0,0E0,0E0,0E0,0E0,1.5445833E0,3.290445E0,0E0,0E0,1.3308105E1,7.7018533E0,0E0,0E0,0E0,0E0,0E0,0E0,0E0,0E0],"parents":[2147483647,0,0,1,1,2,2,3,3,4,4,5,5,8,8,10,10,11,11,12,12,13,13,15,15,17,17,18,18,19,19,25,25,26,26,29,29,30,30],"right_children":[2,4,6,8,10,12,-1,-1,14,-1,16,18,20,22,-1,24,-1,26,28,30,-1,-1,-1,-1,-1,32,34,-1,-1,36,38,-1,-1,-1,-1,-1,-1,-1,-1],"split_conditions":[9.285714E-1,1.3643795E-1,5.315813E-1,-6.133526E-2,-2.9781437E-1,1.845666E-1,3.7104446E-1,1.3751541E-1,3.90847E-1,2.1674986E-1,-1.0160159E-1,9.576452E-1,5.658762E-1,2.861053E-1,9.586044E-2,4.111609E-1,1.9174067E-2,8.615634E-1,3.1312841E-3,1.4326468E-1,-3.352935E-1,4.0189487E-1,1.02693655E-1,8.504874E-2,1.6969776E-2,7.8558946E-1,6.927146E-2,-6.161918E-2,4.7293664E-3,1.7577265E-1,-1.2687804E-1,5.635015E-2,2.159637E-2,1.0953399E-2,-3.015392E-2,-1.454082E-1,-8.002349E-2,-1.5852816E-2,1.0412569E-1],"split_indices":[17,1,7,2,0,9,0,0,5,0,3,13,8,3,0,0,0,13,3,4,0,0,0,0,0,13,0,0,0,7,0,0,0,0,0,0,0,0,0],"split_type":[0,0,0,0,0,0,0,0,0,0,0,0,0,0,0,0,0,0,0,0,0,0,0,0,0,0,0,0,0,0,0,0,0,0,0,0,0,0,0],"sum_hessian":[1.35E2,2.6E1,1.09E2,1.7E1,9E0,1.07E2,2E0,3E0,1.4E1,1E0,8E0,4.5E1,6.2E1,1.3E1,1E0,6E0,2E0,3.7E1,8E0,6.1E1,1E0,1.2E1,1E0,5E0,1E0,1.6E1,2.1E1,7E0,1E0,5.7E1,4E0,6E0,1E1,1.5E1,6E0,4.2E1,1.5E1,2E0,2E0],"tree_param":{"num_deleted":"0","num_feature":"18","num_nodes":"39","size_leaf_vector":"1"}},{"base_weights":[-9.6895024E-2,4.0318546E0,-1.5430866E0,2.6921208E0,6.978003E0,-1.4126791E-1,-2.3321574E0,5.549755E0,1.2724986E0,7.3379416E0,9.346395E-2,6.5177314E-2,-1.005852E0,-1.7816236E0,-4.092443E0,3.3001715E-1,7.99331E-2,8.9085454E-1,1.1927698E-1,7.754553E0,1.0012632E-1,-2.572429E-1,3.6337268E-1,4.611111E-3,-6.0211737E-2,-2.053764E0,1.0239649E0,-3.2691115E-1,-1.700683E-1,5.540241E-1,1.3037628E0,1.04837276E-1,4.131638E-1,2.1410397E-1,-5.952635E-1,4.9979353E-1,-3.6711883E-2,-2.2878234E0,-1.0057738E0,-3.0648836E-1,1.0065483E-1,8.598105E-3,3.140222E-2,7.160755E-2,1.6545534E-2,2.0772291E-2,-2.0381927E-3,-3.568616E-2,-6.0218177E-3,2.808922E-2,-4.5526507E-3,-3.3956529E-3,2.2023201E-3,-5.207641E-2,-1.18478075E-1,5.006123E-3,-5.6988794E-2,-3.0189205E-2,7.202578E-3],"categories":[],"categories_nodes":[],"categories_segments":[],"categories_sizes":[],"default_left":[0,0,0,0,0,0,0,0,0,0,0,0,0,0,0,0,0,0,0,0,0,0,0,0,0,0,0,0,0,0,0,0,0,0,0,0,0,0,0,0,0,0,0,0,0,0,0,0,0,0,0,0,0,0,0,0,0,0,0],"id":14,"left_children":[1,3,5,7,9,11,13,15,17,19,-1,21,23,25,27,-1,-1,29,-1,31,-1,33,35,-1,-1,37,39,-1,-1,41,43,-1,-1,45,47,49,51,53,55,57,-1,-1,-1,-1,-1,-1,-1,-1,-1,-1,-1,-1,-1,-1,-1,-1,-1,-1,-1],"loss_changes":[7.8244666E2,1.15414246E2,1.06965546E2,9.435698E1,4.6716003E0,6.491173E0,5.2792847E1,2.2656052E1,5.5209713E0,4.476471E0,0E0,2.9778018E0,1.6359296E0,3.9515167E1,1.4242096E0,0E0,0E0,1.3638849E0,0E0,5.7000732E0,0E0,2.5173225E0,8.916266E-1,0E0,0E0,8.737122E0,7.1969576E0,0E0,0E0,1.748035E-1,2.755022E-1,0E0,0E0,3.7614405E-1,4.2027283E-1,4.9067712E-1,1.5590092E-2,1.1993408E0,1.5960407E0,4.8880678E-1,0E0,0E0,0E0,0E0,0E0,0E0,0E0,0E0,0E0,0E0,0E0,0E0,0E0,0E0,0E0,0E0,0E0,0E0,0E0],"parents":[2147483647,0,0,1,1,2,2,3,3,4,4,5,5,6,6,7,7,8,8,9,9,11,11,12,12,13,13,14,14,17,17,19,19,21,21,22,22,25,25,26,26,29,29,30,30,33,33,34,34,35,35,36,36,37,37,38,38,39,39],"right_children":[2,4,6,8,10,12,14,16,18,20,-1,22,24,26,28,-1,-1,30,-1,32,-1,34,36,-1,-1,38,40,-1,-1,42,44,-1,-1,46,48,50,52,54,56,58,-1,-1,-1,-1,-1,-1,-1,-1,-1,-1,-1,-1,-1,-1,-1,-1,-1,-1,-1],"split_conditions":[8.046962E-1,2.2972775E-1,7.245797E-2,-4.3160206E-1,7.334469E-1,9.576452E-1,8.118977E-1,1.3643795E-1,1.0591084E-2,3.8315615E-1,9.346395E-2,-2.8804973E-2,1.299149E-2,1.4326468E-1,-1.4262682E-1,3.3001715E-1,7.99331E-2,1.861669E-1,1.1927698E-1,-6.133526E-2,1.0012632E-1,1.6204967E-1,9.433779E-1,4.611111E-3,-6.0211737E-2,3.6608303E0,-1.2687804E-1,-3.2691115E-1,-1.700683E-1,3.5130132E-3,4.111609E-1,1.04837276E-1,4.131638E-1,1.4577532E-1,-2.1247393E-2,3.9732035E-2,2.1990297E-2,-1.59797E-2,-1.4683625E-1,-1.5281798E-1,1.0065483E-1,8.598105E-3,3.140222E-2,7.160755E-2,1.6545534E-2,2.0772291E-2,-2.0381927E-3,-3.568616E-2,-6.0218177E-3,2.808922E-2,-4.5526507E-3,-3.3956529E-3,2.2023201E-3,-5.207641E-2,-1.18478075E-1,5.006123E-3,-5.6988794E-2,-3.0189205E-2,7.202578E-3],"split_indices":[13,5,7,13,8,13,12,1,7,3,0,6,0,4,0,0,0,1,0,2,0,11,13,0,0,15,0,0,0,2,0,0,0,0,8,3,1,2,0,0,0,0,0,0,0,0,0,0,0,0,0,0,0,0,0,0,0,0,0],"split_type":[0,0,0,0,0,0,0,0,0,0,0,0,0,0,0,0,0,0,0,0,0,0,0,0,0,0,0,0,0,0,0,0,0,0,0,0,0,0,0,0,0,0,0,0,0,0,0,0,0,0,0,0,0,0,0,0,0,0,0],"sum_hessian":[1.29E2,3.3E1,9.6E1,2.4E1,9E0,3.5E1,6.1E1,7E0,1.7E1,8E0,1E0,2.9E1,6E0,4.8E1,1.3E1,5E0,2E0,1.4E1,3E0,7E0,1E0,1.4E1,1.5E1,1E0,5E0,4.4E1,4E0,1E0,1.2E1,9E0,5E0,1E0,6E0,6E0,8E0,1.1E1,4E0,3.5E1,9E0,2E0,2E0,2E0,7E0,4E0,1E0,3E0,3E0,6E0,2E0,1E1,1E0,3E0,1E0,3E0,3.2E1,1E0,8E0,1E0,1E0],"tree_param":{"num_deleted":"0","num_feature":"18","num_nodes":"59","size_leaf_vector":"1"}},{"base_weights":[3.4864776E-2,4.9654117E0,-1.086031E0,6.5607452E0,1.9163367E0,-1.3031564E0,3.5462472E-1,9.657593E-2,7.0840974E0,1.0137546E0,1.8422216E-1,2.0095075E-2,-2.2852478E0,3.6643246E-1,9.762316E-2,1.181859E0,1.698138E-2,4.3887284E-1,-7.4474055E-1,-1.7779359E0,-3.897607E0,1.7462159E-2,6.392668E-2,5.1837336E-2,2.5391322E-1,-1.011406E0,-2.193034E-1,-2.0457857E0,9.883005E-1,-3.1873837E-1,-1.6083448E-1,2.040781E-2,-3.2823614E-3,-5.536666E-2,-1.303339E-3,-2.2185897E-2,2.99685E-3,-1.11381225E-1,-5.354586E-2,-1.4941295E-2,9.729967E-2],"categories":[],"categories_nodes":[],"categories_segments":[],"categories_sizes":[],"default_left":[0,0,0,0,0,0,0,0,0,0,0,0,0,0,0,0,0,0,0,0,0,0,0,0,0,0,0,0,0,0,0,0,0,0,0,0,0,0,0,0,0],"id":15,"left_children":[1,3,5,7,9,11,-1,-1,13,15,-1,17,19,-1,-1,21,-1,23,25,27,29,-1,-1,-1,31,33,35,37,39,-1,-1,-1,-1,-1,-1,-1,-1,-1,-1,-1,-1],"loss_changes":[7.459608E2,1.0903467E2,2.0457686E2,2.5080444E1,1.2223492E1,1.4039772E2,0E0,0E0,3.260437E0,5.051985E-1,0E0,1.5380765E1,4.3784393E1,0E0,0E0,3.6437035E-2,0E0,3.164815E0,2.1601658E0,3.832773E1,3.1087341E0,0E0,0E0,0E0,1.2590433E0,1.0108643E0,4.6525443E-1,5.5914917E0,6.7448726E0,0E0,0E0,0E0,0E0,0E0,0E0,0E0,0E0,0E0,0E0,0E0,0E0],"parents":[2147483647,0,0,1,1,2,2,3,3,4,4,5,5,8,8,9,9,11,11,12,12,15,15,17,17,18,18,19,19,20,20,24,24,25,25,26,26,27,27,28,28],"right_children":[2,4,6,8,10,12,-1,-1,14,16,-1,18,20,-1,-1,22,-1,24,26,28,30,-1,-1,-1,32,34,36,38,40,-1,-1,-1,-1,-1,-1,-1,-1,-1,-1,-1,-1],"split_conditions":[9.285714E-1,1.3643795E-1,4.2938802E-1,-6.133526E-2,-2.1959281E-1,1.845666E-1,3.5462472E-1,9.657593E-2,2.861053E-1,-4.3008384E-1,1.8422216E-1,9.2100567E-1,8.118977E-1,3.6643246E-1,9.762316E-2,-2.9297307E-2,1.698138E-2,7.8558946E-1,4.657236E-4,1.4326468E-1,-1.4262682E-1,1.7462159E-2,6.392668E-2,5.1837336E-2,1.4577532E-1,-6.8559935E-3,8.473136E-3,3.6608303E0,-1.2687804E-1,-3.1873837E-1,-1.6083448E-1,2.040781E-2,-3.2823614E-3,-5.536666E-2,-1.303339E-3,-2.2185897E-2,2.99685E-3,-1.11381225E-1,-5.354586E-2,-1.4941295E-2,9.729967E-2],"split_indices":[17,1,6,2,6,9,0,0,3,7,0,13,12,0,0,0,0,13,2,4,0,0,0,0,0,3,1,15,0,0,0,0,0,0,0,0,0,0,0,0,0],"split_type":[0,0,0,0,0,0,0,0,0,0,0,0,0,0,0,0,0,0,0,0,0,0,0,0,0,0,0,0,0,0,0,0,0,0,0,0,0,0,0,0,0],"sum_hessian":[1.33E2,2.4E1,1.09E2,1.5E1,9E0,1.07E2,2E0,2E0,1.3E1,7E0,2E0,4.6E1,6.1E1,1.2E1,1E0,5E0,2E0,3E1,1.6E1,4.8E1,1.3E1,1E0,4E0,6E0,2.4E1,1E1,6E0,4.4E1,4E0,1E0,1.2E1,1.6E1,8E0,9E0,1E0,3E0,3E0,3.6E1,8E0,2E0,2E0],"tree_param":{"num_deleted":"0","num_feature":"18","num_nodes":"41","size_leaf_vector":"1"}},{"base_weights":[8.1565514E-2,4.0933075E0,-1.3428328E0,2.818622E0,6.7432218E0,-1.4991603E0,3.2598224E-1,5.2610774E0,1.2685771E0,1.1809941E-1,3.771641E-1,-1.0507331E0,-3.7310374E0,3.897362E-2,5.7238436E0,8.5364246E-1,1.39104E-1,-2.0406288E-1,-1.6670899E0,-3.1076992E-1,-1.5548131E-1,7.072568E-2,3.0686948E-1,8.915663E-3,8.9187443E-1,-2.4706217E-2,-5.184715E-2,-2.0205607E0,-5.266649E-1,4.811013E-2,1.6835658E-2,-1.659893E-2,1.4210663E-2,-4.5946743E-2,-1.0487634E-1,-4.396331E-2,4.121138E-2],"categories":[],"categories_nodes":[],"categories_segments":[],"categories_sizes":[],"default_left":[0,0,0,0,0,0,0,0,0,0,0,0,0,0,0,0,0,0,0,0,0,0,0,0,0,0,0,0,0,0,0,0,0,0,0,0,0],"id":16,"left_children":[1,3,5,7,9,11,-1,13,15,-1,-1,17,19,-1,21,23,-1,25,27,-1,-1,-1,-1,-1,29,31,-1,33,35,-1,-1,-1,-1,-1,-1,-1,-1],"loss_changes":[7.1978644E2,9.246106E1,1.2408223E2,8.418788E1,1.7235352E1,8.815645E1,0E0,1.4203842E1,7.673174E0,0E0,0E0,4.036419E1,3.8295898E0,0E0,5.5754395E0,2.024355E-1,0E0,5.05339E0,1.7075668E1,0E0,0E0,0E0,0E0,0E0,1.8357849E-1,2.847103E0,0E0,9.5529175E-1,6.440633E0,0E0,0E0,0E0,0E0,0E0,0E0,0E0,0E0],"parents":[2147483647,0,0,1,1,2,2,3,3,4,4,5,5,7,7,8,8,11,11,12,12,14,14,15,15,17,17,18,18,24,24,25,25,27,27,28,28],"right_children":[2,4,6,8,10,12,-1,14,16,-1,-1,18,20,-1,22,24,-1,26,28,-1,-1,-1,-1,-1,30,32,-1,34,36,-1,-1,-1,-1,-1,-1,-1,-1],"split_conditions":[8.046962E-1,5.994065E-1,4.2938802E-1,-4.3160206E-1,1.3947675E-1,8.118977E-1,3.2598224E-1,-3.413009E-2,2.1286018E-1,1.1809941E-1,3.771641E-1,6.89597E-2,-1.4262682E-1,3.897362E-2,-2.0465575E-1,-8.2624054E-1,1.39104E-1,9.6786207E-1,3.3940926E-1,-3.1076992E-1,-1.5548131E-1,7.072568E-2,3.0686948E-1,8.915663E-3,7.8558946E-1,-2.8804973E-2,-5.184715E-2,-1.59797E-2,7.5520027E-1,4.811013E-2,1.6835658E-2,-1.659893E-2,1.4210663E-2,-4.5946743E-2,-1.0487634E-1,-4.396331E-2,4.121138E-2],"split_indices":[13,14,6,13,4,12,0,2,6,0,0,7,0,0,3,8,0,13,9,0,0,0,0,0,13,6,0,2,12,0,0,0,0,0,0,0,0],"split_type":[0,0,0,0,0,0,0,0,0,0,0,0,0,0,0,0,0,0,0,0,0,0,0,0,0,0,0,0,0,0,0,0,0,0,0,0,0],"sum_hessian":[1.24E2,3.2E1,9.2E1,2.3E1,9E0,9.1E1,1E0,8E0,1.5E1,2E0,7E0,7.7E1,1.4E1,1E0,7E0,1.3E1,2E0,3.3E1,4.4E1,1E0,1.3E1,1E0,6E0,1E0,1.2E1,2.8E1,5E0,3.3E1,1.1E1,1E1,2E0,1.4E1,1.4E1,3E0,3E1,9E0,2E0],"tree_param":{"num_deleted":"0","num_feature":"18","num_nodes":"37","size_leaf_vector":"1"}},{"base_weights":[5.240929E-4,4.7888966E0,-9.93294E-1,2.9918984E-1,1.949847E0,3.3108482E-1,-1.2034062E0,8.5395336E-1,1.7458425E-1,1.7407227E-2,-2.0989597E0,5.2447822E-2,1.5464909E-2,4.4871098E-1,-5.4415804E-1,-1.5978523E0,-3.6313224E0,4.755381E-2,2.504476E-1,2.4827996E-1,-7.57785E-1,-1.7506449E0,1.2266535E0,-3.0300066E-1,-1.4891726E-1,1.9663773E-2,-6.4768194E-4,2.0596981E-2,9.3015035E-5,-2.055725E-2,-5.2651595E-2,-9.7752824E-2,-4.1984957E-2,6.365776E-3,8.563323E-2],"categories":[],"categories_nodes":[],"categories_segments":[],"categories_sizes":[],"default_left":[0,0,0,0,0,0,0,0,0,0,0,0,0,0,0,0,0,0,0,0,0,0,0,0,0,0,0,0,0,0,0,0,0,0,0],"id":17,"left_children":[1,3,5,-1,7,-1,9,11,-1,13,15,-1,-1,17,19,21,23,-1,25,27,29,31,33,-1,-1,-1,-1,-1,-1,-1,-1,-1,-1,-1,-1],"loss_changes":[6.0912067E2,6.2964905E1,1.7756888E2,0E0,1.0535793E1,0E0,1.1374013E2,3.1281614E-1,0E0,1.1143404E1,4.0270355E1,0E0,0E0,2.3514223E0,3.573866E0,2.2430916E1,4.1535034E0,0E0,7.575152E-1,2.008785E-1,1.2045622E0,6.7377014E0,1.3848228E0,0E0,0E0,0E0,0E0,0E0,0E0,0E0,0E0,0E0,0E0,0E0,0E0],"parents":[2147483647,0,0,1,1,2,2,4,4,6,6,7,7,9,9,10,10,13,13,14,14,15,15,16,16,18,18,19,19,20,20,21,21,22,22],"right_children":[2,4,6,-1,8,-1,10,12,-1,14,16,-1,-1,18,20,22,24,-1,26,28,30,32,34,-1,-1,-1,-1,-1,-1,-1,-1,-1,-1,-1,-1],"split_conditions":[9.285714E-1,1.3643795E-1,-1.0959787E-1,2.9918984E-1,-2.1959281E-1,3.3108482E-1,1.845666E-1,-4.3008384E-1,1.7458425E-1,9.161982E-1,8.118977E-1,5.2447822E-2,1.5464909E-2,7.8558946E-1,-4.482565E-2,7.070619E-1,-1.4262682E-1,4.755381E-2,1.4577532E-1,-2.8151093E-2,9.576452E-1,3.3940926E-1,-1.2687804E-1,-3.0300066E-1,-1.4891726E-1,1.9663773E-2,-6.4768194E-4,2.0596981E-2,9.3015035E-5,-2.055725E-2,-5.2651595E-2,-9.7752824E-2,-4.1984957E-2,6.365776E-3,8.563323E-2],"split_indices":[17,1,1,0,6,0,9,7,0,13,12,0,0,13,0,11,0,0,0,3,13,9,0,0,0,0,0,0,0,0,0,0,0,0,0],"split_type":[0,0,0,0,0,0,0,0,0,0,0,0,0,0,0,0,0,0,0,0,0,0,0,0,0,0,0,0,0,0,0,0,0,0,0],"sum_hessian":[1.26E2,2.1E1,1.05E2,1.4E1,7E0,2E0,1.03E2,5E0,2E0,4.4E1,5.9E1,3E0,2E0,2.5E1,1.9E1,4.6E1,1.3E1,6E0,1.9E1,4E0,1.5E1,4.4E1,2E0,1E0,1.2E1,1.2E1,7E0,2E0,2E0,8E0,7E0,3.5E1,9E0,1E0,1E0],"tree_param":{"num_deleted":"0","num_feature":"18","num_nodes":"35","size_leaf_vector":"1"}},{"base_weights":[-1.6588861E-1,4.2679334E0,-1.1263793E0,5.449797E0,7.879873E-1,3.1290226E-2,-1.9484559E0,5.711533E0,3.1550597E-2,4.618946E-2,1.4949418E-2,3.6268383E-1,-5.9202844E-1,-1.4503299E0,-3.412562E0,6.2753353E0,1.2256458E-1,4.4319775E-2,2.2248569E-1,7.984956E-2,-9.0468657E-1,-1.6887482E0,9.378168E-1,-2.9542565E-1,-1.4061216E-1,6.6328716E0,4.9622536E-2,3.560569E-1,-5.4536078E-2,-2.5501156E-2,2.998287E-1,-4.9535345E-2,-1.1120796E-3,-9.438602E-2,-8.234708E-1,-2.7607504E-1,9.1955155E-2,3.439936E-1,9.789667E-2,2.0577399E-2,-2.0042101E-3,1.7749382E-2,-1.5923126E-2,1.99104E-2,5.0753276E-3,8.368325E-3,-4.7608007E-2,-2.6912237E-2,6.206608E-3],"categories":[],"categories_nodes":[],"categories_segments":[],"categories_sizes":[],"default_left":[0,0,0,0,0,0,0,0,0,0,0,0,0,0,0,0,0,0,0,0,0,0,0,0,0,0,0,0,0,0,0,0,0,0,0,0,0,0,0,0,0,0,0,0,0,0,0,0,0],"id":18,"left_children":[1,3,5,7,9,11,13,15,-1,-1,-1,17,19,21,23,25,-1,-1,27,29,31,33,35,-1,-1,37,-1,39,41,-1,43,-1,-1,-1,45,47,-1,-1,-1,-1,-1,-1,-1,-1,-1,-1,-1,-1,-1],"loss_changes":[5.499138E2,9.030057E1,1.009404E2,1.7837158E1,1.8864727E-1,9.510091E0,4.0267853E1,1.4027466E1,0E0,0E0,0E0,2.0054913E0,3.4333296E0,2.8913872E1,5.859329E0,1.7971863E1,0E0,0E0,9.444711E-1,9.314778E-1,8.129549E-1,6.0208282E0,5.97805E0,0E0,0E0,3.8623047E-1,0E0,3.9019585E-1,1.0858076E0,0E0,5.7133257E-2,0E0,0E0,0E0,1.4344616E0,3.8158005E-1,0E0,0E0,0E0,0E0,0E0,0E0,0E0,0E0,0E0,0E0,0E0,0E0,0E0],"parents":[2147483647,0,0,1,1,2,2,3,3,4,4,5,5,6,6,7,7,11,11,12,12,13,13,14,14,15,15,18,18,19,19,20,20,21,21,22,22,25,25,27,27,28,28,30,30,34,34,35,35],"right_children":[2,4,6,8,10,12,14,16,-1,-1,-1,18,20,22,24,26,-1,-1,28,30,32,34,36,-1,-1,38,-1,40,42,-1,44,-1,-1,-1,46,48,-1,-1,-1,-1,-1,-1,-1,-1,-1,-1,-1,-1,-1],"split_conditions":[9.285714E-1,1.3643795E-1,7.245797E-2,4.899199E-1,-4.3008384E-1,9.2100567E-1,8.118977E-1,3.5590643E-1,3.1550597E-2,4.618946E-2,1.4949418E-2,7.8558946E-1,1.299149E-2,1.4326468E-1,-1.4262682E-1,7.021856E-1,1.2256458E-1,4.4319775E-2,1.4577532E-1,8.473136E-3,-6.8559935E-3,3.6608303E0,-1.2687804E-1,-2.9542565E-1,-1.4061216E-1,3.5080954E-1,4.9622536E-2,9.161982E-1,-1.1883808E-1,-2.5501156E-2,-5.3178485E-2,-4.9535345E-2,-1.1120796E-3,-9.438602E-2,-1.4683625E-1,-1.5281798E-1,9.1955155E-2,3.439936E-1,9.789667E-2,2.0577399E-2,-2.0042101E-3,1.7749382E-2,-1.5923126E-2,1.99104E-2,5.0753276E-3,8.368325E-3,-4.7608007E-2,-2.6912237E-2,6.206608E-3],"split_indices":[17,1,7,0,7,13,12,5,0,0,0,13,0,4,0,7,0,0,0,1,3,15,0,0,0,0,0,13,8,0,0,0,0,0,0,0,0,0,0,0,0,0,0,0,0,0,0,0,0],"split_type":[0,0,0,0,0,0,0,0,0,0,0,0,0,0,0,0,0,0,0,0,0,0,0,0,0,0,0,0,0,0,0,0,0,0,0,0,0,0,0,0,0,0,0,0,0,0,0,0,0],"sum_hessian":[1.27E2,2.2E1,1.05E2,1.6E1,6E0,4.4E1,6.1E1,1.5E1,1E0,4E0,2E0,2.9E1,1.5E1,4.7E1,1.4E1,1.2E1,3E0,5E0,2.4E1,5E0,1E1,4.3E1,4E0,1E0,1.3E1,1.1E1,1E0,1.6E1,8E0,1E0,4E0,9E0,1E0,3.4E1,9E0,2E0,2E0,1E1,1E0,1.4E1,2E0,3E0,5E0,2E0,2E0,1E0,8E0,1E0,1E0],"tree_param":{"num_deleted":"0","num_feature":"18","num_nodes":"49","size_leaf_vector":"1"}},{"base_weights":[5.5173345E-2,4.209896E0,-1.0428212E0,5.3063507E0,1.705643E0,-1.5307485E0,6.8804526E-1,5.5327883E0,3.0761814E-2,8.700552E-1,1.6826649E-1,-1.1260566E0,-3.2902818E0,1.7119022E-1,4.2023817E-1,5.69714E0,6.8470195E-2,1.4192867E-2,1.018145E0,-1.3767546E-1,-1.5556049E0,-2.8804E-1,-1.3511652E-1,5.647103E-1,-2.1280365E-1,1.208198E-1,5.9734797E0,5.5591013E-2,1.3744212E-2,3.3408895E-1,-8.562339E-1,-6.4115417E-1,-1.6960928E0,4.9452495E-2,4.2333102E-1,-2.4863625E-2,-1.7368317E-2,3.0833837E-1,8.168621E-2,-3.391916E-4,5.9398342E-2,-5.6944467E-2,4.4353325E-3,5.2550794E-3,-3.8138833E-2,-9.066333E-2,-3.551842E-2,1.557827E-3,2.5571808E-2,-2.5606474E-3,2.1041394E-3],"categories":[],"categories_nodes":[],"categories_segments":[],"categories_sizes":[],"default_left":[0,0,0,0,0,0,0,0,0,0,0,0,0,0,0,0,0,0,0,0,0,0,0,0,0,0,0,0,0,0,0,0,0,0,0,0,0,0,0,0,0,0,0,0,0,0,0,0,0,0,0],"id":19,"left_children":[1,3,5,7,9,11,13,15,-1,17,-1,19,21,-1,23,25,-1,-1,27,29,31,-1,-1,33,35,-1,37,-1,-1,39,41,43,45,-1,47,-1,49,-1,-1,-1,-1,-1,-1,-1,-1,-1,-1,-1,-1,-1,-1],"loss_changes":[6.11118E2,6.7831635E1,9.057417E1,1.6778687E1,1.0940119E1,5.5396713E1,1.6144924E1,4.5150146E0,0E0,4.0547132E-1,0E0,2.9080307E1,6.220581E0,0E0,2.223682E0,9.779663E-1,0E0,0E0,1.12128735E-1,7.743845E0,5.0790634E0,0E0,0E0,7.211685E-1,2.693395E-1,0E0,2.5076294E0,0E0,0E0,4.082951E0,2.50486E0,8.062613E-1,3.447464E0,0E0,5.3690696E-1,0E0,1.0203586E-2,0E0,0E0,0E0,0E0,0E0,0E0,0E0,0E0,0E0,0E0,0E0,0E0,0E0,0E0],"parents":[2147483647,0,0,1,1,2,2,3,3,4,4,5,5,6,6,7,7,9,9,11,11,12,12,14,14,15,15,18,18,19,19,20,20,23,23,24,24,26,26,29,29,30,30,31,31,32,32,34,34,36,36],"right_children":[2,4,6,8,10,12,14,16,-1,18,-1,20,22,-1,24,26,-1,-1,28,30,32,-1,-1,34,36,-1,38,-1,-1,40,42,44,46,-1,48,-1,50,-1,-1,-1,-1,-1,-1,-1,-1,-1,-1,-1,-1,-1,-1],"split_conditions":[9.285714E-1,1.3643795E-1,1.0118277E-2,4.899199E-1,-2.1959281E-1,8.118977E-1,-1.4783388E-1,8.8961166E-1,3.0761814E-2,-2.9297307E-2,1.6826649E-1,9.1988635E-1,-1.4262682E-1,1.7119022E-1,9.433779E-1,-6.133526E-2,6.8470195E-2,1.4192867E-2,4.111609E-1,-1.0580071E-2,2.7218118E-1,-2.8804E-1,-1.3511652E-1,7.043496E-1,1.6766015E-2,1.208198E-1,2.861053E-1,5.5591013E-2,1.3744212E-2,-1.3855919E-2,-4.8683207E-2,1.299149E-2,3.553276E0,4.9452495E-2,-1.2307834E-2,-2.4863625E-2,2.1990297E-2,3.0833837E-1,8.168621E-2,-3.391916E-4,5.9398342E-2,-5.6944467E-2,4.4353325E-3,5.2550794E-3,-3.8138833E-2,-9.066333E-2,-3.551842E-2,1.557827E-3,2.5571808E-2,-2.5606474E-3,2.1041394E-3],"split_indices":[17,1,2,0,6,12,1,8,0,0,0,13,0,0,13,2,0,0,0,2,11,0,0,13,2,0,3,0,0,6,1,0,15,0,1,0,1,0,0,0,0,0,0,0,0,0,0,0,0,0,0],"split_type":[0,0,0,0,0,0,0,0,0,0,0,0,0,0,0,0,0,0,0,0,0,0,0,0,0,0,0,0,0,0,0,0,0,0,0,0,0,0,0,0,0,0,0,0,0,0,0,0,0,0,0],"sum_hessian":[1.32E2,2.7E1,1.05E2,1.8E1,9E0,8.2E1,2.3E1,1.7E1,1E0,7E0,2E0,6.8E1,1.4E1,1E0,2.2E1,1.6E1,1E0,2E0,5E0,2.1E1,4.7E1,1E0,1.3E1,1.8E1,4E0,2E0,1.4E1,4E0,1E0,1.3E1,8E0,7E0,4E1,3E0,1.5E1,1E0,3E0,1.3E1,1E0,1E1,3E0,6E0,2E0,1E0,6E0,3.5E1,5E0,3E0,1.2E1,2E0,1E0],"tree_param":{"num_deleted":"0","num_feature":"18","num_nodes":"51","size_leaf_vector":"1"}},{"base_weights":[8.156016E-2,4.005655E0,-8.6251605E-1,5.0030417E0,1.676629E0,-1.0689807E0,3.222395E-1,5.24075E0,2.9992772E-2,7.6145774E-1,1.626576E-1,-4.398084E-3,-1.7279383E0,2.7811167E-1,9.9678926E-2,1.3719781E-2,9.014034E-1,3.611715E-1,-5.202376E-1,-1.3247434E0,-3.1767845E0,4.9637415E-2,1.3400602E-2,4.4699226E-2,1.7390577E-1,-8.160679E-1,-8.542013E-2,-1.5361537E0,9.274626E-1,-2.8083903E-1,-1.2526934E-1,1.8936876E-2,-1.1566986E-2,-4.5599844E-2,1.1823177E-3,-1.7732454E-2,7.352352E-3,-8.505781E-2,-3.777647E-2,-1.156052E-2,8.884907E-2],"categories":[],"categories_nodes":[],"categories_segments":[],"categories_sizes":[],"default_left":[0,0,0,0,0,0,0,0,0,0,0,0,0,0,0,0,0,0,0,0,0,0,0,0,0,0,0,0,0,0,0,0,0,0,0,0,0,0,0,0,0],"id":20,"left_children":[1,3,5,7,9,11,-1,13,-1,15,-1,17,19,-1,-1,-1,21,23,25,27,29,-1,-1,-1,31,33,35,37,39,-1,-1,-1,-1,-1,-1,-1,-1,-1,-1,-1,-1],"loss_changes":[4.7764938E2,4.9685272E1,1.6379422E2,1.464978E1,1.0507961E1,7.154692E1,0E0,5.6138306E0,0E0,2.297945E-1,0E0,7.730905E0,3.259413E1,0E0,0E0,0E0,2.3216724E-2,2.2391942E0,2.1170382E0,2.570784E1,7.2245026E0,0E0,0E0,0E0,1.664753E0,8.270941E-1,5.5284524E-1,4.7685547E0,5.3324285E0,0E0,0E0,0E0,0E0,0E0,0E0,0E0,0E0,0E0,0E0,0E0,0E0],"parents":[2147483647,0,0,1,1,2,2,3,3,4,4,5,5,7,7,9,9,11,11,12,12,16,16,17,17,18,18,19,19,20,20,24,24,25,25,26,26,27,27,28,28],"right_children":[2,4,6,8,10,12,-1,14,-1,16,-1,18,20,-1,-1,-1,22,24,26,28,30,-1,-1,-1,32,34,36,38,40,-1,-1,-1,-1,-1,-1,-1,-1,-1,-1,-1,-1],"split_conditions":[9.285714E-1,1.3643795E-1,4.2938802E-1,4.899199E-1,-3.3403656E-1,1.845666E-1,3.222395E-1,3.90847E-1,2.9992772E-2,-2.9297307E-2,1.626576E-1,9.161982E-1,8.118977E-1,2.7811167E-1,9.9678926E-2,1.3719781E-2,4.111609E-1,7.8558946E-1,4.657236E-4,1.4326468E-1,-1.4262682E-1,4.9637415E-2,1.3400602E-2,4.4699226E-2,1.4577532E-1,-2.3356335E-2,8.473136E-3,3.6608303E0,-1.2687804E-1,-2.8083903E-1,-1.2526934E-1,1.8936876E-2,-1.1566986E-2,-4.5599844E-2,1.1823177E-3,-1.7732454E-2,7.352352E-3,-8.505781E-2,-3.777647E-2,-1.156052E-2,8.884907E-2],"split_indices":[17,1,6,0,6,9,0,5,0,0,0,16,12,0,0,0,0,16,2,4,0,0,0,0,0,4,1,15,0,0,0,0,0,0,0,0,0,0,0,0,0],"split_type":[0,0,0,0,0,0,0,0,0,0,0,0,0,0,0,0,0,0,0,0,0,0,0,0,0,0,0,0,0,0,0,0,0,0,0,0,0,0,0,0,0],"sum_hessian":[1.27E2,2.4E1,1.03E2,1.6E1,8E0,1.01E2,2E0,1.5E1,1E0,6E0,2E0,3.9E1,6.2E1,1.3E1,2E0,2E0,4E0,2.3E1,1.6E1,5E1,1.2E1,3E0,1E0,5E0,1.8E1,9E0,7E0,4.6E1,4E0,1E0,1.1E1,1.2E1,6E0,8E0,1E0,3E0,4E0,3.7E1,9E0,2E0,2E0],"tree_param":{"num_deleted":"0","num_feature":"18","num_nodes":"41","size_leaf_vector":"1"}},{"base_weights":[7.996921E-2,4.229057E0,-8.1785125E-1,5.14289E0,1.7585292E0,-1.0043246E0,3.1149817E-1,5.391213E0,2.9242946E-2,7.723484E-1,1.5723573E-1,3.1989437E-2,-1.7063216E0,2.8667754E-1,9.982831E-2,4.7776032E-2,1.3533466E-2,3.2312796E-1,-5.1589465E-1,-1.2566936E0,-3.0047636E0,4.036026E-2,1.684751E-1,1.8149218E-2,-6.673762E-1,-1.4634222E0,8.9654714E-1,-2.7381805E-1,-1.2374499E-1,2.0670075E-2,1.0087163E-3,-3.611299E-2,1.1527538E-3,9.064579E-3,-7.520001E-2,-1.11751715E-2,8.588743E-2],"categories":[],"categories_nodes":[],"categories_segments":[],"categories_sizes":[],"default_left":[0,0,0,0,0,0,0,0,0,0,0,0,0,0,0,0,0,0,0,0,0,0,0,0,0,0,0,0,0,0,0,0,0,0,0,0,0],"id":21,"left_children":[1,3,5,7,9,11,-1,13,-1,15,-1,17,19,-1,-1,-1,-1,21,23,25,27,-1,29,-1,31,33,35,-1,-1,-1,-1,-1,-1,-1,-1,-1,-1],"loss_changes":[5.0262692E2,4.513968E1,1.5213635E2,1.6088593E1,8.50742E0,7.9350914E1,0E0,7.1464844E0,0E0,2.92732E-1,0E0,7.3446574E0,3.417195E1,0E0,0E0,0E0,0E0,2.1099243E0,2.3723912E0,2.356884E1,7.4003143E0,0E0,8.634066E-1,0E0,5.4715824E-1,3.342659E0,4.9828596E0,0E0,0E0,0E0,0E0,0E0,0E0,0E0,0E0,0E0,0E0],"parents":[2147483647,0,0,1,1,2,2,3,3,4,4,5,5,7,7,9,9,11,11,12,12,17,17,18,18,19,19,20,20,22,22,24,24,25,25,26,26],"right_children":[2,4,6,8,10,12,-1,14,-1,16,-1,18,20,-1,-1,-1,-1,22,24,26,28,-1,30,-1,32,34,36,-1,-1,-1,-1,-1,-1,-1,-1,-1,-1],"split_conditions":[9.285714E-1,1.3643795E-1,4.2938802E-1,4.899199E-1,-3.3403656E-1,1.845666E-1,3.1149817E-1,8.129934E-1,2.9242946E-2,-4.3008384E-1,1.5723573E-1,9.2100567E-1,8.118977E-1,2.8667754E-1,9.982831E-2,4.7776032E-2,1.3533466E-2,7.8558946E-1,-5.3178485E-2,1.4326468E-1,-1.4262682E-1,4.036026E-2,3.550371E-1,1.8149218E-2,7.796764E-2,-1.4683625E-1,-1.2687804E-1,-2.7381805E-1,-1.2374499E-1,2.0670075E-2,1.0087163E-3,-3.611299E-2,1.1527538E-3,9.064579E-3,-7.520001E-2,-1.11751715E-2,8.588743E-2],"split_indices":[17,1,6,0,6,9,0,8,0,7,0,13,12,0,0,0,0,13,0,4,0,0,12,0,9,0,0,0,0,0,0,0,0,0,0,0,0],"split_type":[0,0,0,0,0,0,0,0,0,0,0,0,0,0,0,0,0,0,0,0,0,0,0,0,0,0,0,0,0,0,0,0,0,0,0,0,0],"sum_hessian":[1.33E2,2.3E1,1.1E2,1.6E1,7E0,1.08E2,2E0,1.5E1,1E0,5E0,2E0,4.4E1,6.4E1,1.3E1,2E0,3E0,2E0,2.9E1,1.5E1,4.9E1,1.5E1,6E0,2.3E1,2E0,1.3E1,4.5E1,4E0,1E0,1.4E1,8E0,1.5E1,1.2E1,1E0,1E0,4.4E1,2E0,2E0],"tree_param":{"num_deleted":"0","num_feature":"18","num_nodes":"37","size_leaf_vector":"1"}},{"base_weights":[-2.2339572E-1,2.704955E0,-8.7813425E-1,2.0080445E0,4.9516063E0,-9.998545E-1,3.006053E-1,2.2348273E-1,1.3107218E0,2.7671325E-1,6.5524295E-2,-6.9317126E-1,-2.9656892E0,9.6915627E-1,1.08926035E-1,1.0364405E-1,-1.1757951E0,-2.669726E-1,-1.1861825E-1,1.2240664E-2,1.069479E0,-3.6773063E-2,8.30245E-2,-4.5010614E-1,-1.4657122E0,5.6021173E-2,1.2727261E-2,9.913527E-3,-3.55851E-2,-4.112507E-2,6.839064E-4,-7.9583704E-2,-3.1325784E-2],"categories":[],"categories_nodes":[],"categories_segments":[],"categories_sizes":[],"default_left":[0,0,0,0,0,0,0,0,0,0,0,0,0,0,0,0,0,0,0,0,0,0,0,0,0,0,0,0,0,0,0,0,0],"id":22,"left_children":[1,3,5,7,9,11,-1,-1,13,-1,-1,15,17,19,-1,21,23,-1,-1,-1,25,27,-1,29,31,-1,-1,-1,-1,-1,-1,-1,-1],"loss_changes":[2.5162485E2,2.7634125E1,9.575017E1,2.8472252E1,3.3550797E0,6.1850456E1,0E0,0E0,2.9276447E0,0E0,0E0,3.588614E1,7.050621E0,7.5553036E-1,0E0,7.930943E0,1.1542877E1,0E0,0E0,0E0,2.1299839E-1,5.534793E0,0E0,3.1200488E0,3.3367615E0,0E0,0E0,0E0,0E0,0E0,0E0,0E0,0E0],"parents":[2147483647,0,0,1,1,2,2,3,3,4,4,5,5,8,8,11,11,12,12,13,13,15,15,16,16,20,20,21,21,23,23,24,24],"right_children":[2,4,6,8,10,12,-1,-1,14,-1,-1,16,18,20,-1,22,24,-1,-1,-1,26,28,-1,30,32,-1,-1,-1,-1,-1,-1,-1,-1],"split_conditions":[7.110152E-1,1.5262447E-1,4.2938802E-1,-5.6794304E-1,2.861053E-1,8.118977E-1,3.006053E-1,2.2348273E-1,2.1286018E-1,2.7671325E-1,6.5524295E-2,9.2100567E-1,-1.4262682E-1,-6.140033E-1,1.08926035E-1,7.9223734E-1,2.2769708E-2,-2.669726E-1,-1.1861825E-1,1.2240664E-2,5.699161E-1,7.245797E-2,8.30245E-2,4.657236E-4,3.553276E0,5.6021173E-2,1.2727261E-2,9.913527E-3,-3.55851E-2,-4.112507E-2,6.839064E-4,-7.9583704E-2,-3.1325784E-2],"split_indices":[13,3,6,13,3,12,0,0,6,0,0,13,0,11,0,12,7,0,0,0,0,7,0,2,15,0,0,0,0,0,0,0,0],"split_type":[0,0,0,0,0,0,0,0,0,0,0,0,0,0,0,0,0,0,0,0,0,0,0,0,0,0,0,0,0,0,0,0,0],"sum_hessian":[1.29E2,2.3E1,1.06E2,1.9E1,4E0,1.05E2,1E0,3E0,1.6E1,3E0,1E0,9.2E1,1.3E1,1.3E1,3E0,3.5E1,5.7E1,1E0,1.2E1,2E0,1.1E1,3.3E1,2E0,1.7E1,4E1,1E1,1E0,2.5E1,8E0,9E0,8E0,3.4E1,6E0],"tree_param":{"num_deleted":"0","num_feature":"18","num_nodes":"33","size_leaf_vector":"1"}},{"base_weights":[1.2198788E-1,3.6926243E0,-7.154764E-1,2.2887478E0,4.9204435E0,-8.8905925E-1,2.914929E-1,2.1117485E-1,1.0924984E0,5.6247725E0,2.6685627E0,2.385627E-2,-1.5073998E0,5.95582E-1,7.351492E-2,2.9632917E-1,8.025708E-2,1.569672E-1,1.9635964E-2,4.845509E-1,-2.7315658E-1,-1.139903E0,-2.7647169E0,6.590271E-3,3.3098813E-2,1.725049E-1,6.6744334E-1,-5.2380633E-1,2.303936E-1,-1.3231955E0,8.476862E-1,-2.6029828E-1,-1.0882348E-1,1.6214486E-2,-3.0176162E-3,4.1548863E-2,2.2764219E-2,-2.940941E-3,-3.0365765E-2,1.5824009E-2,-3.7984212E-3,-7.28231E-2,-2.9193912E-2,-9.616486E-3,8.0257006E-2],"categories":[],"categories_nodes":[],"categories_segments":[],"categories_sizes":[],"default_left":[0,0,0,0,0,0,0,0,0,0,0,0,0,0,0,0,0,0,0,0,0,0,0,0,0,0,0,0,0,0,0,0,0,0,0,0,0,0,0,0,0,0,0,0,0],"id":23,"left_children":[1,3,5,7,9,11,-1,-1,13,15,17,19,21,23,-1,-1,-1,-1,-1,25,27,29,31,-1,-1,33,35,37,39,41,43,-1,-1,-1,-1,-1,-1,-1,-1,-1,-1,-1,-1,-1,-1],"loss_changes":[4.0932016E2,3.355475E1,1.3129659E2,2.778804E1,5.608795E0,6.1565666E1,0E0,0E0,1.0016661E0,1.4055176E0,4.124241E0,6.2898088E0,2.68824E1,9.750056E-2,0E0,0E0,0E0,0E0,0E0,9.12138E-1,3.6546938E0,2.0065788E1,8.774185E0,0E0,0E0,3.023252E-1,3.3164024E-3,7.020607E-1,2.8777903E-1,3.8788605E0,4.2475367E0,0E0,0E0,0E0,0E0,0E0,0E0,0E0,0E0,0E0,0E0,0E0,0E0,0E0,0E0],"parents":[2147483647,0,0,1,1,2,2,3,3,4,4,5,5,8,8,9,9,10,10,11,11,12,12,13,13,19,19,20,20,21,21,22,22,25,25,26,26,27,27,28,28,29,29,30,30],"right_children":[2,4,6,8,10,12,-1,-1,14,16,18,20,22,24,-1,-1,-1,-1,-1,26,28,30,32,-1,-1,34,36,38,40,42,44,-1,-1,-1,-1,-1,-1,-1,-1,-1,-1,-1,-1,-1,-1],"split_conditions":[9.285714E-1,-2.043119E-1,4.2938802E-1,-6.1856574E-1,5.726782E-1,1.845666E-1,2.914929E-1,2.1117485E-1,1.0909758E-3,-7.899438E-2,-4.0518458E-4,8.615634E-1,8.118977E-1,-9.936787E-2,7.351492E-2,2.9632917E-1,8.025708E-2,1.569672E-1,1.9635964E-2,-1.12859644E-1,1.6766015E-2,2.2376442E-1,-1.4262682E-1,6.590271E-3,3.3098813E-2,-1.4454144E-1,7.043496E-1,-7.278366E-2,2.6865868E-2,3.3940926E-1,-1.2687804E-1,-2.6029828E-1,-1.0882348E-1,1.6214486E-2,-3.0176162E-3,4.1548863E-2,2.2764219E-2,-2.940941E-3,-3.0365765E-2,1.5824009E-2,-3.7984212E-3,-7.28231E-2,-2.9193912E-2,-9.616486E-3,8.0257006E-2],"split_indices":[17,10,6,11,7,9,0,0,2,0,2,13,12,0,0,0,0,0,0,6,2,5,0,0,0,7,13,5,5,9,0,0,0,0,0,0,0,0,0,0,0,0,0,0,0],"split_type":[0,0,0,0,0,0,0,0,0,0,0,0,0,0,0,0,0,0,0,0,0,0,0,0,0,0,0,0,0,0,0,0,0,0,0,0,0,0,0,0,0,0,0,0,0],"sum_hessian":[1.35E2,2.5E1,1.1E2,1.3E1,1.2E1,1.08E2,2E0,4E0,9E0,8E0,4E0,4.4E1,6.4E1,5E0,4E0,7E0,1E0,3E0,1E0,1.7E1,2.7E1,5.1E1,1.3E1,1E0,4E0,7E0,1E1,1.8E1,9E0,4.7E1,4E0,1E0,1.2E1,4E0,3E0,4E0,6E0,3E0,1.5E1,7E0,2E0,3.9E1,8E0,2E0,2E0],"tree_param":{"num_deleted":"0","num_feature":"18","num_nodes":"45","size_leaf_vector":"1"}},{"base_weights":[2.2559837E-2,3.2750833E0,-7.375864E-1,4.2183905E0,7.4325633E-1,-4.4663042E-1,-2.6384633E0,4.404687E0,2.6283884E-2,1.6615963E-2,5.355568E-2,3.7818056E-1,-1.0383724E0,-2.5379083E-1,-1.0302635E-1,4.6770635E0,7.8728706E-2,1.368619E-1,2.475063E-1,-3.2972077E-1,-1.3206469E0,4.833859E0,6.2048294E-2,1.3507678E-1,7.7581756E-2,-6.621014E-1,1.2697005E-1,-6.7079484E-1,-7.4662134E-2,2.573339E-1,9.856479E-2,1.5181146E-2,-3.9317433E-2,-3.7430342E-2,2.9111863E-3,1.6994E-2,-3.232956E-5,-3.774437E-2,-1.1147499E-2],"categories":[],"categories_nodes":[],"categories_segments":[],"categories_sizes":[],"default_left":[0,0,0,0,0,0,0,0,0,0,0,0,0,0,0,0,0,0,0,0,0,0,0,0,0,0,0,0,0,0,0,0,0,0,0,0,0,0,0],"id":24,"left_children":[1,3,5,7,9,11,13,15,-1,-1,-1,17,19,-1,-1,21,-1,-1,23,25,27,29,-1,31,-1,33,35,37,-1,-1,-1,-1,-1,-1,-1,-1,-1,-1,-1],"loss_changes":[3.262992E2,5.657193E1,5.8000233E1,1.0067444E1,7.218776E-1,4.6271767E1,9.262024E0,5.740204E0,0E0,0E0,0E0,1.1653238E1,1.0566437E1,0E0,0E0,2.0827942E0,0E0,0E0,5.508692E0,2.664585E0,3.3726501E0,2.3908997E0,0E0,5.984953E0,0E0,6.6670704E-1,2.1758658E-1,2.0830154E-1,0E0,0E0,0E0,0E0,0E0,0E0,0E0,0E0,0E0,0E0,0E0],"parents":[2147483647,0,0,1,1,2,2,3,3,4,4,5,5,6,6,7,7,11,11,12,12,15,15,18,18,19,19,20,20,21,21,23,23,25,25,26,26,27,27],"right_children":[2,4,6,8,10,12,14,16,-1,-1,-1,18,20,-1,-1,22,-1,-1,24,26,28,30,-1,32,-1,34,36,38,-1,-1,-1,-1,-1,-1,-1,-1,-1,-1,-1],"split_conditions":[9.285714E-1,1.3643795E-1,8.053408E-1,4.899199E-1,-3.388844E-1,9.2100567E-1,-1.4262682E-1,3.90847E-1,2.6283884E-2,1.6615963E-2,5.355568E-2,-1.4783388E-1,6.331862E-3,-2.5379083E-1,-1.0302635E-1,2.861053E-1,7.8728706E-2,1.368619E-1,7.9223734E-1,4.657236E-4,-5.7042595E-3,7.021856E-1,6.2048294E-2,3.095713E-1,7.7581756E-2,-6.8559935E-3,-5.3178485E-2,7.0511824E-1,-7.4662134E-2,2.573339E-1,9.856479E-2,1.5181146E-2,-3.9317433E-2,-3.7430342E-2,2.9111863E-3,1.6994E-2,-3.232956E-5,-3.774437E-2,-1.1147499E-2],"split_indices":[17,1,12,0,6,16,0,5,0,0,0,1,7,0,0,3,0,0,12,2,2,7,0,7,0,3,0,12,0,0,0,0,0,0,0,0,0,0,0],"split_type":[0,0,0,0,0,0,0,0,0,0,0,0,0,0,0,0,0,0,0,0,0,0,0,0,0,0,0,0,0,0,0,0,0,0,0,0,0,0,0],"sum_hessian":[1.3E2,2.4E1,1.06E2,1.7E1,7E0,9.3E1,1.3E1,1.6E1,1E0,4E0,3E0,3.9E1,5.4E1,1E0,1.2E1,1.4E1,2E0,1E0,3.8E1,1.6E1,3.8E1,1.3E1,1E0,3.6E1,2E0,9E0,7E0,9E0,2.9E1,1.1E1,2E0,3.1E1,5E0,8E0,1E0,2E0,5E0,7E0,2E0],"tree_param":{"num_deleted":"0","num_feature":"18","num_nodes":"39","size_leaf_vector":"1"}},{"base_weights":[1.3785326E-1,2.654057E0,-8.482466E-1,1.6918914E0,4.6869884E0,-9.8432773E-1,2.8837848E-1,3.438761E0,8.6732054E-1,4.9570026E0,4.9671125E-2,-6.802515E-1,-2.6081579E0,2.0591167E-1,4.6678163E-2,5.057312E-1,1.3136098E-1,5.238905E0,6.0497094E-2,9.87602E-2,-1.0495732E0,-2.4744605E-1,-1.0237064E-1,5.9394306E-1,1.7523423E-1,2.7856705E-1,6.448545E-2,-8.049905E-2,7.499571E-2,-3.8742796E-1,-1.2773323E0,7.649326E-3,3.3010457E-2,1.4633815E-3,1.31394705E-2,1.05473045E-2,-3.448788E-2,1.0464954E-2,-3.117234E-2,-6.833881E-2,-2.7879748E-2],"categories":[],"categories_nodes":[],"categories_segments":[],"categories_sizes":[],"default_left":[0,0,0,0,0,0,0,0,0,0,0,0,0,0,0,0,0,0,0,0,0,0,0,0,0,0,0,0,0,0,0,0,0,0,0,0,0,0,0,0,0],"id":25,"left_children":[1,3,5,7,9,11,-1,13,15,17,-1,19,21,-1,-1,23,-1,25,-1,27,29,-1,-1,31,33,-1,-1,35,-1,37,39,-1,-1,-1,-1,-1,-1,-1,-1,-1,-1],"loss_changes":[3.1736728E2,6.2486725E1,8.850368E1,3.4468353E1,6.0460815E0,4.3158707E1,0E0,9.773071E0,1.0762186E1,4.224289E0,0E0,2.254472E1,8.243515E0,0E0,0E0,3.9153528E-1,0E0,4.630295E0,0E0,6.651157E0,7.4980392E0,0E0,0E0,2.7886295E-1,5.6209445E-2,0E0,0E0,4.407072E0,0E0,2.2430696E0,1.748558E0,0E0,0E0,0E0,0E0,0E0,0E0,0E0,0E0,0E0,0E0],"parents":[2147483647,0,0,1,1,2,2,3,3,4,4,5,5,7,7,8,8,9,9,11,11,12,12,15,15,17,17,19,19,20,20,23,23,24,24,27,27,29,29,30,30],"right_children":[2,4,6,8,10,12,-1,14,16,18,-1,20,22,-1,-1,24,-1,26,-1,28,30,-1,-1,32,34,-1,-1,36,-1,38,40,-1,-1,-1,-1,-1,-1,-1,-1,-1,-1],"split_conditions":[8.046962E-1,2.2972775E-1,8.075326E-2,-4.3160206E-1,8.129934E-1,8.118977E-1,2.8837848E-1,1.3643795E-1,3.125884E-1,3.8315615E-1,4.9671125E-2,9.2100567E-1,-1.4262682E-1,2.0591167E-1,4.6678163E-2,7.8558946E-1,1.3136098E-1,3.5050032E-1,6.0497094E-2,7.9223734E-1,-2.7086053E-3,-2.4744605E-1,-1.0237064E-1,-6.494996E-1,7.940131E-1,2.7856705E-1,6.448545E-2,3.9732035E-2,7.499571E-2,1.2776203E-2,3.553276E0,7.649326E-3,3.3010457E-2,1.4633815E-3,1.31394705E-2,1.05473045E-2,-3.448788E-2,1.0464954E-2,-3.117234E-2,-6.833881E-2,-2.7879748E-2],"split_indices":[13,5,3,13,8,12,0,1,6,3,0,13,0,0,0,13,0,4,0,12,3,0,0,8,13,0,0,3,0,0,15,0,0,0,0,0,0,0,0,0,0],"split_type":[0,0,0,0,0,0,0,0,0,0,0,0,0,0,0,0,0,0,0,0,0,0,0,0,0,0,0,0,0,0,0,0,0,0,0,0,0,0,0,0,0],"sum_hessian":[1.26E2,3.5E1,9.1E1,2.5E1,1E1,9E1,1E0,7E0,1.8E1,9E0,1E0,7.7E1,1.3E1,5E0,2E0,1.6E1,2E0,8E0,1E0,2.5E1,5.2E1,1E0,1.2E1,1.2E1,4E0,7E0,1E0,2.3E1,2E0,1.4E1,3.8E1,2E0,1E1,2E0,2E0,1.6E1,7E0,4E0,1E1,3.3E1,5E0],"tree_param":{"num_deleted":"0","num_feature":"18","num_nodes":"41","size_leaf_vector":"1"}},{"base_weights":[8.036978E-2,2.5071054E0,-7.7106714E-1,1.1421179E0,3.971334E0,-8.962529E-1,2.8116903E-1,2.2347002E0,5.9228843E-1,2.351515E0,4.493841E0,-6.3073504E-1,-2.5429637E0,2.1412373E-2,1.2551706E-1,7.869956E-1,2.0151298E-1,1.6098712E-1,2.0502027E-2,4.749508E0,4.8429348E-2,1.0940678E-1,-9.286152E-1,-2.4125989E-1,-9.75339E-2,1.3483017E-2,8.9628273E-1,1.405251E-2,2.8292337E-2,5.015077E0,5.8984663E-2,3.2711297E-1,-5.5766452E-2,-3.1367525E-1,-1.2059368E0,4.8293352E-2,1.1969424E-2,2.1299839E-3,-8.058548E-6,6.287332E-2,2.6637977E-1,7.116833E-3,7.249587E-2,-2.8610636E-2,3.2947063E-3,-2.2799807E-2,-6.373437E-2],"categories":[],"categories_nodes":[],"categories_segments":[],"categories_sizes":[],"default_left":[0,0,0,0,0,0,0,0,0,0,0,0,0,0,0,0,0,0,0,0,0,0,0,0,0,0,0,0,0,0,0,0,0,0,0,0,0,0,0,0,0,0,0,0,0,0,0],"id":26,"left_children":[1,3,5,7,9,11,-1,13,15,17,19,21,23,-1,-1,25,27,-1,-1,29,-1,31,33,-1,-1,-1,35,-1,37,39,-1,41,-1,43,45,-1,-1,-1,-1,-1,-1,-1,-1,-1,-1,-1,-1],"loss_changes":[2.7054074E2,6.3418503E1,8.268785E1,1.0090357E1,2.974533E0,4.0370247E1,0E0,1.91255E0,9.066248E-1,8.793617E0,5.3138885E0,1.8621384E1,8.160149E0,0E0,0E0,2.6715136E-1,7.471338E-2,0E0,0E0,3.5640717E0,0E0,7.030653E0,9.853889E0,0E0,0E0,0E0,8.874941E-2,0E0,1.2281479E-3,3.8696136E0,0E0,4.357912E0,0E0,2.0003633E0,1.5326538E0,0E0,0E0,0E0,0E0,0E0,0E0,0E0,0E0,0E0,0E0,0E0,0E0],"parents":[2147483647,0,0,1,1,2,2,3,3,4,4,5,5,7,7,8,8,9,9,10,10,11,11,12,12,15,15,16,16,19,19,21,21,22,22,26,26,28,28,29,29,31,31,33,33,34,34],"right_children":[2,4,6,8,10,12,-1,14,16,18,20,22,24,-1,-1,26,28,-1,-1,30,-1,32,34,-1,-1,-1,36,-1,38,40,-1,42,-1,44,46,-1,-1,-1,-1,-1,-1,-1,-1,-1,-1,-1,-1],"split_conditions":[8.046962E-1,-1.2542393E-2,4.2938802E-1,-4.9785832E-1,2.2972775E-1,8.118977E-1,2.8116903E-1,-3.413009E-2,-8.913758E-2,-7.3159836E-2,8.129934E-1,9.099795E-1,-1.4262682E-1,2.1412373E-2,1.2551706E-1,-2.7993438E-1,-1.3490222E-1,1.6098712E-1,2.0502027E-2,3.8315615E-1,4.8429348E-2,6.2532775E-2,2.2769708E-2,-2.4125989E-1,-9.75339E-2,1.3483017E-2,-6.996162E-2,1.405251E-2,3.0032039E-2,-6.133526E-2,5.8984663E-2,7.9223734E-1,-5.5766452E-2,4.657236E-4,-1.8803643E-2,4.8293352E-2,1.1969424E-2,2.1299839E-3,-8.058548E-6,6.287332E-2,2.6637977E-1,7.116833E-3,7.249587E-2,-2.8610636E-2,3.2947063E-3,-2.2799807E-2,-6.373437E-2],"split_indices":[13,14,6,13,5,12,0,2,3,3,8,13,0,0,0,4,4,0,0,3,0,3,7,0,0,0,5,0,0,2,0,12,0,2,2,0,0,0,0,0,0,0,0,0,0,0,0],"split_type":[0,0,0,0,0,0,0,0,0,0,0,0,0,0,0,0,0,0,0,0,0,0,0,0,0,0,0,0,0,0,0,0,0,0,0,0,0,0,0,0,0,0,0,0,0,0,0],"sum_hessian":[1.29E2,3.3E1,9.6E1,1.8E1,1.5E1,9.5E1,1E0,5E0,1.3E1,5E0,1E1,8.3E1,1.2E1,1E0,4E0,8E0,5E0,3E0,2E0,9E0,1E0,2.4E1,5.9E1,1E0,1.1E1,2E0,6E0,3E0,2E0,8E0,1E0,2.1E1,3E0,1.9E1,4E1,5E0,1E0,1E0,1E0,1E0,7E0,1.9E1,2E0,1.1E1,8E0,4E0,3.6E1],"tree_param":{"num_deleted":"0","num_feature":"18","num_nodes":"47","size_leaf_vector":"1"}},{"base_weights":[3.922929E-2,2.2541673E0,-7.538983E-1,1.5476809E0,4.0446653E0,-8.785738E-1,2.741398E-1,3.1501074E0,6.6048527E-1,4.3141556E0,4.721861E-2,-6.053773E-1,-2.396455E0,1.8421832E-1,4.2673398E-2,3.3821318E-1,8.844816E-1,5.7510044E-2,4.601835E0,8.66269E-2,-9.529837E-1,-2.352284E-1,-9.28509E-2,1.6639774E-1,2.5569154E-2,1.0240625E0,2.0954728E-2,6.130147E-2,2.4800654E-1,-6.843101E-2,7.007933E-2,-3.6662155E-1,-1.169107E0,3.349495E-3,9.967709E-3,2.575233E-2,6.3853145E-2,7.129047E-3,-3.3077322E-2,2.117032E-3,-3.447039E-2,-6.1991114E-2,-2.2013951E-2],"categories":[],"categories_nodes":[],"categories_segments":[],"categories_sizes":[],"default_left":[0,0,0,0,0,0,0,0,0,0,0,0,0,0,0,0,0,0,0,0,0,0,0,0,0,0,0,0,0,0,0,0,0,0,0,0,0,0,0,0,0,0,0],"id":27,"left_children":[1,3,5,7,9,11,-1,13,15,17,-1,19,21,-1,-1,23,25,-1,27,29,31,-1,-1,33,-1,35,-1,-1,-1,37,-1,39,41,-1,-1,-1,-1,-1,-1,-1,-1,-1,-1],"loss_changes":[2.2656067E2,3.6748886E1,7.868547E1,3.488271E1,3.4453125E0,3.7529144E1,0E0,7.898514E0,1.0002375E0,1.9886017E0,0E0,1.9566702E1,8.694672E0,0E0,0E0,1.8268645E-1,2.2041321E-1,0E0,2.3855133E0,5.8049693E0,6.414612E0,0E0,0E0,6.3020587E-3,0E0,2.4372149E-1,0E0,0E0,0E0,3.3483393E0,0E0,2.1413078E0,1.4641571E0,0E0,0E0,0E0,0E0,0E0,0E0,0E0,0E0,0E0,0E0],"parents":[2147483647,0,0,1,1,2,2,3,3,4,4,5,5,7,7,8,8,9,9,11,11,12,12,15,15,16,16,18,18,19,19,20,20,23,23,25,25,29,29,31,31,32,32],"right_children":[2,4,6,8,10,12,-1,14,16,18,-1,20,22,-1,-1,24,26,-1,28,30,32,-1,-1,34,-1,36,-1,-1,-1,38,-1,40,42,-1,-1,-1,-1,-1,-1,-1,-1,-1,-1],"split_conditions":[8.0282605E-1,2.2972775E-1,4.2938802E-1,-4.3160206E-1,8.129934E-1,8.118977E-1,2.741398E-1,1.3643795E-1,-1.12859644E-1,-3.6254816E-2,4.721861E-2,9.2100567E-1,-1.4262682E-1,1.8421832E-1,4.2673398E-2,1.861669E-1,6.631301E-1,5.7510044E-2,-6.133526E-2,7.5520027E-1,2.28311E-2,-2.352284E-1,-9.28509E-2,5.015877E-2,2.5569154E-2,1.17706265E-2,2.0954728E-2,6.130147E-2,2.4800654E-1,7.245797E-2,7.007933E-2,2.2231445E-2,3.553276E0,3.349495E-3,9.967709E-3,2.575233E-2,6.3853145E-2,7.129047E-3,-3.3077322E-2,2.117032E-3,-3.447039E-2,-6.1991114E-2,-2.2013951E-2],"split_indices":[13,5,6,13,8,12,0,1,6,7,0,13,0,0,0,1,13,0,2,12,5,0,0,1,0,1,0,0,0,7,0,0,15,0,0,0,0,0,0,0,0,0,0],"split_type":[0,0,0,0,0,0,0,0,0,0,0,0,0,0,0,0,0,0,0,0,0,0,0,0,0,0,0,0,0,0,0,0,0,0,0,0,0,0,0,0,0,0,0],"sum_hessian":[1.27E2,3.3E1,9.4E1,2.5E1,8E0,9.3E1,1E0,8E0,1.7E1,7E0,1E0,8E1,1.3E1,6E0,2E0,8E0,9E0,1E0,6E0,2.7E1,5.3E1,1E0,1.2E1,5E0,3E0,6E0,3E0,1E0,5E0,2.5E1,2E0,1.5E1,3.8E1,2E0,3E0,3E0,3E0,1.9E1,6E0,7E0,8E0,3.4E1,4E0],"tree_param":{"num_deleted":"0","num_feature":"18","num_nodes":"43","size_leaf_vector":"1"}},{"base_weights":[6.4232804E-2,3.0878775E0,-5.802863E-1,3.337148E-1,3.3342876E0,-7.34972E-1,2.5393522E-1,5.218363E-3,1.9810248E-2,1.6660519E0,3.8905118E0,5.545257E-2,-1.2545546E0,3.513074E-2,1.106488E-1,4.1634917E0,7.0538044E-2,-2.597156E-1,3.408038E-1,-1.1288506E0,-2.2934769E-1,4.7441716E0,2.2855701E0,1.896712E-2,-4.831301E-1,1.3743195E-1,5.501702E-1,-1.3662531E0,-6.0354075E-3,2.5284156E-1,5.6072284E-2,1.4699317E-2,1.3549848E-1,-1.1178118E-2,-3.3008795E-2,9.59529E-3,-5.4058074E-3,3.644648E-2,1.3985793E-2,-3.930707E-2,-7.6031655E-2,-2.0685125E-2,6.774333E-2],"categories":[],"categories_nodes":[],"categories_segments":[],"categories_sizes":[],"default_left":[0,0,0,0,0,0,0,0,0,0,0,0,0,0,0,0,0,0,0,0,0,0,0,0,0,0,0,0,0,0,0,0,0,0,0,0,0,0,0,0,0,0,0],"id":28,"left_children":[1,3,5,7,9,11,-1,-1,-1,13,15,17,19,-1,-1,21,-1,23,25,27,-1,29,31,-1,33,35,37,39,41,-1,-1,-1,-1,-1,-1,-1,-1,-1,-1,-1,-1,-1,-1],"loss_changes":[2.5513545E2,1.4496323E1,9.8272125E1,1.6450584E-3,1.3004395E1,4.3602802E1,0E0,0E0,0E0,2.1336193E0,4.2801514E0,3.9556575E0,2.1631355E1,0E0,0E0,3.3329926E0,0E0,3.1815434E0,9.037113E-1,1.678498E1,0E0,4.523178E0,3.4294415E0,0E0,5.8769536E-1,1.9463547E-1,3.2791567E-1,3.461563E0,7.2180514E0,0E0,0E0,0E0,0E0,0E0,0E0,0E0,0E0,0E0,0E0,0E0,0E0,0E0,0E0],"parents":[2147483647,0,0,1,1,2,2,3,3,4,4,5,5,9,9,10,10,11,11,12,12,15,15,17,17,18,18,19,19,21,21,22,22,24,24,25,25,26,26,27,27,28,28],"right_children":[2,4,6,8,10,12,-1,-1,-1,14,16,18,20,-1,-1,22,-1,24,26,28,-1,30,32,-1,34,36,38,40,42,-1,-1,-1,-1,-1,-1,-1,-1,-1,-1,-1,-1,-1,-1],"split_conditions":[9.285714E-1,2.0447768E-1,4.2938802E-1,-9.936787E-2,-1.6842735E-1,1.845666E-1,2.5393522E-1,5.218363E-3,1.9810248E-2,-3.1394342E-1,3.90847E-1,4.657236E-4,4.0058076E-1,3.513074E-2,1.106488E-1,2.0034865E-1,7.0538044E-2,3.4502602E-1,5.7206225E-2,2.3118715E-1,-2.2934769E-1,3.8315615E-1,-2.956504E-1,1.896712E-2,9.1988635E-1,9.290692E-2,-1.0202324E-1,-4.361404E-3,7.9223734E-1,2.5284156E-1,5.6072284E-2,1.4699317E-2,1.3549848E-1,-1.1178118E-2,-3.3008795E-2,9.59529E-3,-5.4058074E-3,3.644648E-2,1.3985793E-2,-3.930707E-2,-7.6031655E-2,-2.0685125E-2,6.774333E-2],"split_indices":[17,16,6,0,3,9,0,0,0,5,5,2,6,0,0,4,0,12,2,7,0,3,0,0,13,10,0,2,12,0,0,0,0,0,0,0,0,0,0,0,0,0,0],"split_type":[0,0,0,0,0,0,0,0,0,0,0,0,0,0,0,0,0,0,0,0,0,0,0,0,0,0,0,0,0,0,0,0,0,0,0,0,0,0,0,0,0,0,0],"sum_hessian":[1.29E2,2.2E1,1.07E2,2E0,2E1,1.05E2,2E0,1E0,1E0,6E0,1.4E1,4.2E1,6.3E1,3E0,3E0,1.2E1,2E0,2E1,2.2E1,6.2E1,1E0,8E0,4E0,5E0,1.5E1,1.2E1,1E1,5.1E1,1.1E1,7E0,1E0,1E0,3E0,7E0,8E0,1E1,2E0,5E0,5E0,1.2E1,3.9E1,9E0,2E0],"tree_param":{"num_deleted":"0","num_feature":"18","num_nodes":"43","size_leaf_vector":"1"}},{"base_weights":[2.1200581E-1,2.7504897E0,-5.080907E-1,3.4566393E0,1.1337564E0,-6.704043E-1,2.4547072E-1,3.6059377E0,1.9231653E-2,1.3944641E-1,6.399676E-1,-4.4062367E-1,-2.2612987E0,3.8009796E0,6.818679E-2,7.6987374E-1,6.1765355E-3,2.3244625E-1,-7.871408E-1,-2.23614E-1,-8.268648E-2,4.0086665E0,1.5647806E0,1.290458E-2,4.6148416E-2,-3.941938E-1,3.73542E-1,-2.7309272E-1,-1.0173913E0,2.0744042E-1,5.467048E-2,1.4331818E-2,1.03026725E-1,-4.209255E-2,1.670402E-2,3.9697718E-2,9.949659E-3,1.4899175E-4,-3.265325E-2,-3.8113665E-2,-6.2290855E-2],"categories":[],"categories_nodes":[],"categories_segments":[],"categories_sizes":[],"default_left":[0,0,0,0,0,0,0,0,0,0,0,0,0,0,0,0,0,0,0,0,0,0,0,0,0,0,0,0,0,0,0,0,0,0,0,0,0,0,0,0,0],"id":29,"left_children":[1,3,5,7,9,11,-1,13,-1,-1,15,17,19,21,-1,23,-1,25,27,-1,-1,29,31,-1,-1,33,35,37,39,-1,-1,-1,-1,-1,-1,-1,-1,-1,-1,-1,-1],"loss_changes":[2.3171962E2,2.8047363E1,9.034547E1,7.327301E0,6.3882294E0,3.4462624E1,0E0,2.6882782E0,0E0,0E0,5.08692E-1,2.0240768E1,8.723957E0,1.1582031E0,0E0,3.1024742E-1,0E0,2.7997355E0,6.468666E0,0E0,0E0,1.1833496E0,1.3103113E0,0E0,0E0,2.237349E0,1.6765707E0,1.9950444E0,1.3230934E0,0E0,0E0,0E0,0E0,0E0,0E0,0E0,0E0,0E0,0E0,0E0,0E0],"parents":[2147483647,0,0,1,1,2,2,3,3,4,4,5,5,7,7,10,10,11,11,12,12,13,13,15,15,17,17,18,18,21,21,22,22,25,25,26,26,27,27,28,28],"right_children":[2,4,6,8,10,12,-1,14,-1,-1,16,18,20,22,-1,24,-1,26,28,-1,-1,30,32,-1,-1,34,36,38,40,-1,-1,-1,-1,-1,-1,-1,-1,-1,-1,-1,-1],"split_conditions":[9.285714E-1,1.3643795E-1,4.2938802E-1,4.899199E-1,-2.9781437E-1,8.118977E-1,2.4547072E-1,3.90847E-1,1.9231653E-2,1.3944641E-1,-1.0160159E-1,9.099795E-1,-1.4262682E-1,7.021856E-1,6.818679E-2,-1.5945072E-1,6.1765355E-3,-1.2818213E-1,3.5553377E-3,-2.23614E-1,-8.268648E-2,2.861053E-1,-2.956504E-1,1.290458E-2,4.6148416E-2,-6.0642213E-2,-1.0202324E-1,9.576452E-1,9.6890616E-1,2.0744042E-1,5.467048E-2,1.4331818E-2,1.03026725E-1,-4.209255E-2,1.670402E-2,3.9697718E-2,9.949659E-3,1.4899175E-4,-3.265325E-2,-3.8113665E-2,-6.2290855E-2],"split_indices":[17,1,6,0,0,12,0,5,0,0,3,13,0,7,0,2,0,0,3,0,0,3,0,0,0,1,0,13,13,0,0,0,0,0,0,0,0,0,0,0,0],"split_type":[0,0,0,0,0,0,0,0,0,0,0,0,0,0,0,0,0,0,0,0,0,0,0,0,0,0,0,0,0,0,0,0,0,0,0,0,0,0,0,0,0],"sum_hessian":[1.25E2,2.7E1,9.8E1,1.8E1,9E0,9.6E1,2E0,1.7E1,1E0,1E0,8E0,8.5E1,1.1E1,1.5E1,2E0,6E0,2E0,2.9E1,5.6E1,1E0,1E1,1.3E1,2E0,2E0,4E0,5E0,2.4E1,1.8E1,3.8E1,1.2E1,1E0,1E0,1E0,3E0,2E0,6E0,1.8E1,1.1E1,7E0,2E1,1.8E1],"tree_param":{"num_deleted":"0","num_feature":"18","num_nodes":"41","size_leaf_vector":"1"}},{"base_weights":[1.6894615E-1,-2.5951004E-1,3.7483907E0,1.6996685E0,-6.6571754E-1,1.4743179E0,4.9853964E0,2.7120993E0,7.1680087E-1,-8.0675244E-2,-1.0836596E0,1.1288897E-2,1.0210717E-1,3.3812705E-1,1.2833008E-1,1.5826137E-1,3.7538372E-2,4.7136265E-1,6.0709096E-2,-2.7113277E-1,2.4213232E-1,-7.06906E-1,-1.3948002E0,5.970669E-3,5.5486053E-1,1.4835811E-2,-3.6205384E-1,-7.8145504E-2,3.287139E-1,-9.5038426E-1,-3.9032128E-1,-1.0647488E-2,-7.153427E-2,2.9645635E-2,8.163691E-3,-2.0514673E-2,4.011409E-3,-7.731533E-3,-5.53449E-5,6.344128E-3,1.9094648E-2,1.1688638E-2,-5.297279E-2,-2.434299E-2,4.6880087E-3],"categories":[],"categories_nodes":[],"categories_segments":[],"categories_sizes":[],"default_left":[0,0,0,0,0,0,0,0,0,0,0,0,0,0,0,0,0,0,0,0,0,0,0,0,0,0,0,0,0,0,0,0,0,0,0,0,0,0,0,0,0,0,0,0,0],"id":30,"left_children":[1,3,5,7,9,11,13,15,17,19,21,-1,-1,-1,-1,-1,-1,23,-1,25,27,29,31,-1,33,-1,35,37,39,41,43,-1,-1,-1,-1,-1,-1,-1,-1,-1,-1,-1,-1,-1,-1],"loss_changes":[1.865426E2,8.787731E1,2.9219467E1,1.696259E1,2.2163334E1,3.7926464E0,1.7031631E1,5.6222687E0,7.7051973E-1,2.463414E0,5.226845E0,0E0,0E0,0E0,0E0,0E0,0E0,1.9822562E-1,0E0,1.3981631E0,4.4164002E-1,1.6331635E0,8.828392E-1,0E0,7.4977875E-3,0E0,5.0229836E-1,2.339808E-2,8.034289E-2,2.0558815E0,6.5317047E-1,0E0,0E0,0E0,0E0,0E0,0E0,0E0,0E0,0E0,0E0,0E0,0E0,0E0,0E0],"parents":[2147483647,0,0,1,1,2,2,3,3,4,4,5,5,6,6,7,7,8,8,9,9,10,10,17,17,19,19,20,20,21,21,22,22,24,24,26,26,27,27,28,28,29,29,30,30],"right_children":[2,4,6,8,10,12,14,16,18,20,22,-1,-1,-1,-1,-1,-1,24,-1,26,28,30,32,-1,34,-1,36,38,40,42,44,-1,-1,-1,-1,-1,-1,-1,-1,-1,-1,-1,-1,-1,-1],"split_conditions":[2.2972775E-1,7.043496E-1,6.2532775E-2,-4.3160206E-1,6.89597E-2,8.73122E-1,3.3441556E-1,1.3643795E-1,2.7949998E-1,2.9046813E-2,9.697807E-1,1.1288897E-2,1.0210717E-1,3.3812705E-1,1.2833008E-1,1.5826137E-1,3.7538372E-2,-6.494996E-1,6.0709096E-2,3.4502602E-1,-1.0305508E-2,-3.908593E-2,-2.5975687E-2,5.970669E-3,5.699161E-1,1.4835811E-2,8.998169E-3,-1.0830084E-1,-1.8789527E-1,-1.4683625E-1,1.8693548E-2,-1.0647488E-2,-7.153427E-2,2.9645635E-2,8.163691E-3,-2.0514673E-2,4.011409E-3,-7.731533E-3,-5.53449E-5,6.344128E-3,1.9094648E-2,1.1688638E-2,-5.297279E-2,-2.434299E-2,4.6880087E-3],"split_indices":[5,13,3,13,7,16,5,1,12,2,13,0,0,0,0,0,0,8,0,12,1,0,1,0,0,0,6,0,8,0,3,0,0,0,0,0,0,0,0,0,0,0,0,0,0],"split_type":[0,0,0,0,0,0,0,0,0,0,0,0,0,0,0,0,0,0,0,0,0,0,0,0,0,0,0,0,0,0,0,0,0,0,0,0,0,0,0,0,0,0,0,0,0],"sum_hessian":[1.2E2,1.08E2,1.2E1,1.8E1,9E1,5E0,7E0,8E0,1E1,3.8E1,5.2E1,2E0,3E0,3E0,4E0,6E0,2E0,8E0,2E0,2.4E1,1.4E1,2.5E1,2.7E1,2E0,6E0,3E0,2.1E1,3E0,1.1E1,1.3E1,1.2E1,1E0,2.6E1,5E0,1E0,1.9E1,2E0,1E0,2E0,3E0,8E0,1E0,1.2E1,1E1,2E0],"tree_param":{"num_deleted":"0","num_feature":"18","num_nodes":"45","size_leaf_vector":"1"}},{"base_weights":[9.3286656E-2,2.5798337E0,-4.7787815E-1,1.3611374E0,3.440157E0,-6.1551E-1,2.295141E-1,1.0691601E-1,5.0053245E-1,3.7031503E0,6.207323E-2,-3.717344E-1,-2.0858843E0,3.5488036E-2,8.308554E-3,4.2793455E0,2.0406082E0,2.1970665E-1,-6.7099863E-1,-2.2647683E-1,-7.9389974E-2,4.6044207E0,5.0095465E-2,1.3232375E-2,1.2092183E-1,1.1283703E-1,6.075837E-2,-1.8197078E-1,-9.1703796E-1,2.507771E-1,5.344229E-2,-3.7581965E-3,2.7992874E-2,9.129974E-3,-1.6504854E-2,-1.713818E-2,-4.9363855E-2],"categories":[],"categories_nodes":[],"categories_segments":[],"categories_sizes":[],"default_left":[0,0,0,0,0,0,0,0,0,0,0,0,0,0,0,0,0,0,0,0,0,0,0,0,0,0,0,0,0,0,0,0,0,0,0,0,0],"id":31,"left_children":[1,3,5,7,9,11,-1,-1,13,15,-1,17,19,-1,-1,21,23,25,27,-1,-1,29,-1,-1,-1,31,-1,33,35,-1,-1,-1,-1,-1,-1,-1,-1],"loss_changes":[1.901232E2,2.1529297E1,7.885722E1,6.9558716E0,3.4980621E0,3.757783E1,0E0,0E0,3.717631E-1,2.762909E0,0E0,1.6608154E1,1.1065201E1,0E0,0E0,3.9101105E0,2.7150078E0,3.2671885E0,7.2929688E0,0E0,0E0,4.814026E0,0E0,0E0,0E0,2.5632894E0,0E0,1.2483293E0,1.3153915E0,0E0,0E0,0E0,0E0,0E0,0E0,0E0,0E0],"parents":[2147483647,0,0,1,1,2,2,3,3,4,4,5,5,8,8,9,9,11,11,12,12,15,15,16,16,17,17,18,18,21,21,25,25,27,27,28,28],"right_children":[2,4,6,8,10,12,-1,-1,14,16,-1,18,20,-1,-1,22,24,26,28,-1,-1,30,-1,-1,-1,32,-1,34,36,-1,-1,-1,-1,-1,-1,-1,-1],"split_conditions":[9.285714E-1,-1.8800284E-1,4.2938802E-1,-4.9785832E-1,3.90847E-1,8.118977E-1,2.295141E-1,1.0691601E-1,-3.1750947E-1,5.675605E-1,6.207323E-2,9.099795E-1,-1.4262682E-1,3.5488036E-2,8.308554E-3,3.8315615E-1,-2.956504E-1,7.9223734E-1,6.331862E-3,-2.2647683E-1,-7.9389974E-2,-7.899438E-2,5.0095465E-2,1.3232375E-2,1.2092183E-1,5.2327152E-2,6.075837E-2,1.299149E-2,-1.59797E-2,2.507771E-1,5.344229E-2,-3.7581965E-3,2.7992874E-2,9.129974E-3,-1.6504854E-2,-1.713818E-2,-4.9363855E-2],"split_indices":[17,14,6,13,5,12,0,0,3,7,0,13,0,0,0,3,0,12,7,0,0,0,0,0,0,2,0,0,2,0,0,0,0,0,0,0,0],"split_type":[0,0,0,0,0,0,0,0,0,0,0,0,0,0,0,0,0,0,0,0,0,0,0,0,0,0,0,0,0,0,0,0,0,0,0,0,0],"sum_hessian":[1.32E2,2.4E1,1.08E2,1.1E1,1.3E1,1.06E2,2E0,5E0,6E0,1.1E1,2E0,9.2E1,1.4E1,3E0,3E0,7E0,4E0,3.1E1,6.1E1,1E0,1.3E1,6E0,1E0,1E0,3E0,2.9E1,2E0,2.1E1,4E1,5E0,1E0,2.1E1,8E0,6E0,1.5E1,5E0,3.5E1],"tree_param":{"num_deleted":"0","num_feature":"18","num_nodes":"37","size_leaf_vector":"1"}},{"base_weights":[2.081077E-2,2.3219135E0,-4.976431E-1,1.8391727E0,2.1982549E-1,-6.2890095E-1,2.2186366E-1,6.804112E-1,2.2311826E0,-3.9773035E-1,-1.947722E0,1.081508E-2,4.1139737E-2,1.4853093E-1,1.1204193E0,1.043239E-1,-7.111489E-1,-2.2081493E-1,-7.4436516E-2,1.4389452E0,5.4947217E-3,9.599986E-3,5.8733083E-2,-2.3754269E-1,-9.017285E-1,8.1176095E-2,1.2901545E-2,-2.8346792E-2,1.0071153E-2,-2.4059271E-2,6.357944E-3,-2.7114747E-2,-5.000907E-2],"categories":[],"categories_nodes":[],"categories_segments":[],"categories_sizes":[],"default_left":[0,0,0,0,0,0,0,0,0,0,0,0,0,0,0,0,0,0,0,0,0,0,0,0,0,0,0,0,0,0,0,0,0],"id":32,"left_children":[1,3,5,7,-1,9,-1,11,13,15,17,-1,-1,-1,19,21,23,-1,-1,25,-1,27,-1,29,31,-1,-1,-1,-1,-1,-1,-1,-1],"loss_changes":[1.6221259E2,1.695137E1,7.469046E1,8.475288E0,0E0,3.2456455E1,0E0,2.8459907E-1,9.81308E0,1.4865383E1,1.1554218E1,0E0,0E0,0E0,2.416893E0,3.7400274E0,5.0208626E0,0E0,0E0,8.88896E-1,0E0,3.9849446E0,0E0,1.6606109E0,9.084854E-1,0E0,0E0,0E0,0E0,0E0,0E0,0E0,0E0],"parents":[2147483647,0,0,1,1,2,2,3,3,5,5,7,7,8,8,9,9,10,10,14,14,15,15,16,16,19,19,21,21,23,23,24,24],"right_children":[2,4,6,8,-1,10,-1,12,14,16,18,-1,-1,-1,20,22,24,-1,-1,26,-1,28,-1,30,32,-1,-1,-1,-1,-1,-1,-1,-1],"split_conditions":[9.285714E-1,1.5717909E-1,4.2938802E-1,-1.8700646E-1,2.1982549E-1,8.118977E-1,2.2186366E-1,-1.5945072E-1,-4.0518458E-4,9.2100567E-1,-1.4262682E-1,1.081508E-2,4.1139737E-2,1.4853093E-1,-1.1019211E-1,7.9223734E-1,6.331862E-3,-2.2081493E-1,-7.4436516E-2,5.726782E-1,5.4947217E-3,-4.8683207E-2,5.8733083E-2,4.657236E-4,-5.7042595E-3,8.1176095E-2,1.2901545E-2,-2.8346792E-2,1.0071153E-2,-2.4059271E-2,6.357944E-3,-2.7114747E-2,-5.000907E-2],"split_indices":[17,2,6,3,0,12,0,2,2,13,0,0,0,0,0,12,7,0,0,7,0,1,0,2,2,0,0,0,0,0,0,0,0],"split_type":[0,0,0,0,0,0,0,0,0,0,0,0,0,0,0,0,0,0,0,0,0,0,0,0,0,0,0,0,0,0,0,0,0],"sum_hessian":[1.34E2,2.4E1,1.1E2,2.1E1,3E0,1.08E2,2E0,6E0,1.5E1,9.3E1,1.5E1,2E0,4E0,8E0,7E0,3.6E1,5.7E1,1E0,1.4E1,5E0,2E0,3.4E1,2E0,1.7E1,4E1,4E0,1E0,8E0,2.6E1,1E1,7E0,1E1,3E1],"tree_param":{"num_deleted":"0","num_feature":"18","num_nodes":"33","size_leaf_vector":"1"}},{"base_weights":[2.8098533E-2,2.353082E0,-4.913453E-1,1.6234425E0,3.5182252E0,-5.883442E-1,2.350636E-1,2.261792E0,4.7959438E-1,4.12921E0,5.617568E-2,-3.5248134E-1,-1.9328502E0,1.4793631E-1,9.7311246E-1,1.0801735E-2,3.7949786E-2,4.5805426E0,4.6813678E-2,1.2818658E-1,-6.8771654E-1,-2.1529455E-1,-7.2789185E-2,1.2579012E-2,1.0906005E0,2.5278407E-1,6.6999726E-2,3.8182423E-2,5.6775313E-2,-2.6434729E-1,-8.0811864E-1,6.1977357E-2,1.6094018E-2,-2.7488125E-2,1.0240152E-2,-2.2399796E-2,5.954485E-3,-2.3432825E-2,-4.771029E-2],"categories":[],"categories_nodes":[],"categories_segments":[],"categories_sizes":[],"default_left":[0,0,0,0,0,0,0,0,0,0,0,0,0,0,0,0,0,0,0,0,0,0,0,0,0,0,0,0,0,0,0,0,0,0,0,0,0,0,0],"id":33,"left_children":[1,3,5,7,9,11,-1,13,15,17,-1,19,21,-1,23,-1,-1,25,-1,27,29,-1,-1,-1,31,-1,-1,33,-1,35,37,-1,-1,-1,-1,-1,-1,-1,-1],"loss_changes":[1.5211844E2,1.3841461E1,5.464483E1,1.0598057E1,7.0658417E0,3.1664856E1,0E0,6.1020775E0,3.515029E-1,4.3578186E0,0E0,1.4268196E1,1.0713032E1,0E0,1.4948273E-1,0E0,0E0,9.2396545E-1,0E0,3.3111734E0,2.4370518E0,0E0,0E0,0E0,5.9007645E-2,0E0,0E0,3.541324E0,0E0,9.687816E-1,1.5364475E0,0E0,0E0,0E0,0E0,0E0,0E0,0E0,0E0],"parents":[2147483647,0,0,1,1,2,2,3,3,4,4,5,5,7,7,8,8,9,9,11,11,12,12,14,14,17,17,19,19,20,20,24,24,27,27,29,29,30,30],"right_children":[2,4,6,8,10,12,-1,14,16,18,-1,20,22,-1,24,-1,-1,26,-1,28,30,-1,-1,-1,32,-1,-1,34,-1,36,38,-1,-1,-1,-1,-1,-1,-1,-1],"split_conditions":[9.285714E-1,2.2972775E-1,4.2938802E-1,1.3643795E-1,3.8205573E-1,8.118977E-1,2.350636E-1,-1.30685E-1,2.0730072E-1,3.8315615E-1,5.617568E-2,9.2100567E-1,-1.4262682E-1,1.4793631E-1,-2.956504E-1,1.0801735E-2,3.7949786E-2,2.0034865E-1,4.6813678E-2,7.9223734E-1,2.019242E0,-2.1529455E-1,-7.2789185E-2,1.2579012E-2,4.899199E-1,2.5278407E-1,6.6999726E-2,-4.8683207E-2,5.6775313E-2,-1.848792E-5,-4.361404E-3,6.1977357E-2,1.6094018E-2,-2.7488125E-2,1.0240152E-2,-2.2399796E-2,5.954485E-3,-2.3432825E-2,-4.771029E-2],"split_indices":[17,5,6,1,5,12,0,7,1,3,0,16,0,0,0,0,0,4,0,12,15,0,0,0,0,0,0,1,0,8,2,0,0,0,0,0,0,0,0],"split_type":[0,0,0,0,0,0,0,0,0,0,0,0,0,0,0,0,0,0,0,0,0,0,0,0,0,0,0,0,0,0,0,0,0,0,0,0,0,0,0],"sum_hessian":[1.24E2,2.2E1,1.02E2,1.5E1,7E0,1.01E2,1E0,9E0,6E0,5E0,2E0,8.7E1,1.4E1,5E0,4E0,4E0,2E0,4E0,1E0,3.6E1,5.1E1,1E0,1.3E1,1E0,3E0,3E0,1E0,3.4E1,2E0,1.2E1,3.9E1,2E0,1E0,7E0,2.7E1,8E0,4E0,1.3E1,2.6E1],"tree_param":{"num_deleted":"0","num_feature":"18","num_nodes":"39","size_leaf_vector":"1"}},{"base_weights":[4.7269136E-2,2.2849069E0,-4.9689767E-1,2.9564416E0,9.1480696E-1,-4.2237324E-1,-2.0991218E-1,2.3779235E0,2.1210723E-1,3.9847207E-1,9.933822E-2,-4.6442397E-2,-1.0670123E0,2.6594243E0,1.009315E0,3.149163E-2,2.163798E-1,-2.8176394E-1,4.5840102E-1,-5.7414687E-1,-1.1957337E0,1.4441933E-1,5.430317E-2,1.2264538E-2,5.911131E-2,3.258133E-3,1.1679535E-2,-3.2276955E-2,-7.2013646E-1,1.1410316E0,2.4331468E-1,-8.4528765E-3,-6.54287E-1,-6.0912248E-2,-1.357274E-2,4.066908E-2,-9.3842475E-3,-4.901653E-2,-3.986271E-3,6.4470984E-2,1.3686991E-2,7.5588427E-3,2.2631884E-2,-1.0402313E-2,-3.8417976E-2],"categories":[],"categories_nodes":[],"categories_segments":[],"categories_sizes":[],"default_left":[0,0,0,0,0,0,0,0,0,0,0,0,0,0,0,0,0,0,0,0,0,0,0,0,0,0,0,0,0,0,0,0,0,0,0,0,0,0,0,0,0,0,0,0,0],"id":34,"left_children":[1,3,5,7,9,11,-1,13,-1,15,-1,17,19,21,23,-1,25,27,29,31,33,-1,-1,-1,-1,-1,-1,35,37,39,41,-1,43,-1,-1,-1,-1,-1,-1,-1,-1,-1,-1,-1,-1],"loss_changes":[1.6186491E2,2.121724E1,2.774173E1,2.5571594E0,4.7432194E0,2.5638454E1,0E0,2.7095108E0,0E0,2.0074868E-1,0E0,8.207597E0,1.7877235E0,8.256607E-1,2.3844433E-1,0E0,3.941059E-4,5.117064E0,2.9525104E0,2.1402693E-1,2.935028E-1,0E0,0E0,0E0,0E0,0E0,0E0,4.226744E0,2.7545729E0,2.9051304E-1,2.7872992E-1,0E0,2.4737597E-1,0E0,0E0,0E0,0E0,0E0,0E0,0E0,0E0,0E0,0E0,0E0,0E0],"parents":[2147483647,0,0,1,1,2,2,3,3,4,4,5,5,7,7,9,9,11,11,12,12,13,13,14,14,16,16,17,17,18,18,19,19,20,20,27,27,28,28,29,29,30,30,32,32],"right_children":[2,4,6,8,10,12,-1,14,-1,16,-1,18,20,22,24,-1,26,28,30,32,34,-1,-1,-1,-1,-1,-1,36,38,40,42,-1,44,-1,-1,-1,-1,-1,-1,-1,-1,-1,-1,-1,-1],"split_conditions":[9.285714E-1,1.3643795E-1,6.997914E-1,4.5372043E-2,-2.1959281E-1,9.6786207E-1,-2.0991218E-1,1.3184199E-1,2.1210723E-1,-3.4100032E-1,9.933822E-2,1.0118277E-2,-4.361404E-3,3.90847E-1,1.801487E-2,3.149163E-2,1.618734E-1,-7.902463E-4,7.110152E-1,-2.5975687E-2,3.9510513E-3,1.4441933E-1,5.430317E-2,1.2264538E-2,5.911131E-2,3.258133E-3,1.1679535E-2,-7.192469E-2,-2.2193983E-2,-1.1599512E-1,6.8230554E-2,-8.4528765E-3,-2.5144476E-2,-6.0912248E-2,-1.357274E-2,4.066908E-2,-9.3842475E-3,-4.901653E-2,-3.986271E-3,6.4470984E-2,1.3686991E-2,7.5588427E-3,2.2631884E-2,-1.0402313E-2,-3.8417976E-2],"split_indices":[17,1,10,1,6,13,0,3,0,3,0,2,2,5,2,0,1,2,13,1,2,0,0,0,0,0,0,1,1,0,9,0,6,0,0,0,0,0,0,0,0,0,0,0,0],"split_type":[0,0,0,0,0,0,0,0,0,0,0,0,0,0,0,0,0,0,0,0,0,0,0,0,0,0,0,0,0,0,0,0,0,0,0,0,0,0,0,0,0,0,0,0,0],"sum_hessian":[1.31E2,2.5E1,1.06E2,1.6E1,9E0,1.05E2,1E0,1.3E1,3E0,7E0,2E0,6.7E1,3.8E1,1E1,3E0,2E0,5E0,4.6E1,2.1E1,9E0,2.9E1,8E0,2E0,1E0,2E0,1E0,4E0,3E1,1.6E1,4E0,1.7E1,2E0,7E0,2.8E1,1E0,4E0,2.6E1,1.1E1,5E0,3E0,1E0,1.3E1,4E0,2E0,5E0],"tree_param":{"num_deleted":"0","num_feature":"18","num_nodes":"45","size_leaf_vector":"1"}},{"base_weights":[1.3976194E-1,2.1909883E0,-3.9411184E-1,2.7955694E0,8.836435E-1,-5.248141E-1,2.0905678E-1,9.8687553E-1,3.0915165E0,4.7530958E-1,1.1396623E-1,-4.489551E-1,-2.0466438E-1,5.8865707E-2,1.0388995E-2,3.416829E0,1.7575257E0,9.986744E-3,6.558224E-1,1.1979978E-1,-8.086525E-1,9.253647E-2,4.0473533E0,1.0386639E-1,1.1957931E-2,6.240797E-3,3.78685E-2,2.1713921E-1,-4.6798024E-1,-2.9787704E-1,-9.949927E-1,2.2137375E-1,4.4165563E-2,6.306359E-3,4.4547535E-2,-4.702252E-2,1.5898673E-2,-2.0403799E-2,3.5127641E-3,-3.0320207E-2,-5.8453675E-2],"categories":[],"categories_nodes":[],"categories_segments":[],"categories_sizes":[],"default_left":[0,0,0,0,0,0,0,0,0,0,0,0,0,0,0,0,0,0,0,0,0,0,0,0,0,0,0,0,0,0,0,0,0,0,0,0,0,0,0,0,0],"id":35,"left_children":[1,3,5,7,9,11,-1,13,15,17,-1,19,-1,-1,-1,21,23,-1,25,27,29,-1,31,-1,-1,-1,-1,33,35,37,39,-1,-1,-1,-1,-1,-1,-1,-1,-1,-1],"loss_changes":[1.4322598E2,1.8870407E1,6.4385826E1,6.5840607E0,4.615654E0,2.5773792E1,0E0,3.488574E-1,5.0431824E-1,3.1671238E-1,0E0,2.075942E1,0E0,0E0,0E0,3.3715515E0,1.9310732E0,0E0,1.750803E-1,2.390184E0,5.6046486E0,0E0,4.508209E0,0E0,0E0,0E0,0E0,2.0340004E0,2.5270767E0,7.5888944E-1,2.3351288E0,0E0,0E0,0E0,0E0,0E0,0E0,0E0,0E0,0E0,0E0],"parents":[2147483647,0,0,1,1,2,2,3,3,4,4,5,5,7,7,8,8,9,9,11,11,15,15,16,16,18,18,19,19,20,20,22,22,27,27,28,28,29,29,30,30],"right_children":[2,4,6,8,10,12,-1,14,16,18,-1,20,-1,-1,-1,22,24,-1,26,28,30,-1,32,-1,-1,-1,-1,34,36,38,40,-1,-1,-1,-1,-1,-1,-1,-1,-1,-1],"split_conditions":[9.285714E-1,1.3643795E-1,4.2938802E-1,-6.133526E-2,1.5262447E-1,4.0058076E-1,2.0905678E-1,2.0703614E-2,5.675605E-1,2.0730072E-1,1.1396623E-1,9.2100567E-1,-2.0466438E-1,5.8865707E-2,1.0388995E-2,2.672034E-1,-8.419656E-2,9.986744E-3,-1.5945072E-1,6.2532775E-2,3.5553377E-3,9.253647E-2,2.861053E-1,1.0386639E-1,1.1957931E-2,6.240797E-3,3.78685E-2,3.3554083E-1,-5.6936514E-2,1.6766015E-2,9.6890616E-1,2.2137375E-1,4.4165563E-2,6.306359E-3,4.4547535E-2,-4.702252E-2,1.5898673E-2,-2.0403799E-2,3.5127641E-3,-3.0320207E-2,-5.8453675E-2],"split_indices":[17,1,6,2,3,6,0,1,7,1,0,13,0,0,0,16,1,0,2,3,3,0,3,0,0,0,0,6,1,2,13,0,0,0,0,0,0,0,0,0,0],"split_type":[0,0,0,0,0,0,0,0,0,0,0,0,0,0,0,0,0,0,0,0,0,0,0,0,0,0,0,0,0,0,0,0,0,0,0,0,0,0,0,0,0],"sum_hessian":[1.29E2,2.6E1,1.03E2,1.7E1,9E0,1.01E2,2E0,3E0,1.4E1,8E0,1E0,1E2,1E0,2E0,1E0,1E1,4E0,4E0,4E0,3.9E1,6.1E1,4E0,6E0,3E0,1E0,1E0,3E0,3.4E1,5E0,1.7E1,4.4E1,5E0,1E0,3.1E1,3E0,3E0,2E0,1.3E1,4E0,1.5E1,2.9E1],"tree_param":{"num_deleted":"0","num_feature":"18","num_nodes":"41","size_leaf_vector":"1"}},{"base_weights":[1.1937436E-1,2.2467935E0,-3.7880182E-1,2.7259893E0,8.877537E-1,-5.014961E-1,2.0208824E-1,2.887404E0,4.7822412E-2,1.1111708E-1,3.7962097E-1,-4.2956904E-1,-1.9954777E-1,2.199422E0,3.66747E0,2.9179607E-2,9.065704E-3,-8.5395664E-2,-9.781115E-1,2.372728E0,1.1659003E-2,2.3345183E-1,9.997139E-2,1.2632558E-1,-4.523497E-1,-5.3086334E-1,-1.1294518E0,1.3403623E-1,6.2027644E-2,1.7868346E-2,-7.6332624E-4,-3.32293E-2,2.4353266E-2,-7.325729E-3,-2.9654084E-2,-5.7580657E-2,-1.2723327E-2],"categories":[],"categories_nodes":[],"categories_segments":[],"categories_sizes":[],"default_left":[0,0,0,0,0,0,0,0,0,0,0,0,0,0,0,0,0,0,0,0,0,0,0,0,0,0,0,0,0,0,0,0,0,0,0,0,0],"id":36,"left_children":[1,3,5,7,9,11,-1,13,-1,-1,15,17,-1,19,21,-1,-1,23,25,27,-1,-1,-1,29,31,33,35,-1,-1,-1,-1,-1,-1,-1,-1,-1,-1],"loss_changes":[1.3968877E2,1.3861153E1,6.006139E1,2.3796844E0,4.5815344E0,2.46392E1,0E0,5.204315E-1,0E0,0E0,1.773287E-1,1.955102E1,0E0,3.1951065E0,6.8852997E-1,0E0,0E0,5.1071215E0,2.1078796E0,1.6147614E-1,0E0,0E0,0E0,1.3794283E0,5.108767E0,2.0006728E-1,2.692871E-1,0E0,0E0,0E0,0E0,0E0,0E0,0E0,0E0,0E0,0E0],"parents":[2147483647,0,0,1,1,2,2,3,3,4,4,5,5,7,7,10,10,11,11,13,13,14,14,17,17,18,18,19,19,23,23,24,24,25,25,26,26],"right_children":[2,4,6,8,10,12,-1,14,-1,-1,16,18,-1,20,22,-1,-1,24,26,28,-1,-1,-1,30,32,34,36,-1,-1,-1,-1,-1,-1,-1,-1,-1,-1],"split_conditions":[9.285714E-1,1.3643795E-1,4.2938802E-1,3.90847E-1,-2.9781437E-1,4.0058076E-1,2.0208824E-1,7.60584E-1,4.7822412E-2,1.1111708E-1,-3.4100032E-1,9.6676654E-1,-1.9954777E-1,5.5609626E-1,2.0034865E-1,2.9179607E-2,9.065704E-3,1.21756785E-1,-4.0312107E-3,-5.662208E-2,1.1659003E-2,2.3345183E-1,9.997139E-2,8.531637E-1,1.4326468E-1,-2.5975687E-2,3.9510513E-3,1.3403623E-1,6.2027644E-2,1.7868346E-2,-7.6332624E-4,-3.32293E-2,2.4353266E-2,-7.325729E-3,-2.9654084E-2,-5.7580657E-2,-1.2723327E-2],"split_indices":[17,1,6,5,0,6,0,14,0,0,3,13,0,7,4,0,0,7,2,7,0,0,0,13,4,1,2,0,0,0,0,0,0,0,0,0,0],"split_type":[0,0,0,0,0,0,0,0,0,0,0,0,0,0,0,0,0,0,0,0,0,0,0,0,0,0,0,0,0,0,0,0,0,0,0,0,0],"sum_hessian":[1.3E2,2.4E1,1.06E2,1.7E1,7E0,1.04E2,2E0,1.5E1,2E0,1E0,6E0,1.03E2,1E0,1E1,5E0,2E0,4E0,6.4E1,3.9E1,9E0,1E0,2E0,3E0,4.1E1,2.3E1,1.1E1,2.8E1,6E0,3E0,1.5E1,2.6E1,1.9E1,4E0,2E0,9E0,2.7E1,1E0],"tree_param":{"num_deleted":"0","num_feature":"18","num_nodes":"37","size_leaf_vector":"1"}},{"base_weights":[1.05656184E-1,2.1011686E0,-3.7130696E-1,1.1832663E0,2.9280508E0,-4.8779044E-1,1.9535199E-1,1.1510315E-1,5.055412E-1,3.2162237E0,4.4769954E-2,-4.189737E-1,-1.9455908E-1,7.6485635E-3,7.1509266E-1,3.4990573E0,6.478243E-2,-1.2038068E-1,-9.725559E-1,1.2251282E-2,4.4443488E-2,1.8644428E-1,4.1510772E-2,-1.6912463E-1,5.123046E-2,-7.854404E-1,-6.484632E-2,2.5391271E-3,-2.8720185E-2,-1.3319504E-2,-4.2078022E-2],"categories":[],"categories_nodes":[],"categories_segments":[],"categories_sizes":[],"default_left":[0,0,0,0,0,0,0,0,0,0,0,0,0,0,0,0,0,0,0,0,0,0,0,0,0,0,0,0,0,0,0],"id":37,"left_children":[1,3,5,7,9,11,-1,-1,13,15,-1,17,-1,-1,19,21,-1,23,25,-1,-1,-1,-1,27,-1,29,-1,-1,-1,-1,-1],"loss_changes":[1.2831949E2,1.6269257E1,5.6226696E1,9.451525E0,4.7350235E0,2.343019E1,0E0,0E0,6.2942696E-1,1.4416885E0,0E0,1.740427E1,0E0,0E0,2.7232528E-1,2.4245987E0,0E0,4.08008E0,1.227047E0,0E0,0E0,0E0,0E0,6.0895867E0,0E0,5.331745E-1,0E0,0E0,0E0,0E0,0E0],"parents":[2147483647,0,0,1,1,2,2,3,3,4,4,5,5,8,8,9,9,11,11,14,14,15,15,17,17,18,18,23,23,25,25],"right_children":[2,4,6,8,10,12,-1,-1,14,16,-1,18,-1,-1,20,22,-1,24,26,-1,-1,-1,-1,28,-1,30,-1,-1,-1,-1,-1],"split_conditions":[9.285714E-1,9.975838E-2,4.2938802E-1,-5.6794304E-1,8.129934E-1,4.0058076E-1,1.9535199E-1,1.1510315E-1,-3.388844E-1,5.248017E-1,4.4769954E-2,9.697807E-1,-1.9455908E-1,7.6485635E-3,-3.413009E-2,3.8315615E-1,6.478243E-2,7.9223734E-1,3.0714753E-1,1.2251282E-2,4.4443488E-2,1.8644428E-1,4.1510772E-2,1.21756785E-1,5.123046E-2,3.5553377E-3,-6.484632E-2,2.5391271E-3,-2.8720185E-2,-1.3319504E-2,-4.2078022E-2],"split_indices":[17,14,6,13,8,6,0,0,6,6,0,13,0,0,2,3,0,12,9,0,0,0,0,7,0,3,0,0,0,0,0],"split_type":[0,0,0,0,0,0,0,0,0,0,0,0,0,0,0,0,0,0,0,0,0,0,0,0,0,0,0,0,0,0,0],"sum_hessian":[1.33E2,2.5E1,1.08E2,1.3E1,1.2E1,1.06E2,2E0,4E0,9E0,1E1,2E0,1.05E2,1E0,4E0,5E0,8E0,2E0,6.9E1,3.6E1,2E0,3E0,7E0,1E0,6.7E1,2E0,2.5E1,1.1E1,4.4E1,2.3E1,3E0,2.2E1],"tree_param":{"num_deleted":"0","num_feature":"18","num_nodes":"31","size_leaf_vector":"1"}},{"base_weights":[1.5187682E-2,1.7333214E0,-5.403221E-1,1.1663998E0,2.8639092E0,-4.6840903E-1,-1.896951E-1,1.9289081E0,7.122457E-1,4.4198643E-2,3.2483966E0,-1.8052089E-1,-8.813338E-1,1.24771655E-1,7.385249E-1,4.0126148E-1,9.630451E-2,2.1945527E-1,1.0683214E-1,1.385297E-2,-4.8536056E-1,-7.035704E-1,-6.1874207E-2,4.290695E-2,9.492064E-3,2.4754184E-1,5.64964E-1,-2.275424E-1,1.8878356E-1,-9.25182E-1,7.8552075E-2,-7.546168E-1,-1.958766E-1,5.3001978E-3,1.697857E-2,8.425172E-3,3.605342E-2,6.7227366E-3,-1.7970635E-2,3.4217304E-4,1.4613025E-2,-1.646883E-2,-5.766935E-2,1.650405E-2,-3.5110936E-2,-1.4526948E-2,-4.1289415E-2,-2.119708E-3,-1.1645301E-2],"categories":[],"categories_nodes":[],"categories_segments":[],"categories_sizes":[],"default_left":[0,0,0,0,0,0,0,0,0,0,0,0,0,0,0,0,0,0,0,0,0,0,0,0,0,0,0,0,0,0,0,0,0,0,0,0,0,0,0,0,0,0,0,0,0,0,0,0,0],"id":38,"left_children":[1,3,5,7,9,11,-1,13,15,-1,17,19,21,-1,23,25,-1,-1,-1,27,29,31,-1,-1,-1,33,35,37,39,41,43,45,47,-1,-1,-1,-1,-1,-1,-1,-1,-1,-1,-1,-1,-1,-1,-1,-1],"loss_changes":[1.2501377E2,1.717009E1,2.1386421E1,6.5909576E0,4.7411194E0,1.1490761E1,0E0,3.5521164E0,5.266918E0,0E0,7.675476E-1,3.502643E0,1.6617603E0,0E0,9.961128E-2,2.1244788E-1,0E0,0E0,0E0,1.6053714E0,5.7771554E0,6.037512E-1,0E0,0E0,0E0,8.123511E-2,2.4983287E-1,8.1211126E-1,4.1218543E-1,1.3876572E0,2.3920398E0,6.188326E-1,1.2859628E-2,0E0,0E0,0E0,0E0,0E0,0E0,0E0,0E0,0E0,0E0,0E0,0E0,0E0,0E0,0E0,0E0],"parents":[2147483647,0,0,1,1,2,2,3,3,4,4,5,5,7,7,8,8,10,10,11,11,12,12,14,14,15,15,19,19,20,20,21,21,25,25,26,26,27,27,28,28,29,29,30,30,31,31,32,32],"right_children":[2,4,6,8,10,12,-1,14,16,-1,18,20,22,-1,24,26,-1,-1,-1,28,30,32,-1,-1,-1,34,36,38,40,42,44,46,48,-1,-1,-1,-1,-1,-1,-1,-1,-1,-1,-1,-1,-1,-1,-1,-1],"split_conditions":[8.046962E-1,7.084238E-1,4.0058076E-1,-4.3160206E-1,1.3947675E-1,9.6786207E-1,-1.896951E-1,-1.2069338E-1,3.125884E-1,4.4198643E-2,2.0034865E-1,1.21756785E-1,3.0714753E-1,1.24771655E-1,-9.559549E-2,1.861669E-1,9.630451E-2,2.1945527E-1,1.0683214E-1,-2.8804973E-2,6.9804764E-1,4.588561E-2,-6.1874207E-2,4.290695E-2,9.492064E-3,-1.6504274E-1,-1.5945072E-1,8.471821E-1,-1.0305508E-2,-2.9426543E-3,6.2532775E-2,3.0392903E-1,-3.1093843E-2,5.3001978E-3,1.697857E-2,8.425172E-3,3.605342E-2,6.7227366E-3,-1.7970635E-2,3.4217304E-4,1.4613025E-2,-1.646883E-2,-5.766935E-2,1.650405E-2,-3.5110936E-2,-1.4526948E-2,-4.1289415E-2,-2.119708E-3,-1.1645301E-2],"split_indices":[13,14,6,13,4,13,0,4,6,0,4,7,9,0,0,1,0,0,0,6,12,4,0,0,0,6,2,13,1,2,3,11,0,0,0,0,0,0,0,0,0,0,0,0,0,0,0,0,0],"split_type":[0,0,0,0,0,0,0,0,0,0,0,0,0,0,0,0,0,0,0,0,0,0,0,0,0,0,0,0,0,0,0,0,0,0,0,0,0,0,0,0,0,0,0,0,0,0,0,0,0],"sum_hessian":[1.29E2,3.1E1,9.8E1,2.2E1,9E0,9.7E1,1E0,7E0,1.5E1,2E0,7E0,5.8E1,3.9E1,4E0,3E0,1.3E1,2E0,2E0,5E0,3.6E1,2.2E1,2.8E1,1.1E1,2E0,1E0,8E0,5E0,1.5E1,2.1E1,1.2E1,1E1,2.5E1,3E0,4E0,4E0,2E0,3E0,4E0,1.1E1,8E0,1.3E1,4E0,8E0,8E0,2E0,4E0,2.1E1,1E0,2E0],"tree_param":{"num_deleted":"0","num_feature":"18","num_nodes":"49","size_leaf_vector":"1"}},{"base_weights":[1.0000969E-1,1.821758E0,-3.2324943E-1,1.1982164E0,2.8664236E0,-4.392088E-1,1.9022128E-1,1.7853994E0,4.126557E-1,3.3248813E0,4.2060725E-2,-3.7164667E-1,-1.8495272E-1,1.2001272E-1,6.904934E-1,1.7174987E-1,5.7103044E-1,3.616575E0,3.936801E-2,-9.614771E-2,-8.604787E-1,6.281948E-3,8.0029726E-1,3.6358517E-3,1.0676638E-2,3.296125E-2,5.4563046E-3,1.9727996E-1,4.9286366E-2,8.2718104E-2,-4.4192222E-1,-4.9883774E-1,-1.0355827E0,4.8121262E-2,7.847833E-3,-6.213586E-4,2.0848466E-2,-3.1196589E-2,4.8972607E-2,-2.9567325E-2,-5.986464E-3,-9.725237E-3,-5.318473E-2],"categories":[],"categories_nodes":[],"categories_segments":[],"categories_sizes":[],"default_left":[0,0,0,0,0,0,0,0,0,0,0,0,0,0,0,0,0,0,0,0,0,0,0,0,0,0,0,0,0,0,0,0,0,0,0,0,0,0,0,0,0,0,0],"id":39,"left_children":[1,3,5,7,9,11,-1,13,15,17,-1,19,-1,-1,21,23,25,27,-1,29,31,-1,33,-1,-1,-1,-1,-1,-1,35,37,39,41,-1,-1,-1,-1,-1,-1,-1,-1,-1,-1],"loss_changes":[9.605457E1,1.350161E1,5.2407055E1,7.566065E0,5.559326E0,2.153044E1,0E0,5.07473E0,2.4530613E-1,2.3337097E0,0E0,1.3788557E1,0E0,0E0,2.0956731E-1,5.161926E-3,1.3174868E-1,1.30439E0,0E0,4.18032E0,1.8264294E0,0E0,2.6615524E-1,0E0,0E0,0E0,0E0,0E0,0E0,1.4362909E0,6.5612984E0,4.2019033E-1,3.60569E-1,0E0,0E0,0E0,0E0,0E0,0E0,0E0,0E0,0E0,0E0],"parents":[2147483647,0,0,1,1,2,2,3,3,4,4,5,5,7,7,8,8,9,9,11,11,14,14,15,15,16,16,17,17,19,19,20,20,22,22,29,29,30,30,31,31,32,32],"right_children":[2,4,6,8,10,12,-1,14,16,18,-1,20,-1,-1,22,24,26,28,-1,30,32,-1,34,-1,-1,-1,-1,-1,-1,36,38,40,42,-1,-1,-1,-1,-1,-1,-1,-1,-1,-1],"split_conditions":[9.285714E-1,2.2972775E-1,4.2938802E-1,1.3643795E-1,3.90847E-1,4.0058076E-1,1.9022128E-1,-5.662208E-2,2.0730072E-1,3.8315615E-1,4.2060725E-2,9.6786207E-1,-1.8495272E-1,1.2001272E-1,-2.956504E-1,-2.9297307E-2,4.111609E-1,2.5745267E-1,3.936801E-2,1.21756785E-1,6.796989E-1,6.281948E-3,4.899199E-1,3.6358517E-3,1.0676638E-2,3.296125E-2,5.4563046E-3,1.9727996E-1,4.9286366E-2,5.7206225E-2,7.5520027E-1,3.0942914E-1,-1.9356282E-2,4.8121262E-2,7.847833E-3,-6.213586E-4,2.0848466E-2,-3.1196589E-2,4.8972607E-2,-2.9567325E-2,-5.986464E-3,-9.725237E-3,-5.318473E-2],"split_indices":[17,5,6,1,5,6,0,7,1,3,0,16,0,0,0,0,0,4,0,7,12,0,0,0,0,0,0,0,0,2,12,10,1,0,0,0,0,0,0,0,0,0,0],"split_type":[0,0,0,0,0,0,0,0,0,0,0,0,